<?xml version="1.0" encoding="utf-8"?>
<Root>
  <ActivationFunctions>
    <Fn id="0" name="PlainSigmoid" prob="1" />
  </ActivationFunctions>
  <Networks>
    <Network id="143455" birthGen="1788" fitness="0.75260124457232647">
      <Nodes>
        <Node type="bias" id="0" />
        <Node type="in" id="1" />
        <Node type="in" id="2" />
        <Node type="in" id="3" />
        <Node type="in" id="4" />
        <Node type="in" id="5" />
        <Node type="in" id="6" />
        <Node type="in" id="7" />
        <Node type="in" id="8" />
        <Node type="in" id="9" />
        <Node type="in" id="10" />
        <Node type="in" id="11" />
        <Node type="in" id="12" />
        <Node type="in" id="13" />
        <Node type="in" id="14" />
        <Node type="in" id="15" />
        <Node type="in" id="16" />
        <Node type="in" id="17" />
        <Node type="in" id="18" />
        <Node type="in" id="19" />
        <Node type="in" id="20" />
        <Node type="in" id="21" />
        <Node type="in" id="22" />
        <Node type="in" id="23" />
        <Node type="in" id="24" />
        <Node type="in" id="25" />
        <Node type="in" id="26" />
        <Node type="in" id="27" />
        <Node type="in" id="28" />
        <Node type="in" id="29" />
        <Node type="in" id="30" />
        <Node type="in" id="31" />
        <Node type="in" id="32" />
        <Node type="in" id="33" />
        <Node type="in" id="34" />
        <Node type="in" id="35" />
        <Node type="in" id="36" />
        <Node type="in" id="37" />
        <Node type="in" id="38" />
        <Node type="in" id="39" />
        <Node type="in" id="40" />
        <Node type="in" id="41" />
        <Node type="in" id="42" />
        <Node type="in" id="43" />
        <Node type="in" id="44" />
        <Node type="in" id="45" />
        <Node type="in" id="46" />
        <Node type="in" id="47" />
        <Node type="in" id="48" />
        <Node type="in" id="49" />
        <Node type="in" id="50" />
        <Node type="in" id="51" />
        <Node type="in" id="52" />
        <Node type="in" id="53" />
        <Node type="in" id="54" />
        <Node type="in" id="55" />
        <Node type="in" id="56" />
        <Node type="in" id="57" />
        <Node type="in" id="58" />
        <Node type="in" id="59" />
        <Node type="in" id="60" />
        <Node type="in" id="61" />
        <Node type="in" id="62" />
        <Node type="in" id="63" />
        <Node type="in" id="64" />
        <Node type="in" id="65" />
        <Node type="in" id="66" />
        <Node type="in" id="67" />
        <Node type="in" id="68" />
        <Node type="in" id="69" />
        <Node type="in" id="70" />
        <Node type="in" id="71" />
        <Node type="in" id="72" />
        <Node type="in" id="73" />
        <Node type="in" id="74" />
        <Node type="in" id="75" />
        <Node type="in" id="76" />
        <Node type="in" id="77" />
        <Node type="in" id="78" />
        <Node type="in" id="79" />
        <Node type="in" id="80" />
        <Node type="in" id="81" />
        <Node type="in" id="82" />
        <Node type="in" id="83" />
        <Node type="in" id="84" />
        <Node type="in" id="85" />
        <Node type="in" id="86" />
        <Node type="in" id="87" />
        <Node type="in" id="88" />
        <Node type="in" id="89" />
        <Node type="in" id="90" />
        <Node type="in" id="91" />
        <Node type="in" id="92" />
        <Node type="in" id="93" />
        <Node type="in" id="94" />
        <Node type="in" id="95" />
        <Node type="in" id="96" />
        <Node type="in" id="97" />
        <Node type="in" id="98" />
        <Node type="in" id="99" />
        <Node type="in" id="100" />
        <Node type="in" id="101" />
        <Node type="in" id="102" />
        <Node type="in" id="103" />
        <Node type="in" id="104" />
        <Node type="in" id="105" />
        <Node type="in" id="106" />
        <Node type="in" id="107" />
        <Node type="in" id="108" />
        <Node type="in" id="109" />
        <Node type="in" id="110" />
        <Node type="in" id="111" />
        <Node type="in" id="112" />
        <Node type="in" id="113" />
        <Node type="in" id="114" />
        <Node type="in" id="115" />
        <Node type="in" id="116" />
        <Node type="in" id="117" />
        <Node type="in" id="118" />
        <Node type="in" id="119" />
        <Node type="in" id="120" />
        <Node type="in" id="121" />
        <Node type="in" id="122" />
        <Node type="in" id="123" />
        <Node type="in" id="124" />
        <Node type="in" id="125" />
        <Node type="in" id="126" />
        <Node type="in" id="127" />
        <Node type="in" id="128" />
        <Node type="in" id="129" />
        <Node type="in" id="130" />
        <Node type="in" id="131" />
        <Node type="in" id="132" />
        <Node type="in" id="133" />
        <Node type="in" id="134" />
        <Node type="in" id="135" />
        <Node type="in" id="136" />
        <Node type="in" id="137" />
        <Node type="in" id="138" />
        <Node type="in" id="139" />
        <Node type="in" id="140" />
        <Node type="out" id="141" />
        <Node type="hid" id="319" />
        <Node type="hid" id="358" />
        <Node type="hid" id="434" />
        <Node type="hid" id="511" />
      </Nodes>
      <Connections>
        <Con id="142" src="0" tgt="141" wght="2.2591752853724025" />
        <Con id="149" src="7" tgt="141" wght="-0.83460437681319588" />
        <Con id="160" src="18" tgt="141" wght="-0.44848965202447633" />
        <Con id="164" src="22" tgt="141" wght="-0.11369134762753653" />
        <Con id="165" src="23" tgt="141" wght="3.6440329366643294" />
        <Con id="166" src="24" tgt="141" wght="1.6727373196671727" />
        <Con id="167" src="25" tgt="141" wght="2.6073988042886156" />
        <Con id="173" src="31" tgt="141" wght="-0.59823960981516233" />
        <Con id="175" src="33" tgt="141" wght="0.20966495043133151" />
        <Con id="182" src="40" tgt="141" wght="-0.67454337476905857" />
        <Con id="183" src="41" tgt="141" wght="-1.8331854641326646" />
        <Con id="184" src="42" tgt="141" wght="-0.62187465939750119" />
        <Con id="187" src="45" tgt="141" wght="-0.5422081610760674" />
        <Con id="188" src="46" tgt="141" wght="-0.080431174214601109" />
        <Con id="189" src="47" tgt="141" wght="-0.19529076538173887" />
        <Con id="190" src="48" tgt="141" wght="-0.0389320173447582" />
        <Con id="199" src="57" tgt="141" wght="-0.33275075400973214" />
        <Con id="203" src="61" tgt="141" wght="-1.0364243918799481" />
        <Con id="208" src="66" tgt="141" wght="0.023450923613225483" />
        <Con id="209" src="67" tgt="141" wght="-1.5660771457591636" />
        <Con id="212" src="70" tgt="141" wght="0.63631362099736088" />
        <Con id="218" src="76" tgt="141" wght="-0.1685126262715147" />
        <Con id="220" src="78" tgt="141" wght="0.037060380884106077" />
        <Con id="230" src="88" tgt="141" wght="-0.033744045281817847" />
        <Con id="233" src="91" tgt="141" wght="0.003643244887006911" />
        <Con id="238" src="96" tgt="141" wght="0.23288571873976094" />
        <Con id="245" src="103" tgt="141" wght="-0.055352224228373229" />
        <Con id="254" src="112" tgt="141" wght="0.27884814989664181" />
        <Con id="256" src="114" tgt="141" wght="-1.3900731929857455" />
        <Con id="270" src="128" tgt="141" wght="-0.086509556732697515" />
        <Con id="274" src="132" tgt="141" wght="-0.578716587595593" />
        <Con id="276" src="134" tgt="141" wght="-0.42971551953679188" />
        <Con id="277" src="135" tgt="141" wght="-1.3799980410880579" />
        <Con id="279" src="137" tgt="141" wght="-0.46333697289089809" />
        <Con id="280" src="138" tgt="141" wght="0.98324814673324323" />
        <Con id="282" src="140" tgt="141" wght="0.30635466551751023" />
        <Con id="288" src="102" tgt="141" wght="-0.65080784269941749" />
        <Con id="289" src="85" tgt="141" wght="1.7400676343061954" />
        <Con id="302" src="99" tgt="141" wght="1.8342543492656374" />
        <Con id="304" src="118" tgt="141" wght="0.28127919293716047" />
        <Con id="308" src="93" tgt="141" wght="-0.51070327198561039" />
        <Con id="312" src="16" tgt="141" wght="0.040039935237976873" />
        <Con id="316" src="98" tgt="141" wght="0.864170042246367" />
        <Con id="320" src="47" tgt="319" wght="0.057613335541764288" />
        <Con id="321" src="319" tgt="141" wght="5" />
        <Con id="322" src="43" tgt="141" wght="-0.2840094112432211" />
        <Con id="323" src="38" tgt="141" wght="-0.47987736916679191" />
        <Con id="335" src="113" tgt="141" wght="0.74202535328441321" />
        <Con id="338" src="27" tgt="141" wght="0.95446941242691086" />
        <Con id="346" src="14" tgt="141" wght="0.46557083051463871" />
        <Con id="347" src="131" tgt="141" wght="0.41823972178724872" />
        <Con id="359" src="96" tgt="358" wght="-0.19083450890898146" />
        <Con id="360" src="358" tgt="141" wght="4.7426537891108538" />
        <Con id="361" src="129" tgt="141" wght="-0.65260683125964014" />
        <Con id="362" src="8" tgt="141" wght="0.099293942015379333" />
        <Con id="363" src="10" tgt="141" wght="0.053797991747840439" />
        <Con id="369" src="69" tgt="141" wght="-0.87870556038322223" />
        <Con id="378" src="30" tgt="141" wght="-1.6715993609291251" />
        <Con id="379" src="65" tgt="141" wght="0.90730284309608733" />
        <Con id="391" src="87" tgt="141" wght="0.18230219282936186" />
        <Con id="393" src="124" tgt="141" wght="0.63910954240134832" />
        <Con id="404" src="53" tgt="141" wght="-1.4756875029968324" />
        <Con id="408" src="26" tgt="141" wght="3.93158897132669" />
        <Con id="417" src="3" tgt="141" wght="-0.68706868110983221" />
        <Con id="432" src="35" tgt="141" wght="0.8296062018359498" />
        <Con id="435" src="138" tgt="434" wght="0.10848428351718367" />
        <Con id="436" src="434" tgt="141" wght="4.44338851920999" />
        <Con id="440" src="117" tgt="141" wght="-0.54375445331724015" />
        <Con id="446" src="52" tgt="141" wght="1.430764514952898" />
        <Con id="447" src="77" tgt="319" wght="2.6470177419300125" />
        <Con id="475" src="9" tgt="141" wght="0.28468041950622786" />
        <Con id="483" src="95" tgt="319" wght="3.8157912163589081" />
        <Con id="492" src="26" tgt="319" wght="0.471368685927413" />
        <Con id="493" src="123" tgt="319" wght="-0.25224470827800616" />
        <Con id="501" src="62" tgt="141" wght="-1.0352845115200744" />
        <Con id="512" src="48" tgt="511" wght="2.4207669432549621" />
        <Con id="513" src="511" tgt="141" wght="0.016187654125062456" />
        <Con id="526" src="107" tgt="358" wght="-2.0890626130664445" />
        <Con id="545" src="25" tgt="319" wght="-0.15469530454276659" />
        <Con id="546" src="39" tgt="358" wght="5" />
        <Con id="568" src="45" tgt="319" wght="-0.072467566802547012" />
        <Con id="597" src="319" tgt="358" wght="2.6319160940588238" />
        <Con id="622" src="113" tgt="319" wght="0.041330643224152828" />
        <Con id="635" src="56" tgt="319" wght="0.56940358644094657" />
        <Con id="794" src="89" tgt="358" wght="-2.8766656434163451" />
      </Connections>
    </Network>
  </Networks>
</Root>