<?xml version="1.0" encoding="utf-8"?>
<Root>
  <ActivationFunctions>
    <Fn id="0" name="PlainSigmoid" prob="1" />
  </ActivationFunctions>
  <Networks>
    <Network id="222849" birthGen="2775" fitness="0.7585041823979618">
      <Nodes>
        <Node type="bias" id="0" />
        <Node type="in" id="1" />
        <Node type="in" id="2" />
        <Node type="in" id="3" />
        <Node type="in" id="4" />
        <Node type="in" id="5" />
        <Node type="in" id="6" />
        <Node type="in" id="7" />
        <Node type="in" id="8" />
        <Node type="in" id="9" />
        <Node type="in" id="10" />
        <Node type="in" id="11" />
        <Node type="in" id="12" />
        <Node type="in" id="13" />
        <Node type="in" id="14" />
        <Node type="in" id="15" />
        <Node type="in" id="16" />
        <Node type="in" id="17" />
        <Node type="in" id="18" />
        <Node type="in" id="19" />
        <Node type="in" id="20" />
        <Node type="in" id="21" />
        <Node type="in" id="22" />
        <Node type="in" id="23" />
        <Node type="in" id="24" />
        <Node type="in" id="25" />
        <Node type="in" id="26" />
        <Node type="in" id="27" />
        <Node type="in" id="28" />
        <Node type="in" id="29" />
        <Node type="in" id="30" />
        <Node type="in" id="31" />
        <Node type="in" id="32" />
        <Node type="in" id="33" />
        <Node type="in" id="34" />
        <Node type="in" id="35" />
        <Node type="in" id="36" />
        <Node type="in" id="37" />
        <Node type="in" id="38" />
        <Node type="in" id="39" />
        <Node type="in" id="40" />
        <Node type="in" id="41" />
        <Node type="in" id="42" />
        <Node type="in" id="43" />
        <Node type="in" id="44" />
        <Node type="in" id="45" />
        <Node type="in" id="46" />
        <Node type="in" id="47" />
        <Node type="in" id="48" />
        <Node type="in" id="49" />
        <Node type="in" id="50" />
        <Node type="in" id="51" />
        <Node type="in" id="52" />
        <Node type="in" id="53" />
        <Node type="in" id="54" />
        <Node type="in" id="55" />
        <Node type="in" id="56" />
        <Node type="in" id="57" />
        <Node type="in" id="58" />
        <Node type="in" id="59" />
        <Node type="in" id="60" />
        <Node type="in" id="61" />
        <Node type="in" id="62" />
        <Node type="in" id="63" />
        <Node type="in" id="64" />
        <Node type="in" id="65" />
        <Node type="in" id="66" />
        <Node type="in" id="67" />
        <Node type="in" id="68" />
        <Node type="in" id="69" />
        <Node type="in" id="70" />
        <Node type="in" id="71" />
        <Node type="in" id="72" />
        <Node type="in" id="73" />
        <Node type="in" id="74" />
        <Node type="in" id="75" />
        <Node type="in" id="76" />
        <Node type="in" id="77" />
        <Node type="in" id="78" />
        <Node type="in" id="79" />
        <Node type="in" id="80" />
        <Node type="in" id="81" />
        <Node type="in" id="82" />
        <Node type="in" id="83" />
        <Node type="in" id="84" />
        <Node type="in" id="85" />
        <Node type="in" id="86" />
        <Node type="in" id="87" />
        <Node type="in" id="88" />
        <Node type="in" id="89" />
        <Node type="in" id="90" />
        <Node type="in" id="91" />
        <Node type="in" id="92" />
        <Node type="in" id="93" />
        <Node type="in" id="94" />
        <Node type="in" id="95" />
        <Node type="in" id="96" />
        <Node type="in" id="97" />
        <Node type="in" id="98" />
        <Node type="in" id="99" />
        <Node type="in" id="100" />
        <Node type="in" id="101" />
        <Node type="in" id="102" />
        <Node type="in" id="103" />
        <Node type="in" id="104" />
        <Node type="in" id="105" />
        <Node type="in" id="106" />
        <Node type="in" id="107" />
        <Node type="in" id="108" />
        <Node type="in" id="109" />
        <Node type="in" id="110" />
        <Node type="in" id="111" />
        <Node type="in" id="112" />
        <Node type="in" id="113" />
        <Node type="in" id="114" />
        <Node type="in" id="115" />
        <Node type="in" id="116" />
        <Node type="in" id="117" />
        <Node type="in" id="118" />
        <Node type="in" id="119" />
        <Node type="in" id="120" />
        <Node type="in" id="121" />
        <Node type="in" id="122" />
        <Node type="in" id="123" />
        <Node type="in" id="124" />
        <Node type="in" id="125" />
        <Node type="in" id="126" />
        <Node type="in" id="127" />
        <Node type="in" id="128" />
        <Node type="in" id="129" />
        <Node type="in" id="130" />
        <Node type="in" id="131" />
        <Node type="in" id="132" />
        <Node type="in" id="133" />
        <Node type="in" id="134" />
        <Node type="in" id="135" />
        <Node type="in" id="136" />
        <Node type="in" id="137" />
        <Node type="in" id="138" />
        <Node type="in" id="139" />
        <Node type="in" id="140" />
        <Node type="out" id="141" />
        <Node type="hid" id="319" />
        <Node type="hid" id="358" />
        <Node type="hid" id="434" />
        <Node type="hid" id="511" />
        <Node type="hid" id="832" />
      </Nodes>
      <Connections>
        <Con id="142" src="0" tgt="141" wght="0.43186118551305064" />
        <Con id="149" src="7" tgt="141" wght="-0.82600639061606373" />
        <Con id="160" src="18" tgt="141" wght="-0.46309211474729334" />
        <Con id="164" src="22" tgt="141" wght="-0.015405069993372027" />
        <Con id="165" src="23" tgt="141" wght="3.6335482790115496" />
        <Con id="166" src="24" tgt="141" wght="1.6702689423877803" />
        <Con id="167" src="25" tgt="141" wght="2.329016814695211" />
        <Con id="173" src="31" tgt="141" wght="-0.97004697024360209" />
        <Con id="175" src="33" tgt="141" wght="0.23094547717900935" />
        <Con id="182" src="40" tgt="141" wght="-0.570764531111577" />
        <Con id="183" src="41" tgt="141" wght="-1.7488308512076072" />
        <Con id="184" src="42" tgt="141" wght="-0.63384158193668316" />
        <Con id="187" src="45" tgt="141" wght="-0.66482181650836458" />
        <Con id="188" src="46" tgt="141" wght="0.039356661635973018" />
        <Con id="189" src="47" tgt="141" wght="-0.22829889290079733" />
        <Con id="190" src="48" tgt="141" wght="-0.1725545495040684" />
        <Con id="199" src="57" tgt="141" wght="-0.29560746332354743" />
        <Con id="203" src="61" tgt="141" wght="-1.3306840545065972" />
        <Con id="208" src="66" tgt="141" wght="0.14590358609126727" />
        <Con id="209" src="67" tgt="141" wght="-1.242932378815585" />
        <Con id="212" src="70" tgt="141" wght="0.95169280863963523" />
        <Con id="218" src="76" tgt="141" wght="-0.16224714905462956" />
        <Con id="220" src="78" tgt="141" wght="-0.030302110231355442" />
        <Con id="230" src="88" tgt="141" wght="-0.069619558403814411" />
        <Con id="233" src="91" tgt="141" wght="-0.010337084749837751" />
        <Con id="238" src="96" tgt="141" wght="0.16938456533800325" />
        <Con id="245" src="103" tgt="141" wght="-0.070721613726493882" />
        <Con id="254" src="112" tgt="141" wght="0.15284025928513464" />
        <Con id="256" src="114" tgt="141" wght="-1.2927656721806977" />
        <Con id="270" src="128" tgt="141" wght="-0.029573213670731614" />
        <Con id="274" src="132" tgt="141" wght="-0.66426622967333782" />
        <Con id="276" src="134" tgt="141" wght="-0.45683587913968343" />
        <Con id="277" src="135" tgt="141" wght="1.2366329654725936" />
        <Con id="279" src="137" tgt="141" wght="-0.45793078619161132" />
        <Con id="280" src="138" tgt="141" wght="0.98104575008507877" />
        <Con id="282" src="140" tgt="141" wght="0.17248008694061234" />
        <Con id="288" src="102" tgt="141" wght="-0.52812249931252742" />
        <Con id="289" src="85" tgt="141" wght="1.588672732442622" />
        <Con id="302" src="99" tgt="141" wght="1.6839013070489257" />
        <Con id="304" src="118" tgt="141" wght="0.0054090151889489291" />
        <Con id="308" src="93" tgt="141" wght="-0.44316578639304732" />
        <Con id="312" src="16" tgt="141" wght="0.029623792245585395" />
        <Con id="316" src="98" tgt="141" wght="0.81959491013164554" />
        <Con id="320" src="47" tgt="319" wght="0.18230616686894285" />
        <Con id="321" src="319" tgt="141" wght="4.999662831093346" />
        <Con id="322" src="43" tgt="141" wght="-0.27453821597140476" />
        <Con id="323" src="38" tgt="141" wght="-0.46172823600667523" />
        <Con id="335" src="113" tgt="141" wght="0.66220699395250937" />
        <Con id="338" src="27" tgt="141" wght="0.88693464237189157" />
        <Con id="346" src="14" tgt="141" wght="0.44637108061065384" />
        <Con id="347" src="131" tgt="141" wght="0.38228741050443049" />
        <Con id="359" src="96" tgt="358" wght="-0.1369037101725489" />
        <Con id="360" src="358" tgt="141" wght="4.7281982098508957" />
        <Con id="361" src="129" tgt="141" wght="-0.802418188514337" />
        <Con id="362" src="8" tgt="141" wght="0.038582794134358431" />
        <Con id="363" src="10" tgt="141" wght="0.12340105977226523" />
        <Con id="369" src="69" tgt="141" wght="-0.823710536149395" />
        <Con id="378" src="30" tgt="141" wght="-1.4869209020449117" />
        <Con id="379" src="65" tgt="141" wght="0.59779245101274536" />
        <Con id="391" src="87" tgt="141" wght="0.15419518008782851" />
        <Con id="393" src="124" tgt="141" wght="0.82627703257027119" />
        <Con id="404" src="53" tgt="141" wght="-1.4506946907616838" />
        <Con id="408" src="26" tgt="141" wght="3.4529491738962177" />
        <Con id="417" src="3" tgt="141" wght="-0.62452792811429936" />
        <Con id="432" src="35" tgt="141" wght="1.1078975047159225" />
        <Con id="435" src="138" tgt="434" wght="0.12380743012722761" />
        <Con id="436" src="434" tgt="141" wght="5" />
        <Con id="437" src="77" tgt="141" wght="-0.18922740684400918" />
        <Con id="440" src="117" tgt="141" wght="-0.76606692280290756" />
        <Con id="446" src="52" tgt="141" wght="1.7290747715041805" />
        <Con id="447" src="77" tgt="319" wght="3.743059978846814" />
        <Con id="475" src="9" tgt="141" wght="0.25601085715500654" />
        <Con id="483" src="95" tgt="319" wght="4.3037162817579242" />
        <Con id="492" src="26" tgt="319" wght="0.573804255526547" />
        <Con id="493" src="123" tgt="319" wght="-0.62181400376147578" />
        <Con id="501" src="62" tgt="141" wght="-1.1516021236605845" />
        <Con id="512" src="48" tgt="511" wght="-0.040366736009806579" />
        <Con id="513" src="511" tgt="141" wght="5" />
        <Con id="526" src="107" tgt="358" wght="-1.4987231049063408" />
        <Con id="533" src="68" tgt="319" wght="3.4794286516623547" />
        <Con id="545" src="25" tgt="319" wght="-0.18824893183009714" />
        <Con id="546" src="39" tgt="358" wght="5" />
        <Con id="568" src="45" tgt="319" wght="-0.0149031666230805" />
        <Con id="597" src="319" tgt="358" wght="2.6034732316892568" />
        <Con id="622" src="113" tgt="319" wght="0.36764289259019978" />
        <Con id="624" src="94" tgt="434" wght="-2.3704745713621378" />
        <Con id="635" src="56" tgt="319" wght="0.756255734147584" />
        <Con id="718" src="54" tgt="511" wght="-2.3602917436111035" />
        <Con id="731" src="106" tgt="358" wght="-1.3677507115394416" />
        <Con id="794" src="89" tgt="358" wght="-2.8492315338371452" />
        <Con id="833" src="103" tgt="832" wght="-0.047415868468214793" />
        <Con id="834" src="832" tgt="141" wght="3.8307949977539066" />
        <Con id="840" src="61" tgt="358" wght="1.5036561124835248" />
        <Con id="905" src="130" tgt="511" wght="4.418732757213216" />
        <Con id="1014" src="118" tgt="511" wght="0.1169932546644163" />
        <Con id="1027" src="62" tgt="319" wght="1.1327421188174776" />
      </Connections>
    </Network>
  </Networks>
</Root>