<?xml version="1.0" encoding="utf-8"?>
<Root>
  <ActivationFunctions>
    <Fn id="0" name="SteepenedSigmoid" prob="1" />
  </ActivationFunctions>
  <Networks>
    <Network id="90960" birthGen="58" fitness="0.56453737373737378">
<Nodes>
        <Node type="bias" id="0" />
        <Node type="in" id="1" />
        <Node type="in" id="2" />
        <Node type="in" id="3" />
        <Node type="in" id="4" />
        <Node type="in" id="5" />
        <Node type="in" id="6" />
        <Node type="in" id="7" />
        <Node type="in" id="8" />
        <Node type="in" id="9" />
        <Node type="in" id="10" />
        <Node type="in" id="11" />
        <Node type="in" id="12" />
        <Node type="in" id="13" />
        <Node type="in" id="14" />
        <Node type="in" id="15" />
        <Node type="in" id="16" />
        <Node type="in" id="17" />
        <Node type="in" id="18" />
        <Node type="in" id="19" />
        <Node type="in" id="20" />
        <Node type="in" id="21" />
        <Node type="in" id="22" />
        <Node type="in" id="23" />
        <Node type="in" id="24" />
        <Node type="in" id="25" />
        <Node type="in" id="26" />
        <Node type="in" id="27" />
        <Node type="in" id="28" />
        <Node type="in" id="29" />
        <Node type="in" id="30" />
        <Node type="in" id="31" />
        <Node type="in" id="32" />
        <Node type="in" id="33" />
        <Node type="in" id="34" />
        <Node type="in" id="35" />
        <Node type="in" id="36" />
        <Node type="in" id="37" />
        <Node type="in" id="38" />
        <Node type="in" id="39" />
        <Node type="in" id="40" />
        <Node type="in" id="41" />
        <Node type="in" id="42" />
        <Node type="in" id="43" />
        <Node type="in" id="44" />
        <Node type="in" id="45" />
        <Node type="in" id="46" />
        <Node type="in" id="47" />
        <Node type="in" id="48" />
        <Node type="in" id="49" />
        <Node type="in" id="50" />
        <Node type="in" id="51" />
        <Node type="in" id="52" />
        <Node type="in" id="53" />
        <Node type="in" id="54" />
        <Node type="in" id="55" />
        <Node type="in" id="56" />
        <Node type="in" id="57" />
        <Node type="in" id="58" />
        <Node type="in" id="59" />
        <Node type="in" id="60" />
        <Node type="in" id="61" />
        <Node type="in" id="62" />
        <Node type="in" id="63" />
        <Node type="in" id="64" />
        <Node type="in" id="65" />
        <Node type="in" id="66" />
        <Node type="in" id="67" />
        <Node type="in" id="68" />
        <Node type="in" id="69" />
        <Node type="in" id="70" />
        <Node type="in" id="71" />
        <Node type="in" id="72" />
        <Node type="in" id="73" />
        <Node type="in" id="74" />
        <Node type="in" id="75" />
        <Node type="in" id="76" />
        <Node type="in" id="77" />
        <Node type="in" id="78" />
        <Node type="in" id="79" />
        <Node type="in" id="80" />
        <Node type="in" id="81" />
        <Node type="in" id="82" />
        <Node type="in" id="83" />
        <Node type="in" id="84" />
        <Node type="in" id="85" />
        <Node type="in" id="86" />
        <Node type="in" id="87" />
        <Node type="in" id="88" />
        <Node type="in" id="89" />
        <Node type="in" id="90" />
        <Node type="in" id="91" />
        <Node type="in" id="92" />
        <Node type="in" id="93" />
        <Node type="in" id="94" />
        <Node type="in" id="95" />
        <Node type="in" id="96" />
        <Node type="in" id="97" />
        <Node type="in" id="98" />
        <Node type="in" id="99" />
        <Node type="in" id="100" />
        <Node type="in" id="101" />
        <Node type="in" id="102" />
        <Node type="in" id="103" />
        <Node type="in" id="104" />
        <Node type="in" id="105" />
        <Node type="in" id="106" />
        <Node type="in" id="107" />
        <Node type="in" id="108" />
        <Node type="in" id="109" />
        <Node type="in" id="110" />
        <Node type="in" id="111" />
        <Node type="in" id="112" />
        <Node type="in" id="113" />
        <Node type="in" id="114" />
        <Node type="in" id="115" />
        <Node type="in" id="116" />
        <Node type="in" id="117" />
        <Node type="in" id="118" />
        <Node type="in" id="119" />
        <Node type="in" id="120" />
        <Node type="in" id="121" />
        <Node type="in" id="122" />
        <Node type="in" id="123" />
        <Node type="in" id="124" />
        <Node type="in" id="125" />
        <Node type="in" id="126" />
        <Node type="in" id="127" />
        <Node type="in" id="128" />
        <Node type="in" id="129" />
        <Node type="in" id="130" />
        <Node type="in" id="131" />
        <Node type="in" id="132" />
        <Node type="in" id="133" />
        <Node type="in" id="134" />
        <Node type="in" id="135" />
        <Node type="in" id="136" />
        <Node type="in" id="137" />
        <Node type="in" id="138" />
        <Node type="in" id="139" />
        <Node type="in" id="140" />
        <Node type="out" id="141" />
      </Nodes>
      <Connections>
        <Con id="142" src="0" tgt="141" wght="0" />
        <Con id="143" src="1" tgt="141" wght="0.00927096899632" />
        <Con id="144" src="2" tgt="141" wght="0.02767329518" />
        <Con id="145" src="3" tgt="141" wght="-0.0941257342241" />
        <Con id="146" src="4" tgt="141" wght="0.0252518729156" />
        <Con id="147" src="5" tgt="141" wght="-0.0680032896463" />
        <Con id="148" src="6" tgt="141" wght="-0.0343570984279" />
        <Con id="149" src="7" tgt="141" wght="-0.062077374397" />
        <Con id="150" src="8" tgt="141" wght="0.00220340184316" />
        <Con id="151" src="9" tgt="141" wght="0.00848052318789" />
        <Con id="152" src="10" tgt="141" wght="0.00795865028591" />
        <Con id="153" src="11" tgt="141" wght="0.0219957377496" />
        <Con id="154" src="12" tgt="141" wght="0.0521583608779" />
        <Con id="155" src="13" tgt="141" wght="-0.0276482007903" />
        <Con id="156" src="14" tgt="141" wght="0.039154140739" />
        <Con id="157" src="15" tgt="141" wght="0.00465491538503" />
        <Con id="158" src="16" tgt="141" wght="-0.011821661706" />
        <Con id="159" src="17" tgt="141" wght="0.0113160226347" />
        <Con id="160" src="18" tgt="141" wght="-0.0289358105536" />
        <Con id="161" src="19" tgt="141" wght="-0.0285529151452" />
        <Con id="162" src="20" tgt="141" wght="-0.0692133571552" />
        <Con id="163" src="21" tgt="141" wght="0.0294822303747" />
        <Con id="164" src="22" tgt="141" wght="0.0163368897386" />
        <Con id="165" src="23" tgt="141" wght="0.328277648821" />
        <Con id="166" src="24" tgt="141" wght="0.130152847902" />
        <Con id="167" src="25" tgt="141" wght="0.0873694601856" />
        <Con id="168" src="26" tgt="141" wght="0.415141484698" />
        <Con id="169" src="27" tgt="141" wght="0.0888645875045" />
        <Con id="170" src="28" tgt="141" wght="-0.123498493619" />
        <Con id="171" src="29" tgt="141" wght="0.0609333665061" />
        <Con id="172" src="30" tgt="141" wght="-0.14130304324" />
        <Con id="173" src="31" tgt="141" wght="-0.0962353070161" />
        <Con id="174" src="32" tgt="141" wght="-0.0160044736767" />
        <Con id="175" src="33" tgt="141" wght="0.0322637011466" />
        <Con id="176" src="34" tgt="141" wght="0.0703806412999" />
        <Con id="177" src="35" tgt="141" wght="0.106731794411" />
        <Con id="178" src="36" tgt="141" wght="0.0172612960626" />
        <Con id="178" src="37" tgt="141" wght="0.00603612782182" />
        <Con id="180" src="38" tgt="141" wght="-0.0368855489851" />
        <Con id="181" src="39" tgt="141" wght="0.071269517648" />
        <Con id="182" src="40" tgt="141" wght="-0.0334177076182" />
        <Con id="183" src="41" tgt="141" wght="-0.108634732525" />
        <Con id="184" src="42" tgt="141" wght="-0.0313146393022" />
        <Con id="185" src="43" tgt="141" wght="-0.0363061950348" />
        <Con id="186" src="44" tgt="141" wght="0.0313492307401" />
        <Con id="187" src="45" tgt="141" wght="-0.057793305445" />
        <Con id="188" src="46" tgt="141" wght="-0.00900191188191" />
        <Con id="189" src="47" tgt="141" wght="-0.0264089239313" />
        <Con id="190" src="48" tgt="141" wght="-0.0114311223256" />
        <Con id="191" src="49" tgt="141" wght="-0.0774827093704" />
        <Con id="192" src="50" tgt="141" wght="0.109501942571" />
        <Con id="193" src="51" tgt="141" wght="-0.0299298166615" />
        <Con id="194" src="52" tgt="141" wght="0.0" />
        <Con id="195" src="53" tgt="141" wght="-0.12591489669" />
        <Con id="196" src="54" tgt="141" wght="-0.1106971268" />
        <Con id="197" src="55" tgt="141" wght="-0.0160922531397" />
        <Con id="198" src="56" tgt="141" wght="0.053563748917" />
        <Con id="199" src="57" tgt="141" wght="-0.0182588264944" />
        <Con id="200" src="58" tgt="141" wght="0.0203031387894" />
        <Con id="201" src="59" tgt="141" wght="0.0226810526308" />
        <Con id="202" src="60" tgt="141" wght="0.0286060169161" />
        <Con id="203" src="61" tgt="141" wght="-0.08558342902" />
        <Con id="204" src="62" tgt="141" wght="-0.0786813062615" />
        <Con id="205" src="63" tgt="141" wght="-0.0430027740697" />
        <Con id="206" src="64" tgt="141" wght="0.0174027191555" />
        <Con id="207" src="65" tgt="141" wght="0.0363674538239" />
        <Con id="208" src="66" tgt="141" wght="0.017893464946" />
        <Con id="209" src="67" tgt="141" wght="-0.128721160451" />
        <Con id="210" src="68" tgt="141" wght="0.0691717360697" />
        <Con id="211" src="69" tgt="141" wght="-0.0688849438445" />
        <Con id="212" src="70" tgt="141" wght="0.0941178999373" />
        <Con id="213" src="71" tgt="141" wght="-0.00752722987235" />
        <Con id="214" src="72" tgt="141" wght="-0.000778918863573" />
        <Con id="215" src="73" tgt="141" wght="-0.00760208707807" />
        <Con id="216" src="74" tgt="141" wght="-0.0224701651147" />
        <Con id="217" src="75" tgt="141" wght="-0.083744832305" />
        <Con id="218" src="76" tgt="141" wght="0.00198943025961" />
        <Con id="219" src="77" tgt="141" wght="0.0505362597647" />
        <Con id="220" src="78" tgt="141" wght="0.00877704321316" />
        <Con id="221" src="79" tgt="141" wght="0.0241358832446" />
        <Con id="222" src="80" tgt="141" wght="0.105438099708" />
        <Con id="223" src="81" tgt="141" wght="-0.0906737420581" />
        <Con id="224" src="82" tgt="141" wght="-0.0351252402003" />
        <Con id="225" src="83" tgt="141" wght="-0.0157416650651" />
        <Con id="225" src="84" tgt="141" wght="-0.0177481286528" />
        <Con id="227" src="85" tgt="141" wght="0.144231607603" />
        <Con id="228" src="86" tgt="141" wght="-0.0699426836934" />
        <Con id="229" src="87" tgt="141" wght="0.0224470572111" />
        <Con id="230" src="88" tgt="141" wght="-0.00614580564558" />
        <Con id="231" src="89" tgt="141" wght="-0.0370742494324" />
        <Con id="232" src="90" tgt="141" wght="0.0353551488166" />
        <Con id="233" src="91" tgt="141" wght="-8.45259858308e-05" />
        <Con id="234" src="92" tgt="141" wght="-0.0218295888131" />
        <Con id="235" src="93" tgt="141" wght="-0.0384214382049" />
        <Con id="236" src="94" tgt="141" wght="-0.0525003072832" />
        <Con id="237" src="95" tgt="141" wght="0.18420633529" />
        <Con id="238" src="96" tgt="141" wght="0.0128463176453" />
        <Con id="239" src="97" tgt="141" wght="0.0486396209112" />
        <Con id="240" src="98" tgt="141" wght="0.0902913123726" />
        <Con id="241" src="99" tgt="141" wght="0.139929866514" />
        <Con id="242" src="100" tgt="141" wght="-0.0030249056305" />
        <Con id="243" src="101" tgt="141" wght="-0.00225547278396" />
        <Con id="244" src="102" tgt="141" wght="-0.0430500730275" />
        <Con id="245" src="103" tgt="141" wght="-0.0025814699287" />
        <Con id="246" src="104" tgt="141" wght="-0.0465633334309" />
        <Con id="247" src="105" tgt="141" wght="0.0348490786928" />
        <Con id="248" src="106" tgt="141" wght="-0.00619677690037" />
        <Con id="249" src="107" tgt="141" wght="-0.0520825975379" />
        <Con id="250" src="108" tgt="141" wght="-0.0341725567097" />
        <Con id="251" src="109" tgt="141" wght="-0.0127799569414" />
        <Con id="252" src="110" tgt="141" wght="0.0181713520833" />
        <Con id="253" src="111" tgt="141" wght="0.0199416104227" />
        <Con id="254" src="112" tgt="141" wght="0.00536598176364" />
        <Con id="255" src="113" tgt="141" wght="0.0602374427254" />
        <Con id="256" src="114" tgt="141" wght="-0.103797347453" />
        <Con id="257" src="115" tgt="141" wght="0.0069662573254" />
        <Con id="258" src="116" tgt="141" wght="0.0151648561349" />
        <Con id="259" src="117" tgt="141" wght="-0.0650982292007" />
        <Con id="260" src="118" tgt="141" wght="-0.00659100803" />
        <Con id="261" src="119" tgt="141" wght="-0.00778360615026" />
        <Con id="262" src="120" tgt="141" wght="0.00514781085073" />
        <Con id="263" src="121" tgt="141" wght="0.0274985550669" />
        <Con id="264" src="122" tgt="141" wght="0.0139399585058" />
        <Con id="265" src="123" tgt="141" wght="-0.0144387596165" />
        <Con id="266" src="124" tgt="141" wght="0.0570949174478" />
        <Con id="267" src="125" tgt="141" wght="-0.0116587719222" />
        <Con id="268" src="126" tgt="141" wght="-0.0132245025551" />
        <Con id="269" src="127" tgt="141" wght="-0.0198290303584" />
        <Con id="270" src="128" tgt="141" wght="0.00629429343187" />
        <Con id="271" src="129" tgt="141" wght="-0.0753941823724" />
        <Con id="272" src="130" tgt="141" wght="0.116491576636" />
        <Con id="273" src="131" tgt="141" wght="0.0576816348695" />
        <Con id="274" src="132" tgt="141" wght="-0.0645205496378" />
        <Con id="275" src="133" tgt="141" wght="0.00304342469419" />
        <Con id="276" src="134" tgt="141" wght="-0.0306893314583" />
        <Con id="277" src="135" tgt="141" wght="0.0" />
        <Con id="278" src="136" tgt="141" wght="0.0" />
        <Con id="279" src="137" tgt="141" wght="-0.0308226281167" />
        <Con id="280" src="138" tgt="141" wght="0.0963956058948" />
        <Con id="281" src="139" tgt="141" wght="0.0" />
        <Con id="282" src="140" tgt="141" wght="0.0161309398219" />
      </Connections>
    </Network>
    <Network id="90962" birthGen="58" fitness="0.564524531024531">
      <Nodes>
        <Node type="bias" id="0" />
        <Node type="in" id="1" />
        <Node type="in" id="2" />
        <Node type="in" id="3" />
        <Node type="in" id="4" />
        <Node type="in" id="5" />
        <Node type="in" id="6" />
        <Node type="in" id="7" />
        <Node type="in" id="8" />
        <Node type="in" id="9" />
        <Node type="in" id="10" />
        <Node type="in" id="11" />
        <Node type="in" id="12" />
        <Node type="in" id="13" />
        <Node type="in" id="14" />
        <Node type="in" id="15" />
        <Node type="in" id="16" />
        <Node type="in" id="17" />
        <Node type="in" id="18" />
        <Node type="in" id="19" />
        <Node type="in" id="20" />
        <Node type="in" id="21" />
        <Node type="in" id="22" />
        <Node type="in" id="23" />
        <Node type="in" id="24" />
        <Node type="in" id="25" />
        <Node type="in" id="26" />
        <Node type="in" id="27" />
        <Node type="in" id="28" />
        <Node type="in" id="29" />
        <Node type="in" id="30" />
        <Node type="in" id="31" />
        <Node type="in" id="32" />
        <Node type="in" id="33" />
        <Node type="in" id="34" />
        <Node type="in" id="35" />
        <Node type="in" id="36" />
        <Node type="in" id="37" />
        <Node type="in" id="38" />
        <Node type="in" id="39" />
        <Node type="in" id="40" />
        <Node type="in" id="41" />
        <Node type="in" id="42" />
        <Node type="in" id="43" />
        <Node type="in" id="44" />
        <Node type="in" id="45" />
        <Node type="in" id="46" />
        <Node type="in" id="47" />
        <Node type="in" id="48" />
        <Node type="in" id="49" />
        <Node type="in" id="50" />
        <Node type="in" id="51" />
        <Node type="in" id="52" />
        <Node type="in" id="53" />
        <Node type="in" id="54" />
        <Node type="in" id="55" />
        <Node type="in" id="56" />
        <Node type="in" id="57" />
        <Node type="in" id="58" />
        <Node type="in" id="59" />
        <Node type="in" id="60" />
        <Node type="in" id="61" />
        <Node type="in" id="62" />
        <Node type="in" id="63" />
        <Node type="in" id="64" />
        <Node type="in" id="65" />
        <Node type="in" id="66" />
        <Node type="in" id="67" />
        <Node type="in" id="68" />
        <Node type="in" id="69" />
        <Node type="in" id="70" />
        <Node type="in" id="71" />
        <Node type="in" id="72" />
        <Node type="in" id="73" />
        <Node type="in" id="74" />
        <Node type="in" id="75" />
        <Node type="in" id="76" />
        <Node type="in" id="77" />
        <Node type="in" id="78" />
        <Node type="in" id="79" />
        <Node type="in" id="80" />
        <Node type="in" id="81" />
        <Node type="in" id="82" />
        <Node type="in" id="83" />
        <Node type="in" id="84" />
        <Node type="in" id="85" />
        <Node type="in" id="86" />
        <Node type="in" id="87" />
        <Node type="in" id="88" />
        <Node type="in" id="89" />
        <Node type="in" id="90" />
        <Node type="in" id="91" />
        <Node type="in" id="92" />
        <Node type="in" id="93" />
        <Node type="in" id="94" />
        <Node type="in" id="95" />
        <Node type="in" id="96" />
        <Node type="in" id="97" />
        <Node type="in" id="98" />
        <Node type="in" id="99" />
        <Node type="in" id="100" />
        <Node type="in" id="101" />
        <Node type="in" id="102" />
        <Node type="in" id="103" />
        <Node type="in" id="104" />
        <Node type="in" id="105" />
        <Node type="in" id="106" />
        <Node type="in" id="107" />
        <Node type="in" id="108" />
        <Node type="in" id="109" />
        <Node type="in" id="110" />
        <Node type="in" id="111" />
        <Node type="in" id="112" />
        <Node type="in" id="113" />
        <Node type="in" id="114" />
        <Node type="in" id="115" />
        <Node type="in" id="116" />
        <Node type="in" id="117" />
        <Node type="in" id="118" />
        <Node type="in" id="119" />
        <Node type="in" id="120" />
        <Node type="in" id="121" />
        <Node type="in" id="122" />
        <Node type="in" id="123" />
        <Node type="in" id="124" />
        <Node type="in" id="125" />
        <Node type="in" id="126" />
        <Node type="in" id="127" />
        <Node type="in" id="128" />
        <Node type="in" id="129" />
        <Node type="in" id="130" />
        <Node type="in" id="131" />
        <Node type="in" id="132" />
        <Node type="in" id="133" />
        <Node type="in" id="134" />
        <Node type="in" id="135" />
        <Node type="in" id="136" />
        <Node type="in" id="137" />
        <Node type="in" id="138" />
        <Node type="in" id="139" />
        <Node type="in" id="140" />
        <Node type="out" id="141" />
      </Nodes>
      <Connections>
        <Con id="142" src="0" tgt="141" wght="-2.221937948452497" />
        <Con id="143" src="1" tgt="141" wght="0.00927096899632" />
        <Con id="144" src="2" tgt="141" wght="0.02767329518" />
        <Con id="145" src="3" tgt="141" wght="-5.800422253087163" />
        <Con id="146" src="4" tgt="141" wght="-1.1516879433685625" />
        <Con id="147" src="5" tgt="141" wght="-0.0680032896463" />
        <Con id="148" src="6" tgt="141" wght="-7.2632406372576952" />
        <Con id="149" src="7" tgt="141" wght="-0.062077374397" />
        <Con id="150" src="8" tgt="141" wght="0.00220340184316" />
        <Con id="151" src="9" tgt="141" wght="0.0066547306662308181" />
        <Con id="152" src="10" tgt="141" wght="-0.36355500117468792" />
        <Con id="153" src="11" tgt="141" wght="0.0219957377496" />
        <Con id="154" src="12" tgt="141" wght="-3.1250424635915648" />
        <Con id="155" src="13" tgt="141" wght="-0.35254269946974204" />
        <Con id="156" src="14" tgt="141" wght="0.039154140739" />
        <Con id="157" src="15" tgt="141" wght="0.00465491538503" />
        <Con id="158" src="16" tgt="141" wght="-0.011821661706" />
        <Con id="159" src="17" tgt="141" wght="0.0113160226347" />
        <Con id="160" src="18" tgt="141" wght="-0.0289358105536" />
        <Con id="161" src="19" tgt="141" wght="-0.0285529151452" />
        <Con id="162" src="20" tgt="141" wght="0.20073843453026541" />
        <Con id="163" src="21" tgt="141" wght="0.0294822303747" />
        <Con id="164" src="22" tgt="141" wght="0.0163368897386" />
        <Con id="165" src="23" tgt="141" wght="0.328277648821" />
        <Con id="166" src="24" tgt="141" wght="0.130152847902" />
        <Con id="167" src="25" tgt="141" wght="0.0873694601856" />
        <Con id="168" src="26" tgt="141" wght="0.415141484698" />
        <Con id="169" src="27" tgt="141" wght="0.0888645875045" />
        <Con id="170" src="28" tgt="141" wght="1.332581924548045" />
        <Con id="171" src="29" tgt="141" wght="0.0609333665061" />
        <Con id="172" src="30" tgt="141" wght="-0.14130304324" />
        <Con id="173" src="31" tgt="141" wght="-0.0962353070161" />
        <Con id="174" src="32" tgt="141" wght="-0.0160044736767" />
        <Con id="175" src="33" tgt="141" wght="-2.1278372686356306" />
        <Con id="176" src="34" tgt="141" wght="0.0703806412999" />
        <Con id="177" src="35" tgt="141" wght="0.70698380854849741" />
        <Con id="178" src="37" tgt="141" wght="-0.5235877213786686" />
        <Con id="180" src="38" tgt="141" wght="1.1720091732738573" />
        <Con id="181" src="39" tgt="141" wght="0.071269517648" />
        <Con id="182" src="40" tgt="141" wght="-0.0334177076182" />
        <Con id="183" src="41" tgt="141" wght="-0.108634732525" />
        <Con id="184" src="42" tgt="141" wght="-0.050725571910961428" />
        <Con id="185" src="43" tgt="141" wght="0.14184241372085352" />
        <Con id="186" src="44" tgt="141" wght="-3.6075167049311379" />
        <Con id="187" src="45" tgt="141" wght="-0.057793305445" />
        <Con id="188" src="46" tgt="141" wght="-0.00900191188191" />
        <Con id="189" src="47" tgt="141" wght="1.0548921726951741" />
        <Con id="190" src="48" tgt="141" wght="4.0287303519810438" />
        <Con id="191" src="49" tgt="141" wght="-0.10717564379277894" />
        <Con id="192" src="50" tgt="141" wght="0.109501942571" />
        <Con id="193" src="51" tgt="141" wght="-0.0402220932197118" />
        <Con id="194" src="52" tgt="141" wght="-1.2115810871614394" />
        <Con id="195" src="53" tgt="141" wght="-1.6316183656454086" />
        <Con id="196" src="54" tgt="141" wght="-0.1106971268" />
        <Con id="197" src="55" tgt="141" wght="-0.0160922531397" />
        <Con id="198" src="56" tgt="141" wght="0.053563748917" />
        <Con id="199" src="57" tgt="141" wght="-1.1540854220464847" />
        <Con id="200" src="58" tgt="141" wght="0.0203031387894" />
        <Con id="201" src="59" tgt="141" wght="0.0226810526308" />
        <Con id="202" src="60" tgt="141" wght="0.72579403639701057" />
        <Con id="203" src="61" tgt="141" wght="-0.0665264156713027" />
        <Con id="204" src="62" tgt="141" wght="0.64371429240733979" />
        <Con id="205" src="63" tgt="141" wght="-9.3033429048955441" />
        <Con id="206" src="64" tgt="141" wght="0.28080857552750471" />
        <Con id="207" src="65" tgt="141" wght="0.0363674538239" />
        <Con id="208" src="66" tgt="141" wght="0.017893464946" />
        <Con id="209" src="67" tgt="141" wght="-0.128721160451" />
        <Con id="210" src="68" tgt="141" wght="0.0691717360697" />
        <Con id="211" src="69" tgt="141" wght="-0.0688849438445" />
        <Con id="212" src="70" tgt="141" wght="-1.2083983400017428" />
        <Con id="213" src="71" tgt="141" wght="0.82435436001448947" />
        <Con id="214" src="72" tgt="141" wght="-0.000778918863573" />
        <Con id="215" src="73" tgt="141" wght="1.6757222702187238" />
        <Con id="216" src="74" tgt="141" wght="-0.0224701651147" />
        <Con id="217" src="75" tgt="141" wght="-0.083744832305" />
        <Con id="218" src="76" tgt="141" wght="3.2670904323458672" />
        <Con id="219" src="77" tgt="141" wght="0.0505362597647" />
        <Con id="220" src="78" tgt="141" wght="2.6291572209199066" />
        <Con id="221" src="79" tgt="141" wght="8.3650029078125954" />
        <Con id="222" src="80" tgt="141" wght="0.105438099708" />
        <Con id="223" src="81" tgt="141" wght="8.38023361749947" />
        <Con id="224" src="82" tgt="141" wght="2.0354779222594996" />
        <Con id="225" src="83" tgt="141" wght="-0.0157416650651" />
        <Con id="227" src="85" tgt="141" wght="0.144231607603" />
        <Con id="228" src="86" tgt="141" wght="-0.34577030522911528" />
        <Con id="229" src="87" tgt="141" wght="0.0224470572111" />
        <Con id="230" src="88" tgt="141" wght="-0.00614580564558" />
        <Con id="231" src="89" tgt="141" wght="-1.8279351218458517" />
        <Con id="232" src="90" tgt="141" wght="0.0353551488166" />
        <Con id="233" src="91" tgt="141" wght="-8.45259858308E-05" />
        <Con id="234" src="92" tgt="141" wght="-8.7998986579235812" />
        <Con id="235" src="93" tgt="141" wght="1.3698945075726583" />
        <Con id="236" src="94" tgt="141" wght="-0.0525003072832" />
        <Con id="237" src="95" tgt="141" wght="0.18420633529" />
        <Con id="238" src="96" tgt="141" wght="-2.1009446959942579" />
        <Con id="239" src="97" tgt="141" wght="0.0486396209112" />
        <Con id="240" src="98" tgt="141" wght="0.11796944662946862" />
        <Con id="241" src="99" tgt="141" wght="0.139929866514" />
        <Con id="242" src="100" tgt="141" wght="-0.0030249056305" />
        <Con id="243" src="101" tgt="141" wght="-0.00225547278396" />
        <Con id="244" src="102" tgt="141" wght="4.1966900788247585" />
        <Con id="245" src="103" tgt="141" wght="-6.4752280803811306" />
        <Con id="246" src="104" tgt="141" wght="-0.0465633334309" />
        <Con id="247" src="105" tgt="141" wght="0.0348490786928" />
        <Con id="248" src="106" tgt="141" wght="-0.00619677690037" />
        <Con id="249" src="107" tgt="141" wght="-0.0520825975379" />
        <Con id="250" src="108" tgt="141" wght="-0.0341725567097" />
        <Con id="251" src="109" tgt="141" wght="-0.0127799569414" />
        <Con id="252" src="110" tgt="141" wght="0.0181713520833" />
        <Con id="253" src="111" tgt="141" wght="4.8184201493859291" />
        <Con id="254" src="112" tgt="141" wght="0.00536598176364" />
        <Con id="255" src="113" tgt="141" wght="0.0602374427254" />
        <Con id="256" src="114" tgt="141" wght="-0.103797347453" />
        <Con id="257" src="115" tgt="141" wght="-7.6791928336024284" />
        <Con id="258" src="116" tgt="141" wght="0.0151648561349" />
        <Con id="259" src="117" tgt="141" wght="-0.0650982292007" />
        <Con id="260" src="118" tgt="141" wght="-0.00659100803" />
        <Con id="261" src="119" tgt="141" wght="-0.00778360615026" />
        <Con id="262" src="120" tgt="141" wght="3.4890492984788395" />
        <Con id="263" src="121" tgt="141" wght="0.0274985550669" />
        <Con id="264" src="122" tgt="141" wght="9.6491673961281776" />
        <Con id="265" src="123" tgt="141" wght="1.4000181924504094" />
        <Con id="266" src="124" tgt="141" wght="0.0570949174478" />
        <Con id="267" src="125" tgt="141" wght="2.4097603478679086" />
        <Con id="268" src="126" tgt="141" wght="-0.0132245025551" />
        <Con id="269" src="127" tgt="141" wght="-0.0198290303584" />
        <Con id="270" src="128" tgt="141" wght="0.00629429343187" />
        <Con id="271" src="129" tgt="141" wght="-0.0753941823724" />
        <Con id="272" src="130" tgt="141" wght="0.116491576636" />
        <Con id="273" src="131" tgt="141" wght="2.0471363181966122" />
        <Con id="274" src="132" tgt="141" wght="0.065785902873174582" />
        <Con id="275" src="133" tgt="141" wght="-3.3347819559276104" />
        <Con id="276" src="134" tgt="141" wght="-4.37982177361846" />
        <Con id="277" src="135" tgt="141" wght="0.018094074966191542" />
        <Con id="278" src="136" tgt="141" wght="0" />
        <Con id="279" src="137" tgt="141" wght="-0.38512141162857516" />
        <Con id="280" src="138" tgt="141" wght="0.0963956058948" />
        <Con id="281" src="139" tgt="141" wght="0" />
        <Con id="282" src="140" tgt="141" wght="0.0161309398219" />
      </Connections>
    </Network>
    <Network id="90963" birthGen="58" fitness="0.55303059163059165">
      <Nodes>
        <Node type="bias" id="0" />
        <Node type="in" id="1" />
        <Node type="in" id="2" />
        <Node type="in" id="3" />
        <Node type="in" id="4" />
        <Node type="in" id="5" />
        <Node type="in" id="6" />
        <Node type="in" id="7" />
        <Node type="in" id="8" />
        <Node type="in" id="9" />
        <Node type="in" id="10" />
        <Node type="in" id="11" />
        <Node type="in" id="12" />
        <Node type="in" id="13" />
        <Node type="in" id="14" />
        <Node type="in" id="15" />
        <Node type="in" id="16" />
        <Node type="in" id="17" />
        <Node type="in" id="18" />
        <Node type="in" id="19" />
        <Node type="in" id="20" />
        <Node type="in" id="21" />
        <Node type="in" id="22" />
        <Node type="in" id="23" />
        <Node type="in" id="24" />
        <Node type="in" id="25" />
        <Node type="in" id="26" />
        <Node type="in" id="27" />
        <Node type="in" id="28" />
        <Node type="in" id="29" />
        <Node type="in" id="30" />
        <Node type="in" id="31" />
        <Node type="in" id="32" />
        <Node type="in" id="33" />
        <Node type="in" id="34" />
        <Node type="in" id="35" />
        <Node type="in" id="36" />
        <Node type="in" id="37" />
        <Node type="in" id="38" />
        <Node type="in" id="39" />
        <Node type="in" id="40" />
        <Node type="in" id="41" />
        <Node type="in" id="42" />
        <Node type="in" id="43" />
        <Node type="in" id="44" />
        <Node type="in" id="45" />
        <Node type="in" id="46" />
        <Node type="in" id="47" />
        <Node type="in" id="48" />
        <Node type="in" id="49" />
        <Node type="in" id="50" />
        <Node type="in" id="51" />
        <Node type="in" id="52" />
        <Node type="in" id="53" />
        <Node type="in" id="54" />
        <Node type="in" id="55" />
        <Node type="in" id="56" />
        <Node type="in" id="57" />
        <Node type="in" id="58" />
        <Node type="in" id="59" />
        <Node type="in" id="60" />
        <Node type="in" id="61" />
        <Node type="in" id="62" />
        <Node type="in" id="63" />
        <Node type="in" id="64" />
        <Node type="in" id="65" />
        <Node type="in" id="66" />
        <Node type="in" id="67" />
        <Node type="in" id="68" />
        <Node type="in" id="69" />
        <Node type="in" id="70" />
        <Node type="in" id="71" />
        <Node type="in" id="72" />
        <Node type="in" id="73" />
        <Node type="in" id="74" />
        <Node type="in" id="75" />
        <Node type="in" id="76" />
        <Node type="in" id="77" />
        <Node type="in" id="78" />
        <Node type="in" id="79" />
        <Node type="in" id="80" />
        <Node type="in" id="81" />
        <Node type="in" id="82" />
        <Node type="in" id="83" />
        <Node type="in" id="84" />
        <Node type="in" id="85" />
        <Node type="in" id="86" />
        <Node type="in" id="87" />
        <Node type="in" id="88" />
        <Node type="in" id="89" />
        <Node type="in" id="90" />
        <Node type="in" id="91" />
        <Node type="in" id="92" />
        <Node type="in" id="93" />
        <Node type="in" id="94" />
        <Node type="in" id="95" />
        <Node type="in" id="96" />
        <Node type="in" id="97" />
        <Node type="in" id="98" />
        <Node type="in" id="99" />
        <Node type="in" id="100" />
        <Node type="in" id="101" />
        <Node type="in" id="102" />
        <Node type="in" id="103" />
        <Node type="in" id="104" />
        <Node type="in" id="105" />
        <Node type="in" id="106" />
        <Node type="in" id="107" />
        <Node type="in" id="108" />
        <Node type="in" id="109" />
        <Node type="in" id="110" />
        <Node type="in" id="111" />
        <Node type="in" id="112" />
        <Node type="in" id="113" />
        <Node type="in" id="114" />
        <Node type="in" id="115" />
        <Node type="in" id="116" />
        <Node type="in" id="117" />
        <Node type="in" id="118" />
        <Node type="in" id="119" />
        <Node type="in" id="120" />
        <Node type="in" id="121" />
        <Node type="in" id="122" />
        <Node type="in" id="123" />
        <Node type="in" id="124" />
        <Node type="in" id="125" />
        <Node type="in" id="126" />
        <Node type="in" id="127" />
        <Node type="in" id="128" />
        <Node type="in" id="129" />
        <Node type="in" id="130" />
        <Node type="in" id="131" />
        <Node type="in" id="132" />
        <Node type="in" id="133" />
        <Node type="in" id="134" />
        <Node type="in" id="135" />
        <Node type="in" id="136" />
        <Node type="in" id="137" />
        <Node type="in" id="138" />
        <Node type="in" id="139" />
        <Node type="in" id="140" />
        <Node type="out" id="141" />
      </Nodes>
      <Connections>
        <Con id="142" src="0" tgt="141" wght="0" />
        <Con id="143" src="1" tgt="141" wght="0.00927096899632" />
        <Con id="144" src="2" tgt="141" wght="0.02767329518" />
        <Con id="145" src="3" tgt="141" wght="-6.1302658228563995" />
        <Con id="146" src="4" tgt="141" wght="0.0252518729156" />
        <Con id="147" src="5" tgt="141" wght="-0.0680032896463" />
        <Con id="148" src="6" tgt="141" wght="-0.0343570984279" />
        <Con id="149" src="7" tgt="141" wght="-0.062077374397" />
        <Con id="150" src="8" tgt="141" wght="0.9750410566797223" />
        <Con id="151" src="9" tgt="141" wght="0.0066547306662308181" />
        <Con id="152" src="10" tgt="141" wght="-0.36355500117468792" />
        <Con id="153" src="11" tgt="141" wght="1.7813477547301197" />
        <Con id="154" src="12" tgt="141" wght="0.0521583608779" />
        <Con id="155" src="13" tgt="141" wght="5.0207612104713917" />
        <Con id="156" src="14" tgt="141" wght="0.039154140739" />
        <Con id="157" src="15" tgt="141" wght="0.00465491538503" />
        <Con id="158" src="16" tgt="141" wght="-0.011821661706" />
        <Con id="159" src="17" tgt="141" wght="9.65478622354567" />
        <Con id="160" src="18" tgt="141" wght="-0.0289358105536" />
        <Con id="161" src="19" tgt="141" wght="-0.0285529151452" />
        <Con id="162" src="20" tgt="141" wght="3.4891766602910259" />
        <Con id="163" src="21" tgt="141" wght="0.0294822303747" />
        <Con id="164" src="22" tgt="141" wght="0.0163368897386" />
        <Con id="165" src="23" tgt="141" wght="0.328277648821" />
        <Con id="166" src="24" tgt="141" wght="0.130152847902" />
        <Con id="167" src="25" tgt="141" wght="0.0635350022692732" />
        <Con id="168" src="26" tgt="141" wght="0.415141484698" />
        <Con id="169" src="27" tgt="141" wght="0.0888645875045" />
        <Con id="170" src="28" tgt="141" wght="-0.123498493619" />
        <Con id="171" src="29" tgt="141" wght="0.0609333665061" />
        <Con id="172" src="30" tgt="141" wght="-0.069571961725896275" />
        <Con id="173" src="31" tgt="141" wght="-0.79677582810814185" />
        <Con id="174" src="32" tgt="141" wght="-0.0160044736767" />
        <Con id="175" src="33" tgt="141" wght="0.045389015989994966" />
        <Con id="176" src="34" tgt="141" wght="0.0703806412999" />
        <Con id="177" src="35" tgt="141" wght="0.106731794411" />
        <Con id="178" src="36" tgt="141" wght="0.0172612960626" />
        <Con id="180" src="38" tgt="141" wght="1.1720091732738573" />
        <Con id="181" src="39" tgt="141" wght="9.79965476348161" />
        <Con id="182" src="40" tgt="141" wght="0.57847253604611359" />
        <Con id="183" src="41" tgt="141" wght="-0.10158213353506711" />
        <Con id="184" src="42" tgt="141" wght="-0.0313146393022" />
        <Con id="185" src="43" tgt="141" wght="0.14184241372085352" />
        <Con id="186" src="44" tgt="141" wght="0.0313492307401" />
        <Con id="187" src="45" tgt="141" wght="-0.4929666828681204" />
        <Con id="188" src="46" tgt="141" wght="-0.00900191188191" />
        <Con id="189" src="47" tgt="141" wght="3.5030203808356903" />
        <Con id="190" src="48" tgt="141" wght="-0.0114311223256" />
        <Con id="191" src="49" tgt="141" wght="-0.0774827093704" />
        <Con id="192" src="50" tgt="141" wght="1.6415703507754535" />
        <Con id="193" src="51" tgt="141" wght="-0.033148809569463492" />
        <Con id="194" src="52" tgt="141" wght="0.804643304844276" />
        <Con id="195" src="53" tgt="141" wght="-0.12591489669" />
        <Con id="196" src="54" tgt="141" wght="-0.1106971268" />
        <Con id="197" src="55" tgt="141" wght="-0.056878534974183909" />
        <Con id="198" src="56" tgt="141" wght="0.053563748917" />
        <Con id="199" src="57" tgt="141" wght="-0.0182588264944" />
        <Con id="200" src="58" tgt="141" wght="0.29726652365776229" />
        <Con id="201" src="59" tgt="141" wght="0.0226810526308" />
        <Con id="202" src="60" tgt="141" wght="0.17884376891587045" />
        <Con id="203" src="61" tgt="141" wght="-0.077813128282737468" />
        <Con id="204" src="62" tgt="141" wght="-0.0786813062615" />
        <Con id="205" src="63" tgt="141" wght="-9.3033429048955441" />
        <Con id="206" src="64" tgt="141" wght="0.0174027191555" />
        <Con id="207" src="65" tgt="141" wght="0.0363674538239" />
        <Con id="208" src="66" tgt="141" wght="-0.011723940980078545" />
        <Con id="209" src="67" tgt="141" wght="-0.128721160451" />
        <Con id="210" src="68" tgt="141" wght="0.0691717360697" />
        <Con id="211" src="69" tgt="141" wght="-0.0688849438445" />
        <Con id="212" src="70" tgt="141" wght="-4.0022640041717006" />
        <Con id="213" src="71" tgt="141" wght="-0.00752722987235" />
        <Con id="214" src="72" tgt="141" wght="-0.000778918863573" />
        <Con id="215" src="73" tgt="141" wght="1.6757222702187238" />
        <Con id="216" src="74" tgt="141" wght="-0.0224701651147" />
        <Con id="217" src="75" tgt="141" wght="-0.083744832305" />
        <Con id="218" src="76" tgt="141" wght="3.2670904323458672" />
        <Con id="219" src="77" tgt="141" wght="0.0505362597647" />
        <Con id="220" src="78" tgt="141" wght="0.00877704321316" />
        <Con id="221" src="79" tgt="141" wght="0.0241358832446" />
        <Con id="222" src="80" tgt="141" wght="0.105438099708" />
        <Con id="223" src="81" tgt="141" wght="2.9280903353861736" />
        <Con id="224" src="82" tgt="141" wght="-0.0351252402003" />
        <Con id="225" src="84" tgt="141" wght="-6.7254982329905033" />
        <Con id="227" src="85" tgt="141" wght="0.144231607603" />
        <Con id="228" src="86" tgt="141" wght="1.5823706689956467" />
        <Con id="229" src="87" tgt="141" wght="0.0224470572111" />
        <Con id="230" src="88" tgt="141" wght="-0.00614580564558" />
        <Con id="231" src="89" tgt="141" wght="-0.0370742494324" />
        <Con id="232" src="90" tgt="141" wght="0.0353551488166" />
        <Con id="233" src="91" tgt="141" wght="-8.45259858308E-05" />
        <Con id="234" src="92" tgt="141" wght="-7.4855129611229492" />
        <Con id="235" src="93" tgt="141" wght="0.9593601765113855" />
        <Con id="236" src="94" tgt="141" wght="-0.0525003072832" />
        <Con id="237" src="95" tgt="141" wght="0.18420633529" />
        <Con id="238" src="96" tgt="141" wght="-1.1642845479219814" />
        <Con id="239" src="97" tgt="141" wght="0.0486396209112" />
        <Con id="240" src="98" tgt="141" wght="0.0902913123726" />
        <Con id="241" src="99" tgt="141" wght="0.139929866514" />
        <Con id="242" src="100" tgt="141" wght="0.057873277636789851" />
        <Con id="243" src="101" tgt="141" wght="0.0064436040485392849" />
        <Con id="244" src="102" tgt="141" wght="3.1779106717146588" />
        <Con id="245" src="103" tgt="141" wght="8.5426766983270284" />
        <Con id="246" src="104" tgt="141" wght="-0.0465633334309" />
        <Con id="247" src="105" tgt="141" wght="0.0348490786928" />
        <Con id="248" src="106" tgt="141" wght="-0.00619677690037" />
        <Con id="249" src="107" tgt="141" wght="-0.96281984125131248" />
        <Con id="250" src="108" tgt="141" wght="-3.4204087954867024" />
        <Con id="251" src="109" tgt="141" wght="-0.0127799569414" />
        <Con id="252" src="110" tgt="141" wght="0.0181713520833" />
        <Con id="253" src="111" tgt="141" wght="3.0593208875507116" />
        <Con id="254" src="112" tgt="141" wght="0.00536598176364" />
        <Con id="255" src="113" tgt="141" wght="-0.6315613352224817" />
        <Con id="256" src="114" tgt="141" wght="-0.103797347453" />
        <Con id="257" src="115" tgt="141" wght="0.0069662573254" />
        <Con id="258" src="116" tgt="141" wght="0.0151648561349" />
        <Con id="259" src="117" tgt="141" wght="-0.0650982292007" />
        <Con id="260" src="118" tgt="141" wght="-0.00659100803" />
        <Con id="261" src="119" tgt="141" wght="-0.00778360615026" />
        <Con id="262" src="120" tgt="141" wght="0.00514781085073" />
        <Con id="263" src="121" tgt="141" wght="0.0274985550669" />
        <Con id="264" src="122" tgt="141" wght="-0.21905277522726857" />
        <Con id="265" src="123" tgt="141" wght="-0.0144387596165" />
        <Con id="266" src="124" tgt="141" wght="-0.43310979787591958" />
        <Con id="267" src="125" tgt="141" wght="-0.0116587719222" />
        <Con id="268" src="126" tgt="141" wght="0.020023040371360074" />
        <Con id="269" src="127" tgt="141" wght="-2.4248389714083847" />
        <Con id="270" src="128" tgt="141" wght="0.00629429343187" />
        <Con id="271" src="129" tgt="141" wght="6.7019225936383009" />
        <Con id="272" src="130" tgt="141" wght="0.116491576636" />
        <Con id="273" src="131" tgt="141" wght="-2.0690771591007793" />
        <Con id="274" src="132" tgt="141" wght="0.065785902873174582" />
        <Con id="275" src="133" tgt="141" wght="-3.3347819559276104" />
        <Con id="276" src="134" tgt="141" wght="-4.3709996236719668" />
        <Con id="277" src="135" tgt="141" wght="0" />
        <Con id="278" src="136" tgt="141" wght="-1.816795615194077" />
        <Con id="279" src="137" tgt="141" wght="-0.0308226281167" />
        <Con id="280" src="138" tgt="141" wght="0.0963956058948" />
        <Con id="281" src="139" tgt="141" wght="0" />
        <Con id="282" src="140" tgt="141" wght="0.0161309398219" />
      </Connections>
    </Network>
    <Network id="90965" birthGen="58" fitness="0.54928542568542571">
      <Nodes>
        <Node type="bias" id="0" />
        <Node type="in" id="1" />
        <Node type="in" id="2" />
        <Node type="in" id="3" />
        <Node type="in" id="4" />
        <Node type="in" id="5" />
        <Node type="in" id="6" />
        <Node type="in" id="7" />
        <Node type="in" id="8" />
        <Node type="in" id="9" />
        <Node type="in" id="10" />
        <Node type="in" id="11" />
        <Node type="in" id="12" />
        <Node type="in" id="13" />
        <Node type="in" id="14" />
        <Node type="in" id="15" />
        <Node type="in" id="16" />
        <Node type="in" id="17" />
        <Node type="in" id="18" />
        <Node type="in" id="19" />
        <Node type="in" id="20" />
        <Node type="in" id="21" />
        <Node type="in" id="22" />
        <Node type="in" id="23" />
        <Node type="in" id="24" />
        <Node type="in" id="25" />
        <Node type="in" id="26" />
        <Node type="in" id="27" />
        <Node type="in" id="28" />
        <Node type="in" id="29" />
        <Node type="in" id="30" />
        <Node type="in" id="31" />
        <Node type="in" id="32" />
        <Node type="in" id="33" />
        <Node type="in" id="34" />
        <Node type="in" id="35" />
        <Node type="in" id="36" />
        <Node type="in" id="37" />
        <Node type="in" id="38" />
        <Node type="in" id="39" />
        <Node type="in" id="40" />
        <Node type="in" id="41" />
        <Node type="in" id="42" />
        <Node type="in" id="43" />
        <Node type="in" id="44" />
        <Node type="in" id="45" />
        <Node type="in" id="46" />
        <Node type="in" id="47" />
        <Node type="in" id="48" />
        <Node type="in" id="49" />
        <Node type="in" id="50" />
        <Node type="in" id="51" />
        <Node type="in" id="52" />
        <Node type="in" id="53" />
        <Node type="in" id="54" />
        <Node type="in" id="55" />
        <Node type="in" id="56" />
        <Node type="in" id="57" />
        <Node type="in" id="58" />
        <Node type="in" id="59" />
        <Node type="in" id="60" />
        <Node type="in" id="61" />
        <Node type="in" id="62" />
        <Node type="in" id="63" />
        <Node type="in" id="64" />
        <Node type="in" id="65" />
        <Node type="in" id="66" />
        <Node type="in" id="67" />
        <Node type="in" id="68" />
        <Node type="in" id="69" />
        <Node type="in" id="70" />
        <Node type="in" id="71" />
        <Node type="in" id="72" />
        <Node type="in" id="73" />
        <Node type="in" id="74" />
        <Node type="in" id="75" />
        <Node type="in" id="76" />
        <Node type="in" id="77" />
        <Node type="in" id="78" />
        <Node type="in" id="79" />
        <Node type="in" id="80" />
        <Node type="in" id="81" />
        <Node type="in" id="82" />
        <Node type="in" id="83" />
        <Node type="in" id="84" />
        <Node type="in" id="85" />
        <Node type="in" id="86" />
        <Node type="in" id="87" />
        <Node type="in" id="88" />
        <Node type="in" id="89" />
        <Node type="in" id="90" />
        <Node type="in" id="91" />
        <Node type="in" id="92" />
        <Node type="in" id="93" />
        <Node type="in" id="94" />
        <Node type="in" id="95" />
        <Node type="in" id="96" />
        <Node type="in" id="97" />
        <Node type="in" id="98" />
        <Node type="in" id="99" />
        <Node type="in" id="100" />
        <Node type="in" id="101" />
        <Node type="in" id="102" />
        <Node type="in" id="103" />
        <Node type="in" id="104" />
        <Node type="in" id="105" />
        <Node type="in" id="106" />
        <Node type="in" id="107" />
        <Node type="in" id="108" />
        <Node type="in" id="109" />
        <Node type="in" id="110" />
        <Node type="in" id="111" />
        <Node type="in" id="112" />
        <Node type="in" id="113" />
        <Node type="in" id="114" />
        <Node type="in" id="115" />
        <Node type="in" id="116" />
        <Node type="in" id="117" />
        <Node type="in" id="118" />
        <Node type="in" id="119" />
        <Node type="in" id="120" />
        <Node type="in" id="121" />
        <Node type="in" id="122" />
        <Node type="in" id="123" />
        <Node type="in" id="124" />
        <Node type="in" id="125" />
        <Node type="in" id="126" />
        <Node type="in" id="127" />
        <Node type="in" id="128" />
        <Node type="in" id="129" />
        <Node type="in" id="130" />
        <Node type="in" id="131" />
        <Node type="in" id="132" />
        <Node type="in" id="133" />
        <Node type="in" id="134" />
        <Node type="in" id="135" />
        <Node type="in" id="136" />
        <Node type="in" id="137" />
        <Node type="in" id="138" />
        <Node type="in" id="139" />
        <Node type="in" id="140" />
        <Node type="out" id="141" />
      </Nodes>
      <Connections>
        <Con id="142" src="0" tgt="141" wght="0" />
        <Con id="143" src="1" tgt="141" wght="0.00927096899632" />
        <Con id="144" src="2" tgt="141" wght="0.02767329518" />
        <Con id="145" src="3" tgt="141" wght="-6.1302658228563995" />
        <Con id="146" src="4" tgt="141" wght="0.0252518729156" />
        <Con id="147" src="5" tgt="141" wght="-0.0680032896463" />
        <Con id="148" src="6" tgt="141" wght="-0.0343570984279" />
        <Con id="149" src="7" tgt="141" wght="-0.062077374397" />
        <Con id="150" src="8" tgt="141" wght="0.9750410566797223" />
        <Con id="151" src="9" tgt="141" wght="0.0066547306662308181" />
        <Con id="152" src="10" tgt="141" wght="-0.36355500117468792" />
        <Con id="153" src="11" tgt="141" wght="1.7813477547301197" />
        <Con id="154" src="12" tgt="141" wght="0.0521583608779" />
        <Con id="155" src="13" tgt="141" wght="5.0207612104713917" />
        <Con id="156" src="14" tgt="141" wght="0.039154140739" />
        <Con id="157" src="15" tgt="141" wght="0.00465491538503" />
        <Con id="158" src="16" tgt="141" wght="-0.011821661706" />
        <Con id="159" src="17" tgt="141" wght="9.65478622354567" />
        <Con id="160" src="18" tgt="141" wght="-0.0289358105536" />
        <Con id="161" src="19" tgt="141" wght="-0.0285529151452" />
        <Con id="162" src="20" tgt="141" wght="3.4891766602910259" />
        <Con id="163" src="21" tgt="141" wght="0.0294822303747" />
        <Con id="164" src="22" tgt="141" wght="0.0163368897386" />
        <Con id="165" src="23" tgt="141" wght="0.328277648821" />
        <Con id="166" src="24" tgt="141" wght="0.130152847902" />
        <Con id="167" src="25" tgt="141" wght="0.0635350022692732" />
        <Con id="168" src="26" tgt="141" wght="0.415141484698" />
        <Con id="169" src="27" tgt="141" wght="0.0888645875045" />
        <Con id="170" src="28" tgt="141" wght="-0.123498493619" />
        <Con id="171" src="29" tgt="141" wght="0.0609333665061" />
        <Con id="172" src="30" tgt="141" wght="-0.069571961725896275" />
        <Con id="173" src="31" tgt="141" wght="-0.79677582810814185" />
        <Con id="174" src="32" tgt="141" wght="-0.0160044736767" />
        <Con id="175" src="33" tgt="141" wght="0.045389015989994966" />
        <Con id="176" src="34" tgt="141" wght="0.0703806412999" />
        <Con id="177" src="35" tgt="141" wght="0.106731794411" />
        <Con id="178" src="36" tgt="141" wght="0.0172612960626" />
        <Con id="180" src="38" tgt="141" wght="1.1720091732738573" />
        <Con id="181" src="39" tgt="141" wght="9.79965476348161" />
        <Con id="182" src="40" tgt="141" wght="0.57847253604611359" />
        <Con id="183" src="41" tgt="141" wght="-0.10158213353506711" />
        <Con id="184" src="42" tgt="141" wght="-0.0313146393022" />
        <Con id="185" src="43" tgt="141" wght="0.14184241372085352" />
        <Con id="186" src="44" tgt="141" wght="0.0313492307401" />
        <Con id="187" src="45" tgt="141" wght="-0.4929666828681204" />
        <Con id="188" src="46" tgt="141" wght="-0.00900191188191" />
        <Con id="189" src="47" tgt="141" wght="0.71836545880609848" />
        <Con id="190" src="48" tgt="141" wght="-0.0114311223256" />
        <Con id="191" src="49" tgt="141" wght="-0.0774827093704" />
        <Con id="192" src="50" tgt="141" wght="1.6415703507754535" />
        <Con id="193" src="51" tgt="141" wght="-0.047073973313874751" />
        <Con id="194" src="52" tgt="141" wght="0.804643304844276" />
        <Con id="195" src="53" tgt="141" wght="-0.12591489669" />
        <Con id="196" src="54" tgt="141" wght="-0.1106971268" />
        <Con id="197" src="55" tgt="141" wght="-0.056878534974183909" />
        <Con id="198" src="56" tgt="141" wght="0.053563748917" />
        <Con id="199" src="57" tgt="141" wght="-0.11743444720323351" />
        <Con id="200" src="58" tgt="141" wght="0.29726652365776229" />
        <Con id="201" src="59" tgt="141" wght="0.0226810526308" />
        <Con id="202" src="60" tgt="141" wght="0.17884376891587045" />
        <Con id="203" src="61" tgt="141" wght="-0.077813128282737468" />
        <Con id="204" src="62" tgt="141" wght="-0.0786813062615" />
        <Con id="205" src="63" tgt="141" wght="-9.3033429048955441" />
        <Con id="206" src="64" tgt="141" wght="0.0174027191555" />
        <Con id="207" src="65" tgt="141" wght="0.0363674538239" />
        <Con id="208" src="66" tgt="141" wght="-0.011723940980078545" />
        <Con id="209" src="67" tgt="141" wght="-0.128721160451" />
        <Con id="210" src="68" tgt="141" wght="0.0691717360697" />
        <Con id="211" src="69" tgt="141" wght="-0.0688849438445" />
        <Con id="212" src="70" tgt="141" wght="-4.0022640041717006" />
        <Con id="213" src="71" tgt="141" wght="-0.00752722987235" />
        <Con id="214" src="72" tgt="141" wght="-0.000778918863573" />
        <Con id="215" src="73" tgt="141" wght="1.6757222702187238" />
        <Con id="216" src="74" tgt="141" wght="-0.0224701651147" />
        <Con id="217" src="75" tgt="141" wght="-0.083744832305" />
        <Con id="218" src="76" tgt="141" wght="3.2670904323458672" />
        <Con id="219" src="77" tgt="141" wght="0.0505362597647" />
        <Con id="220" src="78" tgt="141" wght="0.00877704321316" />
        <Con id="221" src="79" tgt="141" wght="0.0241358832446" />
        <Con id="222" src="80" tgt="141" wght="0.105438099708" />
        <Con id="223" src="81" tgt="141" wght="2.9280903353861736" />
        <Con id="224" src="82" tgt="141" wght="-0.0351252402003" />
        <Con id="225" src="84" tgt="141" wght="-6.7254982329905033" />
        <Con id="227" src="85" tgt="141" wght="0.144231607603" />
        <Con id="228" src="86" tgt="141" wght="1.5823706689956467" />
        <Con id="229" src="87" tgt="141" wght="0.0224470572111" />
        <Con id="230" src="88" tgt="141" wght="-0.00614580564558" />
        <Con id="231" src="89" tgt="141" wght="-0.0370742494324" />
        <Con id="232" src="90" tgt="141" wght="0.0353551488166" />
        <Con id="233" src="91" tgt="141" wght="-8.45259858308E-05" />
        <Con id="234" src="92" tgt="141" wght="-7.4855129611229492" />
        <Con id="235" src="93" tgt="141" wght="0.9593601765113855" />
        <Con id="236" src="94" tgt="141" wght="-0.0525003072832" />
        <Con id="237" src="95" tgt="141" wght="0.18420633529" />
        <Con id="238" src="96" tgt="141" wght="-1.1642845479219814" />
        <Con id="239" src="97" tgt="141" wght="0.0486396209112" />
        <Con id="240" src="98" tgt="141" wght="0.0902913123726" />
        <Con id="241" src="99" tgt="141" wght="0.139929866514" />
        <Con id="242" src="100" tgt="141" wght="0.057873277636789851" />
        <Con id="243" src="101" tgt="141" wght="-0.00225547278396" />
        <Con id="244" src="102" tgt="141" wght="3.5385612093393397" />
        <Con id="245" src="103" tgt="141" wght="8.5426766983270284" />
        <Con id="246" src="104" tgt="141" wght="-0.0465633334309" />
        <Con id="247" src="105" tgt="141" wght="0.0348490786928" />
        <Con id="248" src="106" tgt="141" wght="-0.00619677690037" />
        <Con id="249" src="107" tgt="141" wght="-0.93697517633144334" />
        <Con id="250" src="108" tgt="141" wght="-3.9591838922783089" />
        <Con id="251" src="109" tgt="141" wght="-0.0127799569414" />
        <Con id="252" src="110" tgt="141" wght="0.0181713520833" />
        <Con id="253" src="111" tgt="141" wght="3.0593208875507116" />
        <Con id="254" src="112" tgt="141" wght="0.00536598176364" />
        <Con id="255" src="113" tgt="141" wght="-0.6315613352224817" />
        <Con id="256" src="114" tgt="141" wght="-0.103797347453" />
        <Con id="257" src="115" tgt="141" wght="0.0069662573254" />
        <Con id="258" src="116" tgt="141" wght="0.0151648561349" />
        <Con id="259" src="117" tgt="141" wght="-0.0650982292007" />
        <Con id="260" src="118" tgt="141" wght="-0.00659100803" />
        <Con id="261" src="119" tgt="141" wght="-0.00778360615026" />
        <Con id="262" src="120" tgt="141" wght="0.00514781085073" />
        <Con id="263" src="121" tgt="141" wght="0.0274985550669" />
        <Con id="264" src="122" tgt="141" wght="-0.21905277522726857" />
        <Con id="265" src="123" tgt="141" wght="-0.0144387596165" />
        <Con id="266" src="124" tgt="141" wght="-0.43310979787591958" />
        <Con id="267" src="125" tgt="141" wght="-0.0116587719222" />
        <Con id="268" src="126" tgt="141" wght="0.020023040371360074" />
        <Con id="269" src="127" tgt="141" wght="-2.4248389714083847" />
        <Con id="270" src="128" tgt="141" wght="0.00629429343187" />
        <Con id="271" src="129" tgt="141" wght="6.7019225936383009" />
        <Con id="272" src="130" tgt="141" wght="0.116491576636" />
        <Con id="273" src="131" tgt="141" wght="-2.0690771591007793" />
        <Con id="274" src="132" tgt="141" wght="0.065785902873174582" />
        <Con id="275" src="133" tgt="141" wght="-3.3347819559276104" />
        <Con id="276" src="134" tgt="141" wght="-4.3709996236719668" />
        <Con id="277" src="135" tgt="141" wght="0" />
        <Con id="278" src="136" tgt="141" wght="-1.816795615194077" />
        <Con id="279" src="137" tgt="141" wght="-0.0308226281167" />
        <Con id="280" src="138" tgt="141" wght="0.0963956058948" />
        <Con id="281" src="139" tgt="141" wght="0" />
        <Con id="282" src="140" tgt="141" wght="0.0161309398219" />
      </Connections>
    </Network>
    <Network id="90974" birthGen="58" fitness="0.53629163059163054">
      <Nodes>
        <Node type="bias" id="0" />
        <Node type="in" id="1" />
        <Node type="in" id="2" />
        <Node type="in" id="3" />
        <Node type="in" id="4" />
        <Node type="in" id="5" />
        <Node type="in" id="6" />
        <Node type="in" id="7" />
        <Node type="in" id="8" />
        <Node type="in" id="9" />
        <Node type="in" id="10" />
        <Node type="in" id="11" />
        <Node type="in" id="12" />
        <Node type="in" id="13" />
        <Node type="in" id="14" />
        <Node type="in" id="15" />
        <Node type="in" id="16" />
        <Node type="in" id="17" />
        <Node type="in" id="18" />
        <Node type="in" id="19" />
        <Node type="in" id="20" />
        <Node type="in" id="21" />
        <Node type="in" id="22" />
        <Node type="in" id="23" />
        <Node type="in" id="24" />
        <Node type="in" id="25" />
        <Node type="in" id="26" />
        <Node type="in" id="27" />
        <Node type="in" id="28" />
        <Node type="in" id="29" />
        <Node type="in" id="30" />
        <Node type="in" id="31" />
        <Node type="in" id="32" />
        <Node type="in" id="33" />
        <Node type="in" id="34" />
        <Node type="in" id="35" />
        <Node type="in" id="36" />
        <Node type="in" id="37" />
        <Node type="in" id="38" />
        <Node type="in" id="39" />
        <Node type="in" id="40" />
        <Node type="in" id="41" />
        <Node type="in" id="42" />
        <Node type="in" id="43" />
        <Node type="in" id="44" />
        <Node type="in" id="45" />
        <Node type="in" id="46" />
        <Node type="in" id="47" />
        <Node type="in" id="48" />
        <Node type="in" id="49" />
        <Node type="in" id="50" />
        <Node type="in" id="51" />
        <Node type="in" id="52" />
        <Node type="in" id="53" />
        <Node type="in" id="54" />
        <Node type="in" id="55" />
        <Node type="in" id="56" />
        <Node type="in" id="57" />
        <Node type="in" id="58" />
        <Node type="in" id="59" />
        <Node type="in" id="60" />
        <Node type="in" id="61" />
        <Node type="in" id="62" />
        <Node type="in" id="63" />
        <Node type="in" id="64" />
        <Node type="in" id="65" />
        <Node type="in" id="66" />
        <Node type="in" id="67" />
        <Node type="in" id="68" />
        <Node type="in" id="69" />
        <Node type="in" id="70" />
        <Node type="in" id="71" />
        <Node type="in" id="72" />
        <Node type="in" id="73" />
        <Node type="in" id="74" />
        <Node type="in" id="75" />
        <Node type="in" id="76" />
        <Node type="in" id="77" />
        <Node type="in" id="78" />
        <Node type="in" id="79" />
        <Node type="in" id="80" />
        <Node type="in" id="81" />
        <Node type="in" id="82" />
        <Node type="in" id="83" />
        <Node type="in" id="84" />
        <Node type="in" id="85" />
        <Node type="in" id="86" />
        <Node type="in" id="87" />
        <Node type="in" id="88" />
        <Node type="in" id="89" />
        <Node type="in" id="90" />
        <Node type="in" id="91" />
        <Node type="in" id="92" />
        <Node type="in" id="93" />
        <Node type="in" id="94" />
        <Node type="in" id="95" />
        <Node type="in" id="96" />
        <Node type="in" id="97" />
        <Node type="in" id="98" />
        <Node type="in" id="99" />
        <Node type="in" id="100" />
        <Node type="in" id="101" />
        <Node type="in" id="102" />
        <Node type="in" id="103" />
        <Node type="in" id="104" />
        <Node type="in" id="105" />
        <Node type="in" id="106" />
        <Node type="in" id="107" />
        <Node type="in" id="108" />
        <Node type="in" id="109" />
        <Node type="in" id="110" />
        <Node type="in" id="111" />
        <Node type="in" id="112" />
        <Node type="in" id="113" />
        <Node type="in" id="114" />
        <Node type="in" id="115" />
        <Node type="in" id="116" />
        <Node type="in" id="117" />
        <Node type="in" id="118" />
        <Node type="in" id="119" />
        <Node type="in" id="120" />
        <Node type="in" id="121" />
        <Node type="in" id="122" />
        <Node type="in" id="123" />
        <Node type="in" id="124" />
        <Node type="in" id="125" />
        <Node type="in" id="126" />
        <Node type="in" id="127" />
        <Node type="in" id="128" />
        <Node type="in" id="129" />
        <Node type="in" id="130" />
        <Node type="in" id="131" />
        <Node type="in" id="132" />
        <Node type="in" id="133" />
        <Node type="in" id="134" />
        <Node type="in" id="135" />
        <Node type="in" id="136" />
        <Node type="in" id="137" />
        <Node type="in" id="138" />
        <Node type="in" id="139" />
        <Node type="in" id="140" />
        <Node type="out" id="141" />
      </Nodes>
      <Connections>
        <Con id="142" src="0" tgt="141" wght="0" />
        <Con id="143" src="1" tgt="141" wght="0.00927096899632" />
        <Con id="144" src="2" tgt="141" wght="-0.1123221454343038" />
        <Con id="145" src="3" tgt="141" wght="-0.12294135551430276" />
        <Con id="146" src="4" tgt="141" wght="-8.2777741644531488" />
        <Con id="147" src="5" tgt="141" wght="1.0972151842240725" />
        <Con id="148" src="6" tgt="141" wght="-0.0343570984279" />
        <Con id="149" src="7" tgt="141" wght="0.19461265078097034" />
        <Con id="150" src="8" tgt="141" wght="0.00220340184316" />
        <Con id="151" src="9" tgt="141" wght="0.00848052318789" />
        <Con id="152" src="10" tgt="141" wght="0.00795865028591" />
        <Con id="153" src="11" tgt="141" wght="-0.57819128165432376" />
        <Con id="154" src="12" tgt="141" wght="-2.53780820172732" />
        <Con id="155" src="13" tgt="141" wght="-0.35254269946974204" />
        <Con id="156" src="14" tgt="141" wght="0.03693459041199721" />
        <Con id="157" src="15" tgt="141" wght="0.00465491538503" />
        <Con id="158" src="16" tgt="141" wght="-0.983633420778686" />
        <Con id="159" src="17" tgt="141" wght="0.0113160226347" />
        <Con id="160" src="18" tgt="141" wght="2.0573484167729048" />
        <Con id="161" src="19" tgt="141" wght="0.058933400814343423" />
        <Con id="162" src="20" tgt="141" wght="-0.0692133571552" />
        <Con id="163" src="21" tgt="141" wght="2.2918695397675037" />
        <Con id="164" src="22" tgt="141" wght="0.30674682930111885" />
        <Con id="165" src="23" tgt="141" wght="0.328277648821" />
        <Con id="166" src="24" tgt="141" wght="0.130152847902" />
        <Con id="167" src="25" tgt="141" wght="0.0873694601856" />
        <Con id="168" src="26" tgt="141" wght="-0.15055199488152787" />
        <Con id="169" src="27" tgt="141" wght="0.0888645875045" />
        <Con id="170" src="28" tgt="141" wght="-0.123498493619" />
        <Con id="171" src="29" tgt="141" wght="0.049922965781458987" />
        <Con id="172" src="30" tgt="141" wght="-0.14130304324" />
        <Con id="173" src="31" tgt="141" wght="-1.6248594578474058" />
        <Con id="174" src="32" tgt="141" wght="-0.0160044736767" />
        <Con id="175" src="33" tgt="141" wght="0.0322637011466" />
        <Con id="176" src="34" tgt="141" wght="0.0703806412999" />
        <Con id="177" src="35" tgt="141" wght="0.106731794411" />
        <Con id="178" src="37" tgt="141" wght="0.85197319435954055" />
        <Con id="178" src="36" tgt="141" wght="-4.3608695488594567" />
        <Con id="180" src="38" tgt="141" wght="0.33727837583883657" />
        <Con id="181" src="39" tgt="141" wght="0.071269517648" />
        <Con id="182" src="40" tgt="141" wght="-0.0334177076182" />
        <Con id="183" src="41" tgt="141" wght="-0.108634732525" />
        <Con id="184" src="42" tgt="141" wght="-9.4807970058172941" />
        <Con id="185" src="43" tgt="141" wght="-0.0363061950348" />
        <Con id="186" src="44" tgt="141" wght="0.0313492307401" />
        <Con id="187" src="45" tgt="141" wght="-0.04692550263021051" />
        <Con id="188" src="46" tgt="141" wght="-0.46646090854076222" />
        <Con id="189" src="47" tgt="141" wght="-9.819399444386363" />
        <Con id="190" src="48" tgt="141" wght="-0.33531039253405587" />
        <Con id="191" src="49" tgt="141" wght="-0.10717564379277894" />
        <Con id="192" src="50" tgt="141" wght="0.109501942571" />
        <Con id="193" src="51" tgt="141" wght="-0.0299298166615" />
        <Con id="194" src="52" tgt="141" wght="0" />
        <Con id="195" src="53" tgt="141" wght="-0.12591489669" />
        <Con id="196" src="54" tgt="141" wght="-3.5371486725597325" />
        <Con id="197" src="55" tgt="141" wght="1.5952979028224945" />
        <Con id="198" src="56" tgt="141" wght="-5.8628936018794775" />
        <Con id="199" src="57" tgt="141" wght="-0.0182588264944" />
        <Con id="200" src="58" tgt="141" wght="0.0203031387894" />
        <Con id="201" src="59" tgt="141" wght="-0.0072621783233233553" />
        <Con id="202" src="60" tgt="141" wght="0.27122468860898885" />
        <Con id="203" src="61" tgt="141" wght="-0.08558342902" />
        <Con id="204" src="62" tgt="141" wght="1.2287477422344226" />
        <Con id="205" src="63" tgt="141" wght="-0.0430027740697" />
        <Con id="206" src="64" tgt="141" wght="0.0174027191555" />
        <Con id="207" src="65" tgt="141" wght="0.0363674538239" />
        <Con id="208" src="66" tgt="141" wght="2.7937463418050643" />
        <Con id="209" src="67" tgt="141" wght="-0.023190912842431938" />
        <Con id="210" src="68" tgt="141" wght="1.4982466924125544" />
        <Con id="211" src="69" tgt="141" wght="3.3529959536837297" />
        <Con id="212" src="70" tgt="141" wght="0.0941178999373" />
        <Con id="213" src="71" tgt="141" wght="-0.673056768853348" />
        <Con id="214" src="72" tgt="141" wght="-0.000778918863573" />
        <Con id="215" src="73" tgt="141" wght="-0.00760208707807" />
        <Con id="216" src="74" tgt="141" wght="-0.0224701651147" />
        <Con id="217" src="75" tgt="141" wght="-0.083744832305" />
        <Con id="218" src="76" tgt="141" wght="1.3937952880424145" />
        <Con id="219" src="77" tgt="141" wght="-0.77829951283363707" />
        <Con id="220" src="78" tgt="141" wght="6.4856491144746542" />
        <Con id="221" src="79" tgt="141" wght="8.3650029078125954" />
        <Con id="222" src="80" tgt="141" wght="0.105438099708" />
        <Con id="223" src="81" tgt="141" wght="-0.0906737420581" />
        <Con id="224" src="82" tgt="141" wght="-0.0351252402003" />
        <Con id="225" src="83" tgt="141" wght="-0.0157416650651" />
        <Con id="227" src="85" tgt="141" wght="-6.453111432492733" />
        <Con id="228" src="86" tgt="141" wght="-0.0699426836934" />
        <Con id="229" src="87" tgt="141" wght="0.0224470572111" />
        <Con id="230" src="88" tgt="141" wght="-0.8932950347661972" />
        <Con id="231" src="89" tgt="141" wght="0.41008961297880125" />
        <Con id="232" src="90" tgt="141" wght="0.054842192309015436" />
        <Con id="233" src="91" tgt="141" wght="-8.45259858308E-05" />
        <Con id="234" src="92" tgt="141" wght="-0.35641202111192982" />
        <Con id="235" src="93" tgt="141" wght="1.3698945075726583" />
        <Con id="236" src="94" tgt="141" wght="-0.067056789313466536" />
        <Con id="237" src="95" tgt="141" wght="0.18420633529" />
        <Con id="238" src="96" tgt="141" wght="0.0128463176453" />
        <Con id="239" src="97" tgt="141" wght="0.0486396209112" />
        <Con id="240" src="98" tgt="141" wght="-0.57825247350091857" />
        <Con id="241" src="99" tgt="141" wght="3.6037623328424679" />
        <Con id="242" src="100" tgt="141" wght="-0.0030249056305" />
        <Con id="243" src="101" tgt="141" wght="-0.00225547278396" />
        <Con id="244" src="102" tgt="141" wght="-0.0430500730275" />
        <Con id="245" src="103" tgt="141" wght="-0.0025814699287" />
        <Con id="246" src="104" tgt="141" wght="-0.0465633334309" />
        <Con id="247" src="105" tgt="141" wght="0.0348490786928" />
        <Con id="248" src="106" tgt="141" wght="-0.00619677690037" />
        <Con id="249" src="107" tgt="141" wght="-0.0520825975379" />
        <Con id="250" src="108" tgt="141" wght="-0.049906398274598335" />
        <Con id="251" src="109" tgt="141" wght="9.86935012973845" />
        <Con id="252" src="110" tgt="141" wght="-1.9873893074691296" />
        <Con id="253" src="111" tgt="141" wght="7.4898883048444986" />
        <Con id="254" src="112" tgt="141" wght="0.00536598176364" />
        <Con id="255" src="113" tgt="141" wght="0.0602374427254" />
        <Con id="256" src="114" tgt="141" wght="0.44948994280560162" />
        <Con id="257" src="115" tgt="141" wght="-7.6791928336024284" />
        <Con id="258" src="116" tgt="141" wght="0.846824594775455" />
        <Con id="259" src="117" tgt="141" wght="-0.0650982292007" />
        <Con id="260" src="118" tgt="141" wght="-0.00659100803" />
        <Con id="261" src="119" tgt="141" wght="-0.00778360615026" />
        <Con id="262" src="120" tgt="141" wght="0.00514781085073" />
        <Con id="263" src="121" tgt="141" wght="1.2651505940256511" />
        <Con id="264" src="122" tgt="141" wght="1.3195440080016851" />
        <Con id="265" src="123" tgt="141" wght="-3.957619545981288" />
        <Con id="266" src="124" tgt="141" wght="0.41146476147844097" />
        <Con id="267" src="125" tgt="141" wght="-0.0116587719222" />
        <Con id="268" src="126" tgt="141" wght="-0.0132245025551" />
        <Con id="269" src="127" tgt="141" wght="-0.0198290303584" />
        <Con id="270" src="128" tgt="141" wght="-0.33947357338522433" />
        <Con id="271" src="129" tgt="141" wght="-0.387159349833069" />
        <Con id="272" src="130" tgt="141" wght="0.116491576636" />
        <Con id="273" src="131" tgt="141" wght="0.97071953424184876" />
        <Con id="274" src="132" tgt="141" wght="2.1401567784790227" />
        <Con id="275" src="133" tgt="141" wght="0.00304342469419" />
        <Con id="276" src="134" tgt="141" wght="0.45693445670647653" />
        <Con id="277" src="135" tgt="141" wght="0" />
        <Con id="278" src="136" tgt="141" wght="-0.916339342374197" />
        <Con id="279" src="137" tgt="141" wght="-0.0308226281167" />
        <Con id="280" src="138" tgt="141" wght="0.0963956058948" />
        <Con id="281" src="139" tgt="141" wght="0" />
        <Con id="282" src="140" tgt="141" wght="5.3571457881480455" />
      </Connections>
    </Network>
    <Network id="90981" birthGen="58" fitness="0.52813477633477635">
      <Nodes>
        <Node type="bias" id="0" />
        <Node type="in" id="1" />
        <Node type="in" id="2" />
        <Node type="in" id="3" />
        <Node type="in" id="4" />
        <Node type="in" id="5" />
        <Node type="in" id="6" />
        <Node type="in" id="7" />
        <Node type="in" id="8" />
        <Node type="in" id="9" />
        <Node type="in" id="10" />
        <Node type="in" id="11" />
        <Node type="in" id="12" />
        <Node type="in" id="13" />
        <Node type="in" id="14" />
        <Node type="in" id="15" />
        <Node type="in" id="16" />
        <Node type="in" id="17" />
        <Node type="in" id="18" />
        <Node type="in" id="19" />
        <Node type="in" id="20" />
        <Node type="in" id="21" />
        <Node type="in" id="22" />
        <Node type="in" id="23" />
        <Node type="in" id="24" />
        <Node type="in" id="25" />
        <Node type="in" id="26" />
        <Node type="in" id="27" />
        <Node type="in" id="28" />
        <Node type="in" id="29" />
        <Node type="in" id="30" />
        <Node type="in" id="31" />
        <Node type="in" id="32" />
        <Node type="in" id="33" />
        <Node type="in" id="34" />
        <Node type="in" id="35" />
        <Node type="in" id="36" />
        <Node type="in" id="37" />
        <Node type="in" id="38" />
        <Node type="in" id="39" />
        <Node type="in" id="40" />
        <Node type="in" id="41" />
        <Node type="in" id="42" />
        <Node type="in" id="43" />
        <Node type="in" id="44" />
        <Node type="in" id="45" />
        <Node type="in" id="46" />
        <Node type="in" id="47" />
        <Node type="in" id="48" />
        <Node type="in" id="49" />
        <Node type="in" id="50" />
        <Node type="in" id="51" />
        <Node type="in" id="52" />
        <Node type="in" id="53" />
        <Node type="in" id="54" />
        <Node type="in" id="55" />
        <Node type="in" id="56" />
        <Node type="in" id="57" />
        <Node type="in" id="58" />
        <Node type="in" id="59" />
        <Node type="in" id="60" />
        <Node type="in" id="61" />
        <Node type="in" id="62" />
        <Node type="in" id="63" />
        <Node type="in" id="64" />
        <Node type="in" id="65" />
        <Node type="in" id="66" />
        <Node type="in" id="67" />
        <Node type="in" id="68" />
        <Node type="in" id="69" />
        <Node type="in" id="70" />
        <Node type="in" id="71" />
        <Node type="in" id="72" />
        <Node type="in" id="73" />
        <Node type="in" id="74" />
        <Node type="in" id="75" />
        <Node type="in" id="76" />
        <Node type="in" id="77" />
        <Node type="in" id="78" />
        <Node type="in" id="79" />
        <Node type="in" id="80" />
        <Node type="in" id="81" />
        <Node type="in" id="82" />
        <Node type="in" id="83" />
        <Node type="in" id="84" />
        <Node type="in" id="85" />
        <Node type="in" id="86" />
        <Node type="in" id="87" />
        <Node type="in" id="88" />
        <Node type="in" id="89" />
        <Node type="in" id="90" />
        <Node type="in" id="91" />
        <Node type="in" id="92" />
        <Node type="in" id="93" />
        <Node type="in" id="94" />
        <Node type="in" id="95" />
        <Node type="in" id="96" />
        <Node type="in" id="97" />
        <Node type="in" id="98" />
        <Node type="in" id="99" />
        <Node type="in" id="100" />
        <Node type="in" id="101" />
        <Node type="in" id="102" />
        <Node type="in" id="103" />
        <Node type="in" id="104" />
        <Node type="in" id="105" />
        <Node type="in" id="106" />
        <Node type="in" id="107" />
        <Node type="in" id="108" />
        <Node type="in" id="109" />
        <Node type="in" id="110" />
        <Node type="in" id="111" />
        <Node type="in" id="112" />
        <Node type="in" id="113" />
        <Node type="in" id="114" />
        <Node type="in" id="115" />
        <Node type="in" id="116" />
        <Node type="in" id="117" />
        <Node type="in" id="118" />
        <Node type="in" id="119" />
        <Node type="in" id="120" />
        <Node type="in" id="121" />
        <Node type="in" id="122" />
        <Node type="in" id="123" />
        <Node type="in" id="124" />
        <Node type="in" id="125" />
        <Node type="in" id="126" />
        <Node type="in" id="127" />
        <Node type="in" id="128" />
        <Node type="in" id="129" />
        <Node type="in" id="130" />
        <Node type="in" id="131" />
        <Node type="in" id="132" />
        <Node type="in" id="133" />
        <Node type="in" id="134" />
        <Node type="in" id="135" />
        <Node type="in" id="136" />
        <Node type="in" id="137" />
        <Node type="in" id="138" />
        <Node type="in" id="139" />
        <Node type="in" id="140" />
        <Node type="out" id="141" />
      </Nodes>
      <Connections>
        <Con id="142" src="0" tgt="141" wght="0" />
        <Con id="143" src="1" tgt="141" wght="-1.1257893638275949" />
        <Con id="144" src="2" tgt="141" wght="-0.1123221454343038" />
        <Con id="145" src="3" tgt="141" wght="-0.0941257342241" />
        <Con id="146" src="4" tgt="141" wght="0.0252518729156" />
        <Con id="147" src="5" tgt="141" wght="0.74357391860698741" />
        <Con id="148" src="6" tgt="141" wght="-0.0343570984279" />
        <Con id="149" src="7" tgt="141" wght="0.19461265078097034" />
        <Con id="150" src="8" tgt="141" wght="-1.0472386572867498" />
        <Con id="151" src="9" tgt="141" wght="0.00848052318789" />
        <Con id="152" src="10" tgt="141" wght="0.00795865028591" />
        <Con id="153" src="11" tgt="141" wght="-0.57819128165432376" />
        <Con id="154" src="12" tgt="141" wght="-2.53780820172732" />
        <Con id="155" src="13" tgt="141" wght="-0.35254269946974204" />
        <Con id="156" src="14" tgt="141" wght="-1.7391161596012421" />
        <Con id="157" src="15" tgt="141" wght="0.00465491538503" />
        <Con id="158" src="16" tgt="141" wght="-1.0106376868463467" />
        <Con id="159" src="17" tgt="141" wght="0.0113160226347" />
        <Con id="160" src="18" tgt="141" wght="2.0476524996490459" />
        <Con id="161" src="19" tgt="141" wght="0.058933400814343423" />
        <Con id="162" src="20" tgt="141" wght="-0.0692133571552" />
        <Con id="163" src="21" tgt="141" wght="2.2918695397675037" />
        <Con id="164" src="22" tgt="141" wght="6.8986283056437969" />
        <Con id="165" src="23" tgt="141" wght="0.328277648821" />
        <Con id="166" src="24" tgt="141" wght="0.130152847902" />
        <Con id="167" src="25" tgt="141" wght="0.0873694601856" />
        <Con id="168" src="26" tgt="141" wght="-0.15055199488152787" />
        <Con id="169" src="27" tgt="141" wght="0.0888645875045" />
        <Con id="170" src="28" tgt="141" wght="-0.123498493619" />
        <Con id="171" src="29" tgt="141" wght="0.0609333665061" />
        <Con id="172" src="30" tgt="141" wght="-4.4151154812425375" />
        <Con id="173" src="31" tgt="141" wght="-1.6248594578474058" />
        <Con id="174" src="32" tgt="141" wght="-0.0160044736767" />
        <Con id="175" src="33" tgt="141" wght="0.0322637011466" />
        <Con id="176" src="34" tgt="141" wght="0.0703806412999" />
        <Con id="177" src="35" tgt="141" wght="0.106731794411" />
        <Con id="178" src="36" tgt="141" wght="-6.52152837254107" />
        <Con id="178" src="37" tgt="141" wght="0.85197319435954055" />
        <Con id="180" src="38" tgt="141" wght="-0.0368855489851" />
        <Con id="181" src="39" tgt="141" wght="0.071269517648" />
        <Con id="182" src="40" tgt="141" wght="0.74018728841966464" />
        <Con id="183" src="41" tgt="141" wght="-0.108634732525" />
        <Con id="184" src="42" tgt="141" wght="-9.4807970058172941" />
        <Con id="185" src="43" tgt="141" wght="-0.0363061950348" />
        <Con id="186" src="44" tgt="141" wght="1.134342234243922" />
        <Con id="187" src="45" tgt="141" wght="-0.064354178406978893" />
        <Con id="188" src="46" tgt="141" wght="0.51762122401192423" />
        <Con id="189" src="47" tgt="141" wght="-1.9668931793421507" />
        <Con id="190" src="48" tgt="141" wght="-0.0114311223256" />
        <Con id="191" src="49" tgt="141" wght="-0.0774827093704" />
        <Con id="192" src="50" tgt="141" wght="1.1939687381519293" />
        <Con id="193" src="51" tgt="141" wght="0.36108897701561854" />
        <Con id="194" src="52" tgt="141" wght="0" />
        <Con id="195" src="53" tgt="141" wght="-0.12591489669" />
        <Con id="196" src="54" tgt="141" wght="-3.5371486725597325" />
        <Con id="197" src="55" tgt="141" wght="1.5952979028224945" />
        <Con id="198" src="56" tgt="141" wght="0.053563748917" />
        <Con id="199" src="57" tgt="141" wght="-0.0182588264944" />
        <Con id="200" src="58" tgt="141" wght="0.0203031387894" />
        <Con id="201" src="59" tgt="141" wght="0.0226810526308" />
        <Con id="202" src="60" tgt="141" wght="0.27122468860898885" />
        <Con id="203" src="61" tgt="141" wght="-0.08558342902" />
        <Con id="204" src="62" tgt="141" wght="-0.0786813062615" />
        <Con id="205" src="63" tgt="141" wght="-0.0430027740697" />
        <Con id="206" src="64" tgt="141" wght="0.0174027191555" />
        <Con id="207" src="65" tgt="141" wght="0.0363674538239" />
        <Con id="208" src="66" tgt="141" wght="0.66954287801568768" />
        <Con id="209" src="67" tgt="141" wght="-0.128721160451" />
        <Con id="210" src="68" tgt="141" wght="0.0691717360697" />
        <Con id="211" src="69" tgt="141" wght="3.5980463022550211" />
        <Con id="212" src="70" tgt="141" wght="0.0941178999373" />
        <Con id="213" src="71" tgt="141" wght="-0.673056768853348" />
        <Con id="214" src="72" tgt="141" wght="-0.000778918863573" />
        <Con id="215" src="73" tgt="141" wght="0.6034879594239132" />
        <Con id="216" src="74" tgt="141" wght="-0.0224701651147" />
        <Con id="217" src="75" tgt="141" wght="-0.083744832305" />
        <Con id="218" src="76" tgt="141" wght="0.00198943025961" />
        <Con id="219" src="77" tgt="141" wght="-0.77829951283363707" />
        <Con id="220" src="78" tgt="141" wght="6.4856491144746542" />
        <Con id="221" src="79" tgt="141" wght="8.3650029078125954" />
        <Con id="222" src="80" tgt="141" wght="0.105438099708" />
        <Con id="223" src="81" tgt="141" wght="-0.0906737420581" />
        <Con id="224" src="82" tgt="141" wght="-1.1236140136190855" />
        <Con id="225" src="83" tgt="141" wght="-0.0157416650651" />
        <Con id="227" src="85" tgt="141" wght="-6.8377228516811295" />
        <Con id="228" src="86" tgt="141" wght="-0.0699426836934" />
        <Con id="229" src="87" tgt="141" wght="0.0224470572111" />
        <Con id="230" src="88" tgt="141" wght="0.77322271310269175" />
        <Con id="231" src="89" tgt="141" wght="-0.0370742494324" />
        <Con id="232" src="90" tgt="141" wght="1.4409914054459989" />
        <Con id="233" src="91" tgt="141" wght="-8.45259858308E-05" />
        <Con id="234" src="92" tgt="141" wght="-0.35641202111192982" />
        <Con id="235" src="93" tgt="141" wght="-8.2441807724535465" />
        <Con id="236" src="94" tgt="141" wght="-0.0525003072832" />
        <Con id="237" src="95" tgt="141" wght="0.18420633529" />
        <Con id="238" src="96" tgt="141" wght="0.0128463176453" />
        <Con id="239" src="97" tgt="141" wght="-0.58866423067385165" />
        <Con id="240" src="98" tgt="141" wght="0.0902913123726" />
        <Con id="241" src="99" tgt="141" wght="2.3619758011480885" />
        <Con id="242" src="100" tgt="141" wght="-0.0030249056305" />
        <Con id="243" src="101" tgt="141" wght="-0.00225547278396" />
        <Con id="244" src="102" tgt="141" wght="-0.0430500730275" />
        <Con id="245" src="103" tgt="141" wght="-0.0025814699287" />
        <Con id="246" src="104" tgt="141" wght="-0.0465633334309" />
        <Con id="247" src="105" tgt="141" wght="0.0348490786928" />
        <Con id="248" src="106" tgt="141" wght="-0.00619677690037" />
        <Con id="249" src="107" tgt="141" wght="-0.0520825975379" />
        <Con id="250" src="108" tgt="141" wght="-6.7912247234267955" />
        <Con id="251" src="109" tgt="141" wght="10" />
        <Con id="252" src="110" tgt="141" wght="-1.9873893074691296" />
        <Con id="253" src="111" tgt="141" wght="4.8184201493859291" />
        <Con id="254" src="112" tgt="141" wght="0.00536598176364" />
        <Con id="255" src="113" tgt="141" wght="0.0602374427254" />
        <Con id="256" src="114" tgt="141" wght="-0.103797347453" />
        <Con id="257" src="115" tgt="141" wght="-4.4796207081526518" />
        <Con id="258" src="116" tgt="141" wght="0.846824594775455" />
        <Con id="259" src="117" tgt="141" wght="-0.0650982292007" />
        <Con id="260" src="118" tgt="141" wght="-0.00659100803" />
        <Con id="261" src="119" tgt="141" wght="0.61054541260349726" />
        <Con id="262" src="120" tgt="141" wght="0.00514781085073" />
        <Con id="263" src="121" tgt="141" wght="0.896542783065906" />
        <Con id="264" src="122" tgt="141" wght="0.0139399585058" />
        <Con id="265" src="123" tgt="141" wght="-3.957619545981288" />
        <Con id="266" src="124" tgt="141" wght="0.0570949174478" />
        <Con id="267" src="125" tgt="141" wght="-0.0116587719222" />
        <Con id="268" src="126" tgt="141" wght="-0.0132245025551" />
        <Con id="269" src="127" tgt="141" wght="-0.0198290303584" />
        <Con id="270" src="128" tgt="141" wght="-0.33947357338522433" />
        <Con id="271" src="129" tgt="141" wght="-0.387159349833069" />
        <Con id="272" src="130" tgt="141" wght="0.116491576636" />
        <Con id="273" src="131" tgt="141" wght="0.95796945174284553" />
        <Con id="274" src="132" tgt="141" wght="-0.0645205496378" />
        <Con id="275" src="133" tgt="141" wght="0.00304342469419" />
        <Con id="276" src="134" tgt="141" wght="0.44655074755690705" />
        <Con id="277" src="135" tgt="141" wght="0" />
        <Con id="278" src="136" tgt="141" wght="0" />
        <Con id="279" src="137" tgt="141" wght="-0.0308226281167" />
        <Con id="280" src="138" tgt="141" wght="0.0963956058948" />
        <Con id="281" src="139" tgt="141" wght="0" />
        <Con id="282" src="140" tgt="141" wght="0.0161309398219" />
      </Connections>
    </Network>
    <Network id="90984" birthGen="58" fitness="0.52679018759018759">
      <Nodes>
        <Node type="bias" id="0" />
        <Node type="in" id="1" />
        <Node type="in" id="2" />
        <Node type="in" id="3" />
        <Node type="in" id="4" />
        <Node type="in" id="5" />
        <Node type="in" id="6" />
        <Node type="in" id="7" />
        <Node type="in" id="8" />
        <Node type="in" id="9" />
        <Node type="in" id="10" />
        <Node type="in" id="11" />
        <Node type="in" id="12" />
        <Node type="in" id="13" />
        <Node type="in" id="14" />
        <Node type="in" id="15" />
        <Node type="in" id="16" />
        <Node type="in" id="17" />
        <Node type="in" id="18" />
        <Node type="in" id="19" />
        <Node type="in" id="20" />
        <Node type="in" id="21" />
        <Node type="in" id="22" />
        <Node type="in" id="23" />
        <Node type="in" id="24" />
        <Node type="in" id="25" />
        <Node type="in" id="26" />
        <Node type="in" id="27" />
        <Node type="in" id="28" />
        <Node type="in" id="29" />
        <Node type="in" id="30" />
        <Node type="in" id="31" />
        <Node type="in" id="32" />
        <Node type="in" id="33" />
        <Node type="in" id="34" />
        <Node type="in" id="35" />
        <Node type="in" id="36" />
        <Node type="in" id="37" />
        <Node type="in" id="38" />
        <Node type="in" id="39" />
        <Node type="in" id="40" />
        <Node type="in" id="41" />
        <Node type="in" id="42" />
        <Node type="in" id="43" />
        <Node type="in" id="44" />
        <Node type="in" id="45" />
        <Node type="in" id="46" />
        <Node type="in" id="47" />
        <Node type="in" id="48" />
        <Node type="in" id="49" />
        <Node type="in" id="50" />
        <Node type="in" id="51" />
        <Node type="in" id="52" />
        <Node type="in" id="53" />
        <Node type="in" id="54" />
        <Node type="in" id="55" />
        <Node type="in" id="56" />
        <Node type="in" id="57" />
        <Node type="in" id="58" />
        <Node type="in" id="59" />
        <Node type="in" id="60" />
        <Node type="in" id="61" />
        <Node type="in" id="62" />
        <Node type="in" id="63" />
        <Node type="in" id="64" />
        <Node type="in" id="65" />
        <Node type="in" id="66" />
        <Node type="in" id="67" />
        <Node type="in" id="68" />
        <Node type="in" id="69" />
        <Node type="in" id="70" />
        <Node type="in" id="71" />
        <Node type="in" id="72" />
        <Node type="in" id="73" />
        <Node type="in" id="74" />
        <Node type="in" id="75" />
        <Node type="in" id="76" />
        <Node type="in" id="77" />
        <Node type="in" id="78" />
        <Node type="in" id="79" />
        <Node type="in" id="80" />
        <Node type="in" id="81" />
        <Node type="in" id="82" />
        <Node type="in" id="83" />
        <Node type="in" id="84" />
        <Node type="in" id="85" />
        <Node type="in" id="86" />
        <Node type="in" id="87" />
        <Node type="in" id="88" />
        <Node type="in" id="89" />
        <Node type="in" id="90" />
        <Node type="in" id="91" />
        <Node type="in" id="92" />
        <Node type="in" id="93" />
        <Node type="in" id="94" />
        <Node type="in" id="95" />
        <Node type="in" id="96" />
        <Node type="in" id="97" />
        <Node type="in" id="98" />
        <Node type="in" id="99" />
        <Node type="in" id="100" />
        <Node type="in" id="101" />
        <Node type="in" id="102" />
        <Node type="in" id="103" />
        <Node type="in" id="104" />
        <Node type="in" id="105" />
        <Node type="in" id="106" />
        <Node type="in" id="107" />
        <Node type="in" id="108" />
        <Node type="in" id="109" />
        <Node type="in" id="110" />
        <Node type="in" id="111" />
        <Node type="in" id="112" />
        <Node type="in" id="113" />
        <Node type="in" id="114" />
        <Node type="in" id="115" />
        <Node type="in" id="116" />
        <Node type="in" id="117" />
        <Node type="in" id="118" />
        <Node type="in" id="119" />
        <Node type="in" id="120" />
        <Node type="in" id="121" />
        <Node type="in" id="122" />
        <Node type="in" id="123" />
        <Node type="in" id="124" />
        <Node type="in" id="125" />
        <Node type="in" id="126" />
        <Node type="in" id="127" />
        <Node type="in" id="128" />
        <Node type="in" id="129" />
        <Node type="in" id="130" />
        <Node type="in" id="131" />
        <Node type="in" id="132" />
        <Node type="in" id="133" />
        <Node type="in" id="134" />
        <Node type="in" id="135" />
        <Node type="in" id="136" />
        <Node type="in" id="137" />
        <Node type="in" id="138" />
        <Node type="in" id="139" />
        <Node type="in" id="140" />
        <Node type="out" id="141" />
      </Nodes>
      <Connections>
        <Con id="142" src="0" tgt="141" wght="0" />
        <Con id="143" src="1" tgt="141" wght="-1.1257893638275949" />
        <Con id="144" src="2" tgt="141" wght="-0.1123221454343038" />
        <Con id="145" src="3" tgt="141" wght="-0.0941257342241" />
        <Con id="146" src="4" tgt="141" wght="0.0252518729156" />
        <Con id="147" src="5" tgt="141" wght="0.74357391860698741" />
        <Con id="148" src="6" tgt="141" wght="-0.0343570984279" />
        <Con id="149" src="7" tgt="141" wght="0.19461265078097034" />
        <Con id="150" src="8" tgt="141" wght="-1.0472386572867498" />
        <Con id="151" src="9" tgt="141" wght="0.00848052318789" />
        <Con id="152" src="10" tgt="141" wght="0.00795865028591" />
        <Con id="153" src="11" tgt="141" wght="-0.57819128165432376" />
        <Con id="154" src="12" tgt="141" wght="-2.53780820172732" />
        <Con id="155" src="13" tgt="141" wght="-0.35254269946974204" />
        <Con id="156" src="14" tgt="141" wght="0.050262886547046977" />
        <Con id="157" src="15" tgt="141" wght="0.00465491538503" />
        <Con id="158" src="16" tgt="141" wght="-1.0106376868463467" />
        <Con id="159" src="17" tgt="141" wght="0.0113160226347" />
        <Con id="160" src="18" tgt="141" wght="2.0476524996490459" />
        <Con id="161" src="19" tgt="141" wght="0.058933400814343423" />
        <Con id="162" src="20" tgt="141" wght="-0.0692133571552" />
        <Con id="163" src="21" tgt="141" wght="2.2918695397675037" />
        <Con id="164" src="22" tgt="141" wght="6.8986283056437969" />
        <Con id="165" src="23" tgt="141" wght="0.328277648821" />
        <Con id="166" src="24" tgt="141" wght="0.130152847902" />
        <Con id="167" src="25" tgt="141" wght="0.0873694601856" />
        <Con id="168" src="26" tgt="141" wght="-0.15055199488152787" />
        <Con id="169" src="27" tgt="141" wght="0.0888645875045" />
        <Con id="170" src="28" tgt="141" wght="-0.123498493619" />
        <Con id="171" src="29" tgt="141" wght="0.0609333665061" />
        <Con id="172" src="30" tgt="141" wght="-4.4151154812425375" />
        <Con id="173" src="31" tgt="141" wght="-1.6248594578474058" />
        <Con id="174" src="32" tgt="141" wght="-0.0160044736767" />
        <Con id="175" src="33" tgt="141" wght="0.0322637011466" />
        <Con id="176" src="34" tgt="141" wght="0.0703806412999" />
        <Con id="177" src="35" tgt="141" wght="0.106731794411" />
        <Con id="178" src="37" tgt="141" wght="0.85197319435954055" />
        <Con id="178" src="36" tgt="141" wght="-6.52152837254107" />
        <Con id="180" src="38" tgt="141" wght="-0.0368855489851" />
        <Con id="181" src="39" tgt="141" wght="0.071269517648" />
        <Con id="182" src="40" tgt="141" wght="0.74018728841966464" />
        <Con id="183" src="41" tgt="141" wght="-0.108634732525" />
        <Con id="184" src="42" tgt="141" wght="-9.4807970058172941" />
        <Con id="185" src="43" tgt="141" wght="-0.0363061950348" />
        <Con id="186" src="44" tgt="141" wght="1.134342234243922" />
        <Con id="187" src="45" tgt="141" wght="-0.064354178406978893" />
        <Con id="188" src="46" tgt="141" wght="0.51762122401192423" />
        <Con id="189" src="47" tgt="141" wght="-1.9668931793421507" />
        <Con id="190" src="48" tgt="141" wght="-0.0114311223256" />
        <Con id="191" src="49" tgt="141" wght="-0.0774827093704" />
        <Con id="192" src="50" tgt="141" wght="1.1939687381519293" />
        <Con id="193" src="51" tgt="141" wght="0.36108897701561854" />
        <Con id="194" src="52" tgt="141" wght="0" />
        <Con id="195" src="53" tgt="141" wght="-0.12591489669" />
        <Con id="196" src="54" tgt="141" wght="-3.5371486725597325" />
        <Con id="197" src="55" tgt="141" wght="1.5952979028224945" />
        <Con id="198" src="56" tgt="141" wght="0.053563748917" />
        <Con id="199" src="57" tgt="141" wght="-0.0182588264944" />
        <Con id="200" src="58" tgt="141" wght="0.0203031387894" />
        <Con id="201" src="59" tgt="141" wght="0.0226810526308" />
        <Con id="202" src="60" tgt="141" wght="0.27122468860898885" />
        <Con id="203" src="61" tgt="141" wght="-0.08558342902" />
        <Con id="204" src="62" tgt="141" wght="-0.0786813062615" />
        <Con id="205" src="63" tgt="141" wght="-0.0430027740697" />
        <Con id="206" src="64" tgt="141" wght="0.0174027191555" />
        <Con id="207" src="65" tgt="141" wght="0.0363674538239" />
        <Con id="208" src="66" tgt="141" wght="0.66954287801568768" />
        <Con id="209" src="67" tgt="141" wght="-0.128721160451" />
        <Con id="210" src="68" tgt="141" wght="0.0691717360697" />
        <Con id="211" src="69" tgt="141" wght="3.3275459940436791" />
        <Con id="212" src="70" tgt="141" wght="0.0941178999373" />
        <Con id="213" src="71" tgt="141" wght="-0.673056768853348" />
        <Con id="214" src="72" tgt="141" wght="-0.000778918863573" />
        <Con id="215" src="73" tgt="141" wght="0.6034879594239132" />
        <Con id="216" src="74" tgt="141" wght="-0.0224701651147" />
        <Con id="217" src="75" tgt="141" wght="-0.083744832305" />
        <Con id="218" src="76" tgt="141" wght="0.00198943025961" />
        <Con id="219" src="77" tgt="141" wght="-0.77829951283363707" />
        <Con id="220" src="78" tgt="141" wght="6.4856491144746542" />
        <Con id="221" src="79" tgt="141" wght="8.3650029078125954" />
        <Con id="222" src="80" tgt="141" wght="0.105438099708" />
        <Con id="223" src="81" tgt="141" wght="-0.0906737420581" />
        <Con id="224" src="82" tgt="141" wght="-1.1236140136190855" />
        <Con id="225" src="83" tgt="141" wght="-0.0157416650651" />
        <Con id="227" src="85" tgt="141" wght="-6.8377228516811295" />
        <Con id="228" src="86" tgt="141" wght="-0.0699426836934" />
        <Con id="229" src="87" tgt="141" wght="0.0224470572111" />
        <Con id="230" src="88" tgt="141" wght="0.77322271310269175" />
        <Con id="231" src="89" tgt="141" wght="-0.0370742494324" />
        <Con id="232" src="90" tgt="141" wght="1.4409914054459989" />
        <Con id="233" src="91" tgt="141" wght="-8.45259858308E-05" />
        <Con id="234" src="92" tgt="141" wght="-0.35641202111192982" />
        <Con id="235" src="93" tgt="141" wght="-8.2441807724535465" />
