<?xml version="1.0" encoding="utf-8"?>
<Root>
  <ActivationFunctions>
    <Fn id="0" name="SteepenedSigmoid" prob="1" />
  </ActivationFunctions>
  <Networks>
    <Network id="1407235" birthGen="3506" fitness="1">
      <Nodes>
        <Node type="bias" id="0" />
        <Node type="in" id="1" />
        <Node type="in" id="2" />
        <Node type="in" id="3" />
        <Node type="in" id="4" />
        <Node type="out" id="5" />
        <Node type="out" id="6" />
        <Node type="out" id="7" />
        <Node type="hid" id="39" />
        <Node type="hid" id="45" />
        <Node type="hid" id="55" />
        <Node type="hid" id="64" />
        <Node type="hid" id="87" />
        <Node type="hid" id="101" />
        <Node type="hid" id="108" />
        <Node type="hid" id="125" />
        <Node type="hid" id="154" />
        <Node type="hid" id="457" />
        <Node type="hid" id="800" />
        <Node type="hid" id="830" />
        <Node type="hid" id="996" />
        <Node type="hid" id="1471" />
        <Node type="hid" id="1537" />
        <Node type="hid" id="2298" />
        <Node type="hid" id="2557" />
        <Node type="hid" id="2565" />
        <Node type="hid" id="2886" />
        <Node type="hid" id="3055" />
        <Node type="hid" id="3063" />
        <Node type="hid" id="3077" />
        <Node type="hid" id="3288" />
        <Node type="hid" id="3636" />
        <Node type="hid" id="3681" />
        <Node type="hid" id="3724" />
        <Node type="hid" id="3746" />
        <Node type="hid" id="3933" />
        <Node type="hid" id="4041" />
        <Node type="hid" id="4356" />
        <Node type="hid" id="4597" />
      </Nodes>
      <Connections>
        <Con id="10" src="0" tgt="7" wght="3.9801916666136266" />
        <Con id="16" src="2" tgt="7" wght="3.3501306737101779" />
        <Con id="23" src="4" tgt="6" wght="2.7441944563575307" />
        <Con id="24" src="2" tgt="6" wght="1.2180496137888328" />
        <Con id="25" src="4" tgt="5" wght="4.3043431714961127" />
        <Con id="26" src="3" tgt="5" wght="1.7986136464446325" />
        <Con id="30" src="1" tgt="6" wght="-1.5829747465338502" />
        <Con id="31" src="0" tgt="5" wght="-5" />
        <Con id="32" src="2" tgt="5" wght="-1.6001349497598161" />
        <Con id="33" src="1" tgt="5" wght="-1.0668000986434996" />
        <Con id="38" src="3" tgt="6" wght="-0.726719437690094" />
        <Con id="40" src="0" tgt="39" wght="-3.9649441372603178" />
        <Con id="41" src="39" tgt="7" wght="0.92842958063993908" />
        <Con id="46" src="1" tgt="45" wght="-2.2975530678247869" />
        <Con id="47" src="45" tgt="5" wght="4.8742796972365108" />
        <Con id="48" src="3" tgt="7" wght="-4.1218617883752211" />
        <Con id="56" src="1" tgt="55" wght="-1.1332712278814232" />
        <Con id="57" src="55" tgt="6" wght="-3.5462410595415017" />
        <Con id="65" src="0" tgt="64" wght="-2.9455252083640668" />
        <Con id="66" src="64" tgt="7" wght="-3.6620911172567792" />
        <Con id="71" src="4" tgt="7" wght="-3.7208101077864058" />
        <Con id="79" src="39" tgt="5" wght="3.6099146333192151" />
        <Con id="88" src="2" tgt="87" wght="0.057970298740761622" />
        <Con id="102" src="4" tgt="101" wght="-1.7907756381879791" />
        <Con id="103" src="101" tgt="6" wght="4.3993580252495637" />
        <Con id="109" src="0" tgt="108" wght="-3.7634273255696571" />
        <Con id="110" src="108" tgt="6" wght="-5" />
        <Con id="117" src="64" tgt="5" wght="0.98442525112721269" />
        <Con id="124" src="4" tgt="64" wght="3.7003144998122983" />
        <Con id="127" src="125" tgt="108" wght="-3.1120052520170245" />
        <Con id="137" src="108" tgt="5" wght="3.0015665074350864" />
        <Con id="153" src="64" tgt="6" wght="2.5368660465830253" />
        <Con id="155" src="2" tgt="154" wght="2.3573434841538208" />
        <Con id="156" src="154" tgt="5" wght="-3.1913940134399628" />
        <Con id="171" src="45" tgt="6" wght="-1.4830490448196272" />
        <Con id="176" src="45" tgt="108" wght="-5" />
        <Con id="186" src="45" tgt="7" wght="3.4877950204337775" />
        <Con id="211" src="1" tgt="64" wght="0.064018032061962549" />
        <Con id="216" src="3" tgt="45" wght="1.4987376658245921" />
        <Con id="279" src="4" tgt="45" wght="2.4323395141106636" />
        <Con id="280" src="4" tgt="55" wght="4.9396568375472816" />
        <Con id="307" src="101" tgt="5" wght="-3.044797728999912" />
        <Con id="308" src="87" tgt="55" wght="-1.7730430628205509" />
        <Con id="344" src="45" tgt="64" wght="-1.2342204640065333" />
        <Con id="345" src="3" tgt="108" wght="0.7938047790301942" />
        <Con id="356" src="64" tgt="101" wght="3.3228940840787002" />
        <Con id="368" src="55" tgt="7" wght="2.9624777200348142" />
        <Con id="389" src="125" tgt="7" wght="-2.8374643779373665" />
        <Con id="453" src="101" tgt="7" wght="0.20977692781349114" />
        <Con id="458" src="1" tgt="457" wght="-3.8901509637134555" />
        <Con id="477" src="457" tgt="45" wght="-4.4270258828330515" />
        <Con id="484" src="457" tgt="5" wght="-1.0502659158857117" />
        <Con id="539" src="457" tgt="6" wght="4.1594750621726941" />
        <Con id="593" src="45" tgt="101" wght="-2.6480917089654095" />
        <Con id="665" src="45" tgt="55" wght="-2.0866574676943026" />
        <Con id="737" src="0" tgt="55" wght="0.59549913328367343" />
        <Con id="801" src="3" tgt="800" wght="0.15821397389985342" />
        <Con id="802" src="800" tgt="5" wght="0.51581129862349162" />
        <Con id="831" src="64" tgt="830" wght="-0.34638150073092355" />
        <Con id="832" src="830" tgt="7" wght="2.968403426702579" />
        <Con id="850" src="0" tgt="457" wght="4.17981425692254" />
        <Con id="997" src="0" tgt="996" wght="-2.8374225832521915" />
        <Con id="998" src="996" tgt="64" wght="-1.443168438159971" />
        <Con id="1002" src="45" tgt="87" wght="4.6225327947715655" />
        <Con id="1012" src="3" tgt="457" wght="-2.0989341568136255" />
        <Con id="1147" src="45" tgt="830" wght="-3.9741687383502722" />
        <Con id="1180" src="39" tgt="154" wght="1.0803115842639759" />
        <Con id="1201" src="2" tgt="457" wght="1.07416530325218" />
        <Con id="1280" src="1" tgt="830" wght="-3.7286251796070924" />
        <Con id="1292" src="125" tgt="830" wght="-0.44630410615726895" />
        <Con id="1473" src="1471" tgt="7" wght="-0.97854191062926954" />
        <Con id="1477" src="4" tgt="800" wght="1.98008930638356" />
        <Con id="1538" src="2" tgt="1537" wght="-0.58528334567622065" />
        <Con id="1539" src="1537" tgt="6" wght="3.223215450711201" />
        <Con id="1540" src="3" tgt="1471" wght="-3.758586491458118" />
        <Con id="1566" src="457" tgt="7" wght="-1.495885644108057" />
        <Con id="1596" src="3" tgt="830" wght="-1.798668629623966" />
        <Con id="1607" src="4" tgt="39" wght="5" />
        <Con id="1611" src="457" tgt="64" wght="-3.8566948874502263" />
        <Con id="1645" src="45" tgt="1471" wght="-0.16796584736620121" />
        <Con id="1670" src="55" tgt="108" wght="-1.7904888334313511" />
        <Con id="1679" src="101" tgt="87" wght="0.650284080832915" />
        <Con id="1708" src="64" tgt="1471" wght="4.1247928892780044" />
        <Con id="1709" src="2" tgt="1471" wght="1.8706545066579932" />
        <Con id="1763" src="101" tgt="1471" wght="-3.9549428361396664" />
        <Con id="1822" src="4" tgt="1471" wght="2.8935824984303178" />
        <Con id="1836" src="101" tgt="800" wght="-4.929287738037317" />
        <Con id="1853" src="55" tgt="39" wght="-4.0547001438011065" />
        <Con id="1936" src="125" tgt="55" wght="-1.254718288817142" />
        <Con id="2076" src="830" tgt="6" wght="4.0686820965212762" />
        <Con id="2217" src="457" tgt="1471" wght="-2.9583922927182451" />
        <Con id="2299" src="0" tgt="2298" wght="5" />
        <Con id="2300" src="2298" tgt="7" wght="1.9784525796880554" />
        <Con id="2362" src="830" tgt="1537" wght="-0.92788585039311156" />
        <Con id="2558" src="457" tgt="2557" wght="3.9384337482255831" />
        <Con id="2559" src="2557" tgt="1471" wght="4.7248738609878247" />
        <Con id="2566" src="457" tgt="2565" wght="-3.3175025007522572" />
        <Con id="2567" src="2565" tgt="1471" wght="-3.2501942767720506" />
        <Con id="2571" src="1471" tgt="830" wght="0.87355362813842852" />
        <Con id="2623" src="457" tgt="1537" wght="3.1461172027812867" />
        <Con id="2624" src="87" tgt="154" wght="0.86531833998277985" />
        <Con id="2633" src="4" tgt="1537" wght="0.93621043691851336" />
        <Con id="2639" src="1471" tgt="1537" wght="0.34490310238915245" />
        <Con id="2640" src="1471" tgt="2298" wght="-1.9787412453363424" />
        <Con id="2645" src="830" tgt="2298" wght="3.4433302314461796" />
        <Con id="2649" src="101" tgt="2298" wght="-1.6779248975217342" />
        <Con id="2651" src="1" tgt="2298" wght="2.0059071389801506" />
        <Con id="2664" src="45" tgt="1537" wght="0.74361482635140419" />
        <Con id="2699" src="101" tgt="1537" wght="1.6705971488274753" />
        <Con id="2865" src="3" tgt="2298" wght="-0.028669375090216439" />
        <Con id="2887" src="2" tgt="2886" wght="0.90137381706871433" />
        <Con id="2888" src="2886" tgt="457" wght="-5" />
        <Con id="3008" src="64" tgt="2565" wght="4.2401363885390433" />
        <Con id="3056" src="2298" tgt="3055" wght="4.6227514931257643" />
        <Con id="3057" src="3055" tgt="7" wght="5" />
        <Con id="3064" src="2" tgt="3063" wght="-0.1419276452676787" />
        <Con id="3065" src="3063" tgt="1537" wght="5" />
        <Con id="3078" src="101" tgt="3077" wght="-0.92026842373746265" />
        <Con id="3079" src="3077" tgt="5" wght="-4.0388855820369969" />
        <Con id="3142" src="0" tgt="2565" wght="-2.3338877462407677" />
        <Con id="3188" src="1537" tgt="7" wght="-4.137170857808437" />
        <Con id="3248" src="3" tgt="2565" wght="-1.2021260011423014" />
        <Con id="3284" src="1537" tgt="2298" wght="5" />
        <Con id="3289" src="830" tgt="3288" wght="3.7034487957134843" />
        <Con id="3300" src="2" tgt="2565" wght="5" />
        <Con id="3372" src="1" tgt="2886" wght="-1.8452526666816034" />
        <Con id="3419" src="64" tgt="2557" wght="-2.3919438240568236" />
        <Con id="3576" src="2557" tgt="2565" wght="-2.7645102496633696" />
        <Con id="3637" src="2886" tgt="3636" wght="-4.1942273117535862" />
        <Con id="3638" src="3636" tgt="457" wght="4.4513674087950807" />
        <Con id="3649" src="2565" tgt="101" wght="-0.11022951036854661" />
        <Con id="3682" src="101" tgt="3681" wght="-4.8732403548088232" />
        <Con id="3683" src="3681" tgt="1471" wght="4.6896279797634062" />
        <Con id="3713" src="2557" tgt="830" wght="-0.033589580337417109" />
        <Con id="3725" src="1" tgt="3724" wght="1.8865031842142344" />
        <Con id="3726" src="3724" tgt="457" wght="-0.52075295651864573" />
        <Con id="3747" src="1" tgt="3746" wght="-1.0784626379609108" />
        <Con id="3748" src="3746" tgt="39" wght="5" />
        <Con id="3757" src="1537" tgt="39" wght="4.9998968698463306" />
        <Con id="3782" src="2886" tgt="2565" wght="0.95801323333595934" />
        <Con id="3797" src="2557" tgt="7" wght="-0.19520611388719838" />
        <Con id="3801" src="2886" tgt="3288" wght="-4.63635852785547" />
        <Con id="3831" src="2565" tgt="154" wght="-5" />
        <Con id="3854" src="4" tgt="3288" wght="4.225909492126652" />
        <Con id="3898" src="3" tgt="3288" wght="-4.994414120205648" />
        <Con id="3934" src="45" tgt="3933" wght="-0.15056341536664902" />
        <Con id="3935" src="3933" tgt="7" wght="3.2593349517241132" />
        <Con id="3951" src="45" tgt="3077" wght="0.35736036239383628" />
        <Con id="3970" src="45" tgt="3288" wght="3.5311451999892931" />
        <Con id="4042" src="0" tgt="4041" wght="-1.2677026922905328" />
        <Con id="4043" src="4041" tgt="45" wght="-0.91244408814060662" />
        <Con id="4122" src="101" tgt="3055" wght="-4.5674361365410077" />
        <Con id="4169" src="3077" tgt="800" wght="-3.7325541954487562" />
        <Con id="4244" src="2886" tgt="3063" wght="3.9655394635465839" />
        <Con id="4357" src="4" tgt="4356" wght="-0.26186305047943009" />
        <Con id="4358" src="4356" tgt="7" wght="3.1343889611661893" />
        <Con id="4415" src="3063" tgt="830" wght="0.48783924607278251" />
        <Con id="4598" src="457" tgt="4597" wght="0.015308274887502193" />
        <Con id="4599" src="4597" tgt="2557" wght="4.979265418179879" />
        <Con id="4669" src="0" tgt="3746" wght="-3.1630419660359621" />
        <Con id="4832" src="2886" tgt="3933" wght="1.4257364097121474" />
        <Con id="5115" src="3681" tgt="39" wght="-3.4308935631198811" />
        <Con id="5507" src="125" tgt="3055" wght="4.8128056852146983" />
      </Connections>
    </Network>
  </Networks>
</Root>