<?xml version="1.0" encoding="utf-8"?>
<Root>
  <ActivationFunctions>
    <Fn id="0" name="SteepenedSigmoid" prob="1" />
  </ActivationFunctions>
  <Networks>
    <Network id="1485460" birthGen="3701" fitness="0.99444444444444458">
      <Nodes>
        <Node type="bias" id="0" />
        <Node type="in" id="1" />
        <Node type="in" id="2" />
        <Node type="in" id="3" />
        <Node type="in" id="4" />
        <Node type="out" id="5" />
        <Node type="out" id="6" />
        <Node type="out" id="7" />
        <Node type="hid" id="35" />
        <Node type="hid" id="72" />
        <Node type="hid" id="85" />
        <Node type="hid" id="132" />
        <Node type="hid" id="144" />
        <Node type="hid" id="164" />
        <Node type="hid" id="179" />
        <Node type="hid" id="252" />
        <Node type="hid" id="270" />
        <Node type="hid" id="276" />
        <Node type="hid" id="299" />
        <Node type="hid" id="321" />
        <Node type="hid" id="340" />
        <Node type="hid" id="357" />
        <Node type="hid" id="438" />
        <Node type="hid" id="572" />
        <Node type="hid" id="644" />
        <Node type="hid" id="685" />
        <Node type="hid" id="717" />
        <Node type="hid" id="739" />
        <Node type="hid" id="837" />
        <Node type="hid" id="876" />
        <Node type="hid" id="879" />
        <Node type="hid" id="1006" />
        <Node type="hid" id="1009" />
        <Node type="hid" id="1027" />
        <Node type="hid" id="1033" />
        <Node type="hid" id="1090" />
        <Node type="hid" id="1447" />
        <Node type="hid" id="1450" />
        <Node type="hid" id="1482" />
        <Node type="hid" id="1562" />
        <Node type="hid" id="1587" />
        <Node type="hid" id="1742" />
        <Node type="hid" id="1785" />
        <Node type="hid" id="1979" />
        <Node type="hid" id="2090" />
        <Node type="hid" id="2225" />
        <Node type="hid" id="2228" />
        <Node type="hid" id="2241" />
        <Node type="hid" id="2509" />
        <Node type="hid" id="2598" />
        <Node type="hid" id="2650" />
        <Node type="hid" id="2740" />
        <Node type="hid" id="2999" />
        <Node type="hid" id="3252" />
        <Node type="hid" id="3373" />
        <Node type="hid" id="3690" />
        <Node type="hid" id="3760" />
        <Node type="hid" id="4537" />
        <Node type="hid" id="4762" />
        <Node type="hid" id="5376" />
        <Node type="hid" id="5419" />
        <Node type="hid" id="5782" />
      </Nodes>
      <Connections>
        <Con id="10" src="0" tgt="7" wght="-3.2979393511830946" />
        <Con id="13" src="1" tgt="7" wght="-0.68426879996946344" />
        <Con id="19" src="3" tgt="7" wght="-4.722981287487193" />
        <Con id="23" src="3" tgt="5" wght="4.2944878662417585" />
        <Con id="24" src="0" tgt="6" wght="0.35705275720091351" />
        <Con id="25" src="1" tgt="5" wght="-4.7519187823669444" />
        <Con id="26" src="2" tgt="6" wght="0.90403166992099115" />
        <Con id="27" src="2" tgt="5" wght="-3.5424429380595965" />
        <Con id="28" src="0" tgt="5" wght="-5" />
        <Con id="29" src="4" tgt="5" wght="1.9080006773297133" />
        <Con id="30" src="3" tgt="6" wght="0.97154328539006862" />
        <Con id="31" src="4" tgt="6" wght="-2.4431139583441266" />
        <Con id="36" src="4" tgt="35" wght="-0.91526173114006215" />
        <Con id="37" src="35" tgt="5" wght="2.8930269600394141" />
        <Con id="50" src="1" tgt="6" wght="-1.1323298743680714" />
        <Con id="54" src="2" tgt="7" wght="4.8973151388850837" />
        <Con id="73" src="2" tgt="72" wght="-4.4145345571445018" />
        <Con id="74" src="72" tgt="5" wght="5" />
        <Con id="86" src="4" tgt="85" wght="0.93141615039843473" />
        <Con id="87" src="85" tgt="5" wght="2.6542926392901229" />
        <Con id="107" src="4" tgt="7" wght="2.1053936910406272" />
        <Con id="115" src="72" tgt="7" wght="-3.9816461249694264" />
        <Con id="129" src="35" tgt="6" wght="4.4476950824748274" />
        <Con id="133" src="3" tgt="132" wght="-3.9047819815959972" />
        <Con id="146" src="144" tgt="6" wght="-1.2828214193120344" />
        <Con id="147" src="72" tgt="6" wght="0.2812537573015913" />
        <Con id="158" src="132" tgt="7" wght="-0.57675353859855449" />
        <Con id="165" src="0" tgt="164" wght="-2.8545097687779162" />
        <Con id="166" src="164" tgt="5" wght="4.389822014086409" />
        <Con id="180" src="85" tgt="179" wght="4.1439207816608636" />
        <Con id="181" src="179" tgt="7" wght="-2.0060760748682758" />
        <Con id="182" src="144" tgt="5" wght="4.9178784276266825" />
        <Con id="208" src="85" tgt="6" wght="-4.4576727389786912" />
        <Con id="209" src="132" tgt="5" wght="-0.24390121702303894" />
        <Con id="247" src="35" tgt="132" wght="-3.3511425015407497" />
        <Con id="253" src="4" tgt="252" wght="4.28982513865998" />
        <Con id="254" src="252" tgt="6" wght="0.81647923915597553" />
        <Con id="264" src="3" tgt="35" wght="-1.0344520546927822" />
        <Con id="271" src="4" tgt="270" wght="2.1820627373383816" />
        <Con id="272" src="270" tgt="6" wght="-2.5281336085254" />
        <Con id="277" src="0" tgt="276" wght="-3.0946885783741864" />
        <Con id="278" src="276" tgt="7" wght="-4.5501191942898158" />
        <Con id="279" src="164" tgt="7" wght="1.473503607656776" />
        <Con id="282" src="72" tgt="144" wght="5" />
        <Con id="286" src="4" tgt="72" wght="-3.3960311629236535" />
        <Con id="293" src="0" tgt="72" wght="-0.083129482103709337" />
        <Con id="297" src="1" tgt="72" wght="-0.13856795531109861" />
        <Con id="300" src="132" tgt="299" wght="5" />
        <Con id="301" src="299" tgt="6" wght="3.0434522262082244" />
        <Con id="303" src="1" tgt="132" wght="2.1134482450754986" />
        <Con id="307" src="164" tgt="6" wght="-4.3150113640972423" />
        <Con id="319" src="4" tgt="132" wght="-3.8691616629110648" />
        <Con id="320" src="3" tgt="72" wght="4.3481933534550956" />
        <Con id="322" src="2" tgt="321" wght="-1.922739431090567" />
        <Con id="323" src="321" tgt="7" wght="0.70694293189077628" />
        <Con id="342" src="340" tgt="5" wght="3.7247308794914842" />
        <Con id="352" src="252" tgt="72" wght="1.188533091917634" />
        <Con id="358" src="2" tgt="357" wght="-1.0964354284937252" />
        <Con id="359" src="357" tgt="5" wght="-2.1713357148969639" />
        <Con id="382" src="276" tgt="5" wght="0.19968225401506212" />
        <Con id="385" src="144" tgt="7" wght="4.3664792773737844" />
        <Con id="389" src="179" tgt="6" wght="3.1736861756536623" />
        <Con id="390" src="357" tgt="132" wght="5" />
        <Con id="408" src="164" tgt="72" wght="-4.6340538362830666" />
        <Con id="430" src="276" tgt="6" wght="2.9513473752400308" />
        <Con id="439" src="1" tgt="438" wght="-3.1690649298204345" />
        <Con id="440" src="438" tgt="7" wght="0.14614419099232134" />
        <Con id="441" src="2" tgt="132" wght="2.3789277011343408" />
        <Con id="442" src="1" tgt="252" wght="0.086545228256248483" />
        <Con id="456" src="252" tgt="5" wght="-0.92886185754948214" />
        <Con id="478" src="2" tgt="35" wght="-2.6427797658393004" />
        <Con id="483" src="357" tgt="6" wght="-3.9381989771081622" />
        <Con id="490" src="72" tgt="276" wght="2.51277856350691" />
        <Con id="501" src="35" tgt="144" wght="-0.004389157661355024" />
        <Con id="519" src="0" tgt="132" wght="4.6949949713559391" />
        <Con id="525" src="35" tgt="299" wght="1.01654599568723" />
        <Con id="527" src="3" tgt="164" wght="1.4200083523400757" />
        <Con id="544" src="0" tgt="144" wght="-2.8690325467264568" />
        <Con id="563" src="2" tgt="144" wght="-3.260796049086554" />
        <Con id="564" src="1" tgt="144" wght="-3.5752824194924147" />
        <Con id="568" src="0" tgt="299" wght="3.48268980493661" />
        <Con id="573" src="4" tgt="572" wght="5" />
        <Con id="574" src="572" tgt="5" wght="4.3355928745177819" />
        <Con id="584" src="132" tgt="144" wght="0.54052332602971909" />
        <Con id="623" src="4" tgt="179" wght="1.2225653226343569" />
        <Con id="642" src="132" tgt="6" wght="-1.219786059214754" />
        <Con id="645" src="3" tgt="644" wght="-2.1174736087440929" />
        <Con id="646" src="644" tgt="6" wght="-1.0731680745773904" />
        <Con id="648" src="2" tgt="299" wght="4.0959601261622733" />
        <Con id="652" src="270" tgt="438" wght="3.4499690339305844" />
        <Con id="658" src="357" tgt="7" wght="-1.217316660746647" />
        <Con id="679" src="1" tgt="179" wght="1.1745318242209437" />
        <Con id="683" src="270" tgt="5" wght="4.3681047642397539" />
        <Con id="686" src="2" tgt="685" wght="0.56246135485523174" />
        <Con id="687" src="685" tgt="5" wght="3.2724185213910024" />
        <Con id="695" src="0" tgt="35" wght="2.4536064340353523" />
        <Con id="718" src="72" tgt="717" wght="0.00826503150165081" />
        <Con id="719" src="717" tgt="6" wght="-5" />
        <Con id="741" src="739" tgt="6" wght="2.8574317889420975" />
        <Con id="742" src="739" tgt="7" wght="-4.4086985228467013" />
        <Con id="746" src="4" tgt="144" wght="1.03693138808012" />
        <Con id="751" src="3" tgt="276" wght="2.9262786814612602" />
        <Con id="772" src="0" tgt="321" wght="2.5026985150928027" />
        <Con id="773" src="1" tgt="321" wght="3.342910023429706" />
        <Con id="821" src="72" tgt="644" wght="5" />
        <Con id="838" src="2" tgt="837" wght="-5" />
        <Con id="839" src="837" tgt="6" wght="-4.5325116254389286" />
        <Con id="868" src="4" tgt="276" wght="0.48090804249229124" />
        <Con id="877" src="144" tgt="876" wght="-2.2680133064571129" />
        <Con id="878" src="876" tgt="7" wght="-4.05083140355756" />
        <Con id="880" src="3" tgt="879" wght="-1.6538323807768083" />
        <Con id="882" src="717" tgt="5" wght="0.50631484267330684" />
        <Con id="899" src="1" tgt="164" wght="-0.6688257877571081" />
        <Con id="923" src="144" tgt="572" wght="-2.7359675069242737" />
        <Con id="927" src="2" tgt="276" wght="-4.265259201573782" />
        <Con id="929" src="72" tgt="270" wght="-3.6958987851161731" />
        <Con id="930" src="837" tgt="5" wght="-5" />
        <Con id="949" src="144" tgt="837" wght="4.3280765378610528" />
        <Con id="957" src="270" tgt="7" wght="4.2338412666777687" />
        <Con id="965" src="252" tgt="321" wght="-2.2444674539977538" />
        <Con id="974" src="1" tgt="276" wght="1.0843008845426136" />
        <Con id="978" src="1" tgt="837" wght="-3.0057501961906889" />
        <Con id="1007" src="144" tgt="1006" wght="2.1273464729503941" />
        <Con id="1008" src="1006" tgt="7" wght="1.5246103936806321" />
        <Con id="1010" src="0" tgt="1009" wght="-0.46261810832367622" />
        <Con id="1011" src="1009" tgt="5" wght="-5" />
        <Con id="1012" src="72" tgt="837" wght="3.2733687015325916" />
        <Con id="1028" src="2" tgt="1027" wght="1.4537894305543846" />
        <Con id="1029" src="1027" tgt="72" wght="3.696529300669992" />
        <Con id="1034" src="2" tgt="1033" wght="4.7192006284899861" />
        <Con id="1037" src="4" tgt="837" wght="-1.279525736191673" />
        <Con id="1043" src="2" tgt="717" wght="-0.47087738711847105" />
        <Con id="1045" src="144" tgt="179" wght="-3.6198739339389654" />
        <Con id="1073" src="837" tgt="876" wght="3.2177343612805585" />
        <Con id="1091" src="270" tgt="1090" wght="-4.3239778096797741" />
        <Con id="1092" src="1090" tgt="438" wght="1.9217472158037547" />
        <Con id="1097" src="0" tgt="572" wght="-1.6938990753639798" />
        <Con id="1109" src="3" tgt="837" wght="4.0630448955738387" />
        <Con id="1117" src="164" tgt="276" wght="-1.6363718498702158" />
        <Con id="1122" src="3" tgt="739" wght="-4.8216581108307466" />
        <Con id="1148" src="276" tgt="438" wght="-2.8423079169876546" />
        <Con id="1157" src="144" tgt="739" wght="-4.8079682252003089" />
        <Con id="1166" src="270" tgt="276" wght="-1.4552979950647913" />
        <Con id="1183" src="3" tgt="179" wght="-3.9897406468046017" />
        <Con id="1252" src="144" tgt="717" wght="-0.97611287836351579" />
        <Con id="1268" src="164" tgt="572" wght="2.0175014939606708" />
        <Con id="1269" src="739" tgt="837" wght="2.0938476093570277" />
        <Con id="1287" src="85" tgt="739" wght="-2.0610705859042913" />
        <Con id="1300" src="276" tgt="837" wght="0.5728293501639582" />
        <Con id="1314" src="837" tgt="717" wght="0.95074839823894775" />
        <Con id="1321" src="164" tgt="837" wght="-2.6206267998368795" />
        <Con id="1325" src="0" tgt="879" wght="0.2227648313353352" />
        <Con id="1344" src="4" tgt="879" wght="0.758675132011095" />
        <Con id="1379" src="837" tgt="1006" wght="2.4352354802678904" />
        <Con id="1381" src="4" tgt="717" wght="-1.576166836139594" />
        <Con id="1390" src="3" tgt="1027" wght="2.0325367106124759" />
        <Con id="1418" src="276" tgt="35" wght="2.9514258952054915" />
        <Con id="1437" src="2" tgt="879" wght="0.6910189640963651" />
        <Con id="1452" src="1450" tgt="7" wght="4.3294015228487" />
        <Con id="1467" src="276" tgt="717" wght="-3.5781881839691168" />
        <Con id="1470" src="132" tgt="1033" wght="-4.9762731760449279" />
        <Con id="1483" src="837" tgt="1482" wght="2.191334180532476" />
        <Con id="1484" src="1482" tgt="7" wght="-2.5985290608151659" />
        <Con id="1491" src="572" tgt="438" wght="-0.12076964918948807" />
        <Con id="1552" src="0" tgt="357" wght="2.6411705266179637" />
        <Con id="1563" src="1447" tgt="1562" wght="-3.5838495586060093" />
        <Con id="1564" src="1562" tgt="7" wght="0.0027644155245029646" />
        <Con id="1568" src="340" tgt="276" wght="-4.687005619862644" />
        <Con id="1572" src="72" tgt="1006" wght="-4.3825533473653842" />
        <Con id="1574" src="3" tgt="1006" wght="-4.9918173815266726" />
        <Con id="1586" src="2" tgt="876" wght="-0.86851028854673828" />
        <Con id="1588" src="717" tgt="1587" wght="-5" />
        <Con id="1589" src="1587" tgt="5" wght="2.1189518509106859" />
        <Con id="1595" src="4" tgt="1006" wght="0.027793074513692548" />
        <Con id="1598" src="879" tgt="1006" wght="-0.8426130112842185" />
        <Con id="1605" src="132" tgt="1447" wght="-5" />
        <Con id="1609" src="1027" tgt="7" wght="-5" />
        <Con id="1616" src="879" tgt="1450" wght="-4.6842855314602856" />
        <Con id="1617" src="276" tgt="1006" wght="5" />
        <Con id="1624" src="132" tgt="85" wght="-4.3054074213246762" />
        <Con id="1633" src="252" tgt="879" wght="-1.7586919172177908" />
        <Con id="1650" src="3" tgt="1450" wght="-1.0775986478265733" />
        <Con id="1726" src="144" tgt="879" wght="-1.7995137681084596" />
        <Con id="1735" src="340" tgt="7" wght="-3.8800609717145562" />
        <Con id="1743" src="717" tgt="1742" wght="-0.95258952864611757" />
        <Con id="1744" src="1742" tgt="6" wght="1.343906051255553" />
        <Con id="1756" src="144" tgt="1450" wght="0.30587525628984435" />
        <Con id="1763" src="132" tgt="739" wght="0.044114489633072629" />
        <Con id="1777" src="1027" tgt="144" wght="1.3795209360008214" />
        <Con id="1786" src="1033" tgt="1785" wght="-5" />
        <Con id="1787" src="1785" tgt="1447" wght="-1.1536567646675608" />
        <Con id="1824" src="1033" tgt="144" wght="1.7108341725543141" />
        <Con id="1891" src="276" tgt="879" wght="-4.7737331812328891" />
        <Con id="1908" src="132" tgt="837" wght="0.0899251441561167" />
        <Con id="1920" src="4" tgt="1450" wght="-2.0025240775456457" />
        <Con id="1942" src="717" tgt="1450" wght="-1.4443585673066297" />
        <Con id="1980" src="1450" tgt="1979" wght="0.116845330488075" />
        <Con id="1981" src="1979" tgt="7" wght="1.873636826079802" />
        <Con id="1982" src="35" tgt="717" wght="2.2779450699913357" />
        <Con id="2033" src="879" tgt="837" wght="-4.9285456382588277" />
        <Con id="2091" src="2" tgt="2090" wght="-0.37958364815209633" />
        <Con id="2159" src="276" tgt="1447" wght="-4.5700919198821239" />
        <Con id="2209" src="1006" tgt="6" wght="3.3917741942765227" />
        <Con id="2226" src="3" tgt="2225" wght="-1.4846014755035648" />
        <Con id="2227" src="2225" tgt="276" wght="1.0162772649935101" />
        <Con id="2229" src="144" tgt="2228" wght="-1.0908761341081943" />
        <Con id="2230" src="2228" tgt="1006" wght="0.78798029020302363" />
        <Con id="2242" src="144" tgt="2241" wght="1.467948875238855" />
        <Con id="2243" src="2241" tgt="7" wght="-5" />
        <Con id="2298" src="179" tgt="837" wght="4.2162493385135278" />
        <Con id="2349" src="35" tgt="1006" wght="-4.9797760424848034" />
        <Con id="2363" src="717" tgt="572" wght="-3.3029689118502219" />
        <Con id="2375" src="35" tgt="879" wght="5" />
        <Con id="2403" src="132" tgt="179" wght="-3.4970486157303453" />
        <Con id="2510" src="0" tgt="2509" wght="3.2408438542856097" />
        <Con id="2515" src="717" tgt="685" wght="-1.9250900496694019" />
        <Con id="2516" src="876" tgt="1482" wght="1.9188005435816116" />
        <Con id="2524" src="35" tgt="837" wght="-0.21303883675372437" />
        <Con id="2535" src="340" tgt="132" wght="4.4672400516879547" />
        <Con id="2556" src="35" tgt="1450" wght="-3.9230663855789323" />
        <Con id="2560" src="1450" tgt="5" wght="-2.8202463610415354" />
        <Con id="2573" src="72" tgt="1482" wght="0.48319885256230283" />
        <Con id="2585" src="572" tgt="1450" wght="-0.74128962470721416" />
        <Con id="2591" src="0" tgt="1447" wght="3.0913764488631368" />
        <Con id="2596" src="321" tgt="1006" wght="-4.1027887258678675" />
        <Con id="2599" src="3" tgt="2598" wght="-1.5255974315418916" />
        <Con id="2618" src="3" tgt="685" wght="1.2477196838473779" />
        <Con id="2651" src="837" tgt="2650" wght="-1.9439391256642811" />
        <Con id="2652" src="2650" tgt="6" wght="3.8367508542545794" />
        <Con id="2693" src="340" tgt="1006" wght="-1.5646219160407782" />
        <Con id="2727" src="132" tgt="1006" wght="0.15027513851045185" />
        <Con id="2741" src="35" tgt="2740" wght="-3.835496782026246" />
        <Con id="2742" src="2740" tgt="144" wght="-5" />
        <Con id="2775" src="357" tgt="2598" wght="-4.9793729341652329" />
        <Con id="2790" src="35" tgt="685" wght="-2.3551705411618005" />
        <Con id="2896" src="144" tgt="2598" wght="1.6792956235188208" />
        <Con id="2908" src="1033" tgt="1450" wght="0.51693878370627888" />
        <Con id="2941" src="132" tgt="1785" wght="1.3147738016526769" />
        <Con id="2961" src="1006" tgt="2241" wght="0.701312026020267" />
        <Con id="3000" src="2509" tgt="2999" wght="-3.4076113484466086" />
        <Con id="3001" src="2999" tgt="276" wght="4.5372355581785326" />
        <Con id="3065" src="1027" tgt="1033" wght="0.34764700356205" />
        <Con id="3091" src="1009" tgt="2090" wght="-0.35750654541340104" />
        <Con id="3150" src="1" tgt="1482" wght="-2.932506374715325" />
        <Con id="3151" src="132" tgt="2740" wght="3.2625623741723357" />
        <Con id="3196" src="270" tgt="837" wght="-5" />
        <Con id="3200" src="72" tgt="1033" wght="1.298757169620794" />
        <Con id="3253" src="72" tgt="3252" wght="4.7077586526527258" />
        <Con id="3254" src="3252" tgt="7" wght="3.4181603020782019" />
        <Con id="3310" src="717" tgt="1009" wght="1.3907893309889268" />
        <Con id="3325" src="2241" tgt="1450" wght="0.967596687116722" />
        <Con id="3339" src="72" tgt="1562" wght="3.4542091800475432" />
        <Con id="3374" src="3" tgt="3373" wght="3.3715625039738408" />
        <Con id="3375" src="3373" tgt="739" wght="3.8797615747322336" />
        <Con id="3575" src="2509" tgt="2225" wght="4.97726961459568" />
        <Con id="3584" src="357" tgt="879" wght="-1.6547864065339655" />
        <Con id="3656" src="270" tgt="179" wght="3.1034793051654663" />
        <Con id="3691" src="276" tgt="3690" wght="-2.4382081146962968" />
        <Con id="3692" src="3690" tgt="5" wght="1.7243830118796724" />
        <Con id="3761" src="1" tgt="3760" wght="-4.2189206937481325" />
        <Con id="3762" src="3760" tgt="7" wght="4.6220661563694714" />
        <Con id="4040" src="1447" tgt="717" wght="-1.39419921007876" />
        <Con id="4077" src="438" tgt="644" wght="-1.1074526057015037" />
        <Con id="4089" src="1027" tgt="2598" wght="4.1704012480875372" />
        <Con id="4138" src="837" tgt="572" wght="-0.18492339121555451" />
        <Con id="4147" src="1027" tgt="85" wght="-0.084882128887014824" />
        <Con id="4202" src="1033" tgt="3690" wght="1.0216388262048179" />
        <Con id="4373" src="2740" tgt="3252" wght="0.2888223058886405" />
        <Con id="4479" src="3252" tgt="1979" wght="1.5041595185175538" />
        <Con id="4524" src="85" tgt="1785" wght="-1.2720510151531361" />
        <Con id="4538" src="144" tgt="4537" wght="4.9903366242140388" />
        <Con id="4539" src="4537" tgt="717" wght="-0.25261599299730475" />
        <Con id="4585" src="837" tgt="3690" wght="1.5863150039674312" />
        <Con id="4648" src="1562" tgt="299" wght="3.7935432355938454" />
        <Con id="4677" src="1006" tgt="3690" wght="-3.2489383701596579" />
        <Con id="4763" src="2598" tgt="4762" wght="2.0271593293081862" />
        <Con id="4764" src="4762" tgt="717" wght="5" />
        <Con id="5123" src="837" tgt="3252" wght="-2.7817016086397253" />
        <Con id="5213" src="3" tgt="2740" wght="-0.64774322758058589" />
        <Con id="5377" src="0" tgt="5376" wght="-2.5710524329472886" />
        <Con id="5378" src="5376" tgt="1006" wght="4.8112036419438029" />
        <Con id="5420" src="2090" tgt="5419" wght="1.9226242998583665" />
        <Con id="5421" src="5419" tgt="5" wght="5" />
        <Con id="5467" src="2225" tgt="357" wght="3.3330605758051437" />
        <Con id="5510" src="1482" tgt="572" wght="-1.3004300143423686" />
        <Con id="5630" src="2740" tgt="299" wght="0.25731201265060388" />
        <Con id="5783" src="1" tgt="5782" wght="1.934054265730083" />
        <Con id="5784" src="5782" tgt="1450" wght="5" />
      </Connections>
    </Network>
  </Networks>
</Root>