<?xml version="1.0" encoding="utf-8"?>
<Root>
  <ActivationFunctions>
    <Fn id="0" name="SteepenedSigmoid" prob="1" />
  </ActivationFunctions>
  <Networks>
    <Network id="1795246" birthGen="4475" fitness="1">
      <Nodes>
        <Node type="bias" id="0" />
        <Node type="in" id="1" />
        <Node type="in" id="2" />
        <Node type="in" id="3" />
        <Node type="in" id="4" />
        <Node type="out" id="5" />
        <Node type="out" id="6" />
        <Node type="out" id="7" />
        <Node type="hid" id="27" />
        <Node type="hid" id="96" />
        <Node type="hid" id="108" />
        <Node type="hid" id="415" />
        <Node type="hid" id="800" />
        <Node type="hid" id="930" />
        <Node type="hid" id="1072" />
        <Node type="hid" id="1315" />
        <Node type="hid" id="1600" />
        <Node type="hid" id="1607" />
        <Node type="hid" id="1896" />
        <Node type="hid" id="2042" />
        <Node type="hid" id="2251" />
        <Node type="hid" id="2877" />
        <Node type="hid" id="2952" />
        <Node type="hid" id="3316" />
        <Node type="hid" id="3508" />
        <Node type="hid" id="4020" />
        <Node type="hid" id="4566" />
        <Node type="hid" id="6532" />
      </Nodes>
      <Connections>
        <Con id="14" src="2" tgt="5" wght="-2.1458535249861925" />
        <Con id="19" src="3" tgt="7" wght="-3.7904665399534174" />
        <Con id="23" src="0" tgt="6" wght="-2.9902179993833533" />
        <Con id="26" src="4" tgt="5" wght="4.9659943852959358" />
        <Con id="29" src="27" tgt="5" wght="-0.71730268204214465" />
        <Con id="30" src="4" tgt="6" wght="-0.74043713865859329" />
        <Con id="32" src="3" tgt="6" wght="0.0725267475373307" />
        <Con id="34" src="3" tgt="5" wght="-0.32946131657121364" />
        <Con id="36" src="27" tgt="7" wght="5" />
        <Con id="49" src="4" tgt="7" wght="0.49238444142578097" />
        <Con id="97" src="3" tgt="96" wght="3.9679276360073206" />
        <Con id="98" src="96" tgt="6" wght="3.9828621758708067" />
        <Con id="117" src="0" tgt="7" wght="-0.4066797591767235" />
        <Con id="199" src="1" tgt="27" wght="-0.68023364766068994" />
        <Con id="206" src="96" tgt="7" wght="-3.2195750780879058" />
        <Con id="231" src="96" tgt="5" wght="-0.089611875200482416" />
        <Con id="267" src="2" tgt="27" wght="2.1690119686200378" />
        <Con id="306" src="0" tgt="27" wght="1.3857490429654717" />
        <Con id="328" src="2" tgt="96" wght="-3.5681446726002748" />
        <Con id="336" src="4" tgt="27" wght="3.005206006412656" />
        <Con id="364" src="96" tgt="27" wght="-2.836494696697756" />
        <Con id="416" src="2" tgt="415" wght="-1.4221927533737933" />
        <Con id="417" src="415" tgt="6" wght="-4.9774272383162756" />
        <Con id="418" src="108" tgt="6" wght="-0.59232738837712684" />
        <Con id="429" src="3" tgt="27" wght="2.3897160464077531" />
        <Con id="453" src="3" tgt="108" wght="5" />
        <Con id="454" src="108" tgt="415" wght="-4.9751004765402538" />
        <Con id="564" src="108" tgt="5" wght="1.2910770259967046" />
        <Con id="565" src="96" tgt="108" wght="3.3063381758520944" />
        <Con id="566" src="1" tgt="108" wght="-2.6383914896348633" />
        <Con id="588" src="108" tgt="7" wght="0.041925690543037082" />
        <Con id="723" src="2" tgt="108" wght="-3.003275024173099" />
        <Con id="787" src="1" tgt="415" wght="-1.4476223343359302" />
        <Con id="801" src="4" tgt="800" wght="0.067241301947613366" />
        <Con id="802" src="800" tgt="108" wght="-2.9438886474948927" />
        <Con id="813" src="27" tgt="415" wght="-3.256483791612744" />
        <Con id="855" src="3" tgt="415" wght="3.1478702599952761" />
        <Con id="921" src="108" tgt="27" wght="-0.71612164278486423" />
        <Con id="931" src="108" tgt="930" wght="2.2837688768173305" />
        <Con id="1073" src="930" tgt="1072" wght="1.2925719162868579" />
        <Con id="1074" src="1072" tgt="27" wght="2.5234894784371864" />
        <Con id="1081" src="1" tgt="930" wght="1.0506939326512592" />
        <Con id="1095" src="2" tgt="800" wght="-0.096101304900959583" />
        <Con id="1096" src="96" tgt="930" wght="-0.71861629033477237" />
        <Con id="1149" src="3" tgt="800" wght="1.9387897421718812" />
        <Con id="1150" src="4" tgt="108" wght="-2.7506898651307625" />
        <Con id="1198" src="415" tgt="5" wght="5" />
        <Con id="1213" src="3" tgt="930" wght="0.033115628563165966" />
        <Con id="1214" src="1" tgt="800" wght="2.0292933557482189" />
        <Con id="1239" src="0" tgt="800" wght="-0.028661106889437321" />
        <Con id="1249" src="0" tgt="930" wght="-2.3893569802512848" />
        <Con id="1316" src="3" tgt="1315" wght="-4.0019525471329755" />
        <Con id="1317" src="1315" tgt="5" wght="-4.9968625572132259" />
        <Con id="1366" src="1" tgt="1072" wght="4.1078059449264916" />
        <Con id="1374" src="800" tgt="96" wght="-0.66958218455835938" />
        <Con id="1412" src="800" tgt="930" wght="3.821938604825645" />
        <Con id="1459" src="108" tgt="1072" wght="-1.3408011715479731" />
        <Con id="1467" src="4" tgt="1072" wght="2.1135254450530705" />
        <Con id="1538" src="0" tgt="1072" wght="-2.4958915509396049" />
        <Con id="1542" src="800" tgt="415" wght="-0.18873366000613465" />
        <Con id="1543" src="96" tgt="1072" wght="-3.75832554261478" />
        <Con id="1601" src="108" tgt="1600" wght="-4.9703796379008418" />
        <Con id="1602" src="1600" tgt="7" wght="2.3681961425507141" />
        <Con id="1608" src="4" tgt="1607" wght="2.3824564794942673" />
        <Con id="1609" src="1607" tgt="7" wght="0.11531595819767945" />
        <Con id="1625" src="2" tgt="1072" wght="-4.9864899531453766" />
        <Con id="1745" src="0" tgt="1315" wght="1.9725069622246769" />
        <Con id="1760" src="930" tgt="27" wght="-0.99562496275866752" />
        <Con id="1861" src="2" tgt="1315" wght="-5" />
        <Con id="1897" src="108" tgt="1896" wght="-3.0372101860120893" />
        <Con id="1898" src="1896" tgt="7" wght="3.2125421468850672" />
        <Con id="1930" src="27" tgt="1600" wght="-0.554957518131203" />
        <Con id="2043" src="4" tgt="2042" wght="0.22217610958395981" />
        <Con id="2044" src="2042" tgt="108" wght="2.5925550890746818" />
        <Con id="2067" src="1072" tgt="1600" wght="-5" />
        <Con id="2077" src="27" tgt="1896" wght="-2.2849736228212767" />
        <Con id="2121" src="415" tgt="1600" wght="3.22296587366551" />
        <Con id="2130" src="1315" tgt="1600" wght="-2.4386019169778272" />
        <Con id="2144" src="1315" tgt="930" wght="5" />
        <Con id="2178" src="96" tgt="1896" wght="-5" />
        <Con id="2252" src="108" tgt="2251" wght="-4.4503705397334832" />
        <Con id="2370" src="2" tgt="1600" wght="-1.66374523516081" />
        <Con id="2439" src="3" tgt="1607" wght="-2.4899206062224519" />
        <Con id="2471" src="930" tgt="1607" wght="4.0342435983809084" />
        <Con id="2478" src="4" tgt="1896" wght="0.77714413736954413" />
        <Con id="2480" src="1" tgt="1896" wght="4.63925260919901" />
        <Con id="2485" src="1315" tgt="108" wght="5" />
        <Con id="2582" src="1315" tgt="1896" wght="-5" />
        <Con id="2747" src="1315" tgt="96" wght="3.7906940362883934" />
        <Con id="2774" src="1072" tgt="1607" wght="-3.9618786239590955" />
        <Con id="2865" src="1072" tgt="1896" wght="4.2403422033443912" />
        <Con id="2878" src="4" tgt="2877" wght="-3.7111828684884403" />
        <Con id="2879" src="2877" tgt="800" wght="-1.2522694647499952" />
        <Con id="2934" src="1315" tgt="6" wght="2.5516467506397067" />
        <Con id="2953" src="3" tgt="2952" wght="3.0471493497045494" />
        <Con id="2954" src="2952" tgt="800" wght="-2.8137469074586634" />
        <Con id="3001" src="1" tgt="2877" wght="5" />
        <Con id="3164" src="1600" tgt="1896" wght="-2.6726895290724393" />
        <Con id="3256" src="2" tgt="2952" wght="4.7079540361665995" />
        <Con id="3317" src="800" tgt="3316" wght="1.9383652245134282" />
        <Con id="3318" src="3316" tgt="930" wght="1.3330070674419403" />
        <Con id="3331" src="2042" tgt="1072" wght="0.96467115716282725" />
        <Con id="3478" src="1607" tgt="1896" wght="-0.54362642918174608" />
        <Con id="3509" src="1" tgt="3508" wght="0.18013829845332868" />
        <Con id="3510" src="3508" tgt="27" wght="-1.9395210361108184" />
        <Con id="3512" src="800" tgt="2251" wght="4.2757866986383419" />
        <Con id="3522" src="0" tgt="2952" wght="-0.28339452191254211" />
        <Con id="3644" src="2251" tgt="1896" wght="4.1405574538574141" />
        <Con id="3731" src="96" tgt="3316" wght="-2.4899591903863354" />
        <Con id="3797" src="2877" tgt="2952" wght="3.538268441550521" />
        <Con id="3975" src="96" tgt="3508" wght="3.9095078791428053" />
        <Con id="4022" src="4020" tgt="1607" wght="5" />
        <Con id="4269" src="2877" tgt="3508" wght="3.91191491444742" />
        <Con id="4331" src="1607" tgt="5" wght="2.5180044130412353" />
        <Con id="4567" src="4" tgt="4566" wght="-5" />
        <Con id="4568" src="4566" tgt="4020" wght="-4.9746959144249558" />
        <Con id="4810" src="3316" tgt="1072" wght="3.3188824380517232" />
        <Con id="5550" src="2952" tgt="2251" wght="2.5159231154248118" />
        <Con id="6533" src="2251" tgt="6532" wght="-4.5377355555378269" />
        <Con id="6534" src="6532" tgt="930" wght="4.94296469046794" />
      </Connections>
    </Network>
  </Networks>
</Root>