<?xml version="1.0" encoding="utf-8"?>
<Root>
  <ActivationFunctions>
    <Fn id="0" name="SteepenedSigmoid" prob="1" />
  </ActivationFunctions>
  <Networks>
    <Network id="462234" birthGen="1150" fitness="0.9771986970684039">
      <Nodes>
        <Node type="bias" id="0" />
        <Node type="in" id="1" />
        <Node type="in" id="2" />
        <Node type="in" id="3" />
        <Node type="in" id="4" />
        <Node type="out" id="5" />
        <Node type="out" id="6" />
        <Node type="out" id="7" />
        <Node type="hid" id="32" />
        <Node type="hid" id="167" />
        <Node type="hid" id="503" />
        <Node type="hid" id="602" />
        <Node type="hid" id="737" />
        <Node type="hid" id="1016" />
        <Node type="hid" id="1487" />
      </Nodes>
      <Connections>
        <Con id="17" src="3" tgt="5" wght="4.9094305080274623" />
        <Con id="23" src="4" tgt="6" wght="1.3886541544481295" />
        <Con id="24" src="3" tgt="6" wght="0.703106845011761" />
        <Con id="25" src="1" tgt="6" wght="-1.1009825035698511" />
        <Con id="27" src="2" tgt="5" wght="-1.7140671944242281" />
        <Con id="31" src="1" tgt="5" wght="-3.237504234536869" />
        <Con id="33" src="2" tgt="32" wght="-0.42061569751129863" />
        <Con id="39" src="3" tgt="7" wght="-3.2662565426242582" />
        <Con id="58" src="32" tgt="5" wght="3.0729169795605844" />
        <Con id="77" src="1" tgt="7" wght="-1.845725576877598" />
        <Con id="79" src="2" tgt="7" wght="4.745518455506966" />
        <Con id="168" src="1" tgt="167" wght="-4.1183482728465517" />
        <Con id="169" src="167" tgt="7" wght="1.6961248295250806" />
        <Con id="179" src="32" tgt="6" wght="-4.0859728967721782" />
        <Con id="186" src="4" tgt="32" wght="2.9743942215584913" />
        <Con id="213" src="32" tgt="167" wght="2.1112830936908722" />
        <Con id="220" src="167" tgt="6" wght="2.5920857909432224" />
        <Con id="273" src="167" tgt="5" wght="-0.040276728309518783" />
        <Con id="505" src="503" tgt="6" wght="3.6651510143465211" />
        <Con id="560" src="503" tgt="167" wght="2.2474728893737415" />
        <Con id="603" src="2" tgt="602" wght="0.18017385462746061" />
        <Con id="604" src="602" tgt="7" wght="3.9976738801481275" />
        <Con id="620" src="503" tgt="32" wght="-5" />
        <Con id="621" src="503" tgt="5" wght="0.10948331274263423" />
        <Con id="651" src="503" tgt="602" wght="1.8058216734327159" />
        <Con id="664" src="503" tgt="7" wght="-2.849682845880436" />
        <Con id="738" src="32" tgt="737" wght="-2.2369167290600256" />
        <Con id="739" src="737" tgt="167" wght="2.7016363225825786" />
        <Con id="779" src="167" tgt="602" wght="0.97610265837095511" />
        <Con id="794" src="32" tgt="602" wght="0.35796909408414579" />
        <Con id="1017" src="0" tgt="1016" wght="-0.53803513504513656" />
        <Con id="1018" src="1016" tgt="503" wght="4.1877922105270224" />
        <Con id="1165" src="2" tgt="737" wght="-1.1344919037917029" />
        <Con id="1260" src="3" tgt="737" wght="0.91497727156072417" />
        <Con id="1360" src="503" tgt="737" wght="-0.88438074523190413" />
        <Con id="1378" src="4" tgt="737" wght="-0.67417382044897178" />
        <Con id="1488" src="32" tgt="1487" wght="-2.9807682983693544" />
        <Con id="1489" src="1487" tgt="7" wght="3.1581263160632354" />
      </Connections>
    </Network>
  </Networks>
</Root>