<?xml version="1.0" encoding="utf-8"?>
<Root>
  <ActivationFunctions>
    <Fn id="0" name="SteepenedSigmoid" prob="1" />
  </ActivationFunctions>
  <Networks>
    <Network id="2345113" birthGen="5846" fitness="0.99444444444444458">
      <Nodes>
        <Node type="bias" id="0" />
        <Node type="in" id="1" />
        <Node type="in" id="2" />
        <Node type="in" id="3" />
        <Node type="in" id="4" />
        <Node type="out" id="5" />
        <Node type="out" id="6" />
        <Node type="out" id="7" />
        <Node type="hid" id="38" />
        <Node type="hid" id="62" />
        <Node type="hid" id="67" />
        <Node type="hid" id="175" />
        <Node type="hid" id="191" />
        <Node type="hid" id="233" />
        <Node type="hid" id="327" />
        <Node type="hid" id="361" />
        <Node type="hid" id="412" />
        <Node type="hid" id="457" />
        <Node type="hid" id="654" />
        <Node type="hid" id="833" />
        <Node type="hid" id="1008" />
        <Node type="hid" id="1192" />
        <Node type="hid" id="1842" />
        <Node type="hid" id="1854" />
        <Node type="hid" id="2471" />
        <Node type="hid" id="4389" />
        <Node type="hid" id="5057" />
        <Node type="hid" id="5503" />
        <Node type="hid" id="6277" />
        <Node type="hid" id="6692" />
      </Nodes>
      <Connections>
        <Con id="8" src="0" tgt="5" wght="-4.9774857102964996" />
        <Con id="26" src="3" tgt="6" wght="2.92767828294291" />
        <Con id="27" src="4" tgt="6" wght="-5" />
        <Con id="28" src="1" tgt="5" wght="-1.6853853317839722" />
        <Con id="35" src="2" tgt="5" wght="-1.2135858580526637" />
        <Con id="37" src="0" tgt="6" wght="-3.5156163644047367" />
        <Con id="39" src="2" tgt="38" wght="0.866324406020555" />
        <Con id="40" src="38" tgt="5" wght="-4.9671557655479353" />
        <Con id="41" src="3" tgt="5" wght="3.742072269194237" />
        <Con id="42" src="4" tgt="5" wght="3.1145593665518643" />
        <Con id="43" src="3" tgt="7" wght="-3.2768695323704291" />
        <Con id="48" src="2" tgt="6" wght="-3.1380013147245633" />
        <Con id="58" src="0" tgt="7" wght="-4.9333161364466251" />
        <Con id="63" src="0" tgt="62" wght="3.5483152525060624" />
        <Con id="64" src="62" tgt="7" wght="0.741163099501988" />
        <Con id="66" src="38" tgt="7" wght="2.7600035234218456" />
        <Con id="68" src="1" tgt="67" wght="0.43610699922369722" />
        <Con id="69" src="67" tgt="6" wght="-3.4075440788933928" />
        <Con id="81" src="38" tgt="6" wght="4.98910572149977" />
        <Con id="88" src="4" tgt="7" wght="2.3398819762521521" />
        <Con id="121" src="67" tgt="7" wght="3.5638163257685211" />
        <Con id="123" src="1" tgt="38" wght="0.11064737200971808" />
        <Con id="124" src="0" tgt="38" wght="3.7696309022013854" />
        <Con id="125" src="3" tgt="38" wght="-2.5917045550043167" />
        <Con id="135" src="4" tgt="38" wght="0.50024880573794739" />
        <Con id="176" src="4" tgt="175" wght="1.0208478448812719" />
        <Con id="177" src="175" tgt="7" wght="3.1735397613630996" />
        <Con id="189" src="2" tgt="62" wght="4.2329620716713139" />
        <Con id="190" src="38" tgt="67" wght="-4.9262152090143223" />
        <Con id="192" src="38" tgt="191" wght="-1.8343196149083971" />
        <Con id="193" src="191" tgt="7" wght="0.20707328905256345" />
        <Con id="197" src="62" tgt="67" wght="-2.4731747583591495" />
        <Con id="211" src="67" tgt="5" wght="3.879640571311306" />
        <Con id="225" src="4" tgt="67" wght="-2.7932918665127806" />
        <Con id="226" src="175" tgt="62" wght="0.23189940777395227" />
        <Con id="234" src="2" tgt="233" wght="3.5014465982859857" />
        <Con id="235" src="233" tgt="38" wght="0.18049706812909733" />
        <Con id="260" src="4" tgt="62" wght="4.4261296424109231" />
        <Con id="303" src="233" tgt="6" wght="-4.8760924318644774" />
        <Con id="313" src="175" tgt="38" wght="4.8898221237617916" />
        <Con id="328" src="2" tgt="327" wght="-0.65736075498035673" />
        <Con id="329" src="327" tgt="5" wght="4.3964241550849028" />
        <Con id="344" src="175" tgt="6" wght="-4.1738086728144959" />
        <Con id="362" src="4" tgt="361" wght="-2.4974541165131647" />
        <Con id="377" src="233" tgt="67" wght="2.6084766508438739" />
        <Con id="381" src="3" tgt="327" wght="-1.3393983263555849" />
        <Con id="401" src="67" tgt="191" wght="-0.1029148738678367" />
        <Con id="411" src="327" tgt="361" wght="-2.3648559147253292" />
        <Con id="413" src="175" tgt="412" wght="5" />
        <Con id="414" src="412" tgt="62" wght="-3.0610599343300784" />
        <Con id="458" src="0" tgt="457" wght="-2.342313792730268" />
        <Con id="459" src="457" tgt="62" wght="3.9567776634642011" />
        <Con id="462" src="0" tgt="175" wght="-5" />
        <Con id="507" src="3" tgt="175" wght="3.6265927826469744" />
        <Con id="567" src="0" tgt="233" wght="-0.0058662248773178232" />
        <Con id="568" src="2" tgt="175" wght="2.6640141224491716" />
        <Con id="569" src="327" tgt="6" wght="-2.2734042396768928" />
        <Con id="653" src="3" tgt="233" wght="-5" />
        <Con id="655" src="361" tgt="654" wght="4.5863627981303416" />
        <Con id="656" src="654" tgt="7" wght="5" />
        <Con id="687" src="62" tgt="361" wght="2.1898263646289706" />
        <Con id="700" src="62" tgt="191" wght="-1.6381308118331535" />
        <Con id="708" src="0" tgt="191" wght="2.8617949430646719" />
        <Con id="746" src="62" tgt="327" wght="2.5325513590194992" />
        <Con id="772" src="2" tgt="412" wght="-0.77334925213222783" />
        <Con id="787" src="4" tgt="191" wght="2.6499914305189303" />
        <Con id="808" src="175" tgt="67" wght="4.0790082995867563" />
        <Con id="834" src="4" tgt="833" wght="-4.7311788007570046" />
        <Con id="835" src="833" tgt="6" wght="3.7874740786565115" />
        <Con id="890" src="4" tgt="412" wght="3.9334117000811162" />
        <Con id="922" src="175" tgt="191" wght="-0.43794111385279177" />
        <Con id="923" src="0" tgt="412" wght="0.66676112400350573" />
        <Con id="1009" src="62" tgt="1008" wght="1.5989955265411067" />
        <Con id="1010" src="1008" tgt="38" wght="-0.11802806207509539" />
        <Con id="1017" src="2" tgt="457" wght="0.48343686086883114" />
        <Con id="1080" src="361" tgt="5" wght="0.74195484994605221" />
        <Con id="1145" src="327" tgt="67" wght="0.74078944535210722" />
        <Con id="1180" src="4" tgt="654" wght="0.95298709676321491" />
        <Con id="1193" src="4" tgt="1192" wght="1.6818307491306002" />
        <Con id="1194" src="1192" tgt="175" wght="-1.6867585779876848" />
        <Con id="1217" src="361" tgt="7" wght="-0.98010638822176277" />
        <Con id="1251" src="2" tgt="833" wght="2.3787422528563775" />
        <Con id="1272" src="412" tgt="457" wght="-1.2912596356085797" />
        <Con id="1297" src="38" tgt="833" wght="2.0133206425546737" />
        <Con id="1336" src="361" tgt="191" wght="2.3349390517622233" />
        <Con id="1355" src="0" tgt="654" wght="2.319402537219498" />
        <Con id="1368" src="38" tgt="654" wght="0.500598692766342" />
        <Con id="1371" src="233" tgt="412" wght="1.7133516622942917" />
        <Con id="1385" src="62" tgt="654" wght="-0.40855246149543345" />
        <Con id="1524" src="0" tgt="1008" wght="0.46699311476785133" />
        <Con id="1594" src="457" tgt="1008" wght="0.3890144542925672" />
        <Con id="1607" src="457" tgt="7" wght="-2.0180453499779105" />
        <Con id="1621" src="654" tgt="5" wght="-0.48544368406158378" />
        <Con id="1648" src="457" tgt="191" wght="-4.4614592665100483" />
        <Con id="1649" src="412" tgt="1008" wght="-1.8985624052584171" />
        <Con id="1805" src="654" tgt="191" wght="-1.4173320821670561" />
        <Con id="1843" src="62" tgt="1842" wght="1.8235310119291503" />
        <Con id="1844" src="1842" tgt="361" wght="1.983741476198305" />
        <Con id="1846" src="833" tgt="654" wght="3.9162657919707335" />
        <Con id="1855" src="2" tgt="1854" wght="-3.3453312491179195" />
        <Con id="1856" src="1854" tgt="38" wght="3.8670599201948455" />
        <Con id="1911" src="327" tgt="1008" wght="-0.33788735262039421" />
        <Con id="1912" src="361" tgt="833" wght="-2.7903829429203677" />
        <Con id="1984" src="457" tgt="1842" wght="-0.61763179292749448" />
        <Con id="1987" src="412" tgt="1842" wght="3.5598376561014304" />
        <Con id="1991" src="38" tgt="1842" wght="-4.9796886464274639" />
        <Con id="2069" src="1008" tgt="191" wght="-2.6959463077621009" />
        <Con id="2378" src="1192" tgt="6" wght="-0.13870537419542209" />
        <Con id="2472" src="1" tgt="2471" wght="4.9960608474271542" />
        <Con id="2473" src="2471" tgt="6" wght="5" />
        <Con id="2648" src="0" tgt="1854" wght="2.6082671907212074" />
        <Con id="2655" src="1192" tgt="327" wght="-3.3024194450112256" />
        <Con id="2755" src="1192" tgt="1842" wght="-3.8822072348502283" />
        <Con id="4390" src="62" tgt="4389" wght="4.2747403739615457" />
        <Con id="4391" src="4389" tgt="67" wght="-0.069138791459578325" />
        <Con id="5058" src="67" tgt="5057" wght="3.5588412658294661" />
        <Con id="5059" src="5057" tgt="191" wght="-3.0796837882841266" />
        <Con id="5169" src="1854" tgt="1192" wght="2.8917994364760773" />
        <Con id="5504" src="4" tgt="5503" wght="-0.10410401825098754" />
        <Con id="5505" src="5503" tgt="191" wght="0.69041265902978433" />
        <Con id="5584" src="1854" tgt="2471" wght="3.4349087239488223" />
        <Con id="5750" src="175" tgt="4389" wght="1.7879025568059184" />
        <Con id="5879" src="233" tgt="5057" wght="2.8168466413422055" />
        <Con id="6031" src="2471" tgt="191" wght="5" />
        <Con id="6053" src="654" tgt="4389" wght="-3.0075156735256314" />
        <Con id="6278" src="3" tgt="6277" wght="3.7143677329160334" />
        <Con id="6279" src="6277" tgt="67" wght="-2.7480459473212915" />
        <Con id="6602" src="457" tgt="5503" wght="5" />
        <Con id="6693" src="4" tgt="6692" wght="4.9425365830482511" />
        <Con id="6694" src="6692" tgt="1854" wght="1.4634260616222403" />
        <Con id="6912" src="175" tgt="5503" wght="-1.5058379397373738" />
        <Con id="7747" src="0" tgt="6277" wght="2.8254329629019761" />
      </Connections>
    </Network>
  </Networks>
</Root>