<?xml version="1.0" encoding="utf-8"?>
<Root>
  <ActivationFunctions>
    <Fn id="0" name="PlainSigmoid" prob="1" />
  </ActivationFunctions>
  <Networks>
    <Network id="387050" birthGen="4821" fitness="1.6405599926848466">
      <Nodes>
        <Node type="bias" id="0" />
        <Node type="in" id="1" />
        <Node type="in" id="2" />
        <Node type="in" id="3" />
        <Node type="in" id="4" />
        <Node type="in" id="5" />
        <Node type="in" id="6" />
        <Node type="in" id="7" />
        <Node type="in" id="8" />
        <Node type="in" id="9" />
        <Node type="in" id="10" />
        <Node type="in" id="11" />
        <Node type="in" id="12" />
        <Node type="in" id="13" />
        <Node type="in" id="14" />
        <Node type="in" id="15" />
        <Node type="in" id="16" />
        <Node type="in" id="17" />
        <Node type="in" id="18" />
        <Node type="in" id="19" />
        <Node type="in" id="20" />
        <Node type="in" id="21" />
        <Node type="in" id="22" />
        <Node type="in" id="23" />
        <Node type="in" id="24" />
        <Node type="in" id="25" />
        <Node type="in" id="26" />
        <Node type="in" id="27" />
        <Node type="in" id="28" />
        <Node type="in" id="29" />
        <Node type="in" id="30" />
        <Node type="in" id="31" />
        <Node type="in" id="32" />
        <Node type="in" id="33" />
        <Node type="in" id="34" />
        <Node type="in" id="35" />
        <Node type="in" id="36" />
        <Node type="in" id="37" />
        <Node type="in" id="38" />
        <Node type="in" id="39" />
        <Node type="in" id="40" />
        <Node type="in" id="41" />
        <Node type="in" id="42" />
        <Node type="in" id="43" />
        <Node type="in" id="44" />
        <Node type="in" id="45" />
        <Node type="in" id="46" />
        <Node type="in" id="47" />
        <Node type="in" id="48" />
        <Node type="in" id="49" />
        <Node type="in" id="50" />
        <Node type="in" id="51" />
        <Node type="in" id="52" />
        <Node type="in" id="53" />
        <Node type="in" id="54" />
        <Node type="in" id="55" />
        <Node type="in" id="56" />
        <Node type="in" id="57" />
        <Node type="in" id="58" />
        <Node type="in" id="59" />
        <Node type="in" id="60" />
        <Node type="in" id="61" />
        <Node type="in" id="62" />
        <Node type="in" id="63" />
        <Node type="in" id="64" />
        <Node type="in" id="65" />
        <Node type="in" id="66" />
        <Node type="in" id="67" />
        <Node type="in" id="68" />
        <Node type="in" id="69" />
        <Node type="in" id="70" />
        <Node type="in" id="71" />
        <Node type="in" id="72" />
        <Node type="in" id="73" />
        <Node type="in" id="74" />
        <Node type="in" id="75" />
        <Node type="in" id="76" />
        <Node type="in" id="77" />
        <Node type="in" id="78" />
        <Node type="in" id="79" />
        <Node type="in" id="80" />
        <Node type="in" id="81" />
        <Node type="in" id="82" />
        <Node type="in" id="83" />
        <Node type="in" id="84" />
        <Node type="in" id="85" />
        <Node type="in" id="86" />
        <Node type="in" id="87" />
        <Node type="in" id="88" />
        <Node type="in" id="89" />
        <Node type="in" id="90" />
        <Node type="in" id="91" />
        <Node type="in" id="92" />
        <Node type="in" id="93" />
        <Node type="in" id="94" />
        <Node type="in" id="95" />
        <Node type="in" id="96" />
        <Node type="in" id="97" />
        <Node type="in" id="98" />
        <Node type="in" id="99" />
        <Node type="in" id="100" />
        <Node type="in" id="101" />
        <Node type="in" id="102" />
        <Node type="in" id="103" />
        <Node type="in" id="104" />
        <Node type="in" id="105" />
        <Node type="in" id="106" />
        <Node type="in" id="107" />
        <Node type="in" id="108" />
        <Node type="in" id="109" />
        <Node type="in" id="110" />
        <Node type="in" id="111" />
        <Node type="in" id="112" />
        <Node type="in" id="113" />
        <Node type="in" id="114" />
        <Node type="in" id="115" />
        <Node type="in" id="116" />
        <Node type="in" id="117" />
        <Node type="in" id="118" />
        <Node type="in" id="119" />
        <Node type="in" id="120" />
        <Node type="in" id="121" />
        <Node type="in" id="122" />
        <Node type="in" id="123" />
        <Node type="in" id="124" />
        <Node type="in" id="125" />
        <Node type="in" id="126" />
        <Node type="in" id="127" />
        <Node type="in" id="128" />
        <Node type="in" id="129" />
        <Node type="in" id="130" />
        <Node type="in" id="131" />
        <Node type="in" id="132" />
        <Node type="in" id="133" />
        <Node type="in" id="134" />
        <Node type="in" id="135" />
        <Node type="in" id="136" />
        <Node type="in" id="137" />
        <Node type="out" id="138" />
        <Node type="hid" id="355" />
        <Node type="hid" id="392" />
        <Node type="hid" id="499" />
        <Node type="hid" id="610" />
        <Node type="hid" id="727" />
        <Node type="hid" id="735" />
        <Node type="hid" id="772" />
        <Node type="hid" id="906" />
        <Node type="hid" id="1104" />
        <Node type="hid" id="1373" />
        <Node type="hid" id="1552" />
        <Node type="hid" id="1564" />
        <Node type="hid" id="1664" />
      </Nodes>
      <Connections>
        <Con id="154" src="15" tgt="138" wght="1.458796817836729" />
        <Con id="162" src="23" tgt="138" wght="-2.99778174606767" />
        <Con id="164" src="25" tgt="138" wght="1.1031354775284563" />
        <Con id="168" src="29" tgt="138" wght="2.5722187898586761" />
        <Con id="180" src="41" tgt="138" wght="-0.285360927287559" />
        <Con id="183" src="44" tgt="138" wght="1.03724781532609" />
        <Con id="186" src="47" tgt="138" wght="0.65165948183129718" />
        <Con id="187" src="48" tgt="138" wght="4.9964515590118284" />
        <Con id="188" src="49" tgt="138" wght="2.0930950408608471" />
        <Con id="193" src="54" tgt="138" wght="1.9212694445601486" />
        <Con id="199" src="60" tgt="138" wght="2.1797235386951379" />
        <Con id="200" src="61" tgt="138" wght="1.2943502926003421" />
        <Con id="202" src="63" tgt="138" wght="-0.12467159344391399" />
        <Con id="207" src="68" tgt="138" wght="0.35848004664450656" />
        <Con id="208" src="69" tgt="138" wght="1.1440850703538503" />
        <Con id="211" src="72" tgt="138" wght="-0.12300252694301045" />
        <Con id="217" src="78" tgt="138" wght="0.02141858633998258" />
        <Con id="219" src="80" tgt="138" wght="-0.098667589385054044" />
        <Con id="220" src="81" tgt="138" wght="0.094319093950720759" />
        <Con id="225" src="86" tgt="138" wght="0.013363508234297883" />
        <Con id="230" src="91" tgt="138" wght="0.083484135235161516" />
        <Con id="233" src="94" tgt="138" wght="-0.015681977038744507" />
        <Con id="247" src="108" tgt="138" wght="0.041125959015442429" />
        <Con id="249" src="110" tgt="138" wght="-0.072136068958930127" />
        <Con id="251" src="112" tgt="138" wght="0.0078035969429754749" />
        <Con id="270" src="131" tgt="138" wght="-0.17495176489114792" />
        <Con id="274" src="135" tgt="138" wght="-0.15301376879368966" />
        <Con id="290" src="28" tgt="138" wght="-1.7802800713989955" />
        <Con id="309" src="136" tgt="138" wght="-0.36319373151544182" />
        <Con id="319" src="53" tgt="138" wght="2.4411777419634815" />
        <Con id="336" src="71" tgt="138" wght="3.1112069122177086" />
        <Con id="343" src="102" tgt="138" wght="0.11601487500362481" />
        <Con id="350" src="26" tgt="138" wght="0.97520039664646574" />
        <Con id="353" src="118" tgt="138" wght="-0.069549884300619355" />
        <Con id="356" src="48" tgt="355" wght="5" />
        <Con id="357" src="355" tgt="138" wght="1.3100037508538644" />
        <Con id="370" src="55" tgt="138" wght="0.87393076064647846" />
        <Con id="372" src="88" tgt="138" wght="-0.0709617151658306" />
        <Con id="373" src="27" tgt="138" wght="0.56034415730624487" />
        <Con id="385" src="21" tgt="138" wght="5" />
        <Con id="393" src="110" tgt="392" wght="0.48050147068300042" />
        <Con id="394" src="392" tgt="138" wght="0.35040511020580839" />
        <Con id="400" src="122" tgt="138" wght="-0.13394195340342091" />
        <Con id="403" src="72" tgt="355" wght="-1.477671215749075" />
        <Con id="419" src="104" tgt="355" wght="0.0683957790029161" />
        <Con id="443" src="20" tgt="138" wght="1.7627151004641413" />
        <Con id="450" src="37" tgt="355" wght="1.4946743758335854" />
        <Con id="466" src="137" tgt="355" wght="0.027310576051427428" />
        <Con id="477" src="52" tgt="138" wght="-5" />
        <Con id="492" src="45" tgt="138" wght="-3.1760243504673484" />
        <Con id="497" src="23" tgt="355" wght="4.4142361249043409" />
        <Con id="500" src="60" tgt="499" wght="0.68464536864302883" />
        <Con id="501" src="499" tgt="138" wght="-1.8132265151939881" />
        <Con id="523" src="59" tgt="355" wght="-5" />
        <Con id="524" src="64" tgt="392" wght="5" />
        <Con id="574" src="30" tgt="138" wght="1.0388401319009239" />
        <Con id="576" src="113" tgt="392" wght="0.31262491833379158" />
        <Con id="585" src="21" tgt="392" wght="5" />
        <Con id="611" src="59" tgt="610" wght="1.9164031540964219" />
        <Con id="612" src="610" tgt="355" wght="-1.8311424997248114" />
        <Con id="627" src="16" tgt="355" wght="1.5507235234703427" />
        <Con id="637" src="76" tgt="392" wght="-0.21867562745524291" />
        <Con id="689" src="48" tgt="392" wght="3.0880065608644309" />
        <Con id="728" src="86" tgt="727" wght="0.065534674854032138" />
        <Con id="729" src="727" tgt="138" wght="2.5862624710149347" />
        <Con id="734" src="33" tgt="499" wght="-4.090611936228151" />
        <Con id="736" src="102" tgt="735" wght="0.033730524720835375" />
        <Con id="737" src="735" tgt="138" wght="4.2126071567245642" />
        <Con id="744" src="42" tgt="355" wght="1.6020373219933641" />
        <Con id="752" src="41" tgt="355" wght="0.5202316521397794" />
        <Con id="769" src="116" tgt="499" wght="0.28718410150842244" />
        <Con id="771" src="10" tgt="499" wght="0.0012668412867069406" />
        <Con id="773" src="49" tgt="772" wght="-1.2921463569499974" />
        <Con id="774" src="772" tgt="138" wght="3.1123537175558385" />
        <Con id="777" src="24" tgt="499" wght="-1.9776621530050076" />
        <Con id="790" src="735" tgt="772" wght="-4.6396951812275846" />
        <Con id="820" src="67" tgt="727" wght="5" />
        <Con id="848" src="129" tgt="355" wght="-0.32174932271562395" />
        <Con id="886" src="31" tgt="392" wght="4.7194120960480461" />
        <Con id="907" src="91" tgt="906" wght="-0.42791657142802741" />
        <Con id="908" src="906" tgt="138" wght="1.0209454617699398" />
        <Con id="937" src="34" tgt="727" wght="-2.7131480996269488" />
        <Con id="953" src="35" tgt="727" wght="4.4505033370156548" />
        <Con id="963" src="16" tgt="727" wght="-1.0632957247257535" />
        <Con id="968" src="727" tgt="392" wght="0.90162824514726148" />
        <Con id="1012" src="66" tgt="610" wght="3.8838199715233808" />
        <Con id="1024" src="85" tgt="772" wght="0.0032611400727030945" />
        <Con id="1060" src="906" tgt="355" wght="4.0405428475296565" />
        <Con id="1064" src="133" tgt="355" wght="-0.56936000977266776" />
        <Con id="1074" src="19" tgt="735" wght="0.56619616688468233" />
        <Con id="1105" src="33" tgt="1104" wght="-3.1336290778852556" />
        <Con id="1106" src="1104" tgt="499" wght="2.1988346400173211" />
        <Con id="1123" src="115" tgt="499" wght="0.12064952255487939" />
        <Con id="1147" src="79" tgt="772" wght="-0.99213018375873185" />
        <Con id="1169" src="610" tgt="772" wght="-0.50632985522703189" />
        <Con id="1192" src="19" tgt="392" wght="2.5786730405430558" />
        <Con id="1236" src="73" tgt="727" wght="-0.7742472709661038" />
        <Con id="1291" src="56" tgt="735" wght="-1.2144519191326719" />
        <Con id="1328" src="67" tgt="392" wght="3.934032498417662" />
        <Con id="1348" src="772" tgt="499" wght="1.3075284125668496" />
        <Con id="1374" src="63" tgt="1373" wght="-0.68406758988313465" />
        <Con id="1375" src="1373" tgt="138" wght="3.2151377674690744" />
        <Con id="1553" src="610" tgt="1552" wght="1.7740748298116118" />
        <Con id="1554" src="1552" tgt="355" wght="1.3006210703942436" />
        <Con id="1565" src="78" tgt="1564" wght="-0.053388432736425184" />
        <Con id="1566" src="1564" tgt="138" wght="4.89702467194105" />
        <Con id="1665" src="73" tgt="1664" wght="-0.68810661109896509" />
        <Con id="1666" src="1664" tgt="727" wght="5" />
        <Con id="1752" src="56" tgt="1104" wght="-2.6391017939084009" />
        <Con id="1792" src="134" tgt="906" wght="-1.0900013209549422" />
        <Con id="1894" src="58" tgt="1373" wght="2.1510127650601985" />
        <Con id="1967" src="40" tgt="735" wght="-2.8367312363295936" />
        <Con id="2027" src="133" tgt="906" wght="-0.098120849242211247" />
      </Connections>
    </Network>
  </Networks>
</Root>