<?xml version="1.0" encoding="utf-8"?>
<Root>
  <ActivationFunctions>
    <Fn id="0" name="PlainSigmoid" prob="1" />
  </ActivationFunctions>
  <Networks>
    <Network id="35653" birthGen="443" fitness="1.6366660855863553">
      <Nodes>
        <Node type="bias" id="0" />
        <Node type="in" id="1" />
        <Node type="in" id="2" />
        <Node type="in" id="3" />
        <Node type="in" id="4" />
        <Node type="in" id="5" />
        <Node type="in" id="6" />
        <Node type="in" id="7" />
        <Node type="in" id="8" />
        <Node type="in" id="9" />
        <Node type="in" id="10" />
        <Node type="in" id="11" />
        <Node type="in" id="12" />
        <Node type="in" id="13" />
        <Node type="in" id="14" />
        <Node type="in" id="15" />
        <Node type="in" id="16" />
        <Node type="in" id="17" />
        <Node type="in" id="18" />
        <Node type="in" id="19" />
        <Node type="in" id="20" />
        <Node type="in" id="21" />
        <Node type="in" id="22" />
        <Node type="in" id="23" />
        <Node type="in" id="24" />
        <Node type="in" id="25" />
        <Node type="in" id="26" />
        <Node type="in" id="27" />
        <Node type="in" id="28" />
        <Node type="in" id="29" />
        <Node type="in" id="30" />
        <Node type="in" id="31" />
        <Node type="in" id="32" />
        <Node type="in" id="33" />
        <Node type="in" id="34" />
        <Node type="in" id="35" />
        <Node type="in" id="36" />
        <Node type="in" id="37" />
        <Node type="in" id="38" />
        <Node type="in" id="39" />
        <Node type="in" id="40" />
        <Node type="in" id="41" />
        <Node type="in" id="42" />
        <Node type="in" id="43" />
        <Node type="in" id="44" />
        <Node type="in" id="45" />
        <Node type="in" id="46" />
        <Node type="in" id="47" />
        <Node type="in" id="48" />
        <Node type="in" id="49" />
        <Node type="in" id="50" />
        <Node type="in" id="51" />
        <Node type="in" id="52" />
        <Node type="in" id="53" />
        <Node type="in" id="54" />
        <Node type="in" id="55" />
        <Node type="in" id="56" />
        <Node type="in" id="57" />
        <Node type="in" id="58" />
        <Node type="in" id="59" />
        <Node type="in" id="60" />
        <Node type="in" id="61" />
        <Node type="in" id="62" />
        <Node type="in" id="63" />
        <Node type="in" id="64" />
        <Node type="in" id="65" />
        <Node type="in" id="66" />
        <Node type="in" id="67" />
        <Node type="in" id="68" />
        <Node type="in" id="69" />
        <Node type="in" id="70" />
        <Node type="in" id="71" />
        <Node type="in" id="72" />
        <Node type="in" id="73" />
        <Node type="in" id="74" />
        <Node type="in" id="75" />
        <Node type="in" id="76" />
        <Node type="in" id="77" />
        <Node type="in" id="78" />
        <Node type="in" id="79" />
        <Node type="in" id="80" />
        <Node type="in" id="81" />
        <Node type="in" id="82" />
        <Node type="in" id="83" />
        <Node type="in" id="84" />
        <Node type="in" id="85" />
        <Node type="in" id="86" />
        <Node type="in" id="87" />
        <Node type="in" id="88" />
        <Node type="in" id="89" />
        <Node type="in" id="90" />
        <Node type="in" id="91" />
        <Node type="in" id="92" />
        <Node type="in" id="93" />
        <Node type="in" id="94" />
        <Node type="in" id="95" />
        <Node type="in" id="96" />
        <Node type="in" id="97" />
        <Node type="in" id="98" />
        <Node type="in" id="99" />
        <Node type="in" id="100" />
        <Node type="in" id="101" />
        <Node type="in" id="102" />
        <Node type="in" id="103" />
        <Node type="in" id="104" />
        <Node type="in" id="105" />
        <Node type="in" id="106" />
        <Node type="in" id="107" />
        <Node type="in" id="108" />
        <Node type="in" id="109" />
        <Node type="in" id="110" />
        <Node type="in" id="111" />
        <Node type="in" id="112" />
        <Node type="in" id="113" />
        <Node type="in" id="114" />
        <Node type="in" id="115" />
        <Node type="in" id="116" />
        <Node type="in" id="117" />
        <Node type="in" id="118" />
        <Node type="in" id="119" />
        <Node type="in" id="120" />
        <Node type="in" id="121" />
        <Node type="in" id="122" />
        <Node type="in" id="123" />
        <Node type="in" id="124" />
        <Node type="in" id="125" />
        <Node type="in" id="126" />
        <Node type="in" id="127" />
        <Node type="in" id="128" />
        <Node type="in" id="129" />
        <Node type="in" id="130" />
        <Node type="in" id="131" />
        <Node type="in" id="132" />
        <Node type="in" id="133" />
        <Node type="in" id="134" />
        <Node type="in" id="135" />
        <Node type="in" id="136" />
        <Node type="in" id="137" />
        <Node type="out" id="138" />
      </Nodes>
      <Connections>
        <Con id="151" src="12" tgt="138" wght="0.065309719072804112" />
        <Con id="152" src="13" tgt="138" wght="0.5709753429367519" />
        <Con id="155" src="16" tgt="138" wght="-0.07196939817889908" />
        <Con id="156" src="17" tgt="138" wght="-0.33070251925653638" />
        <Con id="157" src="18" tgt="138" wght="1.6264693457352215" />
        <Con id="158" src="19" tgt="138" wght="-0.049378052505097123" />
        <Con id="161" src="22" tgt="138" wght="-0.019708432515361859" />
        <Con id="164" src="25" tgt="138" wght="-0.18891332977466155" />
        <Con id="166" src="27" tgt="138" wght="1.0219366625141018" />
        <Con id="170" src="31" tgt="138" wght="0.31460283442777587" />
        <Con id="172" src="33" tgt="138" wght="-0.0050804046206636075" />
        <Con id="173" src="34" tgt="138" wght="0.16160874478925458" />
        <Con id="177" src="38" tgt="138" wght="0.03811044941889781" />
        <Con id="182" src="43" tgt="138" wght="-0.064104912655422466" />
        <Con id="185" src="46" tgt="138" wght="0.71292848846082546" />
        <Con id="186" src="47" tgt="138" wght="0.070316906324503062" />
        <Con id="190" src="51" tgt="138" wght="-0.1598028432649361" />
        <Con id="191" src="52" tgt="138" wght="-5" />
        <Con id="193" src="54" tgt="138" wght="-0.16511617820521832" />
        <Con id="198" src="59" tgt="138" wght="-2.6616502321970108" />
        <Con id="199" src="60" tgt="138" wght="1.6075358827425956" />
        <Con id="200" src="61" tgt="138" wght="0.12643606433618879" />
        <Con id="206" src="67" tgt="138" wght="4.9855077146498772" />
        <Con id="207" src="68" tgt="138" wght="0.11187392755216868" />
        <Con id="215" src="76" tgt="138" wght="-0.79272167056194254" />
        <Con id="216" src="77" tgt="138" wght="-0.86627524244685117" />
        <Con id="217" src="78" tgt="138" wght="-0.0343079419291287" />
        <Con id="229" src="90" tgt="138" wght="0.042921940165118563" />
        <Con id="232" src="93" tgt="138" wght="-0.012660629072850864" />
        <Con id="236" src="97" tgt="138" wght="0.019426116978071034" />
        <Con id="237" src="98" tgt="138" wght="0.25382457357413868" />
        <Con id="242" src="103" tgt="138" wght="-0.011828195316454349" />
        <Con id="247" src="108" tgt="138" wght="0.035725932310675328" />
        <Con id="256" src="117" tgt="138" wght="0.16402954894836774" />
        <Con id="260" src="121" tgt="138" wght="-0.03518068093624091" />
        <Con id="271" src="132" tgt="138" wght="-0.42026481827114326" />
        <Con id="274" src="135" tgt="138" wght="-0.10259324848331115" />
        <Con id="286" src="134" tgt="138" wght="-0.4710306620075716" />
      </Connections>
    </Network>
  </Networks>
</Root>