<?xml version="1.0" encoding="utf-8"?>
<Root>
  <ActivationFunctions>
    <Fn id="0" name="SteepenedSigmoid" prob="1" />
  </ActivationFunctions>
  <Networks>
    <Network id="196141" birthGen="487" fitness="0.43895747599451307">
      <Nodes>
        <Node type="bias" id="0" />
        <Node type="in" id="1" />
        <Node type="in" id="2" />
        <Node type="in" id="3" />
        <Node type="in" id="4" />
        <Node type="in" id="5" />
        <Node type="in" id="6" />
        <Node type="in" id="7" />
        <Node type="in" id="8" />
        <Node type="in" id="9" />
        <Node type="in" id="10" />
        <Node type="in" id="11" />
        <Node type="in" id="12" />
        <Node type="in" id="13" />
        <Node type="out" id="14" />
        <Node type="hid" id="60" />
      </Nodes>
      <Connections>
        <Con id="25" src="10" tgt="14" wght="0.027070683475459514" />
        <Con id="29" src="4" tgt="14" wght="0.20147972788143848" />
        <Con id="30" src="5" tgt="14" wght="1.5267495142137413" />
        <Con id="31" src="3" tgt="14" wght="-0.030704408884310443" />
        <Con id="37" src="0" tgt="14" wght="-2.6617994954939777" />
        <Con id="43" src="12" tgt="14" wght="-2.1540683230145405" />
        <Con id="44" src="13" tgt="14" wght="-0.62785367693242811" />
        <Con id="48" src="9" tgt="14" wght="-4.2165678124964519" />
        <Con id="56" src="11" tgt="14" wght="-5" />
        <Con id="61" src="10" tgt="60" wght="0.898949487558626" />
        <Con id="62" src="60" tgt="14" wght="-5" />
      </Connections>
    </Network>
  </Networks>
</Root>