<?xml version="1.0" encoding="utf-8"?>
<Root>
  <ActivationFunctions>
    <Fn id="0" name="PlainSigmoid" prob="1" />
  </ActivationFunctions>
  <Networks>
    <Network id="3359410" birthGen="41993" fitness="0.77324081088086549">
      <Nodes>
        <Node type="bias" id="0" />
        <Node type="in" id="1" />
        <Node type="in" id="2" />
        <Node type="in" id="3" />
        <Node type="in" id="4" />
        <Node type="in" id="5" />
        <Node type="in" id="6" />
        <Node type="in" id="7" />
        <Node type="in" id="8" />
        <Node type="in" id="9" />
        <Node type="in" id="10" />
        <Node type="in" id="11" />
        <Node type="in" id="12" />
        <Node type="in" id="13" />
        <Node type="in" id="14" />
        <Node type="in" id="15" />
        <Node type="in" id="16" />
        <Node type="in" id="17" />
        <Node type="in" id="18" />
        <Node type="in" id="19" />
        <Node type="in" id="20" />
        <Node type="in" id="21" />
        <Node type="in" id="22" />
        <Node type="in" id="23" />
        <Node type="in" id="24" />
        <Node type="in" id="25" />
        <Node type="in" id="26" />
        <Node type="in" id="27" />
        <Node type="in" id="28" />
        <Node type="in" id="29" />
        <Node type="in" id="30" />
        <Node type="in" id="31" />
        <Node type="in" id="32" />
        <Node type="in" id="33" />
        <Node type="in" id="34" />
        <Node type="in" id="35" />
        <Node type="in" id="36" />
        <Node type="in" id="37" />
        <Node type="in" id="38" />
        <Node type="in" id="39" />
        <Node type="in" id="40" />
        <Node type="in" id="41" />
        <Node type="in" id="42" />
        <Node type="in" id="43" />
        <Node type="in" id="44" />
        <Node type="in" id="45" />
        <Node type="in" id="46" />
        <Node type="in" id="47" />
        <Node type="in" id="48" />
        <Node type="in" id="49" />
        <Node type="in" id="50" />
        <Node type="in" id="51" />
        <Node type="in" id="52" />
        <Node type="in" id="53" />
        <Node type="in" id="54" />
        <Node type="in" id="55" />
        <Node type="in" id="56" />
        <Node type="in" id="57" />
        <Node type="in" id="58" />
        <Node type="in" id="59" />
        <Node type="in" id="60" />
        <Node type="in" id="61" />
        <Node type="in" id="62" />
        <Node type="in" id="63" />
        <Node type="in" id="64" />
        <Node type="in" id="65" />
        <Node type="in" id="66" />
        <Node type="in" id="67" />
        <Node type="in" id="68" />
        <Node type="in" id="69" />
        <Node type="in" id="70" />
        <Node type="in" id="71" />
        <Node type="in" id="72" />
        <Node type="in" id="73" />
        <Node type="in" id="74" />
        <Node type="in" id="75" />
        <Node type="in" id="76" />
        <Node type="in" id="77" />
        <Node type="in" id="78" />
        <Node type="in" id="79" />
        <Node type="in" id="80" />
        <Node type="in" id="81" />
        <Node type="in" id="82" />
        <Node type="in" id="83" />
        <Node type="in" id="84" />
        <Node type="in" id="85" />
        <Node type="in" id="86" />
        <Node type="in" id="87" />
        <Node type="in" id="88" />
        <Node type="in" id="89" />
        <Node type="in" id="90" />
        <Node type="in" id="91" />
        <Node type="in" id="92" />
        <Node type="in" id="93" />
        <Node type="in" id="94" />
        <Node type="in" id="95" />
        <Node type="in" id="96" />
        <Node type="in" id="97" />
        <Node type="in" id="98" />
        <Node type="in" id="99" />
        <Node type="in" id="100" />
        <Node type="in" id="101" />
        <Node type="in" id="102" />
        <Node type="in" id="103" />
        <Node type="in" id="104" />
        <Node type="in" id="105" />
        <Node type="in" id="106" />
        <Node type="in" id="107" />
        <Node type="in" id="108" />
        <Node type="in" id="109" />
        <Node type="in" id="110" />
        <Node type="in" id="111" />
        <Node type="in" id="112" />
        <Node type="in" id="113" />
        <Node type="in" id="114" />
        <Node type="in" id="115" />
        <Node type="in" id="116" />
        <Node type="in" id="117" />
        <Node type="in" id="118" />
        <Node type="in" id="119" />
        <Node type="in" id="120" />
        <Node type="in" id="121" />
        <Node type="in" id="122" />
        <Node type="in" id="123" />
        <Node type="in" id="124" />
        <Node type="in" id="125" />
        <Node type="in" id="126" />
        <Node type="in" id="127" />
        <Node type="in" id="128" />
        <Node type="in" id="129" />
        <Node type="in" id="130" />
        <Node type="in" id="131" />
        <Node type="in" id="132" />
        <Node type="in" id="133" />
        <Node type="in" id="134" />
        <Node type="in" id="135" />
        <Node type="in" id="136" />
        <Node type="in" id="137" />
        <Node type="in" id="138" />
        <Node type="in" id="139" />
        <Node type="in" id="140" />
        <Node type="out" id="141" />
      </Nodes>
      <Connections>
        <Con id="142" src="0" tgt="141" wght="1.0314184720889332" />
        <Con id="144" src="2" tgt="141" wght="0.24718176362331784" />
        <Con id="146" src="4" tgt="141" wght="0.38834129174106569" />
        <Con id="148" src="6" tgt="141" wght="-0.4879606393558773" />
        <Con id="152" src="10" tgt="141" wght="0.20497089612077946" />
        <Con id="154" src="12" tgt="141" wght="0.90496937709038938" />
        <Con id="155" src="13" tgt="141" wght="-0.1447948483185196" />
        <Con id="157" src="15" tgt="141" wght="0.37131766969832691" />
        <Con id="158" src="16" tgt="141" wght="-0.085096835043172808" />
        <Con id="159" src="17" tgt="141" wght="0.31163832955807447" />
        <Con id="160" src="18" tgt="141" wght="-0.44835651163799034" />
        <Con id="162" src="20" tgt="141" wght="-0.83928360445826022" />
        <Con id="163" src="21" tgt="141" wght="0.22864926890362269" />
        <Con id="165" src="23" tgt="141" wght="4.0540729616858062" />
        <Con id="166" src="24" tgt="141" wght="1.1168796787746595" />
        <Con id="167" src="25" tgt="141" wght="2.0655171699355295" />
        <Con id="171" src="29" tgt="141" wght="0.57396230331845466" />
        <Con id="173" src="31" tgt="141" wght="-1.1397151729500785" />
        <Con id="179" src="37" tgt="141" wght="0.020940000553856485" />
        <Con id="180" src="38" tgt="141" wght="-0.47376128467978923" />
        <Con id="181" src="39" tgt="141" wght="0.98018898076356042" />
        <Con id="185" src="43" tgt="141" wght="-0.25651294759751631" />
        <Con id="187" src="45" tgt="141" wght="-0.76263252065419274" />
        <Con id="188" src="46" tgt="141" wght="0.081923473553502324" />
        <Con id="189" src="47" tgt="141" wght="0.078541763126675768" />
        <Con id="191" src="49" tgt="141" wght="-0.78635556309196153" />
        <Con id="194" src="52" tgt="141" wght="2.0422287890574871" />
        <Con id="195" src="53" tgt="141" wght="-1.503324817648249" />
        <Con id="196" src="54" tgt="141" wght="-1.3714198839093688" />
        <Con id="197" src="55" tgt="141" wght="-0.20170422242395808" />
        <Con id="200" src="58" tgt="141" wght="0.20344710430435808" />
        <Con id="202" src="60" tgt="141" wght="0.5616555587833425" />
        <Con id="203" src="61" tgt="141" wght="-0.95008437331665463" />
        <Con id="204" src="62" tgt="141" wght="-0.94221004781524909" />
        <Con id="206" src="64" tgt="141" wght="-0.044581029025818709" />
        <Con id="207" src="65" tgt="141" wght="0.5255000515189272" />
        <Con id="208" src="66" tgt="141" wght="0.18977377944781293" />
        <Con id="210" src="68" tgt="141" wght="1.1757152116431118" />
        <Con id="220" src="78" tgt="141" wght="-0.3119149019338589" />
        <Con id="222" src="80" tgt="141" wght="1.5582602458054879" />
        <Con id="224" src="82" tgt="141" wght="-0.37043168529810494" />
        <Con id="226" src="84" tgt="141" wght="-0.21902460735885873" />
        <Con id="232" src="90" tgt="141" wght="0.52556310802198292" />
        <Con id="234" src="92" tgt="141" wght="-0.51284659380423714" />
        <Con id="235" src="93" tgt="141" wght="-0.31595030506791894" />
        <Con id="236" src="94" tgt="141" wght="-0.82231489863523721" />
        <Con id="238" src="96" tgt="141" wght="0.02080178627476165" />
        <Con id="239" src="97" tgt="141" wght="0.44019600713289242" />
        <Con id="241" src="99" tgt="141" wght="1.7400703001410232" />
        <Con id="243" src="101" tgt="141" wght="-0.039569498611245285" />
        <Con id="246" src="104" tgt="141" wght="-0.34289523769769503" />
        <Con id="251" src="109" tgt="141" wght="-0.21030981616767827" />
        <Con id="252" src="110" tgt="141" wght="0.40875042188692851" />
        <Con id="253" src="111" tgt="141" wght="-0.0014803710171987102" />
        <Con id="259" src="117" tgt="141" wght="-0.77163394990376744" />
        <Con id="260" src="118" tgt="141" wght="0.099081743562626542" />
        <Con id="261" src="119" tgt="141" wght="-0.079657474604912681" />
        <Con id="263" src="121" tgt="141" wght="0.38496387219290845" />
        <Con id="265" src="123" tgt="141" wght="-0.017433724919239047" />
        <Con id="269" src="127" tgt="141" wght="-0.26673135943995091" />
        <Con id="270" src="128" tgt="141" wght="0.02029853755560097" />
        <Con id="272" src="130" tgt="141" wght="1.593449520963651" />
        <Con id="274" src="132" tgt="141" wght="-0.58355887294487951" />
        <Con id="279" src="137" tgt="141" wght="-0.45330636876131924" />
        <Con id="281" src="139" tgt="141" wght="-1.1280345121431488" />
        <Con id="283" src="136" tgt="141" wght="2.0805442037897492" />
        <Con id="285" src="95" tgt="141" wght="2.1965338515794008" />
        <Con id="288" src="51" tgt="141" wght="-0.56039405011392562" />
        <Con id="290" src="83" tgt="141" wght="-0.26040902218507372" />
        <Con id="294" src="5" tgt="141" wght="-1.0923045567278971" />
        <Con id="299" src="85" tgt="141" wght="1.8041492647254789" />
        <Con id="300" src="28" tgt="141" wght="-0.81295204982351121" />
        <Con id="305" src="7" tgt="141" wght="-0.98753557019025884" />
        <Con id="309" src="48" tgt="141" wght="-0.21442050245775152" />
        <Con id="310" src="114" tgt="141" wght="-1.3969617623626118" />
        <Con id="314" src="40" tgt="141" wght="-0.32368839265096255" />
        <Con id="315" src="135" tgt="141" wght="-3.0303165284834517" />
        <Con id="316" src="34" tgt="141" wght="1.2100149044913542" />
        <Con id="318" src="42" tgt="141" wght="-0.4559980544744881" />
        <Con id="319" src="88" tgt="141" wght="-0.10068790831587547" />
        <Con id="320" src="69" tgt="141" wght="-0.72013475281491013" />
        <Con id="324" src="44" tgt="141" wght="0.36035969117414052" />
        <Con id="328" src="107" tgt="141" wght="-0.64371053729214611" />
        <Con id="336" src="108" tgt="141" wght="-0.38410745447237171" />
        <Con id="343" src="113" tgt="141" wght="0.91182409669640974" />
        <Con id="344" src="89" tgt="141" wght="-0.17536739465869661" />
        <Con id="345" src="77" tgt="141" wght="0.46567960499553862" />
        <Con id="346" src="30" tgt="141" wght="-1.714315012492641" />
        <Con id="347" src="26" tgt="141" wght="4.9969150275527943" />
        <Con id="350" src="70" tgt="141" wght="1.2396962149986712" />
        <Con id="351" src="22" tgt="141" wght="0.42189798777151771" />
        <Con id="356" src="50" tgt="141" wght="1.4485971001123985" />
        <Con id="360" src="79" tgt="141" wght="0.30843643858325526" />
        <Con id="367" src="67" tgt="141" wght="-1.448977015135738" />
        <Con id="368" src="35" tgt="141" wght="1.2883391827798345" />
        <Con id="369" src="106" tgt="141" wght="-0.26506574492126656" />
        <Con id="372" src="125" tgt="141" wght="0.14095850680498731" />
        <Con id="373" src="105" tgt="141" wght="0.43703532288416214" />
        <Con id="377" src="73" tgt="141" wght="-0.33303852649045523" />
        <Con id="379" src="57" tgt="141" wght="-0.134666443659779" />
        <Con id="383" src="138" tgt="141" wght="1.0330413744967073" />
        <Con id="388" src="98" tgt="141" wght="1.0370539797501441" />
        <Con id="401" src="124" tgt="141" wght="1.0030815060681204" />
        <Con id="409" src="27" tgt="141" wght="0.97265435982515525" />
        <Con id="414" src="131" tgt="141" wght="0.61921161668972291" />
        <Con id="423" src="102" tgt="141" wght="-0.35694047741822682" />
        <Con id="426" src="122" tgt="141" wght="0.33691007669107331" />
        <Con id="438" src="63" tgt="141" wght="-0.48541732500114371" />
        <Con id="451" src="41" tgt="141" wght="-1.8389804589724204" />
        <Con id="463" src="129" tgt="141" wght="-0.78611140259534151" />
        <Con id="470" src="81" tgt="141" wght="-1.4931650685176516" />
        <Con id="471" src="32" tgt="141" wght="-0.23365618321612755" />
        <Con id="490" src="56" tgt="141" wght="0.64277369315622579" />
        <Con id="491" src="3" tgt="141" wght="-1.330724520951573" />
        <Con id="492" src="87" tgt="141" wght="0.32633068241501717" />
        <Con id="493" src="116" tgt="141" wght="0.16669052930544781" />
        <Con id="518" src="134" tgt="141" wght="-0.14009605303186837" />
        <Con id="542" src="86" tgt="141" wght="-0.84573715321317389" />
        <Con id="555" src="75" tgt="141" wght="-1.1530885365628671" />
        <Con id="689" src="133" tgt="141" wght="0.12239550240337849" />
      </Connections>
    </Network>
  </Networks>
</Root>