<?xml version="1.0" encoding="utf-8"?>
<Root>
  <ActivationFunctions>
    <Fn id="0" name="PlainSigmoid" prob="1" />
  </ActivationFunctions>
  <Networks>
    <Network id="149631" birthGen="1854" fitness="0.74373534452792045">
      <Nodes>
        <Node type="bias" id="0" />
        <Node type="in" id="1" />
        <Node type="in" id="2" />
        <Node type="in" id="3" />
        <Node type="in" id="4" />
        <Node type="in" id="5" />
        <Node type="in" id="6" />
        <Node type="in" id="7" />
        <Node type="in" id="8" />
        <Node type="in" id="9" />
        <Node type="in" id="10" />
        <Node type="in" id="11" />
        <Node type="in" id="12" />
        <Node type="in" id="13" />
        <Node type="in" id="14" />
        <Node type="in" id="15" />
        <Node type="in" id="16" />
        <Node type="in" id="17" />
        <Node type="in" id="18" />
        <Node type="in" id="19" />
        <Node type="in" id="20" />
        <Node type="in" id="21" />
        <Node type="in" id="22" />
        <Node type="in" id="23" />
        <Node type="in" id="24" />
        <Node type="in" id="25" />
        <Node type="in" id="26" />
        <Node type="in" id="27" />
        <Node type="in" id="28" />
        <Node type="in" id="29" />
        <Node type="in" id="30" />
        <Node type="in" id="31" />
        <Node type="in" id="32" />
        <Node type="in" id="33" />
        <Node type="in" id="34" />
        <Node type="in" id="35" />
        <Node type="in" id="36" />
        <Node type="in" id="37" />
        <Node type="in" id="38" />
        <Node type="in" id="39" />
        <Node type="in" id="40" />
        <Node type="in" id="41" />
        <Node type="in" id="42" />
        <Node type="in" id="43" />
        <Node type="in" id="44" />
        <Node type="in" id="45" />
        <Node type="in" id="46" />
        <Node type="in" id="47" />
        <Node type="in" id="48" />
        <Node type="in" id="49" />
        <Node type="in" id="50" />
        <Node type="in" id="51" />
        <Node type="in" id="52" />
        <Node type="in" id="53" />
        <Node type="in" id="54" />
        <Node type="in" id="55" />
        <Node type="in" id="56" />
        <Node type="in" id="57" />
        <Node type="in" id="58" />
        <Node type="in" id="59" />
        <Node type="in" id="60" />
        <Node type="in" id="61" />
        <Node type="in" id="62" />
        <Node type="in" id="63" />
        <Node type="in" id="64" />
        <Node type="in" id="65" />
        <Node type="in" id="66" />
        <Node type="in" id="67" />
        <Node type="in" id="68" />
        <Node type="in" id="69" />
        <Node type="in" id="70" />
        <Node type="in" id="71" />
        <Node type="in" id="72" />
        <Node type="in" id="73" />
        <Node type="in" id="74" />
        <Node type="in" id="75" />
        <Node type="in" id="76" />
        <Node type="in" id="77" />
        <Node type="in" id="78" />
        <Node type="in" id="79" />
        <Node type="in" id="80" />
        <Node type="in" id="81" />
        <Node type="in" id="82" />
        <Node type="in" id="83" />
        <Node type="in" id="84" />
        <Node type="in" id="85" />
        <Node type="in" id="86" />
        <Node type="in" id="87" />
        <Node type="in" id="88" />
        <Node type="in" id="89" />
        <Node type="in" id="90" />
        <Node type="in" id="91" />
        <Node type="in" id="92" />
        <Node type="in" id="93" />
        <Node type="in" id="94" />
        <Node type="in" id="95" />
        <Node type="in" id="96" />
        <Node type="in" id="97" />
        <Node type="in" id="98" />
        <Node type="in" id="99" />
        <Node type="in" id="100" />
        <Node type="in" id="101" />
        <Node type="in" id="102" />
        <Node type="in" id="103" />
        <Node type="in" id="104" />
        <Node type="in" id="105" />
        <Node type="in" id="106" />
        <Node type="in" id="107" />
        <Node type="in" id="108" />
        <Node type="in" id="109" />
        <Node type="in" id="110" />
        <Node type="in" id="111" />
        <Node type="in" id="112" />
        <Node type="in" id="113" />
        <Node type="in" id="114" />
        <Node type="in" id="115" />
        <Node type="in" id="116" />
        <Node type="in" id="117" />
        <Node type="in" id="118" />
        <Node type="in" id="119" />
        <Node type="in" id="120" />
        <Node type="in" id="121" />
        <Node type="in" id="122" />
        <Node type="in" id="123" />
        <Node type="in" id="124" />
        <Node type="in" id="125" />
        <Node type="in" id="126" />
        <Node type="in" id="127" />
        <Node type="in" id="128" />
        <Node type="in" id="129" />
        <Node type="in" id="130" />
        <Node type="in" id="131" />
        <Node type="in" id="132" />
        <Node type="in" id="133" />
        <Node type="in" id="134" />
        <Node type="in" id="135" />
        <Node type="in" id="136" />
        <Node type="in" id="137" />
        <Node type="in" id="138" />
        <Node type="in" id="139" />
        <Node type="in" id="140" />
        <Node type="out" id="141" />
        <Node type="hid" id="355" />
        <Node type="hid" id="424" />
        <Node type="hid" id="481" />
        <Node type="hid" id="507" />
        <Node type="hid" id="685" />
        <Node type="hid" id="739" />
        <Node type="hid" id="790" />
        <Node type="hid" id="972" />
        <Node type="hid" id="1081" />
        <Node type="hid" id="1110" />
      </Nodes>
      <Connections>
        <Con id="142" src="0" tgt="141" wght="-2.9082641989384692" />
        <Con id="150" src="8" tgt="141" wght="0.0077734997393347459" />
        <Con id="159" src="17" tgt="141" wght="0.0837521146399504" />
        <Con id="162" src="20" tgt="141" wght="-1.4172102015228536" />
        <Con id="165" src="23" tgt="141" wght="0.015405838146946115" />
        <Con id="167" src="25" tgt="141" wght="1.3563043650525664" />
        <Con id="170" src="28" tgt="141" wght="2.3870689226450286" />
        <Con id="173" src="31" tgt="141" wght="-5" />
        <Con id="189" src="47" tgt="141" wght="-1.2563457002794713" />
        <Con id="196" src="54" tgt="141" wght="-3.6713463806786781" />
        <Con id="198" src="56" tgt="141" wght="1.7826585004765105" />
        <Con id="203" src="61" tgt="141" wght="-5" />
        <Con id="209" src="67" tgt="141" wght="-4.2601297824221" />
        <Con id="211" src="69" tgt="141" wght="-5" />
        <Con id="212" src="70" tgt="141" wght="5" />
        <Con id="227" src="85" tgt="141" wght="5" />
        <Con id="230" src="88" tgt="141" wght="-1.146806683679336" />
        <Con id="232" src="90" tgt="141" wght="0.40004460729950075" />
        <Con id="238" src="96" tgt="141" wght="0.43881923895596958" />
        <Con id="242" src="100" tgt="141" wght="-0.6487631009694661" />
        <Con id="243" src="101" tgt="141" wght="-4.9987029032151185" />
        <Con id="244" src="102" tgt="141" wght="-2.8652738551887151" />
        <Con id="252" src="110" tgt="141" wght="2.5082823936573622" />
        <Con id="255" src="113" tgt="141" wght="2.337519533621867" />
        <Con id="267" src="125" tgt="141" wght="0.64069233469790055" />
        <Con id="272" src="130" tgt="141" wght="4.9892291217078952" />
        <Con id="276" src="134" tgt="141" wght="-2.3310147391457963" />
        <Con id="277" src="135" tgt="141" wght="5" />
        <Con id="284" src="120" tgt="141" wght="0.09873799411675091" />
        <Con id="289" src="49" tgt="141" wght="-4.424608493914314" />
        <Con id="290" src="59" tgt="141" wght="2.5022271317640521" />
        <Con id="302" src="75" tgt="141" wght="-5" />
        <Con id="306" src="65" tgt="141" wght="2.7313796061612132" />
        <Con id="310" src="108" tgt="141" wght="-1.1373704418016344" />
        <Con id="312" src="104" tgt="141" wght="-4.0475066299125029" />
        <Con id="313" src="136" tgt="141" wght="-1.7829647988441928" />
        <Con id="318" src="98" tgt="141" wght="4.4514317810535431" />
        <Con id="319" src="129" tgt="141" wght="-3.6501408461481333" />
        <Con id="321" src="53" tgt="141" wght="-4.9776630457099955" />
        <Con id="336" src="95" tgt="141" wght="4.8562758386101121" />
        <Con id="342" src="99" tgt="141" wght="4.9442045718197853" />
        <Con id="349" src="30" tgt="141" wght="-4.7369547332436417" />
        <Con id="354" src="50" tgt="141" wght="5" />
        <Con id="356" src="67" tgt="355" wght="1.7505820326390185" />
        <Con id="357" src="355" tgt="141" wght="-1.6533017674896677" />
        <Con id="362" src="127" tgt="141" wght="-1.1524349531317237" />
        <Con id="375" src="43" tgt="141" wght="-0.26210445936499704" />
        <Con id="382" src="62" tgt="141" wght="-4.6758635378942461" />
        <Con id="394" src="72" tgt="141" wght="-0.85739527033827945" />
        <Con id="411" src="34" tgt="141" wght="3.3899447278620731" />
        <Con id="425" src="90" tgt="424" wght="-3.2854644176506054" />
        <Con id="426" src="424" tgt="141" wght="-0.04016181297843599" />
        <Con id="430" src="84" tgt="141" wght="-2.7447434833534814" />
        <Con id="435" src="93" tgt="141" wght="-1.1602908008744217" />
        <Con id="482" src="110" tgt="481" wght="-3.1432947075389297" />
        <Con id="483" src="481" tgt="141" wght="-3.1405872939746469" />
        <Con id="490" src="80" tgt="141" wght="4.7261320970000451" />
        <Con id="506" src="66" tgt="141" wght="1.9683174171955209" />
        <Con id="508" src="31" tgt="507" wght="-2.8560927595537176" />
        <Con id="509" src="507" tgt="141" wght="2.3900138727072262" />
        <Con id="518" src="122" tgt="355" wght="-1.7386978198707135" />
        <Con id="522" src="17" tgt="355" wght="-3.1183742822105387" />
        <Con id="607" src="85" tgt="424" wght="-4.9849986452451285" />
        <Con id="645" src="67" tgt="424" wght="1.6499666660512888" />
        <Con id="686" src="355" tgt="685" wght="-0.7914601042130287" />
        <Con id="687" src="685" tgt="141" wght="0.7865279664798781" />
        <Con id="717" src="8" tgt="481" wght="-2.8193345149772537" />
        <Con id="730" src="102" tgt="481" wght="2.6068554073572159" />
        <Con id="736" src="79" tgt="355" wght="1.5871618599078177" />
        <Con id="740" src="67" tgt="739" wght="-5" />
        <Con id="741" src="739" tgt="141" wght="2.2194062064472257" />
        <Con id="791" src="90" tgt="790" wght="-2.0200252654074613" />
        <Con id="792" src="790" tgt="424" wght="4.2222589292057773" />
        <Con id="887" src="27" tgt="507" wght="0.94697444534783037" />
        <Con id="903" src="98" tgt="424" wght="-3.8096673276995938" />
        <Con id="973" src="17" tgt="972" wght="-5" />
        <Con id="974" src="972" tgt="355" wght="4.23201122263672" />
        <Con id="975" src="32" tgt="355" wght="4.4384416601612333" />
        <Con id="987" src="37" tgt="481" wght="-1.7325255228206515" />
        <Con id="989" src="136" tgt="481" wght="-1.979216714899714" />
        <Con id="1082" src="95" tgt="1081" wght="4.8383652896057" />
        <Con id="1083" src="1081" tgt="141" wght="4.9673338431386167" />
        <Con id="1111" src="355" tgt="1110" wght="-1.3017898016775622" />
        <Con id="1112" src="1110" tgt="141" wght="5" />
        <Con id="1161" src="4" tgt="739" wght="-1.9495905889198184" />
      </Connections>
    </Network>
  </Networks>
</Root>