<?xml version="1.0" encoding="utf-8"?>
<Root>
  <ActivationFunctions>
    <Fn id="0" name="PlainSigmoid" prob="1" />
  </ActivationFunctions>
  <Networks>
    <Network id="5526766" birthGen="69085" fitness="0.77315541481390693">
      <Nodes>
        <Node type="bias" id="0" />
        <Node type="in" id="1" />
        <Node type="in" id="2" />
        <Node type="in" id="3" />
        <Node type="in" id="4" />
        <Node type="in" id="5" />
        <Node type="in" id="6" />
        <Node type="in" id="7" />
        <Node type="in" id="8" />
        <Node type="in" id="9" />
        <Node type="in" id="10" />
        <Node type="in" id="11" />
        <Node type="in" id="12" />
        <Node type="in" id="13" />
        <Node type="in" id="14" />
        <Node type="in" id="15" />
        <Node type="in" id="16" />
        <Node type="in" id="17" />
        <Node type="in" id="18" />
        <Node type="in" id="19" />
        <Node type="in" id="20" />
        <Node type="in" id="21" />
        <Node type="in" id="22" />
        <Node type="in" id="23" />
        <Node type="in" id="24" />
        <Node type="in" id="25" />
        <Node type="in" id="26" />
        <Node type="in" id="27" />
        <Node type="in" id="28" />
        <Node type="in" id="29" />
        <Node type="in" id="30" />
        <Node type="in" id="31" />
        <Node type="in" id="32" />
        <Node type="in" id="33" />
        <Node type="in" id="34" />
        <Node type="in" id="35" />
        <Node type="in" id="36" />
        <Node type="in" id="37" />
        <Node type="in" id="38" />
        <Node type="in" id="39" />
        <Node type="in" id="40" />
        <Node type="in" id="41" />
        <Node type="in" id="42" />
        <Node type="in" id="43" />
        <Node type="in" id="44" />
        <Node type="in" id="45" />
        <Node type="in" id="46" />
        <Node type="in" id="47" />
        <Node type="in" id="48" />
        <Node type="in" id="49" />
        <Node type="in" id="50" />
        <Node type="in" id="51" />
        <Node type="in" id="52" />
        <Node type="in" id="53" />
        <Node type="in" id="54" />
        <Node type="in" id="55" />
        <Node type="in" id="56" />
        <Node type="in" id="57" />
        <Node type="in" id="58" />
        <Node type="in" id="59" />
        <Node type="in" id="60" />
        <Node type="in" id="61" />
        <Node type="in" id="62" />
        <Node type="in" id="63" />
        <Node type="in" id="64" />
        <Node type="in" id="65" />
        <Node type="in" id="66" />
        <Node type="in" id="67" />
        <Node type="in" id="68" />
        <Node type="in" id="69" />
        <Node type="in" id="70" />
        <Node type="in" id="71" />
        <Node type="in" id="72" />
        <Node type="in" id="73" />
        <Node type="in" id="74" />
        <Node type="in" id="75" />
        <Node type="in" id="76" />
        <Node type="in" id="77" />
        <Node type="in" id="78" />
        <Node type="in" id="79" />
        <Node type="in" id="80" />
        <Node type="in" id="81" />
        <Node type="in" id="82" />
        <Node type="in" id="83" />
        <Node type="in" id="84" />
        <Node type="in" id="85" />
        <Node type="in" id="86" />
        <Node type="in" id="87" />
        <Node type="in" id="88" />
        <Node type="in" id="89" />
        <Node type="in" id="90" />
        <Node type="in" id="91" />
        <Node type="in" id="92" />
        <Node type="in" id="93" />
        <Node type="in" id="94" />
        <Node type="in" id="95" />
        <Node type="in" id="96" />
        <Node type="in" id="97" />
        <Node type="in" id="98" />
        <Node type="in" id="99" />
        <Node type="in" id="100" />
        <Node type="in" id="101" />
        <Node type="in" id="102" />
        <Node type="in" id="103" />
        <Node type="in" id="104" />
        <Node type="in" id="105" />
        <Node type="in" id="106" />
        <Node type="in" id="107" />
        <Node type="in" id="108" />
        <Node type="in" id="109" />
        <Node type="in" id="110" />
        <Node type="in" id="111" />
        <Node type="in" id="112" />
        <Node type="in" id="113" />
        <Node type="in" id="114" />
        <Node type="in" id="115" />
        <Node type="in" id="116" />
        <Node type="in" id="117" />
        <Node type="in" id="118" />
        <Node type="in" id="119" />
        <Node type="in" id="120" />
        <Node type="in" id="121" />
        <Node type="in" id="122" />
        <Node type="in" id="123" />
        <Node type="in" id="124" />
        <Node type="in" id="125" />
        <Node type="in" id="126" />
        <Node type="in" id="127" />
        <Node type="in" id="128" />
        <Node type="in" id="129" />
        <Node type="in" id="130" />
        <Node type="in" id="131" />
        <Node type="in" id="132" />
        <Node type="in" id="133" />
        <Node type="in" id="134" />
        <Node type="in" id="135" />
        <Node type="in" id="136" />
        <Node type="in" id="137" />
        <Node type="in" id="138" />
        <Node type="in" id="139" />
        <Node type="in" id="140" />
        <Node type="out" id="141" />
      </Nodes>
      <Connections>
        <Con id="142" src="0" tgt="141" wght="0.40470337798870204" />
        <Con id="144" src="2" tgt="141" wght="0.002336991822251752" />
        <Con id="145" src="3" tgt="141" wght="-2.1258128197612627" />
        <Con id="148" src="6" tgt="141" wght="-0.0080081336775100851" />
        <Con id="156" src="14" tgt="141" wght="0.001340147613419745" />
        <Con id="159" src="17" tgt="141" wght="0.21335205080965708" />
        <Con id="161" src="19" tgt="141" wght="-0.037840263637488415" />
        <Con id="162" src="20" tgt="141" wght="-1.0286988834893664" />
        <Con id="163" src="21" tgt="141" wght="0.0042967842588299242" />
        <Con id="164" src="22" tgt="141" wght="0.0044686076838314865" />
        <Con id="165" src="23" tgt="141" wght="0.003477497096066129" />
        <Con id="166" src="24" tgt="141" wght="0.0011392645307783469" />
        <Con id="167" src="25" tgt="141" wght="0.68431199806931631" />
        <Con id="168" src="26" tgt="141" wght="0.21763703349562985" />
        <Con id="170" src="28" tgt="141" wght="-0.11977688831068246" />
        <Con id="171" src="29" tgt="141" wght="1.1727650641796188" />
        <Con id="176" src="34" tgt="141" wght="4.1720525985489054" />
        <Con id="178" src="36" tgt="141" wght="0.17467072304483028" />
        <Con id="190" src="48" tgt="141" wght="-0.14713035200381744" />
        <Con id="194" src="52" tgt="141" wght="2.8769988706335425" />
        <Con id="197" src="55" tgt="141" wght="-0.51265052862915439" />
        <Con id="198" src="56" tgt="141" wght="1.6608092672617085" />
        <Con id="202" src="60" tgt="141" wght="2.9411978877390883" />
        <Con id="206" src="64" tgt="141" wght="0.1112931227521428" />
        <Con id="211" src="69" tgt="141" wght="-2.2078895131134373" />
        <Con id="214" src="72" tgt="141" wght="0.17988272800871158" />
        <Con id="218" src="76" tgt="141" wght="-0.15036899979984075" />
        <Con id="220" src="78" tgt="141" wght="-0.00069777461503094367" />
        <Con id="222" src="80" tgt="141" wght="4.3051184464809484" />
        <Con id="223" src="81" tgt="141" wght="-5" />
        <Con id="225" src="83" tgt="141" wght="-0.30105386825120023" />
        <Con id="227" src="85" tgt="141" wght="4.7782678028311754" />
        <Con id="241" src="99" tgt="141" wght="3.9351658709479431" />
        <Con id="252" src="110" tgt="141" wght="1.8367024037842663" />
        <Con id="253" src="111" tgt="141" wght="0.338731665368034" />
        <Con id="257" src="115" tgt="141" wght="0.76949438711335394" />
        <Con id="258" src="116" tgt="141" wght="1.0970196049090422" />
        <Con id="260" src="118" tgt="141" wght="0.55549739262700615" />
        <Con id="266" src="124" tgt="141" wght="3.222325770877807" />
        <Con id="267" src="125" tgt="141" wght="0.32316174394865593" />
        <Con id="269" src="127" tgt="141" wght="-0.24830363345570644" />
        <Con id="270" src="128" tgt="141" wght="0.31335727006322545" />
        <Con id="273" src="131" tgt="141" wght="4.6484710093874666" />
        <Con id="276" src="134" tgt="141" wght="-0.51105366737930558" />
        <Con id="282" src="140" tgt="141" wght="0.46738227276875666" />
        <Con id="283" src="68" tgt="141" wght="4.2542404352817256" />
        <Con id="288" src="18" tgt="141" wght="-0.28523670101076926" />
        <Con id="289" src="113" tgt="141" wght="1.6311749915586526" />
        <Con id="290" src="84" tgt="141" wght="-0.85779551238376506" />
        <Con id="291" src="75" tgt="141" wght="-2.6369933663573022" />
        <Con id="292" src="137" tgt="141" wght="-4.9995496438186349" />
        <Con id="299" src="74" tgt="141" wght="-0.13549541160283929" />
        <Con id="300" src="5" tgt="141" wght="-0.33470266994222442" />
        <Con id="301" src="32" tgt="141" wght="-0.79844465843817014" />
        <Con id="305" src="61" tgt="141" wght="-2.8465876274266941" />
        <Con id="306" src="59" tgt="141" wght="0.87541385108561" />
        <Con id="308" src="47" tgt="141" wght="0.13467032117658098" />
        <Con id="309" src="50" tgt="141" wght="4.0658618842043364" />
        <Con id="310" src="93" tgt="141" wght="-1.4947712393502235" />
        <Con id="317" src="122" tgt="141" wght="1.2308599868170169" />
        <Con id="319" src="96" tgt="141" wght="0.48969537405998648" />
        <Con id="320" src="65" tgt="141" wght="2.0782125015973421" />
        <Con id="321" src="51" tgt="141" wght="-2.0792202298499269" />
        <Con id="322" src="45" tgt="141" wght="-2.2416669359833916" />
        <Con id="323" src="87" tgt="141" wght="0.73145755318619343" />
        <Con id="324" src="38" tgt="141" wght="-2.8720363924312879" />
        <Con id="325" src="114" tgt="141" wght="-2.2640731270765255" />
        <Con id="326" src="43" tgt="141" wght="-0.75489170365310265" />
        <Con id="327" src="13" tgt="141" wght="-0.005119582965998141" />
        <Con id="328" src="91" tgt="141" wght="0.31369643184674673" />
        <Con id="329" src="107" tgt="141" wght="-2.7156596376743432" />
        <Con id="333" src="120" tgt="141" wght="0.82852413125789548" />
        <Con id="334" src="62" tgt="141" wght="-4.23210361722692" />
        <Con id="335" src="35" tgt="141" wght="2.0619521507182843" />
        <Con id="337" src="42" tgt="141" wght="-1.5625390959260548" />
        <Con id="338" src="66" tgt="141" wght="1.0230945578770332" />
        <Con id="341" src="117" tgt="141" wght="-2.3249966201011678" />
        <Con id="342" src="133" tgt="141" wght="1.2086891689112071" />
        <Con id="343" src="132" tgt="141" wght="-1.5523906331256605" />
        <Con id="357" src="89" tgt="141" wght="-0.35338927518143176" />
        <Con id="358" src="123" tgt="141" wght="0.043145854748558074" />
        <Con id="365" src="58" tgt="141" wght="0.82662248173356723" />
        <Con id="366" src="138" tgt="141" wght="3.7126378743200878" />
        <Con id="368" src="82" tgt="141" wght="-1.1946640324262252" />
        <Con id="373" src="41" tgt="141" wght="-5" />
        <Con id="374" src="121" tgt="141" wght="1.136967116445563" />
        <Con id="375" src="40" tgt="141" wght="-0.728544047478446" />
        <Con id="376" src="92" tgt="141" wght="-1.2020855506811725" />
        <Con id="377" src="49" tgt="141" wght="-1.2521352432633555" />
        <Con id="387" src="71" tgt="141" wght="-0.37206755871067676" />
        <Con id="388" src="88" tgt="141" wght="-0.074285946862311464" />
        <Con id="389" src="95" tgt="141" wght="5" />
        <Con id="390" src="67" tgt="141" wght="-2.405583852763824" />
        <Con id="392" src="94" tgt="141" wght="-4.9988971810338256" />
        <Con id="393" src="112" tgt="141" wght="1.0012345579007482" />
        <Con id="395" src="136" tgt="141" wght="4.0249409021444418" />
        <Con id="396" src="37" tgt="141" wght="0.71095893775335106" />
        <Con id="400" src="31" tgt="141" wght="-2.9982718005500679" />
        <Con id="402" src="105" tgt="141" wght="2.7886184547875805" />
        <Con id="406" src="46" tgt="141" wght="0.392714672063196" />
        <Con id="407" src="129" tgt="141" wght="-2.1394173216508752" />
        <Con id="408" src="130" tgt="141" wght="5" />
        <Con id="412" src="7" tgt="141" wght="-0.024811361480543727" />
        <Con id="419" src="53" tgt="141" wght="-2.5547190407423095" />
        <Con id="423" src="79" tgt="141" wght="1.1806814236080716" />
        <Con id="424" src="135" tgt="141" wght="4.0782932097588835" />
        <Con id="425" src="126" tgt="141" wght="-0.20890401022987973" />
        <Con id="426" src="27" tgt="141" wght="0.098809045482601665" />
        <Con id="430" src="63" tgt="141" wght="-1.9767744458261884" />
        <Con id="431" src="109" tgt="141" wght="-0.51068543641573516" />
        <Con id="432" src="98" tgt="141" wght="4.0479864223457183" />
        <Con id="433" src="12" tgt="141" wght="1.0825390313969361" />
        <Con id="435" src="70" tgt="141" wght="3.1932112088229734" />
        <Con id="436" src="57" tgt="141" wght="-0.0026555844771373113" />
        <Con id="438" src="54" tgt="141" wght="-1.8879515945134218" />
        <Con id="439" src="86" tgt="141" wght="-4.9985028460665726" />
        <Con id="440" src="102" tgt="141" wght="-0.923945178954725" />
        <Con id="441" src="90" tgt="141" wght="1.9399969398146142" />
        <Con id="442" src="139" tgt="141" wght="1.1834980712406586" />
        <Con id="444" src="39" tgt="141" wght="1.6955412610273317" />
        <Con id="450" src="77" tgt="141" wght="1.4712649215791604" />
        <Con id="451" src="97" tgt="141" wght="1.4262692772993912" />
        <Con id="452" src="15" tgt="141" wght="0.014820231901004852" />
        <Con id="454" src="119" tgt="141" wght="-0.10906772767002787" />
        <Con id="459" src="33" tgt="141" wght="0.90978014037039079" />
        <Con id="471" src="44" tgt="141" wght="1.8695742818493397" />
        <Con id="473" src="11" tgt="141" wght="0.17747351906660766" />
        <Con id="482" src="30" tgt="141" wght="-3.8916347639434377" />
        <Con id="483" src="108" tgt="141" wght="-3.0759146544330527" />
        <Con id="484" src="4" tgt="141" wght="0.2626471506197649" />
        <Con id="510" src="73" tgt="141" wght="-1.6782298506625855" />
        <Con id="530" src="106" tgt="141" wght="-1.2778409756076625" />
        <Con id="531" src="101" tgt="141" wght="-0.62090740923779442" />
        <Con id="633" src="104" tgt="141" wght="-1.5301278948385031" />
      </Connections>
    </Network>
  </Networks>
</Root>