<?xml version="1.0" encoding="utf-8"?>
<Root>
  <ActivationFunctions>
    <Fn id="0" name="PlainSigmoid" prob="1" />
  </ActivationFunctions>
  <Networks>
    <Network id="1650115" birthGen="19312" fitness="0.762035842236292">
      <Nodes>
        <Node type="bias" id="0" />
        <Node type="in" id="1" />
        <Node type="in" id="2" />
        <Node type="in" id="3" />
        <Node type="in" id="4" />
        <Node type="in" id="5" />
        <Node type="in" id="6" />
        <Node type="in" id="7" />
        <Node type="in" id="8" />
        <Node type="in" id="9" />
        <Node type="in" id="10" />
        <Node type="in" id="11" />
        <Node type="in" id="12" />
        <Node type="in" id="13" />
        <Node type="in" id="14" />
        <Node type="in" id="15" />
        <Node type="in" id="16" />
        <Node type="in" id="17" />
        <Node type="in" id="18" />
        <Node type="in" id="19" />
        <Node type="in" id="20" />
        <Node type="in" id="21" />
        <Node type="in" id="22" />
        <Node type="in" id="23" />
        <Node type="in" id="24" />
        <Node type="in" id="25" />
        <Node type="in" id="26" />
        <Node type="in" id="27" />
        <Node type="in" id="28" />
        <Node type="in" id="29" />
        <Node type="in" id="30" />
        <Node type="in" id="31" />
        <Node type="in" id="32" />
        <Node type="in" id="33" />
        <Node type="in" id="34" />
        <Node type="in" id="35" />
        <Node type="in" id="36" />
        <Node type="in" id="37" />
        <Node type="in" id="38" />
        <Node type="in" id="39" />
        <Node type="in" id="40" />
        <Node type="in" id="41" />
        <Node type="in" id="42" />
        <Node type="in" id="43" />
        <Node type="in" id="44" />
        <Node type="in" id="45" />
        <Node type="in" id="46" />
        <Node type="in" id="47" />
        <Node type="in" id="48" />
        <Node type="in" id="49" />
        <Node type="in" id="50" />
        <Node type="in" id="51" />
        <Node type="in" id="52" />
        <Node type="in" id="53" />
        <Node type="in" id="54" />
        <Node type="in" id="55" />
        <Node type="in" id="56" />
        <Node type="in" id="57" />
        <Node type="in" id="58" />
        <Node type="in" id="59" />
        <Node type="in" id="60" />
        <Node type="in" id="61" />
        <Node type="in" id="62" />
        <Node type="in" id="63" />
        <Node type="in" id="64" />
        <Node type="in" id="65" />
        <Node type="in" id="66" />
        <Node type="in" id="67" />
        <Node type="in" id="68" />
        <Node type="in" id="69" />
        <Node type="in" id="70" />
        <Node type="in" id="71" />
        <Node type="in" id="72" />
        <Node type="in" id="73" />
        <Node type="in" id="74" />
        <Node type="in" id="75" />
        <Node type="in" id="76" />
        <Node type="in" id="77" />
        <Node type="in" id="78" />
        <Node type="in" id="79" />
        <Node type="in" id="80" />
        <Node type="in" id="81" />
        <Node type="in" id="82" />
        <Node type="in" id="83" />
        <Node type="in" id="84" />
        <Node type="in" id="85" />
        <Node type="in" id="86" />
        <Node type="in" id="87" />
        <Node type="in" id="88" />
        <Node type="in" id="89" />
        <Node type="in" id="90" />
        <Node type="in" id="91" />
        <Node type="in" id="92" />
        <Node type="in" id="93" />
        <Node type="in" id="94" />
        <Node type="in" id="95" />
        <Node type="in" id="96" />
        <Node type="in" id="97" />
        <Node type="in" id="98" />
        <Node type="in" id="99" />
        <Node type="in" id="100" />
        <Node type="in" id="101" />
        <Node type="in" id="102" />
        <Node type="in" id="103" />
        <Node type="in" id="104" />
        <Node type="in" id="105" />
        <Node type="in" id="106" />
        <Node type="in" id="107" />
        <Node type="in" id="108" />
        <Node type="in" id="109" />
        <Node type="in" id="110" />
        <Node type="in" id="111" />
        <Node type="in" id="112" />
        <Node type="in" id="113" />
        <Node type="in" id="114" />
        <Node type="in" id="115" />
        <Node type="in" id="116" />
        <Node type="in" id="117" />
        <Node type="in" id="118" />
        <Node type="in" id="119" />
        <Node type="in" id="120" />
        <Node type="in" id="121" />
        <Node type="in" id="122" />
        <Node type="in" id="123" />
        <Node type="in" id="124" />
        <Node type="in" id="125" />
        <Node type="in" id="126" />
        <Node type="in" id="127" />
        <Node type="in" id="128" />
        <Node type="in" id="129" />
        <Node type="in" id="130" />
        <Node type="in" id="131" />
        <Node type="in" id="132" />
        <Node type="in" id="133" />
        <Node type="in" id="134" />
        <Node type="in" id="135" />
        <Node type="in" id="136" />
        <Node type="in" id="137" />
        <Node type="in" id="138" />
        <Node type="in" id="139" />
        <Node type="in" id="140" />
        <Node type="out" id="141" />
        <Node type="hid" id="557" />
        <Node type="hid" id="1897" />
        <Node type="hid" id="4219" />
      </Nodes>
      <Connections>
        <Con id="160" src="18" tgt="141" wght="-0.48879703260225371" />
        <Con id="165" src="23" tgt="141" wght="0.0071198079153989438" />
        <Con id="179" src="37" tgt="141" wght="0.46840107066183634" />
        <Con id="183" src="41" tgt="141" wght="-4.9915137019584" />
        <Con id="186" src="44" tgt="141" wght="2.4462488566175717" />
        <Con id="212" src="70" tgt="141" wght="3.0519568670352339" />
        <Con id="248" src="106" tgt="141" wght="-1.9580412742906552" />
        <Con id="270" src="128" tgt="141" wght="0.35349751602817253" />
        <Con id="274" src="132" tgt="141" wght="-1.6611425540442266" />
        <Con id="282" src="140" tgt="141" wght="0.25194867059222648" />
        <Con id="283" src="45" tgt="141" wght="-1.7366447392851114" />
        <Con id="284" src="129" tgt="141" wght="-2.7869758416394532" />
        <Con id="286" src="56" tgt="141" wght="1.3919021704400518" />
        <Con id="290" src="42" tgt="141" wght="-1.3713445075498223" />
        <Con id="296" src="49" tgt="141" wght="-1.151392993527077" />
        <Con id="297" src="113" tgt="141" wght="1.8790157337679396" />
        <Con id="305" src="85" tgt="141" wght="3.9796462199203821" />
        <Con id="310" src="68" tgt="141" wght="3.6286615479253816" />
        <Con id="322" src="98" tgt="141" wght="4.2331125654354889" />
        <Con id="327" src="80" tgt="141" wght="4.2772781884260249" />
        <Con id="328" src="126" tgt="141" wght="-0.75738284501021957" />
        <Con id="331" src="108" tgt="141" wght="-3.4180496459926895" />
        <Con id="333" src="69" tgt="141" wght="-2.7879747802182089" />
        <Con id="334" src="30" tgt="141" wght="-4.9694689944493105" />
        <Con id="342" src="95" tgt="141" wght="4.9890555225450859" />
        <Con id="348" src="38" tgt="141" wght="-2.1488790740806429" />
        <Con id="349" src="55" tgt="141" wght="-0.74493043561204786" />
        <Con id="352" src="39" tgt="141" wght="2.0858755815166843" />
        <Con id="360" src="120" tgt="141" wght="0.0696389709400429" />
        <Con id="361" src="54" tgt="141" wght="-2.1983798135823589" />
        <Con id="365" src="12" tgt="141" wght="0.68843790400884108" />
        <Con id="367" src="62" tgt="141" wght="-5" />
        <Con id="371" src="114" tgt="141" wght="-3.1028408264339165" />
        <Con id="375" src="67" tgt="141" wght="-2.6219508579024535" />
        <Con id="377" src="101" tgt="141" wght="-3.5979823196169303" />
        <Con id="390" src="31" tgt="141" wght="-2.576995394192636" />
        <Con id="401" src="81" tgt="141" wght="-5" />
        <Con id="402" src="124" tgt="141" wght="2.68820581376796" />
        <Con id="403" src="94" tgt="141" wght="-4.1986345075412537" />
        <Con id="405" src="65" tgt="141" wght="2.5706193831534518" />
        <Con id="407" src="84" tgt="141" wght="-1.6719031661971382" />
        <Con id="408" src="99" tgt="141" wght="2.9423589160264285" />
        <Con id="429" src="115" tgt="141" wght="0.15288889783592177" />
        <Con id="435" src="75" tgt="141" wght="-2.2189280894507211" />
        <Con id="436" src="93" tgt="141" wght="-1.2220808202109663" />
        <Con id="450" src="130" tgt="141" wght="5" />
        <Con id="464" src="35" tgt="141" wght="1.5280895663615874" />
        <Con id="492" src="105" tgt="141" wght="2.454590080305934" />
        <Con id="500" src="50" tgt="141" wght="4.32557342363635" />
        <Con id="502" src="53" tgt="141" wght="-2.5757087123302367" />
        <Con id="512" src="52" tgt="141" wght="2.7223101317747895" />
        <Con id="516" src="5" tgt="141" wght="-0.34629000797553861" />
        <Con id="517" src="34" tgt="141" wght="4.5405322203804488" />
        <Con id="524" src="26" tgt="141" wght="0.12002316310699225" />
        <Con id="528" src="112" tgt="141" wght="1.1035690519351444" />
        <Con id="535" src="63" tgt="141" wght="-2.0149660490692538" />
        <Con id="558" src="97" tgt="557" wght="4.6680131017926882" />
        <Con id="620" src="107" tgt="141" wght="-2.6486900823736388" />
        <Con id="1884" src="26" tgt="557" wght="-4.0982891293242574" />
        <Con id="1898" src="33" tgt="1897" wght="1.541680880933052" />
        <Con id="1899" src="1897" tgt="141" wght="1.6690374957023413" />
        <Con id="1907" src="6" tgt="557" wght="-5" />
        <Con id="2000" src="557" tgt="1897" wght="-1.2474288495619332" />
        <Con id="2081" src="125" tgt="557" wght="4.1617073093415611" />
        <Con id="2083" src="119" tgt="557" wght="0.043897129938659893" />
        <Con id="2095" src="129" tgt="557" wght="-0.60077915475350807" />
        <Con id="3432" src="43" tgt="1897" wght="-3.5077425930649042" />
        <Con id="4220" src="140" tgt="4219" wght="-3.1068751000221804" />
        <Con id="4221" src="4219" tgt="557" wght="3.873681337814598" />
      </Connections>
    </Network>
  </Networks>
</Root>