<?xml version="1.0" encoding="utf-8"?>
<Root>
  <ActivationFunctions>
    <Fn id="0" name="PlainSigmoid" prob="1" />
  </ActivationFunctions>
  <Networks>
    <Network id="231400" birthGen="2887" fitness="0.72624564072346143">
      <Nodes>
        <Node type="bias" id="0" />
        <Node type="in" id="1" />
        <Node type="in" id="2" />
        <Node type="in" id="3" />
        <Node type="in" id="4" />
        <Node type="in" id="5" />
        <Node type="in" id="6" />
        <Node type="in" id="7" />
        <Node type="in" id="8" />
        <Node type="in" id="9" />
        <Node type="in" id="10" />
        <Node type="in" id="11" />
        <Node type="in" id="12" />
        <Node type="in" id="13" />
        <Node type="in" id="14" />
        <Node type="in" id="15" />
        <Node type="in" id="16" />
        <Node type="in" id="17" />
        <Node type="in" id="18" />
        <Node type="in" id="19" />
        <Node type="in" id="20" />
        <Node type="in" id="21" />
        <Node type="in" id="22" />
        <Node type="in" id="23" />
        <Node type="in" id="24" />
        <Node type="in" id="25" />
        <Node type="in" id="26" />
        <Node type="in" id="27" />
        <Node type="in" id="28" />
        <Node type="in" id="29" />
        <Node type="in" id="30" />
        <Node type="in" id="31" />
        <Node type="in" id="32" />
        <Node type="in" id="33" />
        <Node type="in" id="34" />
        <Node type="in" id="35" />
        <Node type="in" id="36" />
        <Node type="in" id="37" />
        <Node type="in" id="38" />
        <Node type="in" id="39" />
        <Node type="in" id="40" />
        <Node type="in" id="41" />
        <Node type="in" id="42" />
        <Node type="in" id="43" />
        <Node type="in" id="44" />
        <Node type="in" id="45" />
        <Node type="in" id="46" />
        <Node type="in" id="47" />
        <Node type="in" id="48" />
        <Node type="in" id="49" />
        <Node type="in" id="50" />
        <Node type="in" id="51" />
        <Node type="in" id="52" />
        <Node type="in" id="53" />
        <Node type="in" id="54" />
        <Node type="in" id="55" />
        <Node type="in" id="56" />
        <Node type="in" id="57" />
        <Node type="in" id="58" />
        <Node type="in" id="59" />
        <Node type="in" id="60" />
        <Node type="in" id="61" />
        <Node type="in" id="62" />
        <Node type="in" id="63" />
        <Node type="in" id="64" />
        <Node type="in" id="65" />
        <Node type="in" id="66" />
        <Node type="in" id="67" />
        <Node type="in" id="68" />
        <Node type="in" id="69" />
        <Node type="in" id="70" />
        <Node type="in" id="71" />
        <Node type="in" id="72" />
        <Node type="in" id="73" />
        <Node type="in" id="74" />
        <Node type="in" id="75" />
        <Node type="in" id="76" />
        <Node type="in" id="77" />
        <Node type="in" id="78" />
        <Node type="in" id="79" />
        <Node type="in" id="80" />
        <Node type="in" id="81" />
        <Node type="in" id="82" />
        <Node type="in" id="83" />
        <Node type="in" id="84" />
        <Node type="in" id="85" />
        <Node type="in" id="86" />
        <Node type="in" id="87" />
        <Node type="in" id="88" />
        <Node type="in" id="89" />
        <Node type="in" id="90" />
        <Node type="in" id="91" />
        <Node type="in" id="92" />
        <Node type="in" id="93" />
        <Node type="in" id="94" />
        <Node type="in" id="95" />
        <Node type="in" id="96" />
        <Node type="in" id="97" />
        <Node type="in" id="98" />
        <Node type="in" id="99" />
        <Node type="in" id="100" />
        <Node type="in" id="101" />
        <Node type="in" id="102" />
        <Node type="in" id="103" />
        <Node type="in" id="104" />
        <Node type="in" id="105" />
        <Node type="in" id="106" />
        <Node type="in" id="107" />
        <Node type="in" id="108" />
        <Node type="in" id="109" />
        <Node type="in" id="110" />
        <Node type="in" id="111" />
        <Node type="in" id="112" />
        <Node type="in" id="113" />
        <Node type="in" id="114" />
        <Node type="in" id="115" />
        <Node type="in" id="116" />
        <Node type="in" id="117" />
        <Node type="in" id="118" />
        <Node type="in" id="119" />
        <Node type="in" id="120" />
        <Node type="in" id="121" />
        <Node type="in" id="122" />
        <Node type="in" id="123" />
        <Node type="in" id="124" />
        <Node type="in" id="125" />
        <Node type="in" id="126" />
        <Node type="in" id="127" />
        <Node type="in" id="128" />
        <Node type="in" id="129" />
        <Node type="in" id="130" />
        <Node type="in" id="131" />
        <Node type="in" id="132" />
        <Node type="in" id="133" />
        <Node type="in" id="134" />
        <Node type="in" id="135" />
        <Node type="in" id="136" />
        <Node type="in" id="137" />
        <Node type="in" id="138" />
        <Node type="in" id="139" />
        <Node type="in" id="140" />
        <Node type="out" id="141" />
        <Node type="hid" id="309" />
        <Node type="hid" id="395" />
        <Node type="hid" id="477" />
        <Node type="hid" id="566" />
        <Node type="hid" id="574" />
        <Node type="hid" id="755" />
        <Node type="hid" id="886" />
        <Node type="hid" id="912" />
        <Node type="hid" id="1004" />
      </Nodes>
      <Connections>
        <Con id="142" src="0" tgt="141" wght="-4.0593574228656131" />
        <Con id="146" src="4" tgt="141" wght="-0.076898923420341742" />
        <Con id="147" src="5" tgt="141" wght="-0.57911056591200338" />
        <Con id="148" src="6" tgt="141" wght="-0.051271961587040754" />
        <Con id="151" src="9" tgt="141" wght="-1.166655480459043" />
        <Con id="152" src="10" tgt="141" wght="0.272129766527568" />
        <Con id="153" src="11" tgt="141" wght="-0.52319724656003253" />
        <Con id="154" src="12" tgt="141" wght="0.68212242915184973" />
        <Con id="157" src="15" tgt="141" wght="1.1528094098750179" />
        <Con id="160" src="18" tgt="141" wght="0.2363560077820549" />
        <Con id="161" src="19" tgt="141" wght="0.52769869698650762" />
        <Con id="163" src="21" tgt="141" wght="0.42253862828189986" />
        <Con id="165" src="23" tgt="141" wght="5" />
        <Con id="167" src="25" tgt="141" wght="2.1483216717210643" />
        <Con id="168" src="26" tgt="141" wght="5" />
        <Con id="169" src="27" tgt="141" wght="3.536546847181874" />
        <Con id="172" src="30" tgt="141" wght="-3.0172600679072845" />
        <Con id="173" src="31" tgt="141" wght="-0.76123752897859776" />
        <Con id="177" src="35" tgt="141" wght="1.4881370043465552" />
        <Con id="178" src="36" tgt="141" wght="0.61634233160013818" />
        <Con id="179" src="37" tgt="141" wght="-0.53144859804732214" />
        <Con id="182" src="40" tgt="141" wght="-0.31948459562585957" />
        <Con id="183" src="41" tgt="141" wght="-1.9459216928517262" />
        <Con id="184" src="42" tgt="141" wght="0.47679993081662508" />
        <Con id="185" src="43" tgt="141" wght="-0.472736821731831" />
        <Con id="187" src="45" tgt="141" wght="-1.3171663228904684" />
        <Con id="188" src="46" tgt="141" wght="0.66126603711163423" />
        <Con id="190" src="48" tgt="141" wght="0.16283160006721187" />
        <Con id="191" src="49" tgt="141" wght="-1.5612625993943898" />
        <Con id="192" src="50" tgt="141" wght="1.6191877247346917" />
        <Con id="193" src="51" tgt="141" wght="-0.23702561521818957" />
        <Con id="195" src="53" tgt="141" wght="-2.9420032768870508" />
        <Con id="196" src="54" tgt="141" wght="-1.7511711168591844" />
        <Con id="197" src="55" tgt="141" wght="-0.5410795185395143" />
        <Con id="198" src="56" tgt="141" wght="0.97030074882721618" />
        <Con id="200" src="58" tgt="141" wght="0.474225580421687" />
        <Con id="201" src="59" tgt="141" wght="0.7851533046827871" />
        <Con id="205" src="63" tgt="141" wght="-0.16705522631230116" />
        <Con id="207" src="65" tgt="141" wght="1.3207288144599174" />
        <Con id="208" src="66" tgt="141" wght="0.10895681273965026" />
        <Con id="210" src="68" tgt="141" wght="0.90078192172498317" />
        <Con id="212" src="70" tgt="141" wght="1.8295465322901321" />
        <Con id="215" src="73" tgt="141" wght="-0.062128882375722644" />
        <Con id="216" src="74" tgt="141" wght="-0.96409305153115366" />
        <Con id="217" src="75" tgt="141" wght="-0.6607181768840038" />
        <Con id="218" src="76" tgt="141" wght="0.80937464454577" />
        <Con id="219" src="77" tgt="141" wght="-0.15629989173477019" />
        <Con id="227" src="85" tgt="141" wght="3.195906804380551" />
        <Con id="228" src="86" tgt="141" wght="-0.67887527314491747" />
        <Con id="230" src="88" tgt="141" wght="-0.027106993625411302" />
        <Con id="232" src="90" tgt="141" wght="0.72819135412040781" />
        <Con id="233" src="91" tgt="141" wght="-0.82306814013654683" />
        <Con id="234" src="92" tgt="141" wght="-0.30760250744378115" />
        <Con id="235" src="93" tgt="141" wght="-0.38489288697181478" />
        <Con id="237" src="95" tgt="141" wght="3.5890193094276253" />
        <Con id="239" src="97" tgt="141" wght="1.0746514944172438" />
        <Con id="240" src="98" tgt="141" wght="0.4624049679443718" />
        <Con id="241" src="99" tgt="141" wght="2.1356701746624052" />
        <Con id="242" src="100" tgt="141" wght="-1.314061059666326" />
        <Con id="243" src="101" tgt="141" wght="0.33484403160311077" />
        <Con id="244" src="102" tgt="141" wght="-0.57577444344323714" />
        <Con id="246" src="104" tgt="141" wght="-1.4871323280293245" />
        <Con id="248" src="106" tgt="141" wght="-0.18381545339627312" />
        <Con id="250" src="108" tgt="141" wght="-0.21538219483253143" />
        <Con id="253" src="111" tgt="141" wght="0.59232072151038351" />
        <Con id="256" src="114" tgt="141" wght="-1.1843558620328045" />
        <Con id="257" src="115" tgt="141" wght="-0.95443679397496151" />
        <Con id="260" src="118" tgt="141" wght="0.11276593328666071" />
        <Con id="261" src="119" tgt="141" wght="-0.011094159748296981" />
        <Con id="262" src="120" tgt="141" wght="0.090656690951074315" />
        <Con id="265" src="123" tgt="141" wght="-0.25256166282044856" />
        <Con id="272" src="130" tgt="141" wght="1.4286989720544931" />
        <Con id="275" src="133" tgt="141" wght="-0.040743383283753612" />
        <Con id="276" src="134" tgt="141" wght="-0.0070590074638575209" />
        <Con id="278" src="136" tgt="141" wght="-2.9689974246252167" />
        <Con id="285" src="83" tgt="141" wght="-0.72626316780826383" />
        <Con id="302" src="17" tgt="141" wght="0.70185472776489088" />
        <Con id="307" src="7" tgt="141" wght="0.016321891801662172" />
        <Con id="310" src="93" tgt="309" wght="-0.11827238843762107" />
        <Con id="311" src="309" tgt="141" wght="5" />
        <Con id="316" src="22" tgt="141" wght="0.85232832944702219" />
        <Con id="318" src="78" tgt="141" wght="0.0660720849096493" />
        <Con id="331" src="107" tgt="141" wght="-0.70515497199902544" />
        <Con id="338" src="52" tgt="141" wght="2.1669515617692285" />
        <Con id="346" src="67" tgt="141" wght="-3.7511937052276738" />
        <Con id="356" src="109" tgt="141" wght="0.62056334756168652" />
        <Con id="357" src="135" tgt="141" wght="-3.4739884397413516" />
        <Con id="396" src="119" tgt="395" wght="-4.8997276152545606" />
        <Con id="397" src="395" tgt="141" wght="3.3723221392022209" />
        <Con id="413" src="61" tgt="309" wght="-5" />
        <Con id="424" src="45" tgt="309" wght="0.15011145121680947" />
        <Con id="437" src="131" tgt="309" wght="0.22620157925262782" />
        <Con id="444" src="82" tgt="309" wght="-0.82164525781377562" />
        <Con id="451" src="129" tgt="141" wght="-1.5634864135081785" />
        <Con id="453" src="65" tgt="309" wght="-3.2629784446313863" />
        <Con id="461" src="60" tgt="141" wght="1.703256873131648" />
        <Con id="478" src="32" tgt="477" wght="-0.32214587354711854" />
        <Con id="479" src="477" tgt="141" wght="5" />
        <Con id="481" src="33" tgt="141" wght="0.92350813884237959" />
        <Con id="495" src="89" tgt="141" wght="-1.3175094705508039" />
        <Con id="512" src="100" tgt="309" wght="1.9350717912175286" />
        <Con id="513" src="126" tgt="309" wght="-3.2092145050548098" />
        <Con id="526" src="120" tgt="395" wght="1.6233671484318093" />
        <Con id="533" src="16" tgt="395" wght="-0.45462701770359581" />
        <Con id="534" src="122" tgt="477" wght="1.7606625996533929" />
        <Con id="544" src="1" tgt="395" wght="4.6033377966322355" />
        <Con id="567" src="26" tgt="566" wght="1.7867324535398528" />
        <Con id="568" src="566" tgt="141" wght="5" />
        <Con id="575" src="88" tgt="574" wght="-0.21101822923954835" />
        <Con id="576" src="574" tgt="141" wght="-4.9550024011045561" />
        <Con id="595" src="113" tgt="477" wght="4.9702000932682662" />
        <Con id="607" src="21" tgt="566" wght="0.50806371958961272" />
        <Con id="654" src="24" tgt="574" wght="-0.944582448100489" />
        <Con id="656" src="75" tgt="395" wght="-5" />
        <Con id="660" src="24" tgt="566" wght="2.8384020712057372" />
        <Con id="671" src="15" tgt="477" wght="-0.82207583569190457" />
        <Con id="686" src="47" tgt="395" wght="-3.4924634865073116" />
        <Con id="718" src="84" tgt="566" wght="-1.1326246692058854" />
        <Con id="735" src="69" tgt="566" wght="-1.4955511721362535" />
        <Con id="756" src="110" tgt="755" wght="1.4475447367565542" />
        <Con id="757" src="755" tgt="141" wght="2.7260319460857616" />
        <Con id="782" src="26" tgt="309" wght="1.2203840023851145" />
        <Con id="787" src="64" tgt="309" wght="1.4769116931167581" />
        <Con id="836" src="125" tgt="566" wght="-1.2143538915831784" />
        <Con id="851" src="132" tgt="395" wght="-4.2362842714644451" />
        <Con id="860" src="98" tgt="574" wght="-2.0393722933015863" />
        <Con id="876" src="64" tgt="395" wght="4.5481208797676178" />
        <Con id="887" src="59" tgt="886" wght="-0.061744170835465406" />
        <Con id="888" src="886" tgt="141" wght="3.7698044357706091" />
        <Con id="891" src="84" tgt="574" wght="2.7379734632536765" />
        <Con id="895" src="81" tgt="574" wght="1.8412189952059026" />
        <Con id="901" src="68" tgt="566" wght="0.33957575801055434" />
        <Con id="913" src="126" tgt="912" wght="0.49119960982352495" />
        <Con id="914" src="912" tgt="309" wght="2.9962864125547144" />
        <Con id="919" src="13" tgt="566" wght="-1.489564412185461" />
        <Con id="925" src="125" tgt="574" wght="2.3678178446556877" />
        <Con id="936" src="132" tgt="755" wght="-2.0005628692973949" />
        <Con id="939" src="755" tgt="574" wght="1.2094518180201501" />
        <Con id="942" src="26" tgt="477" wght="-2.3525349917046166" />
        <Con id="955" src="29" tgt="309" wght="1.4478934517111677" />
        <Con id="956" src="112" tgt="574" wght="0.054343371122608959" />
        <Con id="975" src="98" tgt="395" wght="1.3199656736796752" />
        <Con id="1005" src="110" tgt="1004" wght="-1.8529043281111297" />
        <Con id="1006" src="1004" tgt="755" wght="2.2804675530196423" />
        <Con id="1034" src="68" tgt="574" wght="0.29602960329410422" />
        <Con id="1039" src="118" tgt="395" wght="-0.56272284540343787" />
        <Con id="1045" src="121" tgt="574" wght="-0.19516557543652058" />
        <Con id="1056" src="127" tgt="477" wght="-2.0359581794836306" />
        <Con id="1057" src="105" tgt="755" wght="5" />
        <Con id="1058" src="88" tgt="395" wght="-1.9066654353519727" />
        <Con id="1059" src="22" tgt="395" wght="-1.3695638848009677" />
        <Con id="1061" src="103" tgt="566" wght="0.33028379371206523" />
        <Con id="1068" src="113" tgt="566" wght="1.8154041322678416" />
        <Con id="1120" src="138" tgt="574" wght="-0.99107838800977366" />
        <Con id="1167" src="26" tgt="755" wght="0.58409130446575552" />
        <Con id="1249" src="38" tgt="477" wght="-4.981543545687817" />
        <Con id="1256" src="14" tgt="886" wght="0.2594313050430801" />
        <Con id="1321" src="63" tgt="755" wght="4.1941715301114524" />
      </Connections>
    </Network>
  </Networks>
</Root>