<?xml version="1.0" encoding="utf-8"?>
<Root>
  <ActivationFunctions>
    <Fn id="0" name="PlainSigmoid" prob="1" />
  </ActivationFunctions>
  <Networks>
    <Network id="721084" birthGen="9003" fitness="0.727401597683997">
      <Nodes>
        <Node type="bias" id="0" />
        <Node type="in" id="1" />
        <Node type="in" id="2" />
        <Node type="in" id="3" />
        <Node type="in" id="4" />
        <Node type="in" id="5" />
        <Node type="in" id="6" />
        <Node type="in" id="7" />
        <Node type="in" id="8" />
        <Node type="in" id="9" />
        <Node type="in" id="10" />
        <Node type="in" id="11" />
        <Node type="in" id="12" />
        <Node type="in" id="13" />
        <Node type="in" id="14" />
        <Node type="in" id="15" />
        <Node type="in" id="16" />
        <Node type="in" id="17" />
        <Node type="in" id="18" />
        <Node type="in" id="19" />
        <Node type="in" id="20" />
        <Node type="in" id="21" />
        <Node type="in" id="22" />
        <Node type="in" id="23" />
        <Node type="in" id="24" />
        <Node type="in" id="25" />
        <Node type="in" id="26" />
        <Node type="in" id="27" />
        <Node type="in" id="28" />
        <Node type="in" id="29" />
        <Node type="in" id="30" />
        <Node type="in" id="31" />
        <Node type="in" id="32" />
        <Node type="in" id="33" />
        <Node type="in" id="34" />
        <Node type="in" id="35" />
        <Node type="in" id="36" />
        <Node type="in" id="37" />
        <Node type="in" id="38" />
        <Node type="in" id="39" />
        <Node type="in" id="40" />
        <Node type="in" id="41" />
        <Node type="in" id="42" />
        <Node type="in" id="43" />
        <Node type="in" id="44" />
        <Node type="in" id="45" />
        <Node type="in" id="46" />
        <Node type="in" id="47" />
        <Node type="in" id="48" />
        <Node type="in" id="49" />
        <Node type="in" id="50" />
        <Node type="in" id="51" />
        <Node type="in" id="52" />
        <Node type="in" id="53" />
        <Node type="in" id="54" />
        <Node type="in" id="55" />
        <Node type="in" id="56" />
        <Node type="in" id="57" />
        <Node type="in" id="58" />
        <Node type="in" id="59" />
        <Node type="in" id="60" />
        <Node type="in" id="61" />
        <Node type="in" id="62" />
        <Node type="in" id="63" />
        <Node type="in" id="64" />
        <Node type="in" id="65" />
        <Node type="in" id="66" />
        <Node type="in" id="67" />
        <Node type="in" id="68" />
        <Node type="in" id="69" />
        <Node type="in" id="70" />
        <Node type="in" id="71" />
        <Node type="in" id="72" />
        <Node type="in" id="73" />
        <Node type="in" id="74" />
        <Node type="in" id="75" />
        <Node type="in" id="76" />
        <Node type="in" id="77" />
        <Node type="in" id="78" />
        <Node type="in" id="79" />
        <Node type="in" id="80" />
        <Node type="in" id="81" />
        <Node type="in" id="82" />
        <Node type="in" id="83" />
        <Node type="in" id="84" />
        <Node type="in" id="85" />
        <Node type="in" id="86" />
        <Node type="in" id="87" />
        <Node type="in" id="88" />
        <Node type="in" id="89" />
        <Node type="in" id="90" />
        <Node type="in" id="91" />
        <Node type="in" id="92" />
        <Node type="in" id="93" />
        <Node type="in" id="94" />
        <Node type="in" id="95" />
        <Node type="in" id="96" />
        <Node type="in" id="97" />
        <Node type="in" id="98" />
        <Node type="in" id="99" />
        <Node type="in" id="100" />
        <Node type="in" id="101" />
        <Node type="in" id="102" />
        <Node type="in" id="103" />
        <Node type="in" id="104" />
        <Node type="in" id="105" />
        <Node type="in" id="106" />
        <Node type="in" id="107" />
        <Node type="in" id="108" />
        <Node type="in" id="109" />
        <Node type="in" id="110" />
        <Node type="in" id="111" />
        <Node type="in" id="112" />
        <Node type="in" id="113" />
        <Node type="in" id="114" />
        <Node type="in" id="115" />
        <Node type="in" id="116" />
        <Node type="in" id="117" />
        <Node type="in" id="118" />
        <Node type="in" id="119" />
        <Node type="in" id="120" />
        <Node type="in" id="121" />
        <Node type="in" id="122" />
        <Node type="in" id="123" />
        <Node type="in" id="124" />
        <Node type="in" id="125" />
        <Node type="in" id="126" />
        <Node type="in" id="127" />
        <Node type="in" id="128" />
        <Node type="in" id="129" />
        <Node type="in" id="130" />
        <Node type="in" id="131" />
        <Node type="in" id="132" />
        <Node type="in" id="133" />
        <Node type="in" id="134" />
        <Node type="in" id="135" />
        <Node type="in" id="136" />
        <Node type="in" id="137" />
        <Node type="in" id="138" />
        <Node type="in" id="139" />
        <Node type="in" id="140" />
        <Node type="out" id="141" />
      </Nodes>
      <Connections>
        <Con id="147" src="5" tgt="141" wght="-0.40902848146379012" />
        <Con id="151" src="9" tgt="141" wght="-0.63181600324898812" />
        <Con id="158" src="16" tgt="141" wght="0.37002464127592644" />
        <Con id="164" src="22" tgt="141" wght="0.17137754140784142" />
        <Con id="165" src="23" tgt="141" wght="5" />
        <Con id="171" src="29" tgt="141" wght="0.64238190276311569" />
        <Con id="177" src="35" tgt="141" wght="1.3613567203189163" />
        <Con id="195" src="53" tgt="141" wght="-2.3846440387431365" />
        <Con id="202" src="60" tgt="141" wght="1.5469926538175978" />
        <Con id="211" src="69" tgt="141" wght="-0.57396927049194424" />
        <Con id="215" src="73" tgt="141" wght="0.061664785391659933" />
        <Con id="228" src="86" tgt="141" wght="-0.59746983496253281" />
        <Con id="229" src="87" tgt="141" wght="0.0658604472980531" />
        <Con id="235" src="93" tgt="141" wght="-0.39506277636169568" />
        <Con id="237" src="95" tgt="141" wght="3.115390513809936" />
        <Con id="240" src="98" tgt="141" wght="1.0560779752136584" />
        <Con id="244" src="102" tgt="141" wght="-0.41159901396342646" />
        <Con id="245" src="103" tgt="141" wght="0.18217373544098311" />
        <Con id="246" src="104" tgt="141" wght="-1.2424164496506358" />
        <Con id="247" src="105" tgt="141" wght="0.18446439649743568" />
        <Con id="249" src="107" tgt="141" wght="-0.57023969168273692" />
        <Con id="283" src="0" tgt="141" wght="-0.57950991056611567" />
        <Con id="284" src="75" tgt="141" wght="-0.89941691464986662" />
        <Con id="285" src="99" tgt="141" wght="1.8580569785784387" />
        <Con id="286" src="15" tgt="141" wght="0.83750896146727427" />
        <Con id="287" src="54" tgt="141" wght="-1.4531777145589795" />
        <Con id="288" src="56" tgt="141" wght="0.87092345927716031" />
        <Con id="289" src="131" tgt="141" wght="0.10321778245270252" />
        <Con id="291" src="66" tgt="141" wght="0.1846945386272453" />
        <Con id="293" src="70" tgt="141" wght="1.552713820990818" />
        <Con id="294" src="82" tgt="141" wght="-0.12607864004676192" />
        <Con id="295" src="139" tgt="141" wght="-4.1602382831612932" />
        <Con id="296" src="108" tgt="141" wght="-0.097534846288607757" />
        <Con id="297" src="28" tgt="141" wght="-0.4892855284599959" />
        <Con id="298" src="137" tgt="141" wght="-0.21192732947611914" />
        <Con id="299" src="17" tgt="141" wght="0.36353855854951883" />
        <Con id="300" src="51" tgt="141" wght="-0.15729591695297995" />
        <Con id="302" src="19" tgt="141" wght="0.39051882059689225" />
        <Con id="304" src="21" tgt="141" wght="0.45582151099311929" />
        <Con id="305" src="123" tgt="141" wght="-0.14785878578532691" />
        <Con id="306" src="61" tgt="141" wght="-1.3143269517428351" />
        <Con id="307" src="84" tgt="141" wght="-0.61095869248628676" />
        <Con id="308" src="57" tgt="141" wght="0.27223998623161233" />
        <Con id="310" src="83" tgt="141" wght="-0.42021338344706882" />
        <Con id="311" src="74" tgt="141" wght="-0.78831259752632432" />
        <Con id="313" src="4" tgt="141" wght="-0.17203446081216298" />
        <Con id="314" src="138" tgt="141" wght="0.47626240916649132" />
        <Con id="315" src="126" tgt="141" wght="-0.48802128328922095" />
        <Con id="316" src="109" tgt="141" wght="0.51314549177604851" />
        <Con id="317" src="119" tgt="141" wght="-0.09620597887370437" />
        <Con id="318" src="78" tgt="141" wght="0.1467487425376573" />
        <Con id="320" src="41" tgt="141" wght="-1.5788599458549515" />
        <Con id="321" src="13" tgt="141" wght="-0.78827895362184464" />
        <Con id="322" src="39" tgt="141" wght="-0.13622434809803963" />
        <Con id="323" src="111" tgt="141" wght="0.47149574012234513" />
        <Con id="324" src="36" tgt="141" wght="0.661755222914408" />
        <Con id="325" src="31" tgt="141" wght="-0.64045198481905419" />
        <Con id="326" src="33" tgt="141" wght="0.82774717801348774" />
        <Con id="327" src="127" tgt="141" wght="-0.74985743493934609" />
        <Con id="328" src="79" tgt="141" wght="0.18069358206774083" />
        <Con id="329" src="46" tgt="141" wght="0.711528822254501" />
        <Con id="330" src="89" tgt="141" wght="-1.0413628743087087" />
        <Con id="331" src="3" tgt="141" wght="0.33529688983657946" />
        <Con id="332" src="8" tgt="141" wght="-0.2012550248223233" />
        <Con id="334" src="52" tgt="141" wght="2.5654860703451314" />
        <Con id="336" src="38" tgt="141" wght="-0.585225028785557" />
        <Con id="337" src="14" tgt="141" wght="0.13365027666643325" />
        <Con id="338" src="11" tgt="141" wght="-0.3826565723941534" />
        <Con id="339" src="101" tgt="141" wght="0.23468330497443618" />
        <Con id="340" src="42" tgt="141" wght="0.40067232686693716" />
        <Con id="341" src="72" tgt="141" wght="0.21772311808549633" />
        <Con id="343" src="122" tgt="141" wght="1.0420735863183423" />
        <Con id="345" src="121" tgt="141" wght="0.23176656838376777" />
        <Con id="346" src="45" tgt="141" wght="-0.98000557641026631" />
        <Con id="347" src="64" tgt="141" wght="0.8837215058054938" />
        <Con id="348" src="80" tgt="141" wght="0.509862011618101" />
        <Con id="351" src="92" tgt="141" wght="-0.28526437166311364" />
        <Con id="353" src="10" tgt="141" wght="0.3272899568512328" />
        <Con id="354" src="117" tgt="141" wght="-0.33201012706829958" />
        <Con id="356" src="30" tgt="141" wght="-2.359183941587855" />
        <Con id="358" src="132" tgt="141" wght="-0.73988731558616883" />
        <Con id="359" src="116" tgt="141" wght="-0.31989261386889323" />
        <Con id="360" src="65" tgt="141" wght="0.67778327157195639" />
        <Con id="361" src="114" tgt="141" wght="-0.95468937011751953" />
        <Con id="362" src="71" tgt="141" wght="-0.37605911818497245" />
        <Con id="363" src="62" tgt="141" wght="-0.32453307005271459" />
        <Con id="364" src="120" tgt="141" wght="0.20885138403559414" />
        <Con id="365" src="90" tgt="141" wght="0.46952073578137654" />
        <Con id="366" src="115" tgt="141" wght="-0.70256264286724857" />
        <Con id="367" src="129" tgt="141" wght="-1.2690594471744454" />
        <Con id="368" src="12" tgt="141" wght="0.47468125045047938" />
        <Con id="369" src="110" tgt="141" wght="0.12475837745142482" />
        <Con id="370" src="106" tgt="141" wght="-0.11951304634664733" />
        <Con id="371" src="58" tgt="141" wght="0.59518187209428675" />
        <Con id="372" src="113" tgt="141" wght="1.7428958308826652" />
        <Con id="373" src="43" tgt="141" wght="-0.31167656925434362" />
        <Con id="376" src="50" tgt="141" wght="1.3343729389953236" />
        <Con id="377" src="76" tgt="141" wght="0.77210354390821934" />
        <Con id="379" src="91" tgt="141" wght="-0.57431138125260117" />
        <Con id="383" src="97" tgt="141" wght="0.89514818084032322" />
        <Con id="385" src="32" tgt="141" wght="-0.095334008525261568" />
        <Con id="386" src="77" tgt="141" wght="-0.13878427409361405" />
        <Con id="387" src="34" tgt="141" wght="0.31700482436219535" />
        <Con id="388" src="6" tgt="141" wght="-0.016339881718864361" />
        <Con id="389" src="68" tgt="141" wght="0.71646474032298058" />
        <Con id="390" src="85" tgt="141" wght="2.6582168193186884" />
        <Con id="391" src="24" tgt="141" wght="2.335264189332134" />
        <Con id="392" src="59" tgt="141" wght="0.54951835482331324" />
        <Con id="393" src="48" tgt="141" wght="0.11668265221552697" />
        <Con id="395" src="55" tgt="141" wght="-0.37628342041615515" />
        <Con id="396" src="128" tgt="141" wght="0.13716731063914983" />
        <Con id="398" src="136" tgt="141" wght="1.9674070156434491" />
        <Con id="399" src="27" tgt="141" wght="2.5988373073714195" />
        <Con id="400" src="140" tgt="141" wght="-0.24750343688897355" />
        <Con id="402" src="37" tgt="141" wght="-0.3422364270140269" />
        <Con id="403" src="125" tgt="141" wght="-0.89635262605178578" />
        <Con id="404" src="25" tgt="141" wght="0.43430692239941848" />
        <Con id="405" src="94" tgt="141" wght="-0.27172399526469104" />
        <Con id="406" src="49" tgt="141" wght="-1.241119558248567" />
        <Con id="408" src="44" tgt="141" wght="-0.22045528176618856" />
        <Con id="409" src="1" tgt="141" wght="0.39674229570169528" />
        <Con id="411" src="20" tgt="141" wght="-0.22341431579337262" />
        <Con id="412" src="81" tgt="141" wght="-0.46885615375142142" />
        <Con id="413" src="88" tgt="141" wght="-0.10593134964209504" />
        <Con id="414" src="124" tgt="141" wght="0.49767433847140974" />
        <Con id="416" src="26" tgt="141" wght="3.8594680359281188" />
        <Con id="417" src="2" tgt="141" wght="0.057930989752718494" />
        <Con id="418" src="130" tgt="141" wght="1.1641209753378439" />
        <Con id="419" src="67" tgt="141" wght="-3.1249935238989766" />
        <Con id="421" src="135" tgt="141" wght="1.3686747285765808" />
      </Connections>
    </Network>
  </Networks>
</Root>