<?xml version="1.0" encoding="utf-8"?>
<Root>
  <ActivationFunctions>
    <Fn id="0" name="PlainSigmoid" prob="1" />
  </ActivationFunctions>
  <Networks>
    <Network id="713107" birthGen="8832" fitness="0.79832308775626815">
      <Nodes>
        <Node type="bias" id="0" />
        <Node type="in" id="1" />
        <Node type="in" id="2" />
        <Node type="in" id="3" />
        <Node type="in" id="4" />
        <Node type="in" id="5" />
        <Node type="in" id="6" />
        <Node type="in" id="7" />
        <Node type="in" id="8" />
        <Node type="in" id="9" />
        <Node type="in" id="10" />
        <Node type="in" id="11" />
        <Node type="in" id="12" />
        <Node type="in" id="13" />
        <Node type="in" id="14" />
        <Node type="in" id="15" />
        <Node type="in" id="16" />
        <Node type="in" id="17" />
        <Node type="in" id="18" />
        <Node type="in" id="19" />
        <Node type="in" id="20" />
        <Node type="in" id="21" />
        <Node type="in" id="22" />
        <Node type="in" id="23" />
        <Node type="in" id="24" />
        <Node type="in" id="25" />
        <Node type="in" id="26" />
        <Node type="in" id="27" />
        <Node type="in" id="28" />
        <Node type="in" id="29" />
        <Node type="in" id="30" />
        <Node type="in" id="31" />
        <Node type="in" id="32" />
        <Node type="in" id="33" />
        <Node type="in" id="34" />
        <Node type="in" id="35" />
        <Node type="in" id="36" />
        <Node type="in" id="37" />
        <Node type="in" id="38" />
        <Node type="in" id="39" />
        <Node type="in" id="40" />
        <Node type="in" id="41" />
        <Node type="in" id="42" />
        <Node type="in" id="43" />
        <Node type="in" id="44" />
        <Node type="in" id="45" />
        <Node type="in" id="46" />
        <Node type="in" id="47" />
        <Node type="in" id="48" />
        <Node type="in" id="49" />
        <Node type="in" id="50" />
        <Node type="in" id="51" />
        <Node type="in" id="52" />
        <Node type="in" id="53" />
        <Node type="in" id="54" />
        <Node type="in" id="55" />
        <Node type="in" id="56" />
        <Node type="in" id="57" />
        <Node type="in" id="58" />
        <Node type="in" id="59" />
        <Node type="in" id="60" />
        <Node type="in" id="61" />
        <Node type="in" id="62" />
        <Node type="in" id="63" />
        <Node type="in" id="64" />
        <Node type="in" id="65" />
        <Node type="in" id="66" />
        <Node type="in" id="67" />
        <Node type="in" id="68" />
        <Node type="in" id="69" />
        <Node type="in" id="70" />
        <Node type="in" id="71" />
        <Node type="in" id="72" />
        <Node type="in" id="73" />
        <Node type="in" id="74" />
        <Node type="in" id="75" />
        <Node type="in" id="76" />
        <Node type="in" id="77" />
        <Node type="in" id="78" />
        <Node type="in" id="79" />
        <Node type="in" id="80" />
        <Node type="in" id="81" />
        <Node type="in" id="82" />
        <Node type="in" id="83" />
        <Node type="in" id="84" />
        <Node type="in" id="85" />
        <Node type="in" id="86" />
        <Node type="in" id="87" />
        <Node type="in" id="88" />
        <Node type="in" id="89" />
        <Node type="in" id="90" />
        <Node type="in" id="91" />
        <Node type="in" id="92" />
        <Node type="in" id="93" />
        <Node type="in" id="94" />
        <Node type="in" id="95" />
        <Node type="in" id="96" />
        <Node type="in" id="97" />
        <Node type="in" id="98" />
        <Node type="in" id="99" />
        <Node type="in" id="100" />
        <Node type="in" id="101" />
        <Node type="in" id="102" />
        <Node type="in" id="103" />
        <Node type="in" id="104" />
        <Node type="in" id="105" />
        <Node type="in" id="106" />
        <Node type="in" id="107" />
        <Node type="in" id="108" />
        <Node type="in" id="109" />
        <Node type="in" id="110" />
        <Node type="in" id="111" />
        <Node type="in" id="112" />
        <Node type="in" id="113" />
        <Node type="in" id="114" />
        <Node type="in" id="115" />
        <Node type="in" id="116" />
        <Node type="in" id="117" />
        <Node type="in" id="118" />
        <Node type="in" id="119" />
        <Node type="in" id="120" />
        <Node type="in" id="121" />
        <Node type="in" id="122" />
        <Node type="in" id="123" />
        <Node type="in" id="124" />
        <Node type="in" id="125" />
        <Node type="in" id="126" />
        <Node type="in" id="127" />
        <Node type="in" id="128" />
        <Node type="in" id="129" />
        <Node type="in" id="130" />
        <Node type="in" id="131" />
        <Node type="in" id="132" />
        <Node type="in" id="133" />
        <Node type="in" id="134" />
        <Node type="in" id="135" />
        <Node type="in" id="136" />
        <Node type="in" id="137" />
        <Node type="in" id="138" />
        <Node type="in" id="139" />
        <Node type="in" id="140" />
        <Node type="out" id="141" />
      </Nodes>
      <Connections>
        <Con id="147" src="5" tgt="141" wght="-0.16114049674610964" />
        <Con id="152" src="10" tgt="141" wght="0.11721099934885454" />
        <Con id="156" src="14" tgt="141" wght="0.77681670073215991" />
        <Con id="165" src="23" tgt="141" wght="5" />
        <Con id="166" src="24" tgt="141" wght="3.9641601410710718" />
        <Con id="168" src="26" tgt="141" wght="5" />
        <Con id="170" src="28" tgt="141" wght="-0.48466332905327381" />
        <Con id="182" src="40" tgt="141" wght="-0.58733417829296664" />
        <Con id="186" src="44" tgt="141" wght="0.16195919231149344" />
        <Con id="199" src="57" tgt="141" wght="-1.0034786674785729" />
        <Con id="206" src="64" tgt="141" wght="0.071591290019078532" />
        <Con id="215" src="73" tgt="141" wght="-0.82672448741589855" />
        <Con id="219" src="77" tgt="141" wght="0.48120503228007888" />
        <Con id="223" src="81" tgt="141" wght="-2.0319202176906659" />
        <Con id="234" src="92" tgt="141" wght="-0.78637370638004722" />
        <Con id="238" src="96" tgt="141" wght="-0.41303734794581282" />
        <Con id="241" src="99" tgt="141" wght="2.5292568440927718" />
        <Con id="242" src="100" tgt="141" wght="0.39853773391682346" />
        <Con id="243" src="101" tgt="141" wght="0.15617779577833452" />
        <Con id="244" src="102" tgt="141" wght="-0.70467254511175192" />
        <Con id="250" src="108" tgt="141" wght="-0.64986059379102667" />
        <Con id="255" src="113" tgt="141" wght="1.0116660129278898" />
        <Con id="259" src="117" tgt="141" wght="-1.073834838735779" />
        <Con id="261" src="119" tgt="141" wght="-0.18449275473586213" />
        <Con id="264" src="122" tgt="141" wght="0.2760064785469562" />
        <Con id="268" src="126" tgt="141" wght="-0.3903596012663017" />
        <Con id="269" src="127" tgt="141" wght="-0.20669854419068073" />
        <Con id="271" src="129" tgt="141" wght="-0.9875949940214428" />
        <Con id="278" src="136" tgt="141" wght="1.6456389150822581" />
        <Con id="283" src="67" tgt="141" wght="-2.7210161835403213" />
        <Con id="284" src="20" tgt="141" wght="-1.4445488491334522" />
        <Con id="285" src="84" tgt="141" wght="-0.63579337574239259" />
        <Con id="286" src="35" tgt="141" wght="1.2607840277840499" />
        <Con id="287" src="8" tgt="141" wght="-0.010739987415764813" />
        <Con id="288" src="118" tgt="141" wght="0.45353244345910021" />
        <Con id="289" src="56" tgt="141" wght="0.995159571881545" />
        <Con id="290" src="107" tgt="141" wght="-1.0721392412649384" />
        <Con id="293" src="124" tgt="141" wght="1.2911221092449654" />
        <Con id="294" src="70" tgt="141" wght="1.8376285844732478" />
        <Con id="295" src="94" tgt="141" wght="-1.2828469988527649" />
        <Con id="296" src="110" tgt="141" wght="0.20107156724015907" />
        <Con id="297" src="71" tgt="141" wght="0.12122280153913767" />
        <Con id="298" src="104" tgt="141" wght="-0.22078904333305335" />
        <Con id="299" src="15" tgt="141" wght="0.77980404115495516" />
        <Con id="300" src="83" tgt="141" wght="-0.030668300398877236" />
        <Con id="302" src="2" tgt="141" wght="0.678429974852924" />
        <Con id="304" src="61" tgt="141" wght="-1.0835524473998204" />
        <Con id="305" src="133" tgt="141" wght="0.51361718308832471" />
        <Con id="306" src="91" tgt="141" wght="0.021761431984543056" />
        <Con id="307" src="69" tgt="141" wght="-1.7770821647610591" />
        <Con id="308" src="76" tgt="141" wght="-0.36669701288616752" />
        <Con id="309" src="22" tgt="141" wght="-0.073531203885463525" />
        <Con id="310" src="140" tgt="141" wght="-0.024171311782803739" />
        <Con id="311" src="3" tgt="141" wght="-1.5162671991921306" />
        <Con id="312" src="109" tgt="141" wght="0.069225663223852027" />
        <Con id="313" src="135" tgt="141" wght="1.4494443017034777" />
        <Con id="314" src="87" tgt="141" wght="0.39473407281653933" />
        <Con id="315" src="66" tgt="141" wght="0.55310034134593755" />
        <Con id="318" src="95" tgt="141" wght="3.4155057104033828" />
        <Con id="320" src="59" tgt="141" wght="-0.09170186153117485" />
        <Con id="321" src="120" tgt="141" wght="0.26216563967770662" />
        <Con id="323" src="97" tgt="141" wght="0.750187661511108" />
        <Con id="324" src="21" tgt="141" wght="0.79443443120699675" />
        <Con id="325" src="19" tgt="141" wght="0.29575489078561112" />
        <Con id="326" src="114" tgt="141" wght="-2.2279764334371746" />
        <Con id="327" src="90" tgt="141" wght="0.84624054022910722" />
        <Con id="328" src="105" tgt="141" wght="0.80783028689387959" />
        <Con id="329" src="62" tgt="141" wght="-1.4669598303404898" />
        <Con id="330" src="33" tgt="141" wght="0.17846506993546518" />
        <Con id="331" src="53" tgt="141" wght="-3.1147344703659772" />
        <Con id="332" src="134" tgt="141" wght="-0.26948280098682137" />
        <Con id="333" src="6" tgt="141" wght="-1.0871448413991611" />
        <Con id="334" src="11" tgt="141" wght="-0.40671128175924687" />
        <Con id="335" src="31" tgt="141" wght="-1.7999104485689654" />
        <Con id="336" src="131" tgt="141" wght="0.801674841468135" />
        <Con id="337" src="78" tgt="141" wght="-0.609081389868977" />
        <Con id="338" src="111" tgt="141" wght="-0.0019054257294252239" />
        <Con id="339" src="48" tgt="141" wght="0.12409810472000417" />
        <Con id="340" src="7" tgt="141" wght="-0.87314233311115075" />
        <Con id="341" src="125" tgt="141" wght="-0.82976315988106009" />
        <Con id="342" src="16" tgt="141" wght="0.56465094595594412" />
        <Con id="343" src="132" tgt="141" wght="-0.369458942823412" />
        <Con id="344" src="128" tgt="141" wght="0.13653226881530983" />
        <Con id="345" src="39" tgt="141" wght="1.2192846057499447" />
        <Con id="347" src="41" tgt="141" wght="-2.8415942314615772" />
        <Con id="348" src="85" tgt="141" wght="2.5770610689233058" />
        <Con id="349" src="36" tgt="141" wght="0.32851974140917739" />
        <Con id="352" src="52" tgt="141" wght="-2.6190012607153808" />
        <Con id="353" src="38" tgt="141" wght="-0.47246269432511323" />
        <Con id="354" src="98" tgt="141" wght="1.754767527829044" />
        <Con id="355" src="121" tgt="141" wght="0.24802550096252354" />
        <Con id="357" src="93" tgt="141" wght="-0.96593655052045158" />
        <Con id="358" src="17" tgt="141" wght="0.84821037764428953" />
        <Con id="359" src="82" tgt="141" wght="-0.43938496731495991" />
        <Con id="360" src="25" tgt="141" wght="2.0195675971419664" />
        <Con id="361" src="58" tgt="141" wght="0.15738694491716543" />
        <Con id="362" src="30" tgt="141" wght="-2.4414410833341127" />
        <Con id="363" src="1" tgt="141" wght="0.091684997845017741" />
        <Con id="364" src="86" tgt="141" wght="-1.1476764842364469" />
        <Con id="365" src="137" tgt="141" wght="-0.34383108402636758" />
        <Con id="366" src="42" tgt="141" wght="-1.0937389354702327" />
        <Con id="367" src="32" tgt="141" wght="-0.633354913443327" />
        <Con id="373" src="46" tgt="141" wght="0.12708028397288024" />
        <Con id="374" src="74" tgt="141" wght="0.039205980482274395" />
        <Con id="376" src="115" tgt="141" wght="0.15044861938804388" />
        <Con id="377" src="37" tgt="141" wght="-0.19539082937267818" />
        <Con id="378" src="63" tgt="141" wght="-0.50110025940816216" />
        <Con id="379" src="12" tgt="141" wght="1.2406257219613936" />
        <Con id="380" src="9" tgt="141" wght="0.38129764300054658" />
        <Con id="381" src="60" tgt="141" wght="0.6982275837193842" />
        <Con id="382" src="139" tgt="141" wght="-0.19589856155450808" />
        <Con id="383" src="112" tgt="141" wght="0.068526379764080048" />
        <Con id="385" src="51" tgt="141" wght="-0.43287145146651129" />
        <Con id="386" src="29" tgt="141" wght="0.57516769507950383" />
        <Con id="387" src="55" tgt="141" wght="-0.67184849642217159" />
        <Con id="388" src="13" tgt="141" wght="-0.42055741961946475" />
        <Con id="389" src="106" tgt="141" wght="-0.9316952014077593" />
        <Con id="390" src="89" tgt="141" wght="-0.46568256838355127" />
        <Con id="393" src="138" tgt="141" wght="1.5897844284444687" />
        <Con id="394" src="65" tgt="141" wght="0.69559433011121063" />
        <Con id="396" src="43" tgt="141" wght="-1.2371670012647584" />
        <Con id="397" src="123" tgt="141" wght="0.1686656221214366" />
        <Con id="399" src="45" tgt="141" wght="-1.1133581839616511" />
        <Con id="400" src="68" tgt="141" wght="1.8382057816663946" />
        <Con id="403" src="72" tgt="141" wght="0.051836643484551678" />
        <Con id="404" src="49" tgt="141" wght="-1.5190163609409704" />
        <Con id="405" src="27" tgt="141" wght="2.3080531675607379" />
        <Con id="406" src="0" tgt="141" wght="-1.7333252738027836" />
        <Con id="407" src="50" tgt="141" wght="2.0067895012553687" />
        <Con id="408" src="47" tgt="141" wght="0.18962867415951681" />
        <Con id="409" src="4" tgt="141" wght="0.34317764520234134" />
        <Con id="410" src="130" tgt="141" wght="1.9619166404012471" />
        <Con id="412" src="75" tgt="141" wght="-1.5686329232678977" />
        <Con id="416" src="34" tgt="141" wght="1.5953733335566764" />
        <Con id="417" src="116" tgt="141" wght="0.033039013506731121" />
        <Con id="418" src="54" tgt="141" wght="-2.1449954879190165" />
        <Con id="419" src="18" tgt="141" wght="-0.91031891469744441" />
        <Con id="420" src="88" tgt="141" wght="-0.0036022841035741049" />
        <Con id="422" src="80" tgt="141" wght="2.1556184435321164" />
      </Connections>
    </Network>
  </Networks>
</Root>