<?xml version="1.0" encoding="utf-8"?>
<Root>
  <ActivationFunctions>
    <Fn id="0" name="PlainSigmoid" prob="1" />
  </ActivationFunctions>
  <Networks>
    <Network id="664805" birthGen="8301" fitness="0.61090876844587183">
      <Nodes>
        <Node type="bias" id="0" />
        <Node type="in" id="1" />
        <Node type="in" id="2" />
        <Node type="in" id="3" />
        <Node type="in" id="4" />
        <Node type="in" id="5" />
        <Node type="in" id="6" />
        <Node type="in" id="7" />
        <Node type="in" id="8" />
        <Node type="in" id="9" />
        <Node type="in" id="10" />
        <Node type="in" id="11" />
        <Node type="in" id="12" />
        <Node type="in" id="13" />
        <Node type="in" id="14" />
        <Node type="in" id="15" />
        <Node type="in" id="16" />
        <Node type="in" id="17" />
        <Node type="in" id="18" />
        <Node type="in" id="19" />
        <Node type="in" id="20" />
        <Node type="in" id="21" />
        <Node type="in" id="22" />
        <Node type="in" id="23" />
        <Node type="in" id="24" />
        <Node type="out" id="25" />
        <Node type="hid" id="94" />
        <Node type="hid" id="104" />
        <Node type="hid" id="168" />
        <Node type="hid" id="625" />
        <Node type="hid" id="914" />
      </Nodes>
      <Connections>
        <Con id="34" src="8" tgt="25" wght="0.8063282091986852" />
        <Con id="36" src="10" tgt="25" wght="2.1675971175184618" />
        <Con id="38" src="12" tgt="25" wght="-2.6555786073145127" />
        <Con id="49" src="23" tgt="25" wght="0.53547325359536557" />
        <Con id="50" src="24" tgt="25" wght="-2.0814690224700345" />
        <Con id="51" src="3" tgt="25" wght="0.14740963931873219" />
        <Con id="53" src="2" tgt="25" wght="0.69520884445097186" />
        <Con id="61" src="20" tgt="25" wght="-3.9617520523781611" />
        <Con id="62" src="17" tgt="25" wght="2.529248972414035" />
        <Con id="66" src="18" tgt="25" wght="2.4107009841623652" />
        <Con id="71" src="9" tgt="25" wght="2.075680165455033" />
        <Con id="73" src="11" tgt="25" wght="-0.3813686797126748" />
        <Con id="74" src="22" tgt="25" wght="-3.1230349815219287" />
        <Con id="75" src="7" tgt="25" wght="1.2632668903494604" />
        <Con id="76" src="14" tgt="25" wght="-0.767686455364064" />
        <Con id="77" src="5" tgt="25" wght="-0.19587310468558297" />
        <Con id="78" src="13" tgt="25" wght="-1.9767284386886683" />
        <Con id="80" src="15" tgt="25" wght="-0.01596357717918143" />
        <Con id="81" src="19" tgt="25" wght="-4.9695441783164762" />
        <Con id="82" src="4" tgt="25" wght="0.031086847962041839" />
        <Con id="93" src="21" tgt="25" wght="-2.3266517612781019" />
        <Con id="95" src="3" tgt="94" wght="-1.6833778265091031" />
        <Con id="96" src="94" tgt="25" wght="-3.1660181823212206" />
        <Con id="103" src="10" tgt="94" wght="0.65819525526582712" />
        <Con id="106" src="104" tgt="25" wght="0.875265090548299" />
        <Con id="107" src="6" tgt="25" wght="-0.57996815500848853" />
        <Con id="126" src="9" tgt="104" wght="-4.5497627479835918" />
        <Con id="130" src="1" tgt="104" wght="-0.94342810515023312" />
        <Con id="131" src="24" tgt="104" wght="-1.156760402603892" />
        <Con id="138" src="11" tgt="94" wght="-2.4340454259793347" />
        <Con id="139" src="12" tgt="104" wght="2.5940229520706914" />
        <Con id="140" src="2" tgt="94" wght="-2.7047373195751163" />
        <Con id="142" src="14" tgt="104" wght="4.0858794836502677" />
        <Con id="153" src="3" tgt="104" wght="-4.833704373067957" />
        <Con id="166" src="14" tgt="94" wght="-5" />
        <Con id="167" src="12" tgt="94" wght="-3.7225270232039533" />
        <Con id="169" src="4" tgt="168" wght="2.6606830695776571" />
        <Con id="170" src="168" tgt="25" wght="-1.3814817074209627" />
        <Con id="177" src="2" tgt="104" wght="3.1591784758394956" />
        <Con id="178" src="8" tgt="94" wght="0.34421559514253897" />
        <Con id="179" src="5" tgt="104" wght="-1.8773720634485633" />
        <Con id="180" src="21" tgt="94" wght="0.98507422037117909" />
        <Con id="187" src="17" tgt="104" wght="0.41961506601219917" />
        <Con id="188" src="19" tgt="94" wght="4.9863530551376956" />
        <Con id="189" src="1" tgt="94" wght="0.12363052718294641" />
        <Con id="190" src="21" tgt="104" wght="3.3419295426123385" />
        <Con id="191" src="94" tgt="104" wght="-4.3363648738376375" />
        <Con id="192" src="11" tgt="104" wght="0.238134281805099" />
        <Con id="196" src="16" tgt="94" wght="5" />
        <Con id="206" src="18" tgt="94" wght="4.2097698549667157" />
        <Con id="216" src="8" tgt="104" wght="-0.47189105258140718" />
        <Con id="218" src="5" tgt="94" wght="2.5682277275637562" />
        <Con id="225" src="20" tgt="104" wght="2.2425981067382978" />
        <Con id="226" src="20" tgt="94" wght="1.8731059185499497" />
        <Con id="244" src="6" tgt="104" wght="4.2147956384187735" />
        <Con id="248" src="18" tgt="104" wght="-2.8662966485730705" />
        <Con id="249" src="7" tgt="104" wght="-1.6081915469840169" />
        <Con id="262" src="17" tgt="94" wght="5" />
        <Con id="270" src="0" tgt="94" wght="0.39099258811567628" />
        <Con id="271" src="9" tgt="94" wght="0.81532441667753885" />
        <Con id="272" src="22" tgt="94" wght="0.72931749536086143" />
        <Con id="285" src="6" tgt="94" wght="-3.7837443107996793" />
        <Con id="301" src="7" tgt="94" wght="-1.6570956958457828" />
        <Con id="327" src="22" tgt="104" wght="-4.38383971883748" />
        <Con id="328" src="104" tgt="168" wght="0.011738557453434915" />
        <Con id="376" src="16" tgt="104" wght="-4.4090884844880289" />
        <Con id="380" src="4" tgt="104" wght="1.1273366391830497" />
        <Con id="387" src="22" tgt="168" wght="-3.2583502704858818" />
        <Con id="406" src="19" tgt="104" wght="3.341406886049803" />
        <Con id="447" src="17" tgt="168" wght="5" />
        <Con id="544" src="7" tgt="168" wght="0.19824244574228561" />
        <Con id="553" src="23" tgt="168" wght="3.7048769788179587" />
        <Con id="561" src="21" tgt="168" wght="4.7888564709461017" />
        <Con id="583" src="9" tgt="168" wght="1.4372590832091356" />
        <Con id="626" src="23" tgt="625" wght="-4.4147261520541754" />
        <Con id="627" src="625" tgt="25" wght="4.2795719278718156" />
        <Con id="693" src="5" tgt="625" wght="2.5317109471709833" />
        <Con id="915" src="12" tgt="914" wght="1.5776462133317004" />
        <Con id="916" src="914" tgt="104" wght="-2.297106417501785" />
      </Connections>
    </Network>
  </Networks>
</Root>