<?xml version="1.0" encoding="utf-8"?>
<Root>
  <ActivationFunctions>
    <Fn id="0" name="PlainSigmoid" prob="1" />
  </ActivationFunctions>
  <Networks>
    <Network id="525221" birthGen="6562" fitness="0.58993999887681181">
      <Nodes>
        <Node type="bias" id="0" />
        <Node type="in" id="1" />
        <Node type="in" id="2" />
        <Node type="in" id="3" />
        <Node type="in" id="4" />
        <Node type="in" id="5" />
        <Node type="in" id="6" />
        <Node type="in" id="7" />
        <Node type="in" id="8" />
        <Node type="in" id="9" />
        <Node type="in" id="10" />
        <Node type="in" id="11" />
        <Node type="in" id="12" />
        <Node type="in" id="13" />
        <Node type="in" id="14" />
        <Node type="in" id="15" />
        <Node type="in" id="16" />
        <Node type="in" id="17" />
        <Node type="in" id="18" />
        <Node type="in" id="19" />
        <Node type="in" id="20" />
        <Node type="in" id="21" />
        <Node type="in" id="22" />
        <Node type="in" id="23" />
        <Node type="in" id="24" />
        <Node type="out" id="25" />
        <Node type="hid" id="112" />
        <Node type="hid" id="213" />
        <Node type="hid" id="228" />
        <Node type="hid" id="234" />
      </Nodes>
      <Connections>
        <Con id="26" src="0" tgt="25" wght="1.9942697995586052" />
        <Con id="30" src="4" tgt="25" wght="-5" />
        <Con id="32" src="6" tgt="25" wght="-2.3894829458619533" />
        <Con id="35" src="9" tgt="25" wght="-3.6832239236255715" />
        <Con id="41" src="15" tgt="25" wght="-0.82127940771618912" />
        <Con id="43" src="17" tgt="25" wght="5" />
        <Con id="49" src="23" tgt="25" wght="-4.8185878235105921" />
        <Con id="58" src="10" tgt="25" wght="0.029695962423687987" />
        <Con id="59" src="22" tgt="25" wght="4.9996711104013229" />
        <Con id="60" src="14" tgt="25" wght="2.6147923881916944" />
        <Con id="61" src="7" tgt="25" wght="2.1403703744650628" />
        <Con id="62" src="20" tgt="25" wght="-3.4524460329183535" />
        <Con id="63" src="13" tgt="25" wght="-2.991000399660575" />
        <Con id="65" src="24" tgt="25" wght="2.2959172901928104" />
        <Con id="66" src="11" tgt="25" wght="1.6312895298860668" />
        <Con id="67" src="18" tgt="25" wght="3.7528056263563632" />
        <Con id="68" src="8" tgt="25" wght="-3.079404706993" />
        <Con id="70" src="19" tgt="25" wght="-1.8677881409502941" />
        <Con id="71" src="2" tgt="25" wght="1.0963472236391767" />
        <Con id="74" src="21" tgt="25" wght="-4.3233178488121382" />
        <Con id="78" src="16" tgt="25" wght="-1.0728198004818914" />
        <Con id="85" src="12" tgt="25" wght="-4.9835637294614408" />
        <Con id="89" src="5" tgt="25" wght="0.37334758280241087" />
        <Con id="113" src="21" tgt="112" wght="0.1595917693428755" />
        <Con id="114" src="112" tgt="25" wght="-5" />
        <Con id="143" src="7" tgt="112" wght="0.62484270223140925" />
        <Con id="151" src="5" tgt="112" wght="-1.9904170962168459" />
        <Con id="170" src="24" tgt="112" wght="5" />
        <Con id="214" src="5" tgt="213" wght="2.1897020715522366" />
        <Con id="215" src="213" tgt="25" wght="-3.934136357443363" />
        <Con id="229" src="12" tgt="228" wght="0.24722377466433265" />
        <Con id="230" src="228" tgt="25" wght="-2.2809216083940425" />
        <Con id="235" src="4" tgt="234" wght="-2.055888728909554" />
        <Con id="236" src="234" tgt="25" wght="2.5053620942101391" />
        <Con id="262" src="9" tgt="213" wght="-1.9016582321659468" />
        <Con id="290" src="6" tgt="213" wght="1.4981197642747959" />
        <Con id="293" src="9" tgt="228" wght="-3.6901580579223676" />
        <Con id="298" src="17" tgt="228" wght="-4.9584141206901755" />
        <Con id="324" src="17" tgt="213" wght="-0.90448418832790645" />
        <Con id="331" src="18" tgt="228" wght="1.7726801073529779" />
        <Con id="343" src="21" tgt="213" wght="-3.8249880532993266" />
        <Con id="347" src="15" tgt="213" wght="0.029470751685942469" />
        <Con id="385" src="11" tgt="112" wght="-0.10378550738096237" />
        <Con id="396" src="0" tgt="228" wght="-1.9030449363068742" />
        <Con id="398" src="7" tgt="228" wght="-0.43352763579925346" />
        <Con id="403" src="18" tgt="213" wght="-2.8322083925568222" />
        <Con id="410" src="7" tgt="213" wght="-1.8791706559023822" />
        <Con id="477" src="5" tgt="228" wght="-3.8483666282001017" />
      </Connections>
    </Network>
  </Networks>
</Root>