<?xml version="1.0" encoding="utf-8"?>
<Root>
  <ActivationFunctions>
    <Fn id="0" name="PlainSigmoid" prob="1" />
  </ActivationFunctions>
  <Networks>
    <Network id="197486" birthGen="2464" fitness="0.61097532967632229">
      <Nodes>
        <Node type="bias" id="0" />
        <Node type="in" id="1" />
        <Node type="in" id="2" />
        <Node type="in" id="3" />
        <Node type="in" id="4" />
        <Node type="in" id="5" />
        <Node type="in" id="6" />
        <Node type="in" id="7" />
        <Node type="in" id="8" />
        <Node type="in" id="9" />
        <Node type="in" id="10" />
        <Node type="in" id="11" />
        <Node type="in" id="12" />
        <Node type="in" id="13" />
        <Node type="in" id="14" />
        <Node type="in" id="15" />
        <Node type="in" id="16" />
        <Node type="in" id="17" />
        <Node type="in" id="18" />
        <Node type="in" id="19" />
        <Node type="in" id="20" />
        <Node type="in" id="21" />
        <Node type="in" id="22" />
        <Node type="in" id="23" />
        <Node type="in" id="24" />
        <Node type="out" id="25" />
        <Node type="hid" id="52" />
        <Node type="hid" id="55" />
        <Node type="hid" id="77" />
        <Node type="hid" id="131" />
        <Node type="hid" id="174" />
        <Node type="hid" id="268" />
        <Node type="hid" id="551" />
      </Nodes>
      <Connections>
        <Con id="36" src="10" tgt="25" wght="1.1636390638755381" />
        <Con id="38" src="12" tgt="25" wght="-1.0336692419308586" />
        <Con id="51" src="11" tgt="25" wght="2.3274702550721456" />
        <Con id="53" src="3" tgt="52" wght="4.2403509890493094" />
        <Con id="54" src="52" tgt="25" wght="0.029421289378352131" />
        <Con id="56" src="4" tgt="55" wght="-4.7369746760198694" />
        <Con id="60" src="8" tgt="25" wght="-0.5291927233338356" />
        <Con id="65" src="16" tgt="25" wght="-4.8806601224961534" />
        <Con id="69" src="17" tgt="25" wght="-0.25939552051661141" />
        <Con id="70" src="16" tgt="52" wght="-4.8769776122581661" />
        <Con id="72" src="6" tgt="25" wght="-3.920958432379468" />
        <Con id="74" src="15" tgt="25" wght="-5" />
        <Con id="75" src="22" tgt="25" wght="-0.55277558757772316" />
        <Con id="76" src="19" tgt="25" wght="-4.0666959529998588" />
        <Con id="78" src="17" tgt="77" wght="-1.1991490614363807" />
        <Con id="79" src="77" tgt="25" wght="-4.9900807961146327" />
        <Con id="80" src="14" tgt="25" wght="1.4623693511281786" />
        <Con id="82" src="24" tgt="52" wght="0.24680528944369584" />
        <Con id="84" src="2" tgt="25" wght="0.650608852211247" />
        <Con id="85" src="7" tgt="25" wght="1.255806633271277" />
        <Con id="90" src="18" tgt="25" wght="-0.115689180103276" />
        <Con id="91" src="1" tgt="52" wght="-0.075262669368636334" />
        <Con id="113" src="4" tgt="25" wght="-2.7352598750717556" />
        <Con id="114" src="23" tgt="77" wght="-4.4498660442183953" />
        <Con id="119" src="2" tgt="52" wght="1.0910799660106218" />
        <Con id="126" src="17" tgt="52" wght="-3.5146484552813497" />
        <Con id="132" src="55" tgt="131" wght="4.9558903195955235" />
        <Con id="133" src="131" tgt="25" wght="3.8764868240053758" />
        <Con id="143" src="2" tgt="77" wght="0.0046604155006485688" />
        <Con id="175" src="0" tgt="174" wght="1.4302456965427566" />
        <Con id="176" src="174" tgt="25" wght="2.4174658964446034" />
        <Con id="179" src="3" tgt="131" wght="0.031657130188362893" />
        <Con id="181" src="21" tgt="77" wght="-1.5748692722991109" />
        <Con id="188" src="23" tgt="131" wght="-3.2320803935293196" />
        <Con id="193" src="20" tgt="131" wght="1.236933054812938" />
        <Con id="229" src="21" tgt="55" wght="4.9903949202835012" />
        <Con id="246" src="18" tgt="52" wght="-4.9293528515557448" />
        <Con id="269" src="22" tgt="268" wght="-0.85431211969974508" />
        <Con id="270" src="268" tgt="52" wght="-3.2405687490490402" />
        <Con id="397" src="13" tgt="268" wght="-1.8672021569366348" />
        <Con id="552" src="6" tgt="551" wght="-2.0635014378608552" />
        <Con id="553" src="551" tgt="55" wght="-4.3607051903381944" />
      </Connections>
    </Network>
  </Networks>
</Root>