<?xml version="1.0" encoding="utf-8"?>
<Root>
  <ActivationFunctions>
    <Fn id="0" name="PlainSigmoid" prob="1" />
  </ActivationFunctions>
  <Networks>
    <Network id="545724" birthGen="6818" fitness="0.77016430203282826">
      <Nodes>
        <Node type="bias" id="0" />
        <Node type="in" id="1" />
        <Node type="in" id="2" />
        <Node type="in" id="3" />
        <Node type="in" id="4" />
        <Node type="in" id="5" />
        <Node type="in" id="6" />
        <Node type="in" id="7" />
        <Node type="in" id="8" />
        <Node type="in" id="9" />
        <Node type="in" id="10" />
        <Node type="in" id="11" />
        <Node type="in" id="12" />
        <Node type="in" id="13" />
        <Node type="in" id="14" />
        <Node type="in" id="15" />
        <Node type="in" id="16" />
        <Node type="in" id="17" />
        <Node type="in" id="18" />
        <Node type="in" id="19" />
        <Node type="in" id="20" />
        <Node type="in" id="21" />
        <Node type="in" id="22" />
        <Node type="in" id="23" />
        <Node type="in" id="24" />
        <Node type="in" id="25" />
        <Node type="in" id="26" />
        <Node type="in" id="27" />
        <Node type="in" id="28" />
        <Node type="in" id="29" />
        <Node type="in" id="30" />
        <Node type="in" id="31" />
        <Node type="in" id="32" />
        <Node type="in" id="33" />
        <Node type="in" id="34" />
        <Node type="in" id="35" />
        <Node type="in" id="36" />
        <Node type="in" id="37" />
        <Node type="in" id="38" />
        <Node type="in" id="39" />
        <Node type="in" id="40" />
        <Node type="in" id="41" />
        <Node type="in" id="42" />
        <Node type="in" id="43" />
        <Node type="in" id="44" />
        <Node type="in" id="45" />
        <Node type="in" id="46" />
        <Node type="in" id="47" />
        <Node type="in" id="48" />
        <Node type="in" id="49" />
        <Node type="in" id="50" />
        <Node type="in" id="51" />
        <Node type="in" id="52" />
        <Node type="in" id="53" />
        <Node type="in" id="54" />
        <Node type="in" id="55" />
        <Node type="in" id="56" />
        <Node type="in" id="57" />
        <Node type="in" id="58" />
        <Node type="in" id="59" />
        <Node type="in" id="60" />
        <Node type="in" id="61" />
        <Node type="in" id="62" />
        <Node type="in" id="63" />
        <Node type="in" id="64" />
        <Node type="in" id="65" />
        <Node type="in" id="66" />
        <Node type="in" id="67" />
        <Node type="in" id="68" />
        <Node type="in" id="69" />
        <Node type="in" id="70" />
        <Node type="in" id="71" />
        <Node type="in" id="72" />
        <Node type="in" id="73" />
        <Node type="in" id="74" />
        <Node type="in" id="75" />
        <Node type="in" id="76" />
        <Node type="in" id="77" />
        <Node type="in" id="78" />
        <Node type="in" id="79" />
        <Node type="in" id="80" />
        <Node type="in" id="81" />
        <Node type="in" id="82" />
        <Node type="in" id="83" />
        <Node type="in" id="84" />
        <Node type="in" id="85" />
        <Node type="in" id="86" />
        <Node type="in" id="87" />
        <Node type="in" id="88" />
        <Node type="in" id="89" />
        <Node type="in" id="90" />
        <Node type="in" id="91" />
        <Node type="in" id="92" />
        <Node type="in" id="93" />
        <Node type="in" id="94" />
        <Node type="in" id="95" />
        <Node type="in" id="96" />
        <Node type="in" id="97" />
        <Node type="in" id="98" />
        <Node type="in" id="99" />
        <Node type="in" id="100" />
        <Node type="in" id="101" />
        <Node type="in" id="102" />
        <Node type="in" id="103" />
        <Node type="in" id="104" />
        <Node type="in" id="105" />
        <Node type="in" id="106" />
        <Node type="in" id="107" />
        <Node type="in" id="108" />
        <Node type="in" id="109" />
        <Node type="in" id="110" />
        <Node type="in" id="111" />
        <Node type="in" id="112" />
        <Node type="in" id="113" />
        <Node type="in" id="114" />
        <Node type="in" id="115" />
        <Node type="in" id="116" />
        <Node type="in" id="117" />
        <Node type="in" id="118" />
        <Node type="in" id="119" />
        <Node type="in" id="120" />
        <Node type="in" id="121" />
        <Node type="in" id="122" />
        <Node type="in" id="123" />
        <Node type="in" id="124" />
        <Node type="in" id="125" />
        <Node type="in" id="126" />
        <Node type="in" id="127" />
        <Node type="in" id="128" />
        <Node type="in" id="129" />
        <Node type="in" id="130" />
        <Node type="in" id="131" />
        <Node type="in" id="132" />
        <Node type="in" id="133" />
        <Node type="in" id="134" />
        <Node type="in" id="135" />
        <Node type="in" id="136" />
        <Node type="in" id="137" />
        <Node type="in" id="138" />
        <Node type="in" id="139" />
        <Node type="in" id="140" />
        <Node type="out" id="141" />
      </Nodes>
      <Connections>
        <Con id="142" src="0" tgt="141" wght="3.0123068857938051" />
        <Con id="170" src="28" tgt="141" wght="-1.2283173880358456" />
        <Con id="177" src="35" tgt="141" wght="2.6417831737246158" />
        <Con id="179" src="37" tgt="141" wght="0.0067541202092995592" />
        <Con id="207" src="65" tgt="141" wght="2.7569049661855392" />
        <Con id="212" src="70" tgt="141" wght="4.5436250597523076" />
        <Con id="220" src="78" tgt="141" wght="-0.33668804837947064" />
        <Con id="224" src="82" tgt="141" wght="-2.6321216858697993" />
        <Con id="238" src="96" tgt="141" wght="0.54977843800894977" />
        <Con id="240" src="98" tgt="141" wght="4.9757548463553727" />
        <Con id="257" src="115" tgt="141" wght="0.76975364238023758" />
        <Con id="259" src="117" tgt="141" wght="-4.9851129129177032" />
        <Con id="266" src="124" tgt="141" wght="4.3895741934788832" />
        <Con id="283" src="38" tgt="141" wght="-5" />
        <Con id="284" src="90" tgt="141" wght="2.86383868455276" />
        <Con id="286" src="22" tgt="141" wght="0.13058310822907074" />
        <Con id="287" src="80" tgt="141" wght="5" />
        <Con id="289" src="39" tgt="141" wght="1.4006231663380786" />
        <Con id="290" src="138" tgt="141" wght="5" />
        <Con id="291" src="108" tgt="141" wght="-5" />
        <Con id="292" src="26" tgt="141" wght="0.34339521176825905" />
        <Con id="293" src="11" tgt="141" wght="0.348108502262223" />
        <Con id="294" src="15" tgt="141" wght="0.018880512264391445" />
        <Con id="296" src="52" tgt="141" wght="1.8389309570613217" />
        <Con id="297" src="88" tgt="141" wght="-1.0065445666056447" />
        <Con id="298" src="54" tgt="141" wght="-3.4443550355628876" />
        <Con id="300" src="140" tgt="141" wght="-0.15494468916459697" />
        <Con id="301" src="101" tgt="141" wght="-1.9987005460980096" />
        <Con id="302" src="79" tgt="141" wght="0.93785217314336022" />
        <Con id="303" src="125" tgt="141" wght="-0.44654690922561457" />
        <Con id="304" src="109" tgt="141" wght="-1.8596536491893905" />
        <Con id="305" src="56" tgt="141" wght="1.6318618286471986" />
        <Con id="306" src="24" tgt="141" wght="0.0005474476034090358" />
        <Con id="307" src="57" tgt="141" wght="-0.46330106365040136" />
        <Con id="308" src="32" tgt="141" wght="-2.2548632813349769" />
        <Con id="310" src="8" tgt="141" wght="-0.0010464664648471211" />
        <Con id="311" src="118" tgt="141" wght="0.33291677054102314" />
        <Con id="312" src="29" tgt="141" wght="0.89310310982120511" />
        <Con id="314" src="136" tgt="141" wght="4.9980732304284672" />
        <Con id="315" src="134" tgt="141" wght="-1.3377870615744367" />
        <Con id="316" src="131" tgt="141" wght="5" />
        <Con id="317" src="61" tgt="141" wght="-4.9808027342372343" />
        <Con id="318" src="139" tgt="141" wght="-3.0962925774755456" />
        <Con id="319" src="62" tgt="141" wght="-5" />
        <Con id="321" src="75" tgt="141" wght="-4.7889440445290026" />
        <Con id="322" src="92" tgt="141" wght="-2.902225297502679" />
        <Con id="323" src="130" tgt="141" wght="5" />
        <Con id="324" src="107" tgt="141" wght="-4.9595488177698446" />
        <Con id="326" src="128" tgt="141" wght="0.2085993019519139" />
        <Con id="327" src="121" tgt="141" wght="0.945370699494501" />
        <Con id="328" src="120" tgt="141" wght="1.030912821258207" />
        <Con id="329" src="31" tgt="141" wght="-5" />
        <Con id="330" src="27" tgt="141" wght="0.13695011737059115" />
        <Con id="331" src="127" tgt="141" wght="-1.346189071796887" />
        <Con id="332" src="73" tgt="141" wght="-3.0650182148651766" />
        <Con id="333" src="114" tgt="141" wght="-4.5911672154262542" />
        <Con id="334" src="60" tgt="141" wght="4.2009096147418434" />
        <Con id="335" src="10" tgt="141" wght="-0.036328637886137494" />
        <Con id="336" src="42" tgt="141" wght="-2.7277915203624832" />
        <Con id="337" src="47" tgt="141" wght="-0.88136317708006562" />
        <Con id="338" src="36" tgt="141" wght="-0.60662158111973341" />
        <Con id="339" src="83" tgt="141" wght="-1.0011344609977242" />
        <Con id="340" src="69" tgt="141" wght="-4.1028708923315893" />
        <Con id="341" src="30" tgt="141" wght="-5" />
        <Con id="342" src="41" tgt="141" wght="-5" />
        <Con id="343" src="104" tgt="141" wght="-3.9993852244960548" />
        <Con id="344" src="4" tgt="141" wght="0.46694560238681038" />
        <Con id="345" src="100" tgt="141" wght="-0.42111645212530768" />
        <Con id="346" src="133" tgt="141" wght="2.6753906273441892" />
        <Con id="347" src="129" tgt="141" wght="-4.22250363282759" />
        <Con id="348" src="85" tgt="141" wght="5" />
        <Con id="349" src="110" tgt="141" wght="2.5996068230181741" />
        <Con id="350" src="23" tgt="141" wght="0.0062244854932192468" />
        <Con id="351" src="64" tgt="141" wght="-0.18052980319261308" />
        <Con id="353" src="77" tgt="141" wght="2.4844202012904097" />
        <Con id="354" src="122" tgt="141" wght="1.4137235919958135" />
        <Con id="355" src="5" tgt="141" wght="-0.616906137215783" />
        <Con id="356" src="63" tgt="141" wght="-4.126046509441939" />
        <Con id="357" src="48" tgt="141" wght="-0.42811819181272609" />
        <Con id="358" src="55" tgt="141" wght="-1.1909895191414546" />
        <Con id="359" src="113" tgt="141" wght="2.5365336754317243" />
        <Con id="361" src="44" tgt="141" wght="2.7484428630606383" />
        <Con id="362" src="33" tgt="141" wght="0.74346937595962981" />
        <Con id="363" src="119" tgt="141" wght="-0.22977280471253317" />
        <Con id="364" src="93" tgt="141" wght="-3.1035384222762792" />
        <Con id="365" src="58" tgt="141" wght="0.36717145805427487" />
        <Con id="366" src="89" tgt="141" wght="-1.5472136401985235" />
        <Con id="368" src="25" tgt="141" wght="-0.13065661263468717" />
        <Con id="369" src="66" tgt="141" wght="-0.14418266396874263" />
        <Con id="370" src="21" tgt="141" wght="0.0096049081338069123" />
        <Con id="371" src="46" tgt="141" wght="-0.16587111698139725" />
        <Con id="372" src="67" tgt="141" wght="-4.7055329388493945" />
        <Con id="373" src="3" tgt="141" wght="-3.9173410777065119" />
        <Con id="375" src="53" tgt="141" wght="-4.8936790817231373" />
        <Con id="376" src="43" tgt="141" wght="-1.905930263250033" />
        <Con id="378" src="91" tgt="141" wght="-0.39877155286817939" />
        <Con id="379" src="112" tgt="141" wght="0.80591638380579167" />
        <Con id="380" src="123" tgt="141" wght="-1.0181243513963565" />
        <Con id="383" src="45" tgt="141" wght="-4.9296918696371232" />
        <Con id="384" src="68" tgt="141" wght="5" />
        <Con id="385" src="59" tgt="141" wght="0.7032753345188163" />
        <Con id="386" src="86" tgt="141" wght="-5" />
        <Con id="387" src="132" tgt="141" wght="-3.425786895906779" />
        <Con id="388" src="126" tgt="141" wght="-1.5302682534805108" />
        <Con id="390" src="50" tgt="141" wght="5" />
        <Con id="391" src="49" tgt="141" wght="-2.9108478417446144" />
        <Con id="392" src="111" tgt="141" wght="0.27537180178752818" />
        <Con id="393" src="19" tgt="141" wght="0.033992934444038413" />
        <Con id="394" src="99" tgt="141" wght="5" />
        <Con id="395" src="51" tgt="141" wght="-3.6481100191216007" />
        <Con id="396" src="2" tgt="141" wght="0.0058127042438939989" />
        <Con id="397" src="102" tgt="141" wght="-1.9939645988126258" />
        <Con id="398" src="74" tgt="141" wght="-1.3058746018190766" />
        <Con id="399" src="84" tgt="141" wght="-2.178222143108016" />
        <Con id="400" src="103" tgt="141" wght="-0.8519363175755359" />
        <Con id="401" src="105" tgt="141" wght="3.4971707989683485" />
        <Con id="403" src="106" tgt="141" wght="-2.9872511626912446" />
        <Con id="404" src="17" tgt="141" wght="0.481673936586192" />
        <Con id="405" src="94" tgt="141" wght="-5" />
        <Con id="406" src="40" tgt="141" wght="-1.7695604580189985" />
        <Con id="407" src="6" tgt="141" wght="-0.010076397538040863" />
        <Con id="408" src="97" tgt="141" wght="1.8443440897592145" />
        <Con id="409" src="95" tgt="141" wght="5" />
        <Con id="410" src="72" tgt="141" wght="-0.30180348693479592" />
        <Con id="411" src="18" tgt="141" wght="-0.4360243749411295" />
        <Con id="413" src="87" tgt="141" wght="0.8251570327306601" />
        <Con id="414" src="16" tgt="141" wght="-0.0007962491057413295" />
        <Con id="415" src="12" tgt="141" wght="1.8041396298434955" />
        <Con id="416" src="71" tgt="141" wght="-1.4195893531937529" />
        <Con id="417" src="7" tgt="141" wght="-0.041414075993908429" />
        <Con id="418" src="116" tgt="141" wght="1.7536799476173539" />
        <Con id="419" src="81" tgt="141" wght="-5" />
        <Con id="420" src="20" tgt="141" wght="-2.0494893663858504" />
        <Con id="421" src="34" tgt="141" wght="4.9837220502298525" />
        <Con id="422" src="76" tgt="141" wght="-0.75191741684361857" />
        <Con id="423" src="137" tgt="141" wght="-5" />
      </Connections>
    </Network>
  </Networks>
</Root>