<?xml version="1.0" encoding="utf-8"?>
<Root>
  <ActivationFunctions>
    <Fn id="0" name="PlainSigmoid" prob="1" />
  </ActivationFunctions>
  <Networks>
    <Network id="235585" birthGen="2940" fitness="0.69526571805932358">
      <Nodes>
        <Node type="bias" id="0" />
        <Node type="in" id="1" />
        <Node type="in" id="2" />
        <Node type="in" id="3" />
        <Node type="in" id="4" />
        <Node type="in" id="5" />
        <Node type="in" id="6" />
        <Node type="in" id="7" />
        <Node type="in" id="8" />
        <Node type="in" id="9" />
        <Node type="in" id="10" />
        <Node type="in" id="11" />
        <Node type="in" id="12" />
        <Node type="in" id="13" />
        <Node type="in" id="14" />
        <Node type="in" id="15" />
        <Node type="in" id="16" />
        <Node type="in" id="17" />
        <Node type="in" id="18" />
        <Node type="in" id="19" />
        <Node type="in" id="20" />
        <Node type="in" id="21" />
        <Node type="in" id="22" />
        <Node type="in" id="23" />
        <Node type="in" id="24" />
        <Node type="in" id="25" />
        <Node type="in" id="26" />
        <Node type="in" id="27" />
        <Node type="in" id="28" />
        <Node type="in" id="29" />
        <Node type="in" id="30" />
        <Node type="in" id="31" />
        <Node type="in" id="32" />
        <Node type="in" id="33" />
        <Node type="in" id="34" />
        <Node type="in" id="35" />
        <Node type="in" id="36" />
        <Node type="in" id="37" />
        <Node type="in" id="38" />
        <Node type="in" id="39" />
        <Node type="in" id="40" />
        <Node type="in" id="41" />
        <Node type="in" id="42" />
        <Node type="in" id="43" />
        <Node type="in" id="44" />
        <Node type="in" id="45" />
        <Node type="in" id="46" />
        <Node type="in" id="47" />
        <Node type="in" id="48" />
        <Node type="in" id="49" />
        <Node type="in" id="50" />
        <Node type="in" id="51" />
        <Node type="in" id="52" />
        <Node type="in" id="53" />
        <Node type="in" id="54" />
        <Node type="in" id="55" />
        <Node type="in" id="56" />
        <Node type="in" id="57" />
        <Node type="in" id="58" />
        <Node type="in" id="59" />
        <Node type="in" id="60" />
        <Node type="in" id="61" />
        <Node type="in" id="62" />
        <Node type="in" id="63" />
        <Node type="in" id="64" />
        <Node type="in" id="65" />
        <Node type="in" id="66" />
        <Node type="in" id="67" />
        <Node type="in" id="68" />
        <Node type="in" id="69" />
        <Node type="in" id="70" />
        <Node type="in" id="71" />
        <Node type="in" id="72" />
        <Node type="in" id="73" />
        <Node type="in" id="74" />
        <Node type="in" id="75" />
        <Node type="in" id="76" />
        <Node type="out" id="77" />
      </Nodes>
      <Connections>
        <Con id="81" src="3" tgt="77" wght="0.012388911281433409" />
        <Con id="82" src="4" tgt="77" wght="0.27197263372502334" />
        <Con id="87" src="9" tgt="77" wght="0.18793000124491982" />
        <Con id="88" src="10" tgt="77" wght="0.0924890549939948" />
        <Con id="90" src="12" tgt="77" wght="-0.012523957268414562" />
        <Con id="92" src="14" tgt="77" wght="0.049371046710897419" />
        <Con id="98" src="20" tgt="77" wght="0.061921033581637509" />
        <Con id="106" src="28" tgt="77" wght="0.17569675883946748" />
        <Con id="110" src="32" tgt="77" wght="0.12000202998406463" />
        <Con id="111" src="33" tgt="77" wght="0.38089915438692357" />
        <Con id="117" src="39" tgt="77" wght="-0.00094256641498313525" />
        <Con id="118" src="40" tgt="77" wght="0.055303907416185689" />
        <Con id="119" src="41" tgt="77" wght="0.44337233878937543" />
        <Con id="120" src="42" tgt="77" wght="0.15009276852516043" />
        <Con id="124" src="46" tgt="77" wght="0.093832225986256776" />
        <Con id="125" src="47" tgt="77" wght="0.3378601893047351" />
        <Con id="127" src="49" tgt="77" wght="0.020699638541426778" />
        <Con id="132" src="54" tgt="77" wght="0.3222625061272405" />
        <Con id="136" src="58" tgt="77" wght="0.1111895833038337" />
        <Con id="140" src="62" tgt="77" wght="0.034131574499674966" />
        <Con id="141" src="63" tgt="77" wght="0.010725774006969847" />
        <Con id="142" src="64" tgt="77" wght="0.00023199523606206793" />
        <Con id="155" src="67" tgt="77" wght="0.22739930310298426" />
        <Con id="156" src="18" tgt="77" wght="0.096735551404565967" />
        <Con id="157" src="7" tgt="77" wght="0.045637370589600691" />
        <Con id="159" src="60" tgt="77" wght="0.015843119631925442" />
        <Con id="160" src="30" tgt="77" wght="0.030311542367182403" />
        <Con id="161" src="55" tgt="77" wght="-0.053565411285912932" />
        <Con id="162" src="17" tgt="77" wght="0.22295562857412751" />
        <Con id="163" src="26" tgt="77" wght="0.30275196969988821" />
        <Con id="165" src="24" tgt="77" wght="0.1063317969974954" />
        <Con id="167" src="0" tgt="77" wght="0.0052769228034711835" />
        <Con id="168" src="16" tgt="77" wght="0.0975094752304029" />
        <Con id="169" src="61" tgt="77" wght="0.059566315913236648" />
        <Con id="170" src="74" tgt="77" wght="0.028789654501344925" />
        <Con id="172" src="52" tgt="77" wght="0.252434213746174" />
        <Con id="175" src="59" tgt="77" wght="-0.018317596774621449" />
        <Con id="176" src="2" tgt="77" wght="0.27200850852338732" />
        <Con id="178" src="73" tgt="77" wght="0.26323548150374365" />
        <Con id="179" src="31" tgt="77" wght="0.041412291897049584" />
        <Con id="181" src="1" tgt="77" wght="0.00068094679803053226" />
        <Con id="184" src="6" tgt="77" wght="0.93453805147992985" />
        <Con id="187" src="21" tgt="77" wght="0.19528678270731478" />
        <Con id="188" src="75" tgt="77" wght="0.13249299566497694" />
        <Con id="191" src="19" tgt="77" wght="-0.0016711843037026633" />
        <Con id="192" src="56" tgt="77" wght="0.21546749933520909" />
        <Con id="193" src="27" tgt="77" wght="-0.10670247427270087" />
        <Con id="195" src="70" tgt="77" wght="0.12360204598915749" />
        <Con id="196" src="44" tgt="77" wght="0.01764979619817781" />
        <Con id="197" src="36" tgt="77" wght="-0.0350493811635636" />
        <Con id="198" src="8" tgt="77" wght="0.086488461378841447" />
        <Con id="200" src="43" tgt="77" wght="0.39889591682279979" />
        <Con id="201" src="48" tgt="77" wght="-0.023617940089625235" />
        <Con id="203" src="50" tgt="77" wght="0.24211787003830368" />
        <Con id="204" src="25" tgt="77" wght="0.080616647824494264" />
        <Con id="205" src="69" tgt="77" wght="-0.010793202826928132" />
        <Con id="207" src="57" tgt="77" wght="0.2512832218327955" />
        <Con id="210" src="13" tgt="77" wght="-0.14232241864787695" />
        <Con id="211" src="5" tgt="77" wght="0.10194187780161901" />
        <Con id="212" src="15" tgt="77" wght="0.26431026236700966" />
        <Con id="215" src="53" tgt="77" wght="0.10450277659023108" />
        <Con id="216" src="22" tgt="77" wght="0.25470186133716466" />
        <Con id="217" src="23" tgt="77" wght="0.20755352459221432" />
        <Con id="218" src="66" tgt="77" wght="0.318808238718001" />
        <Con id="219" src="68" tgt="77" wght="0.15319286797036477" />
        <Con id="223" src="65" tgt="77" wght="0.20280347541369992" />
        <Con id="225" src="72" tgt="77" wght="-0.065211818156610674" />
        <Con id="226" src="38" tgt="77" wght="-0.073286600693920539" />
        <Con id="227" src="11" tgt="77" wght="0.019537598034582826" />
        <Con id="228" src="37" tgt="77" wght="0.024102058210708217" />
        <Con id="230" src="51" tgt="77" wght="-0.01772568680218032" />
        <Con id="231" src="35" tgt="77" wght="0.042616495956361411" />
      </Connections>
    </Network>
  </Networks>
</Root>