<?xml version="1.0" encoding="utf-8"?>
<Root>
  <ActivationFunctions>
    <Fn id="0" name="PlainSigmoid" prob="1" />
  </ActivationFunctions>
  <Networks>
    <Network id="475159" birthGen="5939" fitness="0.69858622759441091">
      <Nodes>
        <Node type="bias" id="0" />
        <Node type="in" id="1" />
        <Node type="in" id="2" />
        <Node type="in" id="3" />
        <Node type="in" id="4" />
        <Node type="in" id="5" />
        <Node type="in" id="6" />
        <Node type="in" id="7" />
        <Node type="in" id="8" />
        <Node type="in" id="9" />
        <Node type="in" id="10" />
        <Node type="in" id="11" />
        <Node type="in" id="12" />
        <Node type="in" id="13" />
        <Node type="in" id="14" />
        <Node type="in" id="15" />
        <Node type="in" id="16" />
        <Node type="in" id="17" />
        <Node type="in" id="18" />
        <Node type="in" id="19" />
        <Node type="in" id="20" />
        <Node type="in" id="21" />
        <Node type="in" id="22" />
        <Node type="in" id="23" />
        <Node type="in" id="24" />
        <Node type="in" id="25" />
        <Node type="in" id="26" />
        <Node type="in" id="27" />
        <Node type="in" id="28" />
        <Node type="in" id="29" />
        <Node type="in" id="30" />
        <Node type="in" id="31" />
        <Node type="in" id="32" />
        <Node type="in" id="33" />
        <Node type="in" id="34" />
        <Node type="in" id="35" />
        <Node type="in" id="36" />
        <Node type="in" id="37" />
        <Node type="in" id="38" />
        <Node type="in" id="39" />
        <Node type="in" id="40" />
        <Node type="in" id="41" />
        <Node type="in" id="42" />
        <Node type="in" id="43" />
        <Node type="in" id="44" />
        <Node type="in" id="45" />
        <Node type="in" id="46" />
        <Node type="in" id="47" />
        <Node type="in" id="48" />
        <Node type="in" id="49" />
        <Node type="in" id="50" />
        <Node type="in" id="51" />
        <Node type="in" id="52" />
        <Node type="in" id="53" />
        <Node type="in" id="54" />
        <Node type="in" id="55" />
        <Node type="in" id="56" />
        <Node type="in" id="57" />
        <Node type="in" id="58" />
        <Node type="in" id="59" />
        <Node type="in" id="60" />
        <Node type="in" id="61" />
        <Node type="in" id="62" />
        <Node type="in" id="63" />
        <Node type="in" id="64" />
        <Node type="in" id="65" />
        <Node type="in" id="66" />
        <Node type="in" id="67" />
        <Node type="in" id="68" />
        <Node type="in" id="69" />
        <Node type="in" id="70" />
        <Node type="in" id="71" />
        <Node type="in" id="72" />
        <Node type="in" id="73" />
        <Node type="in" id="74" />
        <Node type="in" id="75" />
        <Node type="in" id="76" />
        <Node type="out" id="77" />
      </Nodes>
      <Connections>
        <Con id="93" src="15" tgt="77" wght="1.5087397330675678" />
        <Con id="103" src="25" tgt="77" wght="0.61932981706530565" />
        <Con id="125" src="47" tgt="77" wght="4.9951481173219969" />
        <Con id="155" src="55" tgt="77" wght="-1.4892049650705" />
        <Con id="156" src="61" tgt="77" wght="5" />
        <Con id="157" src="62" tgt="77" wght="5" />
        <Con id="158" src="48" tgt="77" wght="-5" />
        <Con id="159" src="24" tgt="77" wght="0.72640447133838326" />
        <Con id="160" src="63" tgt="77" wght="3.99813198458861" />
        <Con id="162" src="38" tgt="77" wght="-0.39551027724399751" />
        <Con id="163" src="41" tgt="77" wght="2.3228689473461017" />
        <Con id="164" src="65" tgt="77" wght="0.7176045955487772" />
        <Con id="165" src="27" tgt="77" wght="-2.8698418278492741" />
        <Con id="166" src="58" tgt="77" wght="0.67469891198373655" />
        <Con id="167" src="11" tgt="77" wght="0.13385633706606065" />
        <Con id="168" src="44" tgt="77" wght="1.6826681006763029" />
        <Con id="170" src="31" tgt="77" wght="0.22871534821849543" />
        <Con id="172" src="43" tgt="77" wght="3.16435603494467" />
        <Con id="174" src="45" tgt="77" wght="4.9913425747683746" />
        <Con id="175" src="72" tgt="77" wght="-0.31344436354365351" />
        <Con id="176" src="0" tgt="77" wght="1.7810304928570986" />
        <Con id="177" src="66" tgt="77" wght="0.52849389335985653" />
        <Con id="178" src="67" tgt="77" wght="1.1529695169330663" />
        <Con id="179" src="40" tgt="77" wght="0.39939903773819552" />
        <Con id="180" src="9" tgt="77" wght="0.93861286860778481" />
        <Con id="181" src="54" tgt="77" wght="1.6808435072314041" />
        <Con id="182" src="13" tgt="77" wght="-1.0118636525805014" />
        <Con id="183" src="42" tgt="77" wght="1.9362090389233617" />
        <Con id="184" src="76" tgt="77" wght="0.1702514619818869" />
        <Con id="185" src="56" tgt="77" wght="0.9116918302345145" />
        <Con id="186" src="59" tgt="77" wght="5" />
        <Con id="187" src="28" tgt="77" wght="0.86211308952745769" />
        <Con id="188" src="50" tgt="77" wght="1.3254540989778774" />
        <Con id="189" src="39" tgt="77" wght="5" />
        <Con id="190" src="35" tgt="77" wght="0.090024503101962222" />
        <Con id="191" src="14" tgt="77" wght="0.23366097916038076" />
        <Con id="192" src="69" tgt="77" wght="-1.1121507507902271" />
        <Con id="193" src="26" tgt="77" wght="1.6046503526568485" />
        <Con id="194" src="70" tgt="77" wght="2.6405582080802947" />
        <Con id="195" src="21" tgt="77" wght="3.47693006992991" />
        <Con id="196" src="37" tgt="77" wght="0.14855788746060861" />
        <Con id="197" src="73" tgt="77" wght="1.4311124564449915" />
        <Con id="198" src="32" tgt="77" wght="0.72657062295327568" />
        <Con id="199" src="33" tgt="77" wght="2.0818330711934325" />
        <Con id="200" src="51" tgt="77" wght="0.17537925791134143" />
        <Con id="201" src="17" tgt="77" wght="1.3498119666356021" />
        <Con id="202" src="53" tgt="77" wght="1.0918288040976365" />
        <Con id="203" src="20" tgt="77" wght="1.6355051578501214" />
        <Con id="204" src="46" tgt="77" wght="0.4056320169851742" />
        <Con id="205" src="8" tgt="77" wght="4.2979079661625406" />
        <Con id="207" src="52" tgt="77" wght="1.6150769343907476" />
        <Con id="208" src="57" tgt="77" wght="1.1535963552604007" />
        <Con id="209" src="4" tgt="77" wght="1.9772188977948462" />
        <Con id="210" src="68" tgt="77" wght="0.81320564559395014" />
        <Con id="211" src="16" tgt="77" wght="0.764321906642931" />
        <Con id="212" src="30" tgt="77" wght="0.1477327039956598" />
        <Con id="213" src="5" tgt="77" wght="3.0621991836532372" />
        <Con id="215" src="29" tgt="77" wght="0.57443448858844615" />
        <Con id="216" src="10" tgt="77" wght="0.42952988806897224" />
        <Con id="217" src="6" tgt="77" wght="5" />
        <Con id="218" src="19" tgt="77" wght="2.4909679139817142" />
        <Con id="219" src="49" tgt="77" wght="-0.77326834954291379" />
        <Con id="220" src="74" tgt="77" wght="1.8502717995984703" />
        <Con id="221" src="7" tgt="77" wght="5" />
        <Con id="222" src="23" tgt="77" wght="1.3938954133764416" />
        <Con id="223" src="1" tgt="77" wght="5" />
        <Con id="224" src="22" tgt="77" wght="1.3065236966841698" />
        <Con id="225" src="36" tgt="77" wght="-0.19924739854671583" />
        <Con id="226" src="18" tgt="77" wght="0.24247722053877047" />
        <Con id="227" src="64" tgt="77" wght="5" />
        <Con id="228" src="60" tgt="77" wght="5" />
        <Con id="230" src="2" tgt="77" wght="1.4310261582172925" />
        <Con id="231" src="75" tgt="77" wght="0.73972020854795451" />
      </Connections>
    </Network>
  </Networks>
</Root>