<?xml version="1.0" encoding="utf-8"?>
<Root>
  <ActivationFunctions>
    <Fn id="0" name="PlainSigmoid" prob="1" />
  </ActivationFunctions>
  <Networks>
    <Network id="628921" birthGen="7860" fitness="0.69838919258937637">
      <Nodes>
        <Node type="bias" id="0" />
        <Node type="in" id="1" />
        <Node type="in" id="2" />
        <Node type="in" id="3" />
        <Node type="in" id="4" />
        <Node type="in" id="5" />
        <Node type="in" id="6" />
        <Node type="in" id="7" />
        <Node type="in" id="8" />
        <Node type="in" id="9" />
        <Node type="in" id="10" />
        <Node type="in" id="11" />
        <Node type="in" id="12" />
        <Node type="in" id="13" />
        <Node type="in" id="14" />
        <Node type="in" id="15" />
        <Node type="in" id="16" />
        <Node type="in" id="17" />
        <Node type="in" id="18" />
        <Node type="in" id="19" />
        <Node type="in" id="20" />
        <Node type="in" id="21" />
        <Node type="in" id="22" />
        <Node type="in" id="23" />
        <Node type="in" id="24" />
        <Node type="in" id="25" />
        <Node type="in" id="26" />
        <Node type="in" id="27" />
        <Node type="in" id="28" />
        <Node type="in" id="29" />
        <Node type="in" id="30" />
        <Node type="in" id="31" />
        <Node type="in" id="32" />
        <Node type="in" id="33" />
        <Node type="in" id="34" />
        <Node type="in" id="35" />
        <Node type="in" id="36" />
        <Node type="in" id="37" />
        <Node type="in" id="38" />
        <Node type="in" id="39" />
        <Node type="in" id="40" />
        <Node type="in" id="41" />
        <Node type="in" id="42" />
        <Node type="in" id="43" />
        <Node type="in" id="44" />
        <Node type="in" id="45" />
        <Node type="in" id="46" />
        <Node type="in" id="47" />
        <Node type="in" id="48" />
        <Node type="in" id="49" />
        <Node type="in" id="50" />
        <Node type="in" id="51" />
        <Node type="in" id="52" />
        <Node type="in" id="53" />
        <Node type="in" id="54" />
        <Node type="in" id="55" />
        <Node type="in" id="56" />
        <Node type="in" id="57" />
        <Node type="in" id="58" />
        <Node type="in" id="59" />
        <Node type="in" id="60" />
        <Node type="in" id="61" />
        <Node type="in" id="62" />
        <Node type="in" id="63" />
        <Node type="in" id="64" />
        <Node type="in" id="65" />
        <Node type="in" id="66" />
        <Node type="in" id="67" />
        <Node type="in" id="68" />
        <Node type="in" id="69" />
        <Node type="in" id="70" />
        <Node type="in" id="71" />
        <Node type="in" id="72" />
        <Node type="in" id="73" />
        <Node type="in" id="74" />
        <Node type="in" id="75" />
        <Node type="in" id="76" />
        <Node type="out" id="77" />
        <Node type="hid" id="323" />
        <Node type="hid" id="435" />
        <Node type="hid" id="464" />
        <Node type="hid" id="544" />
        <Node type="hid" id="611" />
        <Node type="hid" id="671" />
        <Node type="hid" id="688" />
        <Node type="hid" id="746" />
        <Node type="hid" id="780" />
        <Node type="hid" id="783" />
        <Node type="hid" id="1554" />
      </Nodes>
      <Connections>
        <Con id="80" src="2" tgt="77" wght="1.9555149809312371" />
        <Con id="83" src="5" tgt="77" wght="4.1556165421093842" />
        <Con id="85" src="7" tgt="77" wght="5" />
        <Con id="89" src="11" tgt="77" wght="0.19069621890679841" />
        <Con id="92" src="14" tgt="77" wght="0.32800504773320938" />
        <Con id="93" src="15" tgt="77" wght="2.2959023023747132" />
        <Con id="105" src="27" tgt="77" wght="-4.36503628490276" />
        <Con id="116" src="38" tgt="77" wght="-0.63025328669252734" />
        <Con id="121" src="43" tgt="77" wght="3.5611181675503181" />
        <Con id="124" src="46" tgt="77" wght="0.65446960101310936" />
        <Con id="127" src="49" tgt="77" wght="-3.4943051110448664" />
        <Con id="133" src="55" tgt="77" wght="-3.1640164843623353" />
        <Con id="154" src="76" tgt="77" wght="-0.083377007218876628" />
        <Con id="157" src="69" tgt="77" wght="-1.3149728183786731" />
        <Con id="158" src="62" tgt="77" wght="5" />
        <Con id="159" src="39" tgt="77" wght="4.9787861709260479" />
        <Con id="160" src="47" tgt="77" wght="5" />
        <Con id="161" src="16" tgt="77" wght="1.1046973840627359" />
        <Con id="163" src="8" tgt="77" wght="4.9921785726463659" />
        <Con id="164" src="24" tgt="77" wght="1.4121304315386092" />
        <Con id="165" src="37" tgt="77" wght="0.886101379078166" />
        <Con id="168" src="4" tgt="77" wght="3.3686032385885678" />
        <Con id="173" src="29" tgt="77" wght="0.63254002952073873" />
        <Con id="175" src="52" tgt="77" wght="2.1712633216900135" />
        <Con id="180" src="74" tgt="77" wght="4.6340915475981976" />
        <Con id="181" src="42" tgt="77" wght="2.8422345672164089" />
        <Con id="182" src="28" tgt="77" wght="1.1573673071580659" />
        <Con id="183" src="6" tgt="77" wght="5" />
        <Con id="184" src="13" tgt="77" wght="-0.413104846779971" />
        <Con id="185" src="21" tgt="77" wght="4.99222556191089" />
        <Con id="186" src="58" tgt="77" wght="0.6915222125483339" />
        <Con id="189" src="70" tgt="77" wght="4.842689907257288" />
        <Con id="190" src="35" tgt="77" wght="0.038223907541459573" />
        <Con id="194" src="57" tgt="77" wght="4.2328940240303456" />
        <Con id="195" src="45" tgt="77" wght="3.5323814537145757" />
        <Con id="199" src="56" tgt="77" wght="2.6912535417979053" />
        <Con id="201" src="65" tgt="77" wght="1.7787851499266474" />
        <Con id="202" src="23" tgt="77" wght="1.990769761605393" />
        <Con id="203" src="48" tgt="77" wght="-5" />
        <Con id="208" src="3" tgt="77" wght="0.56403126251796043" />
        <Con id="209" src="50" tgt="77" wght="1.8799304241464294" />
        <Con id="213" src="32" tgt="77" wght="0.97196513636325843" />
        <Con id="214" src="67" tgt="77" wght="0.59716460155725193" />
        <Con id="216" src="17" tgt="77" wght="0.36339668231745659" />
        <Con id="217" src="54" tgt="77" wght="0.93524709174534948" />
        <Con id="221" src="73" tgt="77" wght="2.1262584588565172" />
        <Con id="229" src="1" tgt="77" wght="5" />
        <Con id="230" src="18" tgt="77" wght="0.650334570863552" />
        <Con id="231" src="72" tgt="77" wght="-0.421036506116012" />
        <Con id="232" src="40" tgt="77" wght="1.292456268135115" />
        <Con id="240" src="60" tgt="77" wght="5" />
        <Con id="249" src="75" tgt="77" wght="1.1290460372380657" />
        <Con id="250" src="64" tgt="77" wght="5" />
        <Con id="254" src="0" tgt="77" wght="1.1876123539807906" />
        <Con id="258" src="61" tgt="77" wght="5" />
        <Con id="265" src="66" tgt="77" wght="2.1839802240763189" />
        <Con id="266" src="68" tgt="77" wght="0.998728643896035" />
        <Con id="267" src="41" tgt="77" wght="3.3933165508324703" />
        <Con id="268" src="63" tgt="77" wght="5" />
        <Con id="280" src="33" tgt="77" wght="2.9026518728555923" />
        <Con id="324" src="76" tgt="323" wght="0.27675934858684276" />
        <Con id="325" src="323" tgt="77" wght="5" />
        <Con id="340" src="26" tgt="77" wght="2.4514470853764756" />
        <Con id="370" src="22" tgt="77" wght="1.9385017158990538" />
        <Con id="392" src="47" tgt="323" wght="5" />
        <Con id="431" src="6" tgt="323" wght="2.6690430083708123" />
        <Con id="436" src="57" tgt="435" wght="-2.3173612206948313" />
        <Con id="437" src="435" tgt="77" wght="4.6087553894148545" />
        <Con id="451" src="8" tgt="323" wght="0.49317734850735878" />
        <Con id="465" src="5" tgt="464" wght="-3.3996537799569486" />
        <Con id="466" src="464" tgt="77" wght="1.0901276390041044" />
        <Con id="477" src="61" tgt="323" wght="5" />
        <Con id="488" src="64" tgt="323" wght="5" />
        <Con id="489" src="323" tgt="435" wght="0.65475697052743853" />
        <Con id="531" src="34" tgt="435" wght="0.058319226523421225" />
        <Con id="545" src="73" tgt="544" wght="1.2029068893814019" />
        <Con id="546" src="544" tgt="77" wght="1.5985379778913447" />
        <Con id="550" src="44" tgt="435" wght="5" />
        <Con id="564" src="19" tgt="323" wght="3.5126976032623518" />
        <Con id="571" src="49" tgt="435" wght="5" />
        <Con id="589" src="60" tgt="435" wght="5" />
        <Con id="590" src="54" tgt="435" wght="2.1440657310621702" />
        <Con id="612" src="67" tgt="611" wght="5" />
        <Con id="613" src="611" tgt="77" wght="2.7750997190118807" />
        <Con id="628" src="74" tgt="323" wght="-4.8737806989607986" />
        <Con id="640" src="49" tgt="323" wght="0.66007580610578509" />
        <Con id="643" src="21" tgt="435" wght="-0.10462441664394713" />
        <Con id="647" src="68" tgt="464" wght="2.441783663138255" />
        <Con id="652" src="33" tgt="323" wght="0.1232151807938601" />
        <Con id="663" src="17" tgt="323" wght="2.3298541570550397" />
        <Con id="668" src="48" tgt="464" wght="-3.4479029230844924" />
        <Con id="672" src="74" tgt="671" wght="-5" />
        <Con id="673" src="671" tgt="77" wght="-1.2568097953150743" />
        <Con id="689" src="49" tgt="688" wght="-0.66743534540208538" />
        <Con id="690" src="688" tgt="77" wght="0.48866143038786147" />
        <Con id="747" src="9" tgt="746" wght="2.6805776045667757" />
        <Con id="748" src="746" tgt="77" wght="4.0358186445022435" />
        <Con id="749" src="45" tgt="671" wght="-5" />
        <Con id="751" src="3" tgt="435" wght="-0.66405221072733756" />
        <Con id="757" src="48" tgt="671" wght="4.3131814477965236" />
        <Con id="781" src="48" tgt="780" wght="4.9866644939116842" />
        <Con id="782" src="780" tgt="671" wght="5" />
        <Con id="784" src="17" tgt="783" wght="4.4340773168899084" />
        <Con id="785" src="783" tgt="77" wght="2.9638098203618277" />
        <Con id="811" src="50" tgt="688" wght="2.4363307930960589" />
        <Con id="817" src="28" tgt="671" wght="-1.7952189220405805" />
        <Con id="821" src="66" tgt="688" wght="5" />
        <Con id="825" src="49" tgt="671" wght="4.8911602542850758" />
        <Con id="840" src="44" tgt="688" wght="4.9194853446876943" />
        <Con id="842" src="71" tgt="464" wght="2.6265733210414761" />
        <Con id="886" src="45" tgt="780" wght="-3.1976697780176364" />
        <Con id="892" src="7" tgt="688" wght="5" />
        <Con id="907" src="36" tgt="671" wght="4.9716289326719929" />
        <Con id="913" src="17" tgt="435" wght="-2.2591702368220723" />
        <Con id="918" src="780" tgt="77" wght="-5" />
        <Con id="944" src="73" tgt="780" wght="0.340537120772231" />
        <Con id="972" src="73" tgt="688" wght="0.96096386339633877" />
        <Con id="1024" src="1" tgt="435" wght="4.9808882633012512" />
        <Con id="1083" src="3" tgt="671" wght="-5" />
        <Con id="1139" src="10" tgt="464" wght="4.9650315383478478" />
        <Con id="1262" src="74" tgt="688" wght="2.4539474949182387" />
        <Con id="1271" src="64" tgt="611" wght="5" />
        <Con id="1276" src="55" tgt="671" wght="-4.885656761705147" />
        <Con id="1439" src="6" tgt="746" wght="2.7840316314495035" />
        <Con id="1447" src="40" tgt="671" wght="2.0282465074097797" />
        <Con id="1463" src="0" tgt="611" wght="0.93574510870201277" />
        <Con id="1546" src="37" tgt="544" wght="-5" />
        <Con id="1555" src="31" tgt="1554" wght="0.31355013440647422" />
        <Con id="1556" src="1554" tgt="77" wght="4.9619749665132638" />
        <Con id="1614" src="43" tgt="464" wght="-2.0489792788947825" />
        <Con id="1688" src="48" tgt="611" wght="0.852190648633076" />
        <Con id="1767" src="45" tgt="544" wght="2.8951318362634186" />
        <Con id="1848" src="4" tgt="688" wght="-1.3858383496707769" />
        <Con id="2186" src="39" tgt="783" wght="3.688809966296839" />
      </Connections>
    </Network>
  </Networks>
</Root>