<?xml version="1.0" encoding="utf-8"?>
<Root>
  <ActivationFunctions>
    <Fn id="0" name="PlainSigmoid" prob="1" />
  </ActivationFunctions>
  <Networks>
    <Network id="327185" birthGen="4081" fitness="0.69810746763523768">
      <Nodes>
        <Node type="bias" id="0" />
        <Node type="in" id="1" />
        <Node type="in" id="2" />
        <Node type="in" id="3" />
        <Node type="in" id="4" />
        <Node type="in" id="5" />
        <Node type="in" id="6" />
        <Node type="in" id="7" />
        <Node type="in" id="8" />
        <Node type="in" id="9" />
        <Node type="in" id="10" />
        <Node type="in" id="11" />
        <Node type="in" id="12" />
        <Node type="in" id="13" />
        <Node type="in" id="14" />
        <Node type="in" id="15" />
        <Node type="in" id="16" />
        <Node type="in" id="17" />
        <Node type="in" id="18" />
        <Node type="in" id="19" />
        <Node type="in" id="20" />
        <Node type="in" id="21" />
        <Node type="in" id="22" />
        <Node type="in" id="23" />
        <Node type="in" id="24" />
        <Node type="in" id="25" />
        <Node type="in" id="26" />
        <Node type="in" id="27" />
        <Node type="in" id="28" />
        <Node type="in" id="29" />
        <Node type="in" id="30" />
        <Node type="in" id="31" />
        <Node type="in" id="32" />
        <Node type="in" id="33" />
        <Node type="in" id="34" />
        <Node type="in" id="35" />
        <Node type="in" id="36" />
        <Node type="in" id="37" />
        <Node type="in" id="38" />
        <Node type="in" id="39" />
        <Node type="in" id="40" />
        <Node type="in" id="41" />
        <Node type="in" id="42" />
        <Node type="in" id="43" />
        <Node type="in" id="44" />
        <Node type="in" id="45" />
        <Node type="in" id="46" />
        <Node type="in" id="47" />
        <Node type="in" id="48" />
        <Node type="in" id="49" />
        <Node type="in" id="50" />
        <Node type="in" id="51" />
        <Node type="in" id="52" />
        <Node type="in" id="53" />
        <Node type="in" id="54" />
        <Node type="in" id="55" />
        <Node type="in" id="56" />
        <Node type="in" id="57" />
        <Node type="in" id="58" />
        <Node type="in" id="59" />
        <Node type="in" id="60" />
        <Node type="in" id="61" />
        <Node type="in" id="62" />
        <Node type="in" id="63" />
        <Node type="in" id="64" />
        <Node type="in" id="65" />
        <Node type="in" id="66" />
        <Node type="in" id="67" />
        <Node type="in" id="68" />
        <Node type="in" id="69" />
        <Node type="in" id="70" />
        <Node type="in" id="71" />
        <Node type="in" id="72" />
        <Node type="in" id="73" />
        <Node type="in" id="74" />
        <Node type="in" id="75" />
        <Node type="in" id="76" />
        <Node type="out" id="77" />
        <Node type="hid" id="242" />
        <Node type="hid" id="294" />
        <Node type="hid" id="430" />
      </Nodes>
      <Connections>
        <Con id="78" src="0" tgt="77" wght="2.5895112670655283" />
        <Con id="81" src="3" tgt="77" wght="1.5596487892502486" />
        <Con id="85" src="7" tgt="77" wght="5" />
        <Con id="86" src="8" tgt="77" wght="5" />
        <Con id="90" src="12" tgt="77" wght="-0.46407931138643777" />
        <Con id="92" src="14" tgt="77" wght="0.33971941351772894" />
        <Con id="95" src="17" tgt="77" wght="3.6529795428043186" />
        <Con id="96" src="18" tgt="77" wght="0.62418951011304746" />
        <Con id="98" src="20" tgt="77" wght="3.8364480728316828" />
        <Con id="101" src="23" tgt="77" wght="0.72372906021803585" />
        <Con id="103" src="25" tgt="77" wght="2.1954649207849264" />
        <Con id="104" src="26" tgt="77" wght="3.1776483560978548" />
        <Con id="105" src="27" tgt="77" wght="-1.4234999505649908" />
        <Con id="109" src="31" tgt="77" wght="0.37457325923075313" />
        <Con id="110" src="32" tgt="77" wght="1.2048160611281942" />
        <Con id="114" src="36" tgt="77" wght="-0.71615153095360728" />
        <Con id="115" src="37" tgt="77" wght="0.37824734473902488" />
        <Con id="116" src="38" tgt="77" wght="-0.53218882153501512" />
        <Con id="119" src="41" tgt="77" wght="3.79889359120095" />
        <Con id="124" src="46" tgt="77" wght="0.41171006199486504" />
        <Con id="126" src="48" tgt="77" wght="-0.069255819179402767" />
        <Con id="132" src="54" tgt="77" wght="2.8808377381041539" />
        <Con id="133" src="55" tgt="77" wght="-1.3582534039199976" />
        <Con id="134" src="56" tgt="77" wght="2.0062654072406323" />
        <Con id="135" src="57" tgt="77" wght="1.9293641605539722" />
        <Con id="137" src="59" tgt="77" wght="3.9612327429371805" />
        <Con id="144" src="66" tgt="77" wght="1.1780322764190889" />
        <Con id="145" src="67" tgt="77" wght="1.9174467308726688" />
        <Con id="147" src="69" tgt="77" wght="-3.3504403302735191" />
        <Con id="148" src="70" tgt="77" wght="4.9896049028854863" />
        <Con id="152" src="74" tgt="77" wght="2.7006115353848723" />
        <Con id="156" src="29" tgt="77" wght="0.8337238127608908" />
        <Con id="167" src="50" tgt="77" wght="3.0629604330922775" />
        <Con id="172" src="45" tgt="77" wght="5" />
        <Con id="173" src="6" tgt="77" wght="4.9996632957397811" />
        <Con id="176" src="4" tgt="77" wght="3.0334463726359875" />
        <Con id="177" src="5" tgt="77" wght="5" />
        <Con id="178" src="52" tgt="77" wght="2.542118076757526" />
        <Con id="180" src="19" tgt="77" wght="5" />
        <Con id="184" src="47" tgt="77" wght="5" />
        <Con id="186" src="42" tgt="77" wght="3.1096015860436248" />
        <Con id="187" src="15" tgt="77" wght="2.5564586338670594" />
        <Con id="193" src="28" tgt="77" wght="1.359114884228104" />
        <Con id="194" src="75" tgt="77" wght="1.1477005585798561" />
        <Con id="198" src="22" tgt="77" wght="2.3304651344494354" />
        <Con id="214" src="73" tgt="77" wght="2.4299606212745553" />
        <Con id="218" src="2" tgt="77" wght="2.3030208910568208" />
        <Con id="223" src="33" tgt="77" wght="3.4224551438000312" />
        <Con id="232" src="58" tgt="77" wght="0.624473589312445" />
        <Con id="239" src="40" tgt="77" wght="0.88626025185086865" />
        <Con id="243" src="48" tgt="242" wght="-4.952289594637068" />
        <Con id="244" src="242" tgt="77" wght="0.40175846042919217" />
        <Con id="245" src="16" tgt="77" wght="1.8888133363024275" />
        <Con id="251" src="68" tgt="77" wght="1.2746247280630962" />
        <Con id="253" src="63" tgt="77" wght="-4.3523183019807012" />
        <Con id="256" src="24" tgt="77" wght="1.8027822845669417" />
        <Con id="266" src="64" tgt="77" wght="5" />
        <Con id="271" src="43" tgt="77" wght="4.9875790688813648" />
        <Con id="281" src="44" tgt="77" wght="2.8644315810815439" />
        <Con id="295" src="23" tgt="294" wght="1.0197216025769309" />
        <Con id="296" src="294" tgt="77" wght="3.9029217974022683" />
        <Con id="303" src="38" tgt="242" wght="-0.42292798910536561" />
        <Con id="306" src="8" tgt="242" wght="5" />
        <Con id="307" src="16" tgt="242" wght="-1.7698777952609985" />
        <Con id="309" src="36" tgt="242" wght="1.161462483080101" />
        <Con id="319" src="13" tgt="242" wght="-1.8161024218823749" />
        <Con id="329" src="3" tgt="242" wght="-4.727995576180728" />
        <Con id="330" src="6" tgt="242" wght="5" />
        <Con id="331" src="0" tgt="242" wght="5" />
        <Con id="332" src="76" tgt="77" wght="0.3703929808496601" />
        <Con id="333" src="63" tgt="242" wght="-5" />
        <Con id="334" src="55" tgt="242" wght="-5" />
        <Con id="340" src="52" tgt="242" wght="0.45172613705624104" />
        <Con id="342" src="57" tgt="242" wght="0.74626385507666149" />
        <Con id="344" src="25" tgt="242" wght="-3.4640179888819027" />
        <Con id="348" src="9" tgt="242" wght="5" />
        <Con id="349" src="23" tgt="242" wght="-1.8146631363635473" />
        <Con id="357" src="27" tgt="242" wght="5" />
        <Con id="359" src="47" tgt="242" wght="5" />
        <Con id="369" src="63" tgt="294" wght="5" />
        <Con id="376" src="61" tgt="242" wght="5" />
        <Con id="382" src="21" tgt="77" wght="5" />
        <Con id="388" src="75" tgt="242" wght="0.12717249538196551" />
        <Con id="389" src="17" tgt="242" wght="-4.82788891823975" />
        <Con id="397" src="62" tgt="242" wght="4.6381783483912935" />
        <Con id="399" src="5" tgt="242" wght="-2.2234934484329862" />
        <Con id="401" src="59" tgt="294" wght="0.49630414336469852" />
        <Con id="405" src="42" tgt="242" wght="-2.1993314153421322" />
        <Con id="422" src="26" tgt="242" wght="-1.7380320915877461" />
        <Con id="431" src="51" tgt="430" wght="0.85859842389744634" />
        <Con id="432" src="430" tgt="77" wght="1.9416449386522059" />
        <Con id="457" src="27" tgt="294" wght="-2.5324613657677206" />
        <Con id="499" src="70" tgt="294" wght="-0.62869149482213627" />
        <Con id="506" src="30" tgt="294" wght="0.11485219444777781" />
        <Con id="516" src="54" tgt="242" wght="-0.12830786955276061" />
        <Con id="528" src="61" tgt="294" wght="4.9504550098818152" />
        <Con id="553" src="294" tgt="242" wght="-2.4674312954430788" />
        <Con id="614" src="294" tgt="430" wght="-5" />
        <Con id="649" src="48" tgt="294" wght="-5" />
        <Con id="659" src="45" tgt="294" wght="2.750438731774163" />
      </Connections>
    </Network>
  </Networks>
</Root>