<?xml version="1.0" encoding="utf-8"?>
<Root>
  <ActivationFunctions>
    <Fn id="0" name="PlainSigmoid" prob="1" />
  </ActivationFunctions>
  <Networks>
    <Network id="449113" birthGen="5613" fitness="0.7790946451831785">
      <Nodes>
        <Node type="bias" id="0" />
        <Node type="in" id="1" />
        <Node type="in" id="2" />
        <Node type="in" id="3" />
        <Node type="in" id="4" />
        <Node type="in" id="5" />
        <Node type="in" id="6" />
        <Node type="in" id="7" />
        <Node type="in" id="8" />
        <Node type="in" id="9" />
        <Node type="in" id="10" />
        <Node type="in" id="11" />
        <Node type="in" id="12" />
        <Node type="in" id="13" />
        <Node type="in" id="14" />
        <Node type="in" id="15" />
        <Node type="in" id="16" />
        <Node type="in" id="17" />
        <Node type="in" id="18" />
        <Node type="in" id="19" />
        <Node type="in" id="20" />
        <Node type="in" id="21" />
        <Node type="in" id="22" />
        <Node type="in" id="23" />
        <Node type="in" id="24" />
        <Node type="in" id="25" />
        <Node type="in" id="26" />
        <Node type="in" id="27" />
        <Node type="in" id="28" />
        <Node type="in" id="29" />
        <Node type="in" id="30" />
        <Node type="in" id="31" />
        <Node type="in" id="32" />
        <Node type="in" id="33" />
        <Node type="in" id="34" />
        <Node type="in" id="35" />
        <Node type="in" id="36" />
        <Node type="in" id="37" />
        <Node type="in" id="38" />
        <Node type="in" id="39" />
        <Node type="in" id="40" />
        <Node type="in" id="41" />
        <Node type="in" id="42" />
        <Node type="in" id="43" />
        <Node type="in" id="44" />
        <Node type="in" id="45" />
        <Node type="in" id="46" />
        <Node type="in" id="47" />
        <Node type="in" id="48" />
        <Node type="in" id="49" />
        <Node type="in" id="50" />
        <Node type="in" id="51" />
        <Node type="in" id="52" />
        <Node type="in" id="53" />
        <Node type="in" id="54" />
        <Node type="in" id="55" />
        <Node type="in" id="56" />
        <Node type="in" id="57" />
        <Node type="in" id="58" />
        <Node type="in" id="59" />
        <Node type="in" id="60" />
        <Node type="in" id="61" />
        <Node type="in" id="62" />
        <Node type="in" id="63" />
        <Node type="in" id="64" />
        <Node type="in" id="65" />
        <Node type="in" id="66" />
        <Node type="in" id="67" />
        <Node type="in" id="68" />
        <Node type="in" id="69" />
        <Node type="in" id="70" />
        <Node type="in" id="71" />
        <Node type="in" id="72" />
        <Node type="in" id="73" />
        <Node type="in" id="74" />
        <Node type="in" id="75" />
        <Node type="in" id="76" />
        <Node type="in" id="77" />
        <Node type="in" id="78" />
        <Node type="in" id="79" />
        <Node type="in" id="80" />
        <Node type="in" id="81" />
        <Node type="in" id="82" />
        <Node type="in" id="83" />
        <Node type="in" id="84" />
        <Node type="in" id="85" />
        <Node type="in" id="86" />
        <Node type="in" id="87" />
        <Node type="in" id="88" />
        <Node type="in" id="89" />
        <Node type="in" id="90" />
        <Node type="in" id="91" />
        <Node type="in" id="92" />
        <Node type="in" id="93" />
        <Node type="in" id="94" />
        <Node type="in" id="95" />
        <Node type="in" id="96" />
        <Node type="in" id="97" />
        <Node type="in" id="98" />
        <Node type="in" id="99" />
        <Node type="in" id="100" />
        <Node type="in" id="101" />
        <Node type="in" id="102" />
        <Node type="in" id="103" />
        <Node type="in" id="104" />
        <Node type="in" id="105" />
        <Node type="in" id="106" />
        <Node type="in" id="107" />
        <Node type="in" id="108" />
        <Node type="in" id="109" />
        <Node type="in" id="110" />
        <Node type="in" id="111" />
        <Node type="in" id="112" />
        <Node type="in" id="113" />
        <Node type="in" id="114" />
        <Node type="in" id="115" />
        <Node type="in" id="116" />
        <Node type="in" id="117" />
        <Node type="in" id="118" />
        <Node type="in" id="119" />
        <Node type="in" id="120" />
        <Node type="in" id="121" />
        <Node type="in" id="122" />
        <Node type="in" id="123" />
        <Node type="in" id="124" />
        <Node type="in" id="125" />
        <Node type="in" id="126" />
        <Node type="in" id="127" />
        <Node type="in" id="128" />
        <Node type="in" id="129" />
        <Node type="in" id="130" />
        <Node type="in" id="131" />
        <Node type="in" id="132" />
        <Node type="in" id="133" />
        <Node type="in" id="134" />
        <Node type="in" id="135" />
        <Node type="in" id="136" />
        <Node type="in" id="137" />
        <Node type="in" id="138" />
        <Node type="in" id="139" />
        <Node type="in" id="140" />
        <Node type="out" id="141" />
      </Nodes>
      <Connections>
        <Con id="143" src="1" tgt="141" wght="0.21958577480685376" />
        <Con id="145" src="3" tgt="141" wght="0.14433537613220215" />
        <Con id="151" src="9" tgt="141" wght="-0.52004151166132" />
        <Con id="159" src="17" tgt="141" wght="0.3601101281282631" />
        <Con id="166" src="24" tgt="141" wght="1.7409850275577698" />
        <Con id="170" src="28" tgt="141" wght="-1.5464814442087633" />
        <Con id="173" src="31" tgt="141" wght="-0.61570771791626122" />
        <Con id="174" src="32" tgt="141" wght="-0.23327674896251474" />
        <Con id="182" src="40" tgt="141" wght="-0.43155047905679139" />
        <Con id="186" src="44" tgt="141" wght="-0.0034228078247389472" />
        <Con id="189" src="47" tgt="141" wght="0.29008135784955313" />
        <Con id="190" src="48" tgt="141" wght="0.0952322705668241" />
        <Con id="195" src="53" tgt="141" wght="-1.6546978718622607" />
        <Con id="196" src="54" tgt="141" wght="-0.41060794208854057" />
        <Con id="200" src="58" tgt="141" wght="0.203469094088392" />
        <Con id="201" src="59" tgt="141" wght="0.26412952492026837" />
        <Con id="205" src="63" tgt="141" wght="-0.29321441474349907" />
        <Con id="209" src="67" tgt="141" wght="-2.413848364038766" />
        <Con id="213" src="71" tgt="141" wght="-0.49912314912403022" />
        <Con id="214" src="72" tgt="141" wght="-0.047202976937296193" />
        <Con id="217" src="75" tgt="141" wght="-1.3575231029943342" />
        <Con id="224" src="82" tgt="141" wght="-0.25583124838715626" />
        <Con id="229" src="87" tgt="141" wght="0.17156801402529087" />
        <Con id="232" src="90" tgt="141" wght="0.74249984871015406" />
        <Con id="233" src="91" tgt="141" wght="-0.19264249475803472" />
        <Con id="240" src="98" tgt="141" wght="0.27718119522476936" />
        <Con id="241" src="99" tgt="141" wght="1.1501289601201952" />
        <Con id="245" src="103" tgt="141" wght="-0.36814423322549539" />
        <Con id="246" src="104" tgt="141" wght="-0.50863961341449615" />
        <Con id="247" src="105" tgt="141" wght="0.44947540799106356" />
        <Con id="262" src="120" tgt="141" wght="0.28860558346815007" />
        <Con id="267" src="125" tgt="141" wght="-0.28923924438720466" />
        <Con id="270" src="128" tgt="141" wght="0.9073206950754491" />
        <Con id="271" src="129" tgt="141" wght="-0.62787742785603873" />
        <Con id="281" src="139" tgt="141" wght="3.0639119939581505" />
        <Con id="286" src="70" tgt="141" wght="1.0262356349706943" />
        <Con id="287" src="14" tgt="141" wght="0.3135788574853961" />
        <Con id="289" src="13" tgt="141" wght="-0.35793786359517887" />
        <Con id="290" src="76" tgt="141" wght="-0.022491633522851544" />
        <Con id="291" src="110" tgt="141" wght="0.46878042832002115" />
        <Con id="293" src="101" tgt="141" wght="0.71285662511077441" />
        <Con id="294" src="127" tgt="141" wght="-0.86480427982015351" />
        <Con id="295" src="138" tgt="141" wght="0.43078383520706742" />
        <Con id="296" src="49" tgt="141" wght="-1.5145912005210989" />
        <Con id="297" src="112" tgt="141" wght="-0.17581299326014868" />
        <Con id="298" src="56" tgt="141" wght="1.0210216362550755" />
        <Con id="299" src="30" tgt="141" wght="-1.0606609049046241" />
        <Con id="300" src="92" tgt="141" wght="-0.06329929666975978" />
        <Con id="301" src="131" tgt="141" wght="0.15903538439672157" />
        <Con id="302" src="122" tgt="141" wght="0.0795796934355621" />
        <Con id="305" src="39" tgt="141" wght="0.52957239320716909" />
        <Con id="306" src="51" tgt="141" wght="0.28175121432914785" />
        <Con id="308" src="77" tgt="141" wght="0.28998449573182838" />
        <Con id="309" src="106" tgt="141" wght="-0.09872731458604965" />
        <Con id="311" src="50" tgt="141" wght="0.35594285251583613" />
        <Con id="312" src="88" tgt="141" wght="0.20803960791768764" />
        <Con id="313" src="132" tgt="141" wght="-0.29687147854917767" />
        <Con id="314" src="27" tgt="141" wght="1.1314945276866064" />
        <Con id="315" src="89" tgt="141" wght="-0.46900096961419468" />
        <Con id="316" src="21" tgt="141" wght="0.43111059683024883" />
        <Con id="319" src="11" tgt="141" wght="-0.064739762970324383" />
        <Con id="323" src="85" tgt="141" wght="0.76468568245038437" />
        <Con id="324" src="81" tgt="141" wght="-0.12302832843774474" />
        <Con id="329" src="34" tgt="141" wght="0.25629344753622751" />
        <Con id="330" src="10" tgt="141" wght="0.23473783391955039" />
        <Con id="331" src="65" tgt="141" wght="-0.18740831156802795" />
        <Con id="332" src="100" tgt="141" wght="-0.15131341534137771" />
        <Con id="333" src="46" tgt="141" wght="-0.021815958165156534" />
        <Con id="334" src="20" tgt="141" wght="0.10208426982880973" />
        <Con id="335" src="36" tgt="141" wght="0.63199344683044645" />
        <Con id="336" src="0" tgt="141" wght="-0.17310589710874602" />
        <Con id="337" src="97" tgt="141" wght="1.0445416379100119" />
        <Con id="338" src="118" tgt="141" wght="-0.069470119145164613" />
        <Con id="340" src="26" tgt="141" wght="4.2814120106919846" />
        <Con id="341" src="33" tgt="141" wght="0.12258833789116061" />
        <Con id="342" src="134" tgt="141" wght="0.22469017175243808" />
        <Con id="343" src="73" tgt="141" wght="-0.096979168849361641" />
        <Con id="344" src="18" tgt="141" wght="-0.18429428230891773" />
        <Con id="346" src="62" tgt="141" wght="-0.18170544534644506" />
        <Con id="347" src="126" tgt="141" wght="-0.30749363424190573" />
        <Con id="350" src="107" tgt="141" wght="-0.17516544713790477" />
        <Con id="351" src="64" tgt="141" wght="0.10386420748035602" />
        <Con id="352" src="5" tgt="141" wght="-0.3099874160094151" />
        <Con id="353" src="66" tgt="141" wght="0.45878045173877113" />
        <Con id="356" src="133" tgt="141" wght="-0.14729188067143575" />
        <Con id="359" src="95" tgt="141" wght="1.1770010720236252" />
        <Con id="360" src="15" tgt="141" wght="0.1352485906522824" />
        <Con id="363" src="57" tgt="141" wght="-0.18573654659291503" />
        <Con id="365" src="23" tgt="141" wght="4.90345041282346" />
        <Con id="368" src="16" tgt="141" wght="0.14807010550579336" />
        <Con id="369" src="43" tgt="141" wght="-0.37343906440545344" />
        <Con id="372" src="94" tgt="141" wght="-0.09288492610661353" />
        <Con id="373" src="52" tgt="141" wght="5" />
        <Con id="374" src="135" tgt="141" wght="4.6709652219584337" />
        <Con id="375" src="29" tgt="141" wght="0.17501147849198018" />
        <Con id="376" src="114" tgt="141" wght="-0.35313895741871332" />
        <Con id="377" src="123" tgt="141" wght="-0.34874951926611" />
        <Con id="378" src="130" tgt="141" wght="0.23308152956195247" />
        <Con id="380" src="80" tgt="141" wght="0.31108504927150149" />
        <Con id="382" src="38" tgt="141" wght="0.089609425307322882" />
        <Con id="385" src="78" tgt="141" wght="-0.16806480824765885" />
        <Con id="386" src="124" tgt="141" wght="-0.14446349531164682" />
        <Con id="387" src="42" tgt="141" wght="0.0651707003231159" />
        <Con id="390" src="60" tgt="141" wght="0.16297109872797971" />
        <Con id="391" src="79" tgt="141" wght="0.16585869076302659" />
        <Con id="392" src="115" tgt="141" wght="-0.38597786473335716" />
        <Con id="394" src="68" tgt="141" wght="0.17644312231102777" />
        <Con id="395" src="22" tgt="141" wght="0.30089429470645768" />
        <Con id="397" src="119" tgt="141" wght="0.80722754567865274" />
        <Con id="398" src="116" tgt="141" wght="0.079226318508778468" />
        <Con id="399" src="93" tgt="141" wght="-0.031579372611464034" />
        <Con id="400" src="12" tgt="141" wght="-0.23321873525862141" />
        <Con id="401" src="117" tgt="141" wght="0.092653307856964684" />
        <Con id="402" src="19" tgt="141" wght="0.09709971843176618" />
        <Con id="405" src="137" tgt="141" wght="-0.03306009241819105" />
        <Con id="407" src="8" tgt="141" wght="-0.13613517211203877" />
        <Con id="408" src="35" tgt="141" wght="1.7927993144292618" />
        <Con id="409" src="136" tgt="141" wght="5" />
        <Con id="410" src="6" tgt="141" wght="-0.14877218676522963" />
        <Con id="413" src="83" tgt="141" wght="-1.1011687370234544" />
        <Con id="414" src="96" tgt="141" wght="-0.23895963490333039" />
        <Con id="416" src="37" tgt="141" wght="-0.023073520262359211" />
        <Con id="417" src="121" tgt="141" wght="0.23025569320007011" />
        <Con id="418" src="61" tgt="141" wght="-0.4597551589585831" />
        <Con id="419" src="69" tgt="141" wght="-0.34466076665433931" />
        <Con id="420" src="86" tgt="141" wght="-0.29813904129869773" />
        <Con id="421" src="25" tgt="141" wght="-1.0070700694429506" />
        <Con id="422" src="7" tgt="141" wght="-0.21233427612060904" />
        <Con id="423" src="41" tgt="141" wght="-0.79082581868457125" />
      </Connections>
    </Network>
  </Networks>
</Root>