<?xml version="1.0" encoding="utf-8"?>
<Root>
  <ActivationFunctions>
    <Fn id="0" name="PlainSigmoid" prob="1" />
  </ActivationFunctions>
  <Networks>
    <Network id="340159" birthGen="4248" fitness="0.77902684438485426">
      <Nodes>
        <Node type="bias" id="0" />
        <Node type="in" id="1" />
        <Node type="in" id="2" />
        <Node type="in" id="3" />
        <Node type="in" id="4" />
        <Node type="in" id="5" />
        <Node type="in" id="6" />
        <Node type="in" id="7" />
        <Node type="in" id="8" />
        <Node type="in" id="9" />
        <Node type="in" id="10" />
        <Node type="in" id="11" />
        <Node type="in" id="12" />
        <Node type="in" id="13" />
        <Node type="in" id="14" />
        <Node type="in" id="15" />
        <Node type="in" id="16" />
        <Node type="in" id="17" />
        <Node type="in" id="18" />
        <Node type="in" id="19" />
        <Node type="in" id="20" />
        <Node type="in" id="21" />
        <Node type="in" id="22" />
        <Node type="in" id="23" />
        <Node type="in" id="24" />
        <Node type="in" id="25" />
        <Node type="in" id="26" />
        <Node type="in" id="27" />
        <Node type="in" id="28" />
        <Node type="in" id="29" />
        <Node type="in" id="30" />
        <Node type="in" id="31" />
        <Node type="in" id="32" />
        <Node type="in" id="33" />
        <Node type="in" id="34" />
        <Node type="in" id="35" />
        <Node type="in" id="36" />
        <Node type="in" id="37" />
        <Node type="in" id="38" />
        <Node type="in" id="39" />
        <Node type="in" id="40" />
        <Node type="in" id="41" />
        <Node type="in" id="42" />
        <Node type="in" id="43" />
        <Node type="in" id="44" />
        <Node type="in" id="45" />
        <Node type="in" id="46" />
        <Node type="in" id="47" />
        <Node type="in" id="48" />
        <Node type="in" id="49" />
        <Node type="in" id="50" />
        <Node type="in" id="51" />
        <Node type="in" id="52" />
        <Node type="in" id="53" />
        <Node type="in" id="54" />
        <Node type="in" id="55" />
        <Node type="in" id="56" />
        <Node type="in" id="57" />
        <Node type="in" id="58" />
        <Node type="in" id="59" />
        <Node type="in" id="60" />
        <Node type="in" id="61" />
        <Node type="in" id="62" />
        <Node type="in" id="63" />
        <Node type="in" id="64" />
        <Node type="in" id="65" />
        <Node type="in" id="66" />
        <Node type="in" id="67" />
        <Node type="in" id="68" />
        <Node type="in" id="69" />
        <Node type="in" id="70" />
        <Node type="in" id="71" />
        <Node type="in" id="72" />
        <Node type="in" id="73" />
        <Node type="in" id="74" />
        <Node type="in" id="75" />
        <Node type="in" id="76" />
        <Node type="in" id="77" />
        <Node type="in" id="78" />
        <Node type="in" id="79" />
        <Node type="in" id="80" />
        <Node type="in" id="81" />
        <Node type="in" id="82" />
        <Node type="in" id="83" />
        <Node type="in" id="84" />
        <Node type="in" id="85" />
        <Node type="in" id="86" />
        <Node type="in" id="87" />
        <Node type="in" id="88" />
        <Node type="in" id="89" />
        <Node type="in" id="90" />
        <Node type="in" id="91" />
        <Node type="in" id="92" />
        <Node type="in" id="93" />
        <Node type="in" id="94" />
        <Node type="in" id="95" />
        <Node type="in" id="96" />
        <Node type="in" id="97" />
        <Node type="in" id="98" />
        <Node type="in" id="99" />
        <Node type="in" id="100" />
        <Node type="in" id="101" />
        <Node type="in" id="102" />
        <Node type="in" id="103" />
        <Node type="in" id="104" />
        <Node type="in" id="105" />
        <Node type="in" id="106" />
        <Node type="in" id="107" />
        <Node type="in" id="108" />
        <Node type="in" id="109" />
        <Node type="in" id="110" />
        <Node type="in" id="111" />
        <Node type="in" id="112" />
        <Node type="in" id="113" />
        <Node type="in" id="114" />
        <Node type="in" id="115" />
        <Node type="in" id="116" />
        <Node type="in" id="117" />
        <Node type="in" id="118" />
        <Node type="in" id="119" />
        <Node type="in" id="120" />
        <Node type="in" id="121" />
        <Node type="in" id="122" />
        <Node type="in" id="123" />
        <Node type="in" id="124" />
        <Node type="in" id="125" />
        <Node type="in" id="126" />
        <Node type="in" id="127" />
        <Node type="in" id="128" />
        <Node type="in" id="129" />
        <Node type="in" id="130" />
        <Node type="in" id="131" />
        <Node type="in" id="132" />
        <Node type="in" id="133" />
        <Node type="in" id="134" />
        <Node type="in" id="135" />
        <Node type="in" id="136" />
        <Node type="in" id="137" />
        <Node type="in" id="138" />
        <Node type="in" id="139" />
        <Node type="in" id="140" />
        <Node type="out" id="141" />
      </Nodes>
      <Connections>
        <Con id="144" src="2" tgt="141" wght="-0.0580353356802887" />
        <Con id="146" src="4" tgt="141" wght="0.23557174734148931" />
        <Con id="147" src="5" tgt="141" wght="-0.22893887040429312" />
        <Con id="148" src="6" tgt="141" wght="-0.17520178578440765" />
        <Con id="152" src="10" tgt="141" wght="0.266057479396715" />
        <Con id="154" src="12" tgt="141" wght="-0.23643853771101883" />
        <Con id="155" src="13" tgt="141" wght="-0.41083984030091519" />
        <Con id="159" src="17" tgt="141" wght="0.38754745222283282" />
        <Con id="163" src="21" tgt="141" wght="0.51127898352934342" />
        <Con id="164" src="22" tgt="141" wght="0.35031201558620684" />
        <Con id="165" src="23" tgt="141" wght="5" />
        <Con id="166" src="24" tgt="141" wght="2.1242600213826606" />
        <Con id="167" src="25" tgt="141" wght="0.81854783332112924" />
        <Con id="169" src="27" tgt="141" wght="1.2848571267166353" />
        <Con id="174" src="32" tgt="141" wght="-0.27655675756495657" />
        <Con id="176" src="34" tgt="141" wght="0.26097993636358729" />
        <Con id="177" src="35" tgt="141" wght="1.8235652655973338" />
        <Con id="178" src="36" tgt="141" wght="0.67095810676074463" />
        <Con id="182" src="40" tgt="141" wght="-0.47511888234448896" />
        <Con id="188" src="46" tgt="141" wght="-0.034494613524327249" />
        <Con id="191" src="49" tgt="141" wght="-1.6811766591923134" />
        <Con id="192" src="50" tgt="141" wght="0.39953388685893743" />
        <Con id="196" src="54" tgt="141" wght="-0.60525320779254388" />
        <Con id="199" src="57" tgt="141" wght="-0.21157860353205127" />
        <Con id="202" src="60" tgt="141" wght="0.14148932199310063" />
        <Con id="204" src="62" tgt="141" wght="-0.1944460584121917" />
        <Con id="206" src="64" tgt="141" wght="0.074218818923290339" />
        <Con id="207" src="65" tgt="141" wght="-0.25163878916416638" />
        <Con id="220" src="78" tgt="141" wght="-0.41423063759753403" />
        <Con id="224" src="82" tgt="141" wght="-0.32724434996943036" />
        <Con id="225" src="83" tgt="141" wght="-1.3363667035690827" />
        <Con id="229" src="87" tgt="141" wght="0.18030119370307487" />
        <Con id="235" src="93" tgt="141" wght="-0.078967020343632649" />
        <Con id="246" src="104" tgt="141" wght="-0.58778550005121244" />
        <Con id="247" src="105" tgt="141" wght="0.48813975514833374" />
        <Con id="250" src="108" tgt="141" wght="-0.087022759387807347" />
        <Con id="257" src="115" tgt="141" wght="-0.56576331148646786" />
        <Con id="262" src="120" tgt="141" wght="0.25150366897312587" />
        <Con id="269" src="127" tgt="141" wght="-1.0323153539799679" />
        <Con id="271" src="129" tgt="141" wght="-0.76242710251343793" />
        <Con id="274" src="132" tgt="141" wght="-0.33527015672137411" />
        <Con id="282" src="140" tgt="141" wght="-0.12963095536285885" />
        <Con id="285" src="103" tgt="141" wght="-0.50923283598619651" />
        <Con id="289" src="67" tgt="141" wght="-2.6746420927756973" />
        <Con id="290" src="77" tgt="141" wght="0.34664751704443314" />
        <Con id="291" src="9" tgt="141" wght="-0.6117155263716163" />
        <Con id="292" src="106" tgt="141" wght="-0.14344906153583523" />
        <Con id="294" src="56" tgt="141" wght="1.088741973728208" />
        <Con id="295" src="112" tgt="141" wght="-0.23245972015219551" />
        <Con id="296" src="99" tgt="141" wght="1.1995984807016344" />
        <Con id="297" src="81" tgt="141" wght="-0.14494148805987522" />
        <Con id="300" src="51" tgt="141" wght="0.27083266042279291" />
        <Con id="303" src="20" tgt="141" wght="0.11898030859114149" />
        <Con id="304" src="131" tgt="141" wght="0.18300197207889751" />
        <Con id="307" src="85" tgt="141" wght="0.83682704642308581" />
        <Con id="310" src="139" tgt="141" wght="-1.7474314605684109" />
        <Con id="311" src="102" tgt="141" wght="0.054531883705812696" />
        <Con id="312" src="110" tgt="141" wght="0.418200150068172" />
        <Con id="313" src="128" tgt="141" wght="0.96992834877969414" />
        <Con id="317" src="26" tgt="141" wght="5" />
        <Con id="318" src="90" tgt="141" wght="0.73993230160675116" />
        <Con id="319" src="41" tgt="141" wght="-0.91608456229465018" />
        <Con id="320" src="92" tgt="141" wght="-0.2111392975204687" />
        <Con id="321" src="52" tgt="141" wght="-2.8686599462443914" />
        <Con id="322" src="125" tgt="141" wght="-0.34401402851859819" />
        <Con id="327" src="66" tgt="141" wght="0.48872952113955159" />
        <Con id="330" src="7" tgt="141" wght="-0.250603579489758" />
        <Con id="331" src="121" tgt="141" wght="0.22955534715454287" />
        <Con id="333" src="47" tgt="141" wght="0.28998727779262035" />
        <Con id="334" src="100" tgt="141" wght="-0.23601526397590286" />
        <Con id="336" src="37" tgt="141" wght="-0.0344383123912928" />
        <Con id="337" src="124" tgt="141" wght="-0.18059863224209449" />
        <Con id="339" src="63" tgt="141" wght="-0.3107703169136653" />
        <Con id="340" src="89" tgt="141" wght="-0.52611312915196162" />
        <Con id="344" src="61" tgt="141" wght="-0.55051596433664007" />
        <Con id="346" src="59" tgt="141" wght="0.14012987698295246" />
        <Con id="347" src="117" tgt="141" wght="0.093949881270651389" />
        <Con id="348" src="30" tgt="141" wght="-1.2403003428655746" />
        <Con id="349" src="114" tgt="141" wght="-0.56698701106992555" />
        <Con id="350" src="135" tgt="141" wght="2.3610621644183993" />
        <Con id="351" src="43" tgt="141" wght="-0.44581116904496193" />
        <Con id="352" src="123" tgt="141" wght="-0.40317147704583" />
        <Con id="353" src="101" tgt="141" wght="0.89872281756580463" />
        <Con id="357" src="70" tgt="141" wght="1.1119651797099024" />
        <Con id="362" src="138" tgt="141" wght="0.41390066152314037" />
        <Con id="363" src="113" tgt="141" wght="0.077081556282120725" />
        <Con id="364" src="72" tgt="141" wght="-0.077171915099914112" />
        <Con id="366" src="94" tgt="141" wght="-0.14614816669491432" />
        <Con id="368" src="96" tgt="141" wght="-0.39449340577752368" />
        <Con id="372" src="44" tgt="141" wght="-0.048468067837695875" />
        <Con id="373" src="14" tgt="141" wght="0.34680052445173837" />
        <Con id="374" src="71" tgt="141" wght="-0.55875387728595494" />
        <Con id="375" src="53" tgt="141" wght="-1.8622002477844026" />
        <Con id="376" src="1" tgt="141" wght="0.24279756704941594" />
        <Con id="379" src="126" tgt="141" wght="-0.36330549947846807" />
        <Con id="380" src="0" tgt="141" wght="-3.1978444893177271" />
        <Con id="381" src="134" tgt="141" wght="0.23138097586729417" />
        <Con id="382" src="29" tgt="141" wght="0.18674085096598625" />
        <Con id="385" src="133" tgt="141" wght="-0.33670761177175945" />
        <Con id="386" src="15" tgt="141" wght="0.1847824265679085" />
        <Con id="387" src="91" tgt="141" wght="-0.23311973676727638" />
        <Con id="388" src="136" tgt="141" wght="-3.21608659850694" />
        <Con id="391" src="8" tgt="141" wght="-0.17355359555991146" />
        <Con id="392" src="80" tgt="141" wght="0.34618115371451924" />
        <Con id="393" src="109" tgt="141" wght="-0.029734291016872513" />
        <Con id="396" src="86" tgt="141" wght="-0.33657389210365163" />
        <Con id="398" src="119" tgt="141" wght="0.88074105208756637" />
        <Con id="399" src="107" tgt="141" wght="-0.24977603490306624" />
        <Con id="401" src="97" tgt="141" wght="1.1534426092839563" />
        <Con id="402" src="95" tgt="141" wght="1.303230851378782" />
        <Con id="404" src="69" tgt="141" wght="-0.38789828270627097" />
        <Con id="405" src="39" tgt="141" wght="0.703998476261663" />
        <Con id="406" src="122" tgt="141" wght="0.05564776080025622" />
        <Con id="409" src="118" tgt="141" wght="-0.14570729994890202" />
        <Con id="410" src="68" tgt="141" wght="0.093401693738996983" />
        <Con id="411" src="88" tgt="141" wght="0.153730577573051" />
        <Con id="414" src="75" tgt="141" wght="-1.544284570156474" />
        <Con id="416" src="98" tgt="141" wght="0.23618906622864844" />
        <Con id="417" src="45" tgt="141" wght="0.033286496220770047" />
        <Con id="420" src="18" tgt="141" wght="-0.2198718976872801" />
        <Con id="422" src="33" tgt="141" wght="0.0933201635240584" />
        <Con id="423" src="31" tgt="141" wght="-0.81796520723346966" />
      </Connections>
    </Network>
  </Networks>
</Root>