<?xml version="1.0" encoding="utf-8"?>
<Root>
  <ActivationFunctions>
    <Fn id="0" name="PlainSigmoid" prob="1" />
  </ActivationFunctions>
  <Networks>
    <Network id="444716" birthGen="5538" fitness="0.77441899586513008">
      <Nodes>
        <Node type="bias" id="0" />
        <Node type="in" id="1" />
        <Node type="in" id="2" />
        <Node type="in" id="3" />
        <Node type="in" id="4" />
        <Node type="in" id="5" />
        <Node type="in" id="6" />
        <Node type="in" id="7" />
        <Node type="in" id="8" />
        <Node type="in" id="9" />
        <Node type="in" id="10" />
        <Node type="in" id="11" />
        <Node type="in" id="12" />
        <Node type="in" id="13" />
        <Node type="in" id="14" />
        <Node type="in" id="15" />
        <Node type="in" id="16" />
        <Node type="in" id="17" />
        <Node type="in" id="18" />
        <Node type="in" id="19" />
        <Node type="in" id="20" />
        <Node type="in" id="21" />
        <Node type="in" id="22" />
        <Node type="in" id="23" />
        <Node type="in" id="24" />
        <Node type="in" id="25" />
        <Node type="in" id="26" />
        <Node type="in" id="27" />
        <Node type="in" id="28" />
        <Node type="in" id="29" />
        <Node type="in" id="30" />
        <Node type="in" id="31" />
        <Node type="in" id="32" />
        <Node type="in" id="33" />
        <Node type="in" id="34" />
        <Node type="in" id="35" />
        <Node type="in" id="36" />
        <Node type="in" id="37" />
        <Node type="in" id="38" />
        <Node type="in" id="39" />
        <Node type="in" id="40" />
        <Node type="in" id="41" />
        <Node type="in" id="42" />
        <Node type="in" id="43" />
        <Node type="in" id="44" />
        <Node type="in" id="45" />
        <Node type="in" id="46" />
        <Node type="in" id="47" />
        <Node type="in" id="48" />
        <Node type="in" id="49" />
        <Node type="in" id="50" />
        <Node type="in" id="51" />
        <Node type="in" id="52" />
        <Node type="in" id="53" />
        <Node type="in" id="54" />
        <Node type="in" id="55" />
        <Node type="in" id="56" />
        <Node type="in" id="57" />
        <Node type="in" id="58" />
        <Node type="in" id="59" />
        <Node type="in" id="60" />
        <Node type="in" id="61" />
        <Node type="in" id="62" />
        <Node type="in" id="63" />
        <Node type="in" id="64" />
        <Node type="in" id="65" />
        <Node type="in" id="66" />
        <Node type="in" id="67" />
        <Node type="in" id="68" />
        <Node type="in" id="69" />
        <Node type="in" id="70" />
        <Node type="in" id="71" />
        <Node type="in" id="72" />
        <Node type="in" id="73" />
        <Node type="in" id="74" />
        <Node type="in" id="75" />
        <Node type="in" id="76" />
        <Node type="in" id="77" />
        <Node type="in" id="78" />
        <Node type="in" id="79" />
        <Node type="in" id="80" />
        <Node type="in" id="81" />
        <Node type="in" id="82" />
        <Node type="in" id="83" />
        <Node type="in" id="84" />
        <Node type="in" id="85" />
        <Node type="in" id="86" />
        <Node type="in" id="87" />
        <Node type="in" id="88" />
        <Node type="in" id="89" />
        <Node type="in" id="90" />
        <Node type="in" id="91" />
        <Node type="in" id="92" />
        <Node type="in" id="93" />
        <Node type="in" id="94" />
        <Node type="in" id="95" />
        <Node type="in" id="96" />
        <Node type="in" id="97" />
        <Node type="in" id="98" />
        <Node type="in" id="99" />
        <Node type="in" id="100" />
        <Node type="in" id="101" />
        <Node type="in" id="102" />
        <Node type="in" id="103" />
        <Node type="in" id="104" />
        <Node type="in" id="105" />
        <Node type="in" id="106" />
        <Node type="in" id="107" />
        <Node type="in" id="108" />
        <Node type="in" id="109" />
        <Node type="in" id="110" />
        <Node type="in" id="111" />
        <Node type="in" id="112" />
        <Node type="in" id="113" />
        <Node type="in" id="114" />
        <Node type="in" id="115" />
        <Node type="in" id="116" />
        <Node type="in" id="117" />
        <Node type="in" id="118" />
        <Node type="in" id="119" />
        <Node type="in" id="120" />
        <Node type="in" id="121" />
        <Node type="in" id="122" />
        <Node type="in" id="123" />
        <Node type="in" id="124" />
        <Node type="in" id="125" />
        <Node type="in" id="126" />
        <Node type="in" id="127" />
        <Node type="in" id="128" />
        <Node type="in" id="129" />
        <Node type="in" id="130" />
        <Node type="in" id="131" />
        <Node type="in" id="132" />
        <Node type="in" id="133" />
        <Node type="in" id="134" />
        <Node type="in" id="135" />
        <Node type="in" id="136" />
        <Node type="in" id="137" />
        <Node type="in" id="138" />
        <Node type="in" id="139" />
        <Node type="in" id="140" />
        <Node type="out" id="141" />
        <Node type="hid" id="386" />
        <Node type="hid" id="403" />
        <Node type="hid" id="542" />
        <Node type="hid" id="593" />
        <Node type="hid" id="980" />
        <Node type="hid" id="1277" />
        <Node type="hid" id="1398" />
        <Node type="hid" id="1628" />
        <Node type="hid" id="1933" />
      </Nodes>
      <Connections>
        <Con id="142" src="0" tgt="141" wght="-3.8964147947183929" />
        <Con id="150" src="8" tgt="141" wght="-0.093087381484991932" />
        <Con id="154" src="12" tgt="141" wght="-0.25604771781920083" />
        <Con id="159" src="17" tgt="141" wght="0.020238180868383249" />
        <Con id="160" src="18" tgt="141" wght="-0.23369502935978029" />
        <Con id="164" src="22" tgt="141" wght="0.36119502413890142" />
        <Con id="165" src="23" tgt="141" wght="4.5019859261564905" />
        <Con id="166" src="24" tgt="141" wght="1.4108213661661773" />
        <Con id="168" src="26" tgt="141" wght="3.453027816063198" />
        <Con id="170" src="28" tgt="141" wght="-0.49665761666381469" />
        <Con id="172" src="30" tgt="141" wght="-0.91132950468299778" />
        <Con id="182" src="40" tgt="141" wght="-0.38288757004242807" />
        <Con id="183" src="41" tgt="141" wght="-0.5225280800814841" />
        <Con id="189" src="47" tgt="141" wght="0.24216537046546019" />
        <Con id="191" src="49" tgt="141" wght="-1.0770030827665287" />
        <Con id="194" src="52" tgt="141" wght="4.7193553921749842" />
        <Con id="195" src="53" tgt="141" wght="-1.08214637391587" />
        <Con id="202" src="60" tgt="141" wght="0.11464278703389144" />
        <Con id="205" src="63" tgt="141" wght="-0.17494604896009996" />
        <Con id="206" src="64" tgt="141" wght="0.12617837438285404" />
        <Con id="210" src="68" tgt="141" wght="0.17571375875838219" />
        <Con id="211" src="69" tgt="141" wght="-0.31611164263257407" />
        <Con id="213" src="71" tgt="141" wght="-0.33967014885190394" />
        <Con id="215" src="73" tgt="141" wght="-0.044000359704353162" />
        <Con id="219" src="77" tgt="141" wght="0.33399960347826607" />
        <Con id="222" src="80" tgt="141" wght="0.32520847096990374" />
        <Con id="223" src="81" tgt="141" wght="-0.08889466401137662" />
        <Con id="231" src="89" tgt="141" wght="-0.37050137081947832" />
        <Con id="237" src="95" tgt="141" wght="0.95285578293234718" />
        <Con id="240" src="98" tgt="141" wght="0.17295542632950528" />
        <Con id="244" src="102" tgt="141" wght="0.21200883024000633" />
        <Con id="253" src="111" tgt="141" wght="0.092030766263083638" />
        <Con id="257" src="115" tgt="141" wght="-0.19772540622118898" />
        <Con id="259" src="117" tgt="141" wght="0.11714177393380158" />
        <Con id="265" src="123" tgt="141" wght="-0.24595501210967188" />
        <Con id="267" src="125" tgt="141" wght="-0.32820409033809461" />
        <Con id="268" src="126" tgt="141" wght="-0.327183484242097" />
        <Con id="270" src="128" tgt="141" wght="0.70951319195398965" />
        <Con id="272" src="130" tgt="141" wght="0.1976253435937238" />
        <Con id="274" src="132" tgt="141" wght="-0.23411689496851062" />
        <Con id="278" src="136" tgt="141" wght="2.0593843247974237" />
        <Con id="291" src="75" tgt="141" wght="-0.84498079704727114" />
        <Con id="387" src="114" tgt="386" wght="-0.3101574858381716" />
        <Con id="388" src="386" tgt="141" wght="5" />
        <Con id="394" src="119" tgt="141" wght="0.71046629268073125" />
        <Con id="404" src="13" tgt="403" wght="-0.21153172956976718" />
        <Con id="405" src="403" tgt="141" wght="4.7568022728679544" />
        <Con id="435" src="10" tgt="141" wght="0.20654897349245152" />
        <Con id="459" src="67" tgt="386" wght="-0.50819288760907022" />
        <Con id="484" src="70" tgt="386" wght="1.0805896536639354" />
        <Con id="543" src="43" tgt="542" wght="-4.885996643389845" />
        <Con id="544" src="542" tgt="141" wght="3.5851080918744729" />
        <Con id="546" src="127" tgt="386" wght="-1.0287695211280652" />
        <Con id="552" src="124" tgt="403" wght="-0.14506504682107063" />
        <Con id="557" src="131" tgt="386" wght="1.1569088225194231" />
        <Con id="579" src="120" tgt="386" wght="1.0458106950208819" />
        <Con id="595" src="593" tgt="141" wght="-3.0204866324089075" />
        <Con id="601" src="97" tgt="403" wght="1.7512220029941989" />
        <Con id="642" src="12" tgt="403" wght="-0.31519024167209864" />
        <Con id="678" src="35" tgt="386" wght="2.0981410480405773" />
        <Con id="687" src="85" tgt="403" wght="0.8204864693499011" />
        <Con id="716" src="101" tgt="542" wght="2.538148780768426" />
        <Con id="775" src="139" tgt="542" wght="0.88084731642852288" />
        <Con id="869" src="76" tgt="542" wght="-4.095764442338659" />
        <Con id="873" src="99" tgt="542" wght="3.8963535780923597" />
        <Con id="892" src="86" tgt="542" wght="-2.314002646535072" />
        <Con id="893" src="56" tgt="542" wght="3.4062691672725181" />
        <Con id="922" src="104" tgt="593" wght="0.5706560638024275" />
        <Con id="927" src="105" tgt="403" wght="4.7169117625698291" />
        <Con id="981" src="15" tgt="980" wght="1.2588895161058939" />
        <Con id="982" src="980" tgt="141" wght="3.7149195371727872" />
        <Con id="1032" src="104" tgt="386" wght="-1.88575599734198" />
        <Con id="1060" src="44" tgt="593" wght="-0.76850583079018442" />
        <Con id="1084" src="65" tgt="542" wght="-0.54473385015183751" />
        <Con id="1088" src="74" tgt="593" wght="-0.11637252358160727" />
        <Con id="1090" src="61" tgt="593" wght="1.2872793745392206" />
        <Con id="1096" src="107" tgt="593" wght="0.11915407434143832" />
        <Con id="1148" src="403" tgt="593" wght="0.13196599070422035" />
        <Con id="1171" src="32" tgt="593" wght="0.51926331543697646" />
        <Con id="1221" src="39" tgt="593" wght="-4.2122690369970215" />
        <Con id="1232" src="136" tgt="403" wght="0.919458890395301" />
        <Con id="1278" src="135" tgt="1277" wght="-4.3577660273513468" />
        <Con id="1279" src="1277" tgt="141" wght="-3.6166864966969916" />
        <Con id="1296" src="12" tgt="542" wght="0.44959297823216565" />
        <Con id="1300" src="50" tgt="980" wght="1.052681859408213" />
        <Con id="1308" src="21" tgt="542" wght="0.4029156485572763" />
        <Con id="1399" src="45" tgt="1398" wght="0.068344084139015854" />
        <Con id="1400" src="1398" tgt="141" wght="4.3320978810729267" />
        <Con id="1478" src="83" tgt="980" wght="-1.7028614609515911" />
        <Con id="1582" src="110" tgt="403" wght="2.9156415091240451" />
        <Con id="1583" src="76" tgt="1277" wght="-0.61708711956124629" />
        <Con id="1629" src="403" tgt="1628" wght="4.1804896580777093" />
        <Con id="1630" src="1628" tgt="141" wght="0.4291787155157244" />
        <Con id="1635" src="138" tgt="1277" wght="-0.34829825397828923" />
        <Con id="1637" src="31" tgt="980" wght="-1.0733324716029171" />
        <Con id="1697" src="36" tgt="1398" wght="0.3799416140790734" />
        <Con id="1715" src="66" tgt="1398" wght="1.6053329923183779" />
        <Con id="1801" src="140" tgt="980" wght="0.3948617190693518" />
        <Con id="1809" src="107" tgt="1398" wght="-0.073986208658950087" />
        <Con id="1830" src="92" tgt="593" wght="-0.040574442688602823" />
        <Con id="1854" src="86" tgt="593" wght="2.2068296269787657" />
        <Con id="1934" src="12" tgt="1933" wght="0.14816793143527104" />
        <Con id="1935" src="1933" tgt="141" wght="5" />
        <Con id="1938" src="403" tgt="980" wght="0.86692524441314855" />
        <Con id="1939" src="85" tgt="1398" wght="0.29205499387562961" />
        <Con id="1955" src="36" tgt="593" wght="-0.014777347985170558" />
        <Con id="1988" src="51" tgt="1277" wght="-0.554306822040849" />
        <Con id="2005" src="48" tgt="980" wght="0.18887105015467109" />
        <Con id="2012" src="108" tgt="403" wght="-2.1944905849293281" />
        <Con id="2021" src="34" tgt="1398" wght="0.53122668141914831" />
        <Con id="2101" src="67" tgt="1398" wght="-5" />
        <Con id="2128" src="593" tgt="1277" wght="-0.95962173642645854" />
        <Con id="2214" src="125" tgt="1277" wght="-0.12408803464397304" />
        <Con id="2241" src="105" tgt="980" wght="3.745897886241123" />
      </Connections>
    </Network>
  </Networks>
</Root>