<?xml version="1.0" encoding="utf-8"?>
<Root>
  <ActivationFunctions>
    <Fn id="0" name="PlainSigmoid" prob="1" />
  </ActivationFunctions>
  <Networks>
    <Network id="246638" birthGen="3079" fitness="0.772808118404232">
      <Nodes>
        <Node type="bias" id="0" />
        <Node type="in" id="1" />
        <Node type="in" id="2" />
        <Node type="in" id="3" />
        <Node type="in" id="4" />
        <Node type="in" id="5" />
        <Node type="in" id="6" />
        <Node type="in" id="7" />
        <Node type="in" id="8" />
        <Node type="in" id="9" />
        <Node type="in" id="10" />
        <Node type="in" id="11" />
        <Node type="in" id="12" />
        <Node type="in" id="13" />
        <Node type="in" id="14" />
        <Node type="in" id="15" />
        <Node type="in" id="16" />
        <Node type="in" id="17" />
        <Node type="in" id="18" />
        <Node type="in" id="19" />
        <Node type="in" id="20" />
        <Node type="in" id="21" />
        <Node type="in" id="22" />
        <Node type="in" id="23" />
        <Node type="in" id="24" />
        <Node type="in" id="25" />
        <Node type="in" id="26" />
        <Node type="in" id="27" />
        <Node type="in" id="28" />
        <Node type="in" id="29" />
        <Node type="in" id="30" />
        <Node type="in" id="31" />
        <Node type="in" id="32" />
        <Node type="in" id="33" />
        <Node type="in" id="34" />
        <Node type="in" id="35" />
        <Node type="in" id="36" />
        <Node type="in" id="37" />
        <Node type="in" id="38" />
        <Node type="in" id="39" />
        <Node type="in" id="40" />
        <Node type="in" id="41" />
        <Node type="in" id="42" />
        <Node type="in" id="43" />
        <Node type="in" id="44" />
        <Node type="in" id="45" />
        <Node type="in" id="46" />
        <Node type="in" id="47" />
        <Node type="in" id="48" />
        <Node type="in" id="49" />
        <Node type="in" id="50" />
        <Node type="in" id="51" />
        <Node type="in" id="52" />
        <Node type="in" id="53" />
        <Node type="in" id="54" />
        <Node type="in" id="55" />
        <Node type="in" id="56" />
        <Node type="in" id="57" />
        <Node type="in" id="58" />
        <Node type="in" id="59" />
        <Node type="in" id="60" />
        <Node type="in" id="61" />
        <Node type="in" id="62" />
        <Node type="in" id="63" />
        <Node type="in" id="64" />
        <Node type="in" id="65" />
        <Node type="in" id="66" />
        <Node type="in" id="67" />
        <Node type="in" id="68" />
        <Node type="in" id="69" />
        <Node type="in" id="70" />
        <Node type="in" id="71" />
        <Node type="in" id="72" />
        <Node type="in" id="73" />
        <Node type="in" id="74" />
        <Node type="in" id="75" />
        <Node type="in" id="76" />
        <Node type="in" id="77" />
        <Node type="in" id="78" />
        <Node type="in" id="79" />
        <Node type="in" id="80" />
        <Node type="in" id="81" />
        <Node type="in" id="82" />
        <Node type="in" id="83" />
        <Node type="in" id="84" />
        <Node type="in" id="85" />
        <Node type="in" id="86" />
        <Node type="in" id="87" />
        <Node type="in" id="88" />
        <Node type="in" id="89" />
        <Node type="in" id="90" />
        <Node type="in" id="91" />
        <Node type="in" id="92" />
        <Node type="in" id="93" />
        <Node type="in" id="94" />
        <Node type="in" id="95" />
        <Node type="in" id="96" />
        <Node type="in" id="97" />
        <Node type="in" id="98" />
        <Node type="in" id="99" />
        <Node type="in" id="100" />
        <Node type="in" id="101" />
        <Node type="in" id="102" />
        <Node type="in" id="103" />
        <Node type="in" id="104" />
        <Node type="in" id="105" />
        <Node type="in" id="106" />
        <Node type="in" id="107" />
        <Node type="in" id="108" />
        <Node type="in" id="109" />
        <Node type="in" id="110" />
        <Node type="in" id="111" />
        <Node type="in" id="112" />
        <Node type="in" id="113" />
        <Node type="in" id="114" />
        <Node type="in" id="115" />
        <Node type="in" id="116" />
        <Node type="in" id="117" />
        <Node type="in" id="118" />
        <Node type="in" id="119" />
        <Node type="in" id="120" />
        <Node type="in" id="121" />
        <Node type="in" id="122" />
        <Node type="in" id="123" />
        <Node type="in" id="124" />
        <Node type="in" id="125" />
        <Node type="in" id="126" />
        <Node type="in" id="127" />
        <Node type="in" id="128" />
        <Node type="in" id="129" />
        <Node type="in" id="130" />
        <Node type="in" id="131" />
        <Node type="in" id="132" />
        <Node type="in" id="133" />
        <Node type="in" id="134" />
        <Node type="in" id="135" />
        <Node type="in" id="136" />
        <Node type="in" id="137" />
        <Node type="in" id="138" />
        <Node type="in" id="139" />
        <Node type="in" id="140" />
        <Node type="out" id="141" />
      </Nodes>
      <Connections>
        <Con id="149" src="7" tgt="141" wght="-0.963403362632044" />
        <Con id="150" src="8" tgt="141" wght="0.10584010845569108" />
        <Con id="154" src="12" tgt="141" wght="0.90901990747186245" />
        <Con id="165" src="23" tgt="141" wght="4.34966244650219" />
        <Con id="168" src="26" tgt="141" wght="5" />
        <Con id="179" src="37" tgt="141" wght="-0.035981714188585451" />
        <Con id="182" src="40" tgt="141" wght="-0.24956862108001399" />
        <Con id="199" src="57" tgt="141" wght="-0.34318714577944992" />
        <Con id="202" src="60" tgt="141" wght="0.5675531848636155" />
        <Con id="203" src="61" tgt="141" wght="-1.0691843664512526" />
        <Con id="204" src="62" tgt="141" wght="-1.0535866251702006" />
        <Con id="208" src="66" tgt="141" wght="0.1506986000928898" />
        <Con id="213" src="71" tgt="141" wght="-0.107604814515782" />
        <Con id="221" src="79" tgt="141" wght="0.30236472595509273" />
        <Con id="222" src="80" tgt="141" wght="1.6650823270529023" />
        <Con id="231" src="89" tgt="141" wght="-0.16233179374913584" />
        <Con id="235" src="93" tgt="141" wght="-0.3017101053280114" />
        <Con id="236" src="94" tgt="141" wght="-0.87327909013376381" />
        <Con id="244" src="102" tgt="141" wght="-0.548758402817997" />
        <Con id="252" src="110" tgt="141" wght="0.44752943734797151" />
        <Con id="256" src="114" tgt="141" wght="-1.5087949470161082" />
        <Con id="261" src="119" tgt="141" wght="-0.21326696695182215" />
        <Con id="265" src="123" tgt="141" wght="-0.11551726806021285" />
        <Con id="270" src="128" tgt="141" wght="-0.03789794001222932" />
        <Con id="272" src="130" tgt="141" wght="1.5794457245246003" />
        <Con id="280" src="138" tgt="141" wght="1.154953495690332" />
        <Con id="283" src="33" tgt="141" wght="0.12620130472329236" />
        <Con id="284" src="90" tgt="141" wght="0.505980646859473" />
        <Con id="286" src="35" tgt="141" wght="1.2593012217359232" />
        <Con id="287" src="76" tgt="141" wght="-0.079403707369986851" />
        <Con id="288" src="63" tgt="141" wght="-0.51329495165805772" />
        <Con id="289" src="112" tgt="141" wght="0.22557431444168358" />
        <Con id="290" src="70" tgt="141" wght="1.257518032932222" />
        <Con id="292" src="98" tgt="141" wght="1.0274672096068862" />
        <Con id="293" src="68" tgt="141" wght="1.2200521253468271" />
        <Con id="294" src="88" tgt="141" wght="-0.078003381929883819" />
        <Con id="296" src="73" tgt="141" wght="-0.40883913848690118" />
        <Con id="297" src="109" tgt="141" wght="-0.095415634375806913" />
        <Con id="298" src="91" tgt="141" wght="0.11387796536032259" />
        <Con id="299" src="75" tgt="141" wght="-1.0784100930388931" />
        <Con id="300" src="48" tgt="141" wght="-0.36742874365060607" />
        <Con id="301" src="129" tgt="141" wght="-0.84042644478376327" />
        <Con id="304" src="136" tgt="141" wght="-0.014302341159228616" />
        <Con id="305" src="69" tgt="141" wght="-0.81193476319752156" />
        <Con id="308" src="87" tgt="141" wght="0.24111621986582887" />
        <Con id="309" src="59" tgt="141" wght="0.10915006843195657" />
        <Con id="310" src="74" tgt="141" wght="-0.015225283361427873" />
        <Con id="313" src="126" tgt="141" wght="-0.10435490441933937" />
        <Con id="314" src="42" tgt="141" wght="-0.52797045500444906" />
        <Con id="315" src="3" tgt="141" wght="-0.940705002352483" />
        <Con id="316" src="38" tgt="141" wght="-0.51112592715222249" />
        <Con id="317" src="14" tgt="141" wght="0.2714209933297031" />
        <Con id="318" src="103" tgt="141" wght="-0.25488286936868143" />
        <Con id="319" src="65" tgt="141" wght="0.60085481832828791" />
        <Con id="321" src="84" tgt="141" wght="-0.22018966904317822" />
        <Con id="324" src="6" tgt="141" wght="-0.36216918812179516" />
        <Con id="325" src="41" tgt="141" wght="-1.9374097047685261" />
        <Con id="326" src="77" tgt="141" wght="0.41251307462544851" />
        <Con id="327" src="92" tgt="141" wght="-0.60872173451408251" />
        <Con id="328" src="115" tgt="141" wght="0.089575337940942523" />
        <Con id="329" src="31" tgt="141" wght="-1.2250477030019562" />
        <Con id="330" src="104" tgt="141" wght="-0.39089094553513493" />
        <Con id="333" src="108" tgt="141" wght="-0.45890296230016381" />
        <Con id="334" src="131" tgt="141" wght="0.72773159728565662" />
        <Con id="335" src="43" tgt="141" wght="-0.31197551497002873" />
        <Con id="336" src="9" tgt="141" wght="0.28217525102812463" />
        <Con id="337" src="78" tgt="141" wght="-0.19731632156234691" />
        <Con id="339" src="101" tgt="141" wght="-0.030691467280583872" />
        <Con id="340" src="83" tgt="141" wght="-0.25558028180032116" />
        <Con id="341" src="125" tgt="141" wght="0.11671406446995684" />
        <Con id="342" src="53" tgt="141" wght="-1.7084817072623535" />
        <Con id="343" src="117" tgt="141" wght="-0.813606390491611" />
        <Con id="344" src="15" tgt="141" wght="0.41153640253178997" />
        <Con id="346" src="85" tgt="141" wght="1.7948837997115628" />
        <Con id="347" src="124" tgt="141" wght="0.93359023495459825" />
        <Con id="348" src="82" tgt="141" wght="-0.40651869918931749" />
        <Con id="349" src="49" tgt="141" wght="-1.0272584063322134" />
        <Con id="350" src="97" tgt="141" wght="0.58096805199249246" />
        <Con id="351" src="24" tgt="141" wght="1.1462933511373574" />
        <Con id="352" src="36" tgt="141" wght="0.0659921941393381" />
        <Con id="353" src="2" tgt="141" wght="0.327818763010155" />
        <Con id="354" src="132" tgt="141" wght="-0.65058646007765109" />
        <Con id="355" src="52" tgt="141" wght="0.0040819361523811142" />
        <Con id="357" src="45" tgt="141" wght="-0.953837526453203" />
        <Con id="358" src="96" tgt="141" wght="0.088898162742897829" />
        <Con id="360" src="81" tgt="141" wght="-1.5213351189080473" />
        <Con id="362" src="25" tgt="141" wght="-0.14990991255777691" />
        <Con id="363" src="134" tgt="141" wght="-0.26817157860338275" />
        <Con id="364" src="28" tgt="141" wght="-3.1132826198504024" />
        <Con id="365" src="20" tgt="141" wght="-0.94409923186036926" />
        <Con id="366" src="47" tgt="141" wght="0.085754559036804651" />
        <Con id="368" src="105" tgt="141" wght="0.4303166281574447" />
        <Con id="369" src="99" tgt="141" wght="1.8636635509184198" />
        <Con id="370" src="116" tgt="141" wght="0.26552106242308859" />
        <Con id="371" src="100" tgt="141" wght="-0.095410272479057312" />
        <Con id="372" src="95" tgt="141" wght="2.2895204984905266" />
        <Con id="373" src="18" tgt="141" wght="-0.6492169392467908" />
        <Con id="375" src="64" tgt="141" wght="-0.11115215176223672" />
        <Con id="381" src="137" tgt="141" wght="-0.56071435840802564" />
        <Con id="382" src="127" tgt="141" wght="-0.4120563829144403" />
        <Con id="383" src="51" tgt="141" wght="-0.63973244754871084" />
        <Con id="384" src="29" tgt="141" wght="0.56282525743512157" />
        <Con id="387" src="0" tgt="141" wght="-0.10390903698285725" />
        <Con id="389" src="27" tgt="141" wght="0.703650343876894" />
        <Con id="390" src="122" tgt="141" wght="0.42034155699423376" />
        <Con id="391" src="21" tgt="141" wght="0.1763892751267446" />
        <Con id="392" src="46" tgt="141" wght="0.086853960528969765" />
        <Con id="393" src="107" tgt="141" wght="-0.65717382747608821" />
        <Con id="394" src="44" tgt="141" wght="0.41631319739597711" />
        <Con id="395" src="17" tgt="141" wght="0.39828772008293145" />
        <Con id="396" src="39" tgt="141" wght="0.93752694064027842" />
        <Con id="397" src="121" tgt="141" wght="0.364659921000139" />
        <Con id="398" src="67" tgt="141" wght="-1.6918533983494985" />
        <Con id="400" src="113" tgt="141" wght="0.76825356034539038" />
        <Con id="402" src="34" tgt="141" wght="1.2194248243391681" />
        <Con id="403" src="55" tgt="141" wght="-0.21977561744870866" />
        <Con id="404" src="106" tgt="141" wght="-0.29561921107732619" />
        <Con id="405" src="133" tgt="141" wght="0.39900479580220094" />
        <Con id="406" src="32" tgt="141" wght="-0.2581176524265677" />
        <Con id="407" src="56" tgt="141" wght="0.57785574414569607" />
        <Con id="409" src="139" tgt="141" wght="-0.11299053551914781" />
        <Con id="410" src="86" tgt="141" wght="-0.87608419673859561" />
        <Con id="412" src="13" tgt="141" wght="-0.11469197821887273" />
        <Con id="413" src="50" tgt="141" wght="1.3270545186451332" />
        <Con id="415" src="5" tgt="141" wght="-1.0331820725182839" />
        <Con id="416" src="11" tgt="141" wght="0.16256614557845839" />
        <Con id="418" src="22" tgt="141" wght="0.49049991595711906" />
        <Con id="419" src="135" tgt="141" wght="0.0035898377139651372" />
        <Con id="420" src="30" tgt="141" wght="-1.6909225597499462" />
        <Con id="421" src="54" tgt="141" wght="-1.525193207953788" />
      </Connections>
    </Network>
  </Networks>
</Root>