<?xml version="1.0" encoding="utf-8"?>
<Root>
  <ActivationFunctions>
    <Fn id="0" name="PlainSigmoid" prob="1" />
  </ActivationFunctions>
  <Networks>
    <Network id="2190208" birthGen="27312" fitness="0.64563099085757258">
      <Nodes>
        <Node type="bias" id="0" />
        <Node type="in" id="1" />
        <Node type="in" id="2" />
        <Node type="in" id="3" />
        <Node type="in" id="4" />
        <Node type="in" id="5" />
        <Node type="in" id="6" />
        <Node type="in" id="7" />
        <Node type="in" id="8" />
        <Node type="in" id="9" />
        <Node type="in" id="10" />
        <Node type="in" id="11" />
        <Node type="in" id="12" />
        <Node type="in" id="13" />
        <Node type="in" id="14" />
        <Node type="in" id="15" />
        <Node type="in" id="16" />
        <Node type="in" id="17" />
        <Node type="in" id="18" />
        <Node type="in" id="19" />
        <Node type="in" id="20" />
        <Node type="in" id="21" />
        <Node type="in" id="22" />
        <Node type="in" id="23" />
        <Node type="in" id="24" />
        <Node type="in" id="25" />
        <Node type="in" id="26" />
        <Node type="in" id="27" />
        <Node type="in" id="28" />
        <Node type="in" id="29" />
        <Node type="in" id="30" />
        <Node type="in" id="31" />
        <Node type="in" id="32" />
        <Node type="in" id="33" />
        <Node type="in" id="34" />
        <Node type="in" id="35" />
        <Node type="in" id="36" />
        <Node type="in" id="37" />
        <Node type="in" id="38" />
        <Node type="in" id="39" />
        <Node type="in" id="40" />
        <Node type="in" id="41" />
        <Node type="in" id="42" />
        <Node type="in" id="43" />
        <Node type="in" id="44" />
        <Node type="in" id="45" />
        <Node type="in" id="46" />
        <Node type="in" id="47" />
        <Node type="in" id="48" />
        <Node type="in" id="49" />
        <Node type="in" id="50" />
        <Node type="in" id="51" />
        <Node type="in" id="52" />
        <Node type="in" id="53" />
        <Node type="in" id="54" />
        <Node type="in" id="55" />
        <Node type="in" id="56" />
        <Node type="in" id="57" />
        <Node type="in" id="58" />
        <Node type="in" id="59" />
        <Node type="in" id="60" />
        <Node type="in" id="61" />
        <Node type="in" id="62" />
        <Node type="in" id="63" />
        <Node type="in" id="64" />
        <Node type="in" id="65" />
        <Node type="in" id="66" />
        <Node type="in" id="67" />
        <Node type="in" id="68" />
        <Node type="in" id="69" />
        <Node type="in" id="70" />
        <Node type="in" id="71" />
        <Node type="in" id="72" />
        <Node type="in" id="73" />
        <Node type="in" id="74" />
        <Node type="in" id="75" />
        <Node type="in" id="76" />
        <Node type="in" id="77" />
        <Node type="in" id="78" />
        <Node type="in" id="79" />
        <Node type="in" id="80" />
        <Node type="out" id="81" />
        <Node type="hid" id="509" />
        <Node type="hid" id="554" />
        <Node type="hid" id="558" />
        <Node type="hid" id="627" />
        <Node type="hid" id="879" />
        <Node type="hid" id="3546" />
        <Node type="hid" id="3565" />
        <Node type="hid" id="3698" />
        <Node type="hid" id="3783" />
        <Node type="hid" id="3850" />
        <Node type="hid" id="4744" />
        <Node type="hid" id="4749" />
      </Nodes>
      <Connections>
        <Con id="85" src="3" tgt="81" wght="0.35424937776852344" />
        <Con id="98" src="16" tgt="81" wght="0.44762467659450261" />
        <Con id="101" src="19" tgt="81" wght="0.18846004954989118" />
        <Con id="103" src="21" tgt="81" wght="0.32865756954921083" />
        <Con id="108" src="26" tgt="81" wght="0.098221891002503142" />
        <Con id="109" src="27" tgt="81" wght="0.37221041205204941" />
        <Con id="116" src="34" tgt="81" wght="0.18074942430183327" />
        <Con id="122" src="40" tgt="81" wght="-0.12121204553222997" />
        <Con id="124" src="42" tgt="81" wght="0.031948734295708242" />
        <Con id="131" src="49" tgt="81" wght="0.39262191850796746" />
        <Con id="137" src="55" tgt="81" wght="0.21657315041816214" />
        <Con id="142" src="60" tgt="81" wght="0.58686587125965661" />
        <Con id="143" src="61" tgt="81" wght="0.15907940925664887" />
        <Con id="148" src="66" tgt="81" wght="-0.010331650231295755" />
        <Con id="155" src="73" tgt="81" wght="0.1533150199338055" />
        <Con id="156" src="74" tgt="81" wght="0.17874713797414804" />
        <Con id="166" src="59" tgt="81" wght="-0.28879430484344393" />
        <Con id="167" src="44" tgt="81" wght="0.20829614682962172" />
        <Con id="168" src="28" tgt="81" wght="0.0081508959832727775" />
        <Con id="174" src="24" tgt="81" wght="0.44539918055573496" />
        <Con id="176" src="22" tgt="81" wght="0.41464054550326107" />
        <Con id="179" src="77" tgt="81" wght="0.23530660641839218" />
        <Con id="182" src="39" tgt="81" wght="-0.015746740928479372" />
        <Con id="183" src="68" tgt="81" wght="0.062165526974326812" />
        <Con id="191" src="6" tgt="81" wght="0.59439740122118978" />
        <Con id="192" src="58" tgt="81" wght="0.34714380747970142" />
        <Con id="197" src="70" tgt="81" wght="0.72378177722514858" />
        <Con id="199" src="31" tgt="81" wght="0.10867428688524823" />
        <Con id="204" src="56" tgt="81" wght="-0.00085618874574296122" />
        <Con id="207" src="75" tgt="81" wght="0.062073763038952096" />
        <Con id="208" src="17" tgt="81" wght="0.43989428975865763" />
        <Con id="215" src="18" tgt="81" wght="0.34071434736503919" />
        <Con id="216" src="47" tgt="81" wght="0.038065016648462541" />
        <Con id="224" src="9" tgt="81" wght="-0.15272422125914831" />
        <Con id="233" src="30" tgt="81" wght="0.15765669370566873" />
        <Con id="239" src="0" tgt="81" wght="-0.0006241075689955352" />
        <Con id="245" src="79" tgt="81" wght="0.1492288956296374" />
        <Con id="247" src="10" tgt="81" wght="0.37522443253832649" />
        <Con id="255" src="43" tgt="81" wght="0.50443712214070424" />
        <Con id="263" src="12" tgt="81" wght="0.1215710911427683" />
        <Con id="267" src="14" tgt="81" wght="-0.24094426442573486" />
        <Con id="273" src="29" tgt="81" wght="0.11219953319119079" />
        <Con id="284" src="78" tgt="81" wght="0.26861394341015626" />
        <Con id="289" src="1" tgt="81" wght="0.076330584663401119" />
        <Con id="315" src="20" tgt="81" wght="0.20383310940369043" />
        <Con id="330" src="2" tgt="81" wght="0.36461154334423229" />
        <Con id="331" src="71" tgt="81" wght="0.34719122075586006" />
        <Con id="341" src="35" tgt="81" wght="0.37190908056176331" />
        <Con id="510" src="16" tgt="509" wght="0.31636667421296982" />
        <Con id="511" src="509" tgt="81" wght="-0.39300077175626313" />
        <Con id="555" src="61" tgt="554" wght="0.32313347113680763" />
        <Con id="556" src="554" tgt="81" wght="0.87587668865596691" />
        <Con id="557" src="17" tgt="509" wght="-0.29657909344179412" />
        <Con id="559" src="16" tgt="558" wght="-0.166689599729104" />
        <Con id="560" src="558" tgt="81" wght="0.82323885737325941" />
        <Con id="562" src="32" tgt="509" wght="-0.30539929604693478" />
        <Con id="576" src="37" tgt="509" wght="0.18253195129452898" />
        <Con id="584" src="74" tgt="509" wght="0.061048315747287016" />
        <Con id="586" src="73" tgt="509" wght="0.012355477444203219" />
        <Con id="617" src="30" tgt="509" wght="-0.20257833776411929" />
        <Con id="623" src="43" tgt="509" wght="-0.37521939700578849" />
        <Con id="624" src="77" tgt="554" wght="-0.27264733854411644" />
        <Con id="625" src="11" tgt="554" wght="0.0943841673635763" />
        <Con id="626" src="66" tgt="509" wght="-0.0587973708813885" />
        <Con id="628" src="1" tgt="627" wght="-0.059222773464763338" />
        <Con id="629" src="627" tgt="81" wght="-0.53730078187813335" />
        <Con id="632" src="60" tgt="554" wght="-0.54980495920087791" />
        <Con id="633" src="23" tgt="509" wght="0.33681630116695194" />
        <Con id="643" src="40" tgt="554" wght="0.082265392203087637" />
        <Con id="651" src="9" tgt="554" wght="-0.064833737442937911" />
        <Con id="661" src="23" tgt="627" wght="-0.18947605131165168" />
        <Con id="662" src="69" tgt="627" wght="-0.402497932094679" />
        <Con id="668" src="3" tgt="627" wght="-0.28840855695307255" />
        <Con id="673" src="72" tgt="627" wght="-0.35834140215002969" />
        <Con id="679" src="28" tgt="509" wght="0.018602961514543829" />
        <Con id="689" src="57" tgt="627" wght="0.029896402331624897" />
        <Con id="693" src="41" tgt="558" wght="0.01226581736423157" />
        <Con id="696" src="65" tgt="558" wght="0.087183151848714974" />
        <Con id="701" src="67" tgt="627" wght="0.0011365837346222893" />
        <Con id="704" src="72" tgt="558" wght="0.1684152441793712" />
        <Con id="705" src="8" tgt="558" wght="-0.12555243590104409" />
        <Con id="718" src="3" tgt="558" wght="0.036614062535562826" />
        <Con id="720" src="13" tgt="558" wght="0.20296087589109296" />
        <Con id="721" src="52" tgt="509" wght="-0.0685893605872694" />
        <Con id="726" src="69" tgt="554" wght="0.25020885424045253" />
        <Con id="727" src="7" tgt="554" wght="-0.0078641873378583523" />
        <Con id="729" src="26" tgt="554" wght="-0.0010195417886398276" />
        <Con id="735" src="36" tgt="509" wght="0.18157706045986188" />
        <Con id="736" src="64" tgt="558" wght="0.074482235933667512" />
        <Con id="739" src="23" tgt="558" wght="0.564123087476027" />
        <Con id="741" src="42" tgt="558" wght="-0.0509520810942137" />
        <Con id="742" src="37" tgt="558" wght="0.25678720163202756" />
        <Con id="748" src="31" tgt="509" wght="-0.031360804840181611" />
        <Con id="750" src="9" tgt="558" wght="0.064952299568550115" />
        <Con id="788" src="62" tgt="558" wght="0.25477242282925705" />
        <Con id="797" src="6" tgt="554" wght="0.36356138570658469" />
        <Con id="824" src="53" tgt="509" wght="0.21665053349782828" />
        <Con id="827" src="21" tgt="554" wght="-0.1446446114268487" />
        <Con id="832" src="20" tgt="554" wght="0.10849299624112407" />
        <Con id="835" src="15" tgt="554" wght="0.075870432337370355" />
        <Con id="840" src="52" tgt="554" wght="0.349035436109961" />
        <Con id="841" src="554" tgt="558" wght="-0.17315524186059017" />
        <Con id="842" src="25" tgt="554" wght="0.314742865953615" />
        <Con id="843" src="2" tgt="558" wght="-0.22107668227770402" />
        <Con id="848" src="22" tgt="509" wght="-0.023394989789079779" />
        <Con id="857" src="58" tgt="558" wght="-0.2674879993446293" />
        <Con id="862" src="558" tgt="509" wght="0.32290749010219472" />
        <Con id="866" src="56" tgt="558" wght="0.016682995361595704" />
        <Con id="868" src="38" tgt="509" wght="0.016559876481743195" />
        <Con id="877" src="74" tgt="558" wght="0.020468558568061256" />
        <Con id="881" src="879" tgt="558" wght="0.32821946102273247" />
        <Con id="882" src="6" tgt="558" wght="0.21459505947613114" />
        <Con id="884" src="20" tgt="558" wght="0.02984166922148742" />
        <Con id="885" src="28" tgt="627" wght="0.056645562211727611" />
        <Con id="886" src="37" tgt="554" wght="0.25914275028965544" />
        <Con id="888" src="45" tgt="558" wght="0.41423664477946232" />
        <Con id="912" src="8" tgt="627" wght="0.041486493701678985" />
        <Con id="913" src="27" tgt="558" wght="-0.16769741069164673" />
        <Con id="915" src="31" tgt="554" wght="-0.13137331040494332" />
        <Con id="919" src="8" tgt="554" wght="-0.058189679611801839" />
        <Con id="922" src="35" tgt="509" wght="-0.17034155181352068" />
        <Con id="923" src="63" tgt="558" wght="-0.045541240429886595" />
        <Con id="931" src="53" tgt="627" wght="-0.10673316206616019" />
        <Con id="943" src="34" tgt="554" wght="0.38257575338363492" />
        <Con id="960" src="77" tgt="509" wght="0.35089718205802822" />
        <Con id="967" src="48" tgt="554" wght="0.33864047215825749" />
        <Con id="968" src="73" tgt="554" wght="-0.013246266650755211" />
        <Con id="985" src="47" tgt="558" wght="-0.015601017185412507" />
        <Con id="986" src="29" tgt="554" wght="0.028776698018681091" />
        <Con id="991" src="78" tgt="558" wght="0.085214930332573019" />
        <Con id="1005" src="56" tgt="627" wght="-0.019015861625758235" />
        <Con id="1008" src="21" tgt="558" wght="-0.023040544108571443" />
        <Con id="1012" src="54" tgt="509" wght="-0.60149059719047082" />
        <Con id="1022" src="39" tgt="558" wght="-0.4496941383862384" />
        <Con id="1024" src="24" tgt="558" wght="-0.27812117709323392" />
        <Con id="1031" src="71" tgt="558" wght="-0.030515279413624384" />
        <Con id="1039" src="41" tgt="509" wght="0.013517333785283796" />
        <Con id="1044" src="58" tgt="554" wght="0.28989460786563304" />
        <Con id="1102" src="53" tgt="558" wght="-0.31787146419566059" />
        <Con id="1117" src="627" tgt="509" wght="0.1777289161486218" />
        <Con id="1142" src="73" tgt="627" wght="-0.024088330103749844" />
        <Con id="1150" src="64" tgt="627" wght="-0.093379601816779872" />
        <Con id="1166" src="25" tgt="627" wght="-0.24650660541686281" />
        <Con id="1167" src="37" tgt="627" wght="-0.018013458820836787" />
        <Con id="1206" src="73" tgt="558" wght="0.071573537651030361" />
        <Con id="1233" src="49" tgt="554" wght="0.38810338846191239" />
        <Con id="1402" src="21" tgt="627" wght="-0.085969023957511284" />
        <Con id="1428" src="879" tgt="627" wght="0.53501997062179163" />
        <Con id="1662" src="70" tgt="627" wght="-0.42229507545095563" />
        <Con id="1935" src="27" tgt="879" wght="0.24043014643469246" />
        <Con id="2184" src="56" tgt="879" wght="-0.035456443371436407" />
        <Con id="2331" src="55" tgt="879" wght="-0.046883722144796663" />
        <Con id="2338" src="62" tgt="879" wght="-0.23811535575720694" />
        <Con id="2676" src="3" tgt="879" wght="-0.042397120478257937" />
        <Con id="2937" src="15" tgt="879" wght="-0.3436981828400596" />
        <Con id="2944" src="60" tgt="879" wght="0.29780919338309536" />
        <Con id="3547" src="47" tgt="3546" wght="6.5951614998428776E-05" />
        <Con id="3548" src="3546" tgt="81" wght="-0.41020980318842759" />
        <Con id="3566" src="74" tgt="3565" wght="-0.019556206975830007" />
        <Con id="3567" src="3565" tgt="81" wght="-0.0074816012334218444" />
        <Con id="3595" src="4" tgt="3546" wght="0.0082640638124096034" />
        <Con id="3606" src="509" tgt="3565" wght="-0.018861954861688044" />
        <Con id="3616" src="23" tgt="3546" wght="0.30259496407148057" />
        <Con id="3623" src="39" tgt="3546" wght="-0.0085533480579397525" />
        <Con id="3699" src="51" tgt="3698" wght="0.27518780350932687" />
        <Con id="3700" src="3698" tgt="554" wght="0.41885772546007316" />
        <Con id="3708" src="58" tgt="3546" wght="-0.094138729801318932" />
        <Con id="3711" src="22" tgt="3565" wght="0.0048356736848303153" />
        <Con id="3723" src="41" tgt="3698" wght="-0.052230894053508489" />
        <Con id="3729" src="11" tgt="3546" wght="-0.33812570756455768" />
        <Con id="3730" src="36" tgt="3546" wght="-0.2329729009445366" />
        <Con id="3751" src="3546" tgt="3565" wght="-0.11546094480377289" />
        <Con id="3784" src="33" tgt="3783" wght="0.34517760182381163" />
        <Con id="3785" src="3783" tgt="554" wght="0.38151507287922554" />
        <Con id="3793" src="14" tgt="3565" wght="-0.11454546967842338" />
        <Con id="3829" src="67" tgt="3565" wght="0.031821895884140888" />
        <Con id="3851" src="43" tgt="3850" wght="0.16082155388688649" />
        <Con id="3852" src="3850" tgt="81" wght="-0.14035915878682961" />
        <Con id="3854" src="14" tgt="3783" wght="0.071113829296507225" />
        <Con id="3861" src="26" tgt="3565" wght="-0.047496329323989533" />
        <Con id="3865" src="62" tgt="3698" wght="0.63827267804112808" />
        <Con id="3871" src="19" tgt="879" wght="-0.4728885095771545" />
        <Con id="3878" src="56" tgt="3698" wght="0.0716534385583222" />
        <Con id="3917" src="75" tgt="3698" wght="-0.43342683287597888" />
        <Con id="3920" src="56" tgt="3565" wght="0.00885993620508634" />
        <Con id="3929" src="3698" tgt="3783" wght="0.26032753342776355" />
        <Con id="3933" src="0" tgt="3698" wght="0.48531853891300425" />
        <Con id="3997" src="78" tgt="3546" wght="-0.046085481191692784" />
        <Con id="4073" src="79" tgt="3698" wght="0.2288988221856916" />
        <Con id="4231" src="50" tgt="3783" wght="-0.023947554641808047" />
        <Con id="4238" src="879" tgt="3783" wght="0.080728131095215372" />
        <Con id="4463" src="59" tgt="3783" wght="0.01014201049265966" />
        <Con id="4745" src="31" tgt="4744" wght="-0.12147902904930734" />
        <Con id="4746" src="4744" tgt="509" wght="-0.022397257937205369" />
        <Con id="4750" src="42" tgt="4749" wght="0.016870594297285116" />
        <Con id="4751" src="4749" tgt="558" wght="0.051477652804811432" />
        <Con id="4756" src="4744" tgt="81" wght="0.1702301343093354" />
        <Con id="4808" src="4" tgt="3565" wght="-0.047087571583688259" />
        <Con id="4969" src="29" tgt="4744" wght="0.027367130561588605" />
        <Con id="5016" src="65" tgt="3565" wght="0.00040380600377250362" />
        <Con id="5059" src="627" tgt="4744" wght="0.31674240647156987" />
      </Connections>
    </Network>
  </Networks>
</Root>