<?xml version="1.0" encoding="utf-8"?>
<Root>
  <ActivationFunctions>
    <Fn id="0" name="PlainSigmoid" prob="1" />
  </ActivationFunctions>
  <Networks>
    <Network id="66103" birthGen="825" fitness="0.64465215122256114">
      <Nodes>
        <Node type="bias" id="0" />
        <Node type="in" id="1" />
        <Node type="in" id="2" />
        <Node type="in" id="3" />
        <Node type="in" id="4" />
        <Node type="in" id="5" />
        <Node type="in" id="6" />
        <Node type="in" id="7" />
        <Node type="in" id="8" />
        <Node type="in" id="9" />
        <Node type="in" id="10" />
        <Node type="in" id="11" />
        <Node type="in" id="12" />
        <Node type="in" id="13" />
        <Node type="in" id="14" />
        <Node type="in" id="15" />
        <Node type="in" id="16" />
        <Node type="in" id="17" />
        <Node type="in" id="18" />
        <Node type="in" id="19" />
        <Node type="in" id="20" />
        <Node type="in" id="21" />
        <Node type="in" id="22" />
        <Node type="in" id="23" />
        <Node type="in" id="24" />
        <Node type="in" id="25" />
        <Node type="in" id="26" />
        <Node type="in" id="27" />
        <Node type="in" id="28" />
        <Node type="in" id="29" />
        <Node type="in" id="30" />
        <Node type="in" id="31" />
        <Node type="in" id="32" />
        <Node type="in" id="33" />
        <Node type="in" id="34" />
        <Node type="in" id="35" />
        <Node type="in" id="36" />
        <Node type="in" id="37" />
        <Node type="in" id="38" />
        <Node type="in" id="39" />
        <Node type="in" id="40" />
        <Node type="in" id="41" />
        <Node type="in" id="42" />
        <Node type="in" id="43" />
        <Node type="in" id="44" />
        <Node type="in" id="45" />
        <Node type="in" id="46" />
        <Node type="in" id="47" />
        <Node type="in" id="48" />
        <Node type="in" id="49" />
        <Node type="in" id="50" />
        <Node type="in" id="51" />
        <Node type="in" id="52" />
        <Node type="in" id="53" />
        <Node type="in" id="54" />
        <Node type="in" id="55" />
        <Node type="in" id="56" />
        <Node type="in" id="57" />
        <Node type="in" id="58" />
        <Node type="in" id="59" />
        <Node type="in" id="60" />
        <Node type="in" id="61" />
        <Node type="in" id="62" />
        <Node type="in" id="63" />
        <Node type="in" id="64" />
        <Node type="in" id="65" />
        <Node type="in" id="66" />
        <Node type="in" id="67" />
        <Node type="in" id="68" />
        <Node type="in" id="69" />
        <Node type="in" id="70" />
        <Node type="in" id="71" />
        <Node type="in" id="72" />
        <Node type="in" id="73" />
        <Node type="in" id="74" />
        <Node type="in" id="75" />
        <Node type="in" id="76" />
        <Node type="in" id="77" />
        <Node type="in" id="78" />
        <Node type="in" id="79" />
        <Node type="in" id="80" />
        <Node type="out" id="81" />
      </Nodes>
      <Connections>
        <Con id="88" src="6" tgt="81" wght="5" />
        <Con id="91" src="9" tgt="81" wght="-3.9348542806040374" />
        <Con id="102" src="20" tgt="81" wght="5" />
        <Con id="105" src="23" tgt="81" wght="1.4902340374658212" />
        <Con id="107" src="25" tgt="81" wght="3.0174149304156881" />
        <Con id="109" src="27" tgt="81" wght="2.9521559477402954" />
        <Con id="125" src="43" tgt="81" wght="5" />
        <Con id="127" src="45" tgt="81" wght="4.9438233064277144" />
        <Con id="128" src="46" tgt="81" wght="0.065913916914124654" />
        <Con id="129" src="47" tgt="81" wght="4.6047975647678108" />
        <Con id="130" src="48" tgt="81" wght="2.690935029946417" />
        <Con id="131" src="49" tgt="81" wght="5" />
        <Con id="134" src="52" tgt="81" wght="3.7270101887870681" />
        <Con id="140" src="58" tgt="81" wght="3.5837571731578755" />
        <Con id="141" src="59" tgt="81" wght="-5" />
        <Con id="142" src="60" tgt="81" wght="3.0367509578161935" />
        <Con id="152" src="70" tgt="81" wght="5" />
        <Con id="154" src="72" tgt="81" wght="1.4949283171490748" />
        <Con id="164" src="42" tgt="81" wght="0.30488274623410905" />
        <Con id="165" src="73" tgt="81" wght="4.7499348231019471" />
        <Con id="166" src="1" tgt="81" wght="5" />
        <Con id="167" src="17" tgt="81" wght="4.4363919927991731" />
        <Con id="169" src="30" tgt="81" wght="2.2031267770282059" />
        <Con id="171" src="41" tgt="81" wght="4.9926934687117184" />
        <Con id="173" src="63" tgt="81" wght="0.936875450535532" />
        <Con id="174" src="55" tgt="81" wght="1.8709673399305116" />
        <Con id="175" src="0" tgt="81" wght="0.25607186138006771" />
        <Con id="176" src="7" tgt="81" wght="3.1827313777527775" />
        <Con id="178" src="18" tgt="81" wght="2.7325273848415983" />
        <Con id="181" src="40" tgt="81" wght="-0.72108205684999571" />
        <Con id="182" src="53" tgt="81" wght="0.28417398412678374" />
        <Con id="183" src="32" tgt="81" wght="0.626754215908611" />
        <Con id="184" src="61" tgt="81" wght="3.1750310907158048" />
        <Con id="185" src="57" tgt="81" wght="5" />
        <Con id="186" src="37" tgt="81" wght="1.7277794144205012" />
        <Con id="188" src="62" tgt="81" wght="2.7866615830014192" />
        <Con id="190" src="28" tgt="81" wght="-5" />
        <Con id="193" src="35" tgt="81" wght="4.0094601507976826" />
        <Con id="195" src="8" tgt="81" wght="3.7794789109466453" />
        <Con id="196" src="65" tgt="81" wght="5" />
        <Con id="197" src="16" tgt="81" wght="2.61477821084168" />
        <Con id="198" src="5" tgt="81" wght="4.3281012486641615" />
        <Con id="199" src="14" tgt="81" wght="-1.4141494288916114" />
        <Con id="201" src="64" tgt="81" wght="4.4001553439290539" />
        <Con id="202" src="68" tgt="81" wght="4.9440287505655967" />
        <Con id="203" src="15" tgt="81" wght="0.51117823689626418" />
        <Con id="204" src="79" tgt="81" wght="1.8001707123758455" />
        <Con id="205" src="26" tgt="81" wght="1.1241154786463132" />
        <Con id="206" src="69" tgt="81" wght="2.3008985410679461" />
        <Con id="207" src="10" tgt="81" wght="3.6834421609294412" />
        <Con id="208" src="74" tgt="81" wght="2.8242934490716873" />
        <Con id="209" src="44" tgt="81" wght="1.7060447776838306" />
        <Con id="210" src="51" tgt="81" wght="5" />
        <Con id="211" src="3" tgt="81" wght="4.9739600183646031" />
        <Con id="213" src="2" tgt="81" wght="2.5048461828461326" />
        <Con id="215" src="54" tgt="81" wght="3.4690146284542371" />
        <Con id="216" src="11" tgt="81" wght="1.2044046820293643" />
        <Con id="218" src="33" tgt="81" wght="0.73407824288253409" />
        <Con id="219" src="38" tgt="81" wght="-0.13966011807125575" />
        <Con id="222" src="80" tgt="81" wght="0.47255023599303819" />
        <Con id="223" src="4" tgt="81" wght="2.1809072476794387" />
        <Con id="224" src="19" tgt="81" wght="0.92354361998460022" />
        <Con id="226" src="29" tgt="81" wght="2.6697558540880695" />
        <Con id="229" src="50" tgt="81" wght="-2.0008989136732898" />
        <Con id="230" src="24" tgt="81" wght="2.1823593673342914" />
        <Con id="232" src="31" tgt="81" wght="1.4349129726794805" />
        <Con id="234" src="78" tgt="81" wght="5" />
        <Con id="236" src="67" tgt="81" wght="-3.0414801893980563" />
        <Con id="238" src="34" tgt="81" wght="5" />
        <Con id="240" src="71" tgt="81" wght="3.3807690537325121" />
        <Con id="241" src="39" tgt="81" wght="-1.7281850742700975" />
        <Con id="242" src="12" tgt="81" wght="1.1504036199445042" />
        <Con id="243" src="22" tgt="81" wght="5" />
      </Connections>
    </Network>
  </Networks>
</Root>