<?xml version="1.0" encoding="utf-8"?>
<Root>
  <ActivationFunctions>
    <Fn id="0" name="PlainSigmoid" prob="1" />
  </ActivationFunctions>
  <Networks>
    <Network id="291234" birthGen="3639" fitness="0.64376682255630779">
      <Nodes>
        <Node type="bias" id="0" />
        <Node type="in" id="1" />
        <Node type="in" id="2" />
        <Node type="in" id="3" />
        <Node type="in" id="4" />
        <Node type="in" id="5" />
        <Node type="in" id="6" />
        <Node type="in" id="7" />
        <Node type="in" id="8" />
        <Node type="in" id="9" />
        <Node type="in" id="10" />
        <Node type="in" id="11" />
        <Node type="in" id="12" />
        <Node type="in" id="13" />
        <Node type="in" id="14" />
        <Node type="in" id="15" />
        <Node type="in" id="16" />
        <Node type="in" id="17" />
        <Node type="in" id="18" />
        <Node type="in" id="19" />
        <Node type="in" id="20" />
        <Node type="in" id="21" />
        <Node type="in" id="22" />
        <Node type="in" id="23" />
        <Node type="in" id="24" />
        <Node type="in" id="25" />
        <Node type="in" id="26" />
        <Node type="in" id="27" />
        <Node type="in" id="28" />
        <Node type="in" id="29" />
        <Node type="in" id="30" />
        <Node type="in" id="31" />
        <Node type="in" id="32" />
        <Node type="in" id="33" />
        <Node type="in" id="34" />
        <Node type="in" id="35" />
        <Node type="in" id="36" />
        <Node type="in" id="37" />
        <Node type="in" id="38" />
        <Node type="in" id="39" />
        <Node type="in" id="40" />
        <Node type="in" id="41" />
        <Node type="in" id="42" />
        <Node type="in" id="43" />
        <Node type="in" id="44" />
        <Node type="in" id="45" />
        <Node type="in" id="46" />
        <Node type="in" id="47" />
        <Node type="in" id="48" />
        <Node type="in" id="49" />
        <Node type="in" id="50" />
        <Node type="in" id="51" />
        <Node type="in" id="52" />
        <Node type="in" id="53" />
        <Node type="in" id="54" />
        <Node type="in" id="55" />
        <Node type="in" id="56" />
        <Node type="in" id="57" />
        <Node type="in" id="58" />
        <Node type="in" id="59" />
        <Node type="in" id="60" />
        <Node type="in" id="61" />
        <Node type="in" id="62" />
        <Node type="in" id="63" />
        <Node type="in" id="64" />
        <Node type="in" id="65" />
        <Node type="in" id="66" />
        <Node type="in" id="67" />
        <Node type="in" id="68" />
        <Node type="in" id="69" />
        <Node type="in" id="70" />
        <Node type="in" id="71" />
        <Node type="in" id="72" />
        <Node type="in" id="73" />
        <Node type="in" id="74" />
        <Node type="in" id="75" />
        <Node type="in" id="76" />
        <Node type="in" id="77" />
        <Node type="in" id="78" />
        <Node type="in" id="79" />
        <Node type="in" id="80" />
        <Node type="out" id="81" />
      </Nodes>
      <Connections>
        <Con id="85" src="3" tgt="81" wght="0.20958719239995804" />
        <Con id="88" src="6" tgt="81" wght="0.5911368346925383" />
        <Con id="89" src="7" tgt="81" wght="0.0010008306211283721" />
        <Con id="90" src="8" tgt="81" wght="0.012791724863648364" />
        <Con id="92" src="10" tgt="81" wght="0.26782245211260469" />
        <Con id="93" src="11" tgt="81" wght="0.14312040717913282" />
        <Con id="94" src="12" tgt="81" wght="0.089246620498547424" />
        <Con id="95" src="13" tgt="81" wght="0.0075829538005120472" />
        <Con id="101" src="19" tgt="81" wght="0.10498913402122746" />
        <Con id="105" src="23" tgt="81" wght="0.095227759193537223" />
        <Con id="108" src="26" tgt="81" wght="0.037692507273506828" />
        <Con id="110" src="28" tgt="81" wght="-0.011474236704647336" />
        <Con id="112" src="30" tgt="81" wght="0.15141119054092611" />
        <Con id="113" src="31" tgt="81" wght="0.079249170009289022" />
        <Con id="114" src="32" tgt="81" wght="0.051552809691039078" />
        <Con id="116" src="34" tgt="81" wght="0.30808004327911653" />
        <Con id="118" src="36" tgt="81" wght="-0.0039534521765239887" />
        <Con id="124" src="42" tgt="81" wght="-0.010298447375844507" />
        <Con id="125" src="43" tgt="81" wght="0.37455992890492507" />
        <Con id="127" src="45" tgt="81" wght="0.32123077306743697" />
        <Con id="140" src="58" tgt="81" wght="0.27529559282646271" />
        <Con id="141" src="59" tgt="81" wght="-0.24297753439350431" />
        <Con id="148" src="66" tgt="81" wght="0.0009217122721360731" />
        <Con id="153" src="71" tgt="81" wght="0.25009774266491414" />
        <Con id="154" src="72" tgt="81" wght="0.12883406185858964" />
        <Con id="156" src="74" tgt="81" wght="0.075728033843208087" />
        <Con id="159" src="77" tgt="81" wght="0.031142513919298651" />
        <Con id="163" src="73" tgt="81" wght="0.064371369234979547" />
        <Con id="167" src="20" tgt="81" wght="0.090665872439287476" />
        <Con id="170" src="17" tgt="81" wght="0.28887733521642978" />
        <Con id="171" src="33" tgt="81" wght="0.058629825140207648" />
        <Con id="172" src="67" tgt="81" wght="0.0044743752336801083" />
        <Con id="176" src="60" tgt="81" wght="0.17035082344427041" />
        <Con id="177" src="62" tgt="81" wght="0.31708535661207587" />
        <Con id="178" src="75" tgt="81" wght="-0.012911146303723321" />
        <Con id="180" src="37" tgt="81" wght="0.14054550030912435" />
        <Con id="181" src="44" tgt="81" wght="0.11417495497402794" />
        <Con id="182" src="78" tgt="81" wght="0.15352572139570117" />
        <Con id="183" src="16" tgt="81" wght="0.21210374953658145" />
        <Con id="184" src="68" tgt="81" wght="0.021809301254584794" />
        <Con id="185" src="29" tgt="81" wght="0.10540655018471991" />
        <Con id="186" src="21" tgt="81" wght="0.068650752389814745" />
        <Con id="187" src="63" tgt="81" wght="0.0048849695351260557" />
        <Con id="189" src="22" tgt="81" wght="0.317081654614356" />
        <Con id="190" src="25" tgt="81" wght="0.1102301391471531" />
        <Con id="193" src="39" tgt="81" wght="-0.088976860132869623" />
        <Con id="194" src="56" tgt="81" wght="-0.0023943629181031288" />
        <Con id="196" src="70" tgt="81" wght="0.43755598560276843" />
        <Con id="197" src="65" tgt="81" wght="0.061861434669183396" />
        <Con id="198" src="54" tgt="81" wght="0.1768221454912669" />
        <Con id="200" src="51" tgt="81" wght="0.18377471525666872" />
        <Con id="201" src="50" tgt="81" wght="-0.015606800390683285" />
        <Con id="202" src="4" tgt="81" wght="0.092376793661162887" />
        <Con id="203" src="40" tgt="81" wght="-0.062150611359643851" />
        <Con id="204" src="57" tgt="81" wght="0.010220183952691791" />
        <Con id="205" src="46" tgt="81" wght="-0.00895876186111182" />
        <Con id="206" src="1" tgt="81" wght="0.042317489073159367" />
        <Con id="208" src="9" tgt="81" wght="-0.06801750176978226" />
        <Con id="209" src="52" tgt="81" wght="0.2664128059550761" />
        <Con id="210" src="49" tgt="81" wght="0.36476837566522313" />
        <Con id="211" src="15" tgt="81" wght="0.033563934371350655" />
        <Con id="212" src="61" tgt="81" wght="0.22692201021919678" />
        <Con id="219" src="80" tgt="81" wght="0.026874196094591102" />
        <Con id="221" src="0" tgt="81" wght="0.01057268849798026" />
        <Con id="222" src="2" tgt="81" wght="0.20478068547974612" />
        <Con id="223" src="35" tgt="81" wght="0.28649095353454379" />
        <Con id="224" src="64" tgt="81" wght="0.10711913170791111" />
        <Con id="225" src="27" tgt="81" wght="0.21417218404680446" />
        <Con id="226" src="79" tgt="81" wght="0.13492971126222325" />
        <Con id="227" src="41" tgt="81" wght="0.028074697919751139" />
        <Con id="229" src="5" tgt="81" wght="0.21836690438429404" />
        <Con id="230" src="18" tgt="81" wght="0.19515976668333837" />
        <Con id="232" src="55" tgt="81" wght="0.16978086663288519" />
        <Con id="233" src="14" tgt="81" wght="-0.14507788891369328" />
        <Con id="234" src="48" tgt="81" wght="0.16765044668169887" />
        <Con id="236" src="69" tgt="81" wght="0.292314738002534" />
        <Con id="238" src="24" tgt="81" wght="0.23665470502967137" />
        <Con id="239" src="76" tgt="81" wght="0.077652126474644909" />
        <Con id="240" src="47" tgt="81" wght="0.020127820429274156" />
      </Connections>
    </Network>
  </Networks>
</Root>