<?xml version="1.0" encoding="utf-8"?>
<Root>
  <ActivationFunctions>
    <Fn id="0" name="PlainSigmoid" prob="1" />
  </ActivationFunctions>
  <Networks>
    <Network id="29555" birthGen="369" fitness="0.67477392144767434">
      <Nodes>
        <Node type="bias" id="0" />
        <Node type="in" id="1" />
        <Node type="in" id="2" />
        <Node type="in" id="3" />
        <Node type="in" id="4" />
        <Node type="in" id="5" />
        <Node type="in" id="6" />
        <Node type="in" id="7" />
        <Node type="in" id="8" />
        <Node type="in" id="9" />
        <Node type="in" id="10" />
        <Node type="in" id="11" />
        <Node type="in" id="12" />
        <Node type="in" id="13" />
        <Node type="in" id="14" />
        <Node type="in" id="15" />
        <Node type="in" id="16" />
        <Node type="in" id="17" />
        <Node type="in" id="18" />
        <Node type="in" id="19" />
        <Node type="in" id="20" />
        <Node type="in" id="21" />
        <Node type="in" id="22" />
        <Node type="in" id="23" />
        <Node type="in" id="24" />
        <Node type="in" id="25" />
        <Node type="in" id="26" />
        <Node type="in" id="27" />
        <Node type="in" id="28" />
        <Node type="in" id="29" />
        <Node type="in" id="30" />
        <Node type="in" id="31" />
        <Node type="in" id="32" />
        <Node type="in" id="33" />
        <Node type="in" id="34" />
        <Node type="in" id="35" />
        <Node type="in" id="36" />
        <Node type="in" id="37" />
        <Node type="in" id="38" />
        <Node type="in" id="39" />
        <Node type="in" id="40" />
        <Node type="in" id="41" />
        <Node type="in" id="42" />
        <Node type="in" id="43" />
        <Node type="in" id="44" />
        <Node type="in" id="45" />
        <Node type="in" id="46" />
        <Node type="in" id="47" />
        <Node type="in" id="48" />
        <Node type="in" id="49" />
        <Node type="in" id="50" />
        <Node type="in" id="51" />
        <Node type="in" id="52" />
        <Node type="in" id="53" />
        <Node type="in" id="54" />
        <Node type="in" id="55" />
        <Node type="in" id="56" />
        <Node type="in" id="57" />
        <Node type="in" id="58" />
        <Node type="in" id="59" />
        <Node type="in" id="60" />
        <Node type="in" id="61" />
        <Node type="in" id="62" />
        <Node type="in" id="63" />
        <Node type="in" id="64" />
        <Node type="in" id="65" />
        <Node type="in" id="66" />
        <Node type="in" id="67" />
        <Node type="in" id="68" />
        <Node type="in" id="69" />
        <Node type="in" id="70" />
        <Node type="in" id="71" />
        <Node type="in" id="72" />
        <Node type="in" id="73" />
        <Node type="in" id="74" />
        <Node type="in" id="75" />
        <Node type="out" id="76" />
      </Nodes>
      <Connections>
        <Con id="82" src="5" tgt="76" wght="-4.961341140375132" />
        <Con id="83" src="6" tgt="76" wght="5" />
        <Con id="87" src="10" tgt="76" wght="2.7758590860463368" />
        <Con id="90" src="13" tgt="76" wght="0.99903298738381052" />
        <Con id="97" src="20" tgt="76" wght="5" />
        <Con id="99" src="22" tgt="76" wght="1.8913486702585443" />
        <Con id="100" src="23" tgt="76" wght="3.0532049501591261" />
        <Con id="102" src="25" tgt="76" wght="1.6116652653081414" />
        <Con id="104" src="27" tgt="76" wght="3.851062204200284" />
        <Con id="105" src="28" tgt="76" wght="5" />
        <Con id="109" src="32" tgt="76" wght="0.3462841780264268" />
        <Con id="111" src="34" tgt="76" wght="-0.23519086924691457" />
        <Con id="112" src="35" tgt="76" wght="5" />
        <Con id="113" src="36" tgt="76" wght="0.44164187073276895" />
        <Con id="117" src="40" tgt="76" wght="-0.91809463175109585" />
        <Con id="127" src="50" tgt="76" wght="-4.3721997371626973" />
        <Con id="129" src="52" tgt="76" wght="0.65959387460826435" />
        <Con id="130" src="53" tgt="76" wght="2.5501469957283711" />
        <Con id="131" src="54" tgt="76" wght="2.3675766270112204" />
        <Con id="132" src="55" tgt="76" wght="4.16316366605684" />
        <Con id="134" src="57" tgt="76" wght="-4.0096765002732733" />
        <Con id="146" src="69" tgt="76" wght="5" />
        <Con id="151" src="74" tgt="76" wght="2.0525720701069612" />
        <Con id="152" src="75" tgt="76" wght="1.5790917713720054" />
        <Con id="153" src="12" tgt="76" wght="0.83198786724158669" />
        <Con id="154" src="29" tgt="76" wght="-0.966815507108153" />
        <Con id="155" src="62" tgt="76" wght="5" />
        <Con id="156" src="58" tgt="76" wght="-0.45038405100624029" />
        <Con id="158" src="51" tgt="76" wght="0.89078129734843969" />
        <Con id="159" src="56" tgt="76" wght="4.4163852631758482" />
        <Con id="160" src="41" tgt="76" wght="1.1640559929539422" />
        <Con id="162" src="66" tgt="76" wght="5" />
        <Con id="163" src="3" tgt="76" wght="1.9773408059419213" />
        <Con id="166" src="60" tgt="76" wght="1.5931682037499859" />
        <Con id="168" src="31" tgt="76" wght="1.8700848793839449" />
        <Con id="169" src="48" tgt="76" wght="4.6859496978700914" />
        <Con id="170" src="45" tgt="76" wght="-2.9993060474483126" />
        <Con id="171" src="15" tgt="76" wght="0.1205988580689533" />
        <Con id="172" src="43" tgt="76" wght="3.6840977118115967" />
        <Con id="174" src="21" tgt="76" wght="-0.94156295696638237" />
        <Con id="175" src="38" tgt="76" wght="-0.54329366418422254" />
        <Con id="180" src="24" tgt="76" wght="5" />
        <Con id="184" src="19" tgt="76" wght="1.0414162252482515" />
        <Con id="185" src="30" tgt="76" wght="1.8259662353467487" />
        <Con id="187" src="26" tgt="76" wght="2.5825946918238172" />
        <Con id="188" src="18" tgt="76" wght="-0.682610440241981" />
        <Con id="190" src="0" tgt="76" wght="0.49514427301875485" />
        <Con id="191" src="59" tgt="76" wght="5" />
        <Con id="192" src="9" tgt="76" wght="2.3424121878724016" />
        <Con id="193" src="46" tgt="76" wght="-5" />
        <Con id="194" src="65" tgt="76" wght="1.5798904461381003" />
        <Con id="195" src="63" tgt="76" wght="0.78068295028060675" />
        <Con id="196" src="17" tgt="76" wght="5" />
        <Con id="197" src="67" tgt="76" wght="2.4157771568315356" />
        <Con id="198" src="1" tgt="76" wght="-1.9178905869254619" />
        <Con id="199" src="2" tgt="76" wght="1.3682003083490286" />
        <Con id="200" src="64" tgt="76" wght="2.335640443032049" />
        <Con id="203" src="37" tgt="76" wght="2.0753716732362442" />
        <Con id="204" src="73" tgt="76" wght="-2.6875676845751708" />
        <Con id="205" src="61" tgt="76" wght="3.4774224171112458" />
        <Con id="206" src="47" tgt="76" wght="4.2952690561910805" />
        <Con id="207" src="68" tgt="76" wght="-2.7909513018474748" />
        <Con id="209" src="11" tgt="76" wght="1.3099568927347347" />
        <Con id="210" src="42" tgt="76" wght="5" />
        <Con id="211" src="49" tgt="76" wght="4.39308210028106" />
        <Con id="212" src="7" tgt="76" wght="-4.9846244148208534" />
        <Con id="213" src="33" tgt="76" wght="1.1761324231236583" />
        <Con id="215" src="71" tgt="76" wght="0.13505085116896509" />
        <Con id="217" src="4" tgt="76" wght="5" />
        <Con id="218" src="44" tgt="76" wght="3.6702017485415666" />
        <Con id="219" src="14" tgt="76" wght="-2.0349749106431414" />
        <Con id="221" src="70" tgt="76" wght="1.1718086614758705" />
        <Con id="224" src="72" tgt="76" wght="-0.050966884599985315" />
        <Con id="225" src="8" tgt="76" wght="2.3818092187866569" />
        <Con id="227" src="16" tgt="76" wght="0.94594799537093754" />
      </Connections>
    </Network>
  </Networks>
</Root>