<?xml version="1.0" encoding="utf-8"?>
<Root>
  <ActivationFunctions>
    <Fn id="0" name="PlainSigmoid" prob="1" />
  </ActivationFunctions>
  <Networks>
    <Network id="104456" birthGen="1303" fitness="0.67759060522704306">
      <Nodes>
        <Node type="bias" id="0" />
        <Node type="in" id="1" />
        <Node type="in" id="2" />
        <Node type="in" id="3" />
        <Node type="in" id="4" />
        <Node type="in" id="5" />
        <Node type="in" id="6" />
        <Node type="in" id="7" />
        <Node type="in" id="8" />
        <Node type="in" id="9" />
        <Node type="in" id="10" />
        <Node type="in" id="11" />
        <Node type="in" id="12" />
        <Node type="in" id="13" />
        <Node type="in" id="14" />
        <Node type="in" id="15" />
        <Node type="in" id="16" />
        <Node type="in" id="17" />
        <Node type="in" id="18" />
        <Node type="in" id="19" />
        <Node type="in" id="20" />
        <Node type="in" id="21" />
        <Node type="in" id="22" />
        <Node type="in" id="23" />
        <Node type="in" id="24" />
        <Node type="in" id="25" />
        <Node type="in" id="26" />
        <Node type="in" id="27" />
        <Node type="in" id="28" />
        <Node type="in" id="29" />
        <Node type="in" id="30" />
        <Node type="in" id="31" />
        <Node type="in" id="32" />
        <Node type="in" id="33" />
        <Node type="in" id="34" />
        <Node type="in" id="35" />
        <Node type="in" id="36" />
        <Node type="in" id="37" />
        <Node type="in" id="38" />
        <Node type="in" id="39" />
        <Node type="in" id="40" />
        <Node type="in" id="41" />
        <Node type="in" id="42" />
        <Node type="in" id="43" />
        <Node type="in" id="44" />
        <Node type="in" id="45" />
        <Node type="in" id="46" />
        <Node type="in" id="47" />
        <Node type="in" id="48" />
        <Node type="in" id="49" />
        <Node type="in" id="50" />
        <Node type="in" id="51" />
        <Node type="in" id="52" />
        <Node type="in" id="53" />
        <Node type="in" id="54" />
        <Node type="in" id="55" />
        <Node type="in" id="56" />
        <Node type="in" id="57" />
        <Node type="in" id="58" />
        <Node type="in" id="59" />
        <Node type="in" id="60" />
        <Node type="in" id="61" />
        <Node type="in" id="62" />
        <Node type="in" id="63" />
        <Node type="in" id="64" />
        <Node type="in" id="65" />
        <Node type="in" id="66" />
        <Node type="in" id="67" />
        <Node type="in" id="68" />
        <Node type="in" id="69" />
        <Node type="in" id="70" />
        <Node type="in" id="71" />
        <Node type="in" id="72" />
        <Node type="in" id="73" />
        <Node type="in" id="74" />
        <Node type="in" id="75" />
        <Node type="out" id="76" />
        <Node type="hid" id="219" />
        <Node type="hid" id="235" />
        <Node type="hid" id="276" />
        <Node type="hid" id="393" />
        <Node type="hid" id="483" />
      </Nodes>
      <Connections>
        <Con id="83" src="6" tgt="76" wght="5" />
        <Con id="87" src="10" tgt="76" wght="0.371029637584028" />
        <Con id="88" src="11" tgt="76" wght="1.0775132882483758" />
        <Con id="89" src="12" tgt="76" wght="0.58143290805147907" />
        <Con id="93" src="16" tgt="76" wght="2.3893152059683733" />
        <Con id="94" src="17" tgt="76" wght="4.9941820699250927" />
        <Con id="98" src="21" tgt="76" wght="2.368349686182714" />
        <Con id="99" src="22" tgt="76" wght="0.4677143127098109" />
        <Con id="101" src="24" tgt="76" wght="5" />
        <Con id="106" src="29" tgt="76" wght="-0.013111964377858776" />
        <Con id="112" src="35" tgt="76" wght="4.9626070431549172" />
        <Con id="113" src="36" tgt="76" wght="0.42858541988418153" />
        <Con id="114" src="37" tgt="76" wght="1.8118671952356757" />
        <Con id="115" src="38" tgt="76" wght="-0.11750930671876311" />
        <Con id="117" src="40" tgt="76" wght="-0.89087541957473859" />
        <Con id="124" src="47" tgt="76" wght="1.5683568576860036" />
        <Con id="125" src="48" tgt="76" wght="5" />
        <Con id="127" src="50" tgt="76" wght="-5" />
        <Con id="141" src="64" tgt="76" wght="2.3117927940662928" />
        <Con id="160" src="4" tgt="76" wght="3.847949086781723" />
        <Con id="161" src="46" tgt="76" wght="-4.5579157095481806" />
        <Con id="165" src="31" tgt="76" wght="0.90521996011564476" />
        <Con id="166" src="55" tgt="76" wght="4.9701879062927521" />
        <Con id="167" src="39" tgt="76" wght="-0.34369552974894041" />
        <Con id="168" src="59" tgt="76" wght="4.0167910492527534" />
        <Con id="169" src="56" tgt="76" wght="3.2945881892056947" />
        <Con id="170" src="23" tgt="76" wght="1.7354163025078901" />
        <Con id="171" src="44" tgt="76" wght="5" />
        <Con id="172" src="62" tgt="76" wght="4.9657156807680733" />
        <Con id="173" src="27" tgt="76" wght="2.777568761803876" />
        <Con id="174" src="63" tgt="76" wght="4.463695187984821" />
        <Con id="179" src="60" tgt="76" wght="1.574631526939313" />
        <Con id="180" src="5" tgt="76" wght="-4.9758978963151295" />
        <Con id="184" src="73" tgt="76" wght="-4.2648976462054486" />
        <Con id="187" src="52" tgt="76" wght="0.66933194404467822" />
        <Con id="189" src="15" tgt="76" wght="0.14903750725340278" />
        <Con id="190" src="53" tgt="76" wght="2.6403335641673791" />
        <Con id="194" src="3" tgt="76" wght="1.7732769354742715" />
        <Con id="195" src="75" tgt="76" wght="1.1369602731580706" />
        <Con id="199" src="72" tgt="76" wght="-0.17815082953680625" />
        <Con id="202" src="19" tgt="76" wght="1.1592451154942716" />
        <Con id="203" src="74" tgt="76" wght="1.6415391705841009" />
        <Con id="207" src="14" tgt="76" wght="-1.8281626669495135" />
        <Con id="209" src="71" tgt="76" wght="-0.049799075950082039" />
        <Con id="211" src="8" tgt="76" wght="4.9891190995399972" />
        <Con id="212" src="54" tgt="76" wght="2.0561338266897415" />
        <Con id="213" src="45" tgt="76" wght="-2.2933222823817618" />
        <Con id="214" src="7" tgt="76" wght="-2.6229721187320627" />
        <Con id="216" src="66" tgt="76" wght="1.692121613462507" />
        <Con id="217" src="70" tgt="76" wght="1.0516689917303104" />
        <Con id="218" src="20" tgt="76" wght="5" />
        <Con id="220" src="44" tgt="219" wght="0.72737444621167757" />
        <Con id="221" src="219" tgt="76" wght="4.1585803313370668" />
        <Con id="222" src="1" tgt="76" wght="-4.5583465610866405" />
        <Con id="223" src="51" tgt="76" wght="2.1555975101974445" />
        <Con id="224" src="33" tgt="76" wght="0.832354692059172" />
        <Con id="231" src="49" tgt="76" wght="5" />
        <Con id="234" src="25" tgt="76" wght="0.503778436147476" />
        <Con id="236" src="10" tgt="235" wght="3.3342613989381076" />
        <Con id="237" src="235" tgt="76" wght="5" />
        <Con id="239" src="69" tgt="76" wght="3.0838261849128825" />
        <Con id="253" src="30" tgt="76" wght="1.3581385128851169" />
        <Con id="257" src="42" tgt="76" wght="5" />
        <Con id="265" src="26" tgt="76" wght="2.0152388144378071" />
        <Con id="269" src="5" tgt="219" wght="3.5592641595969843" />
        <Con id="277" src="21" tgt="276" wght="2.1262142703688518" />
        <Con id="278" src="276" tgt="76" wght="-4.3390392806292271" />
        <Con id="285" src="219" tgt="276" wght="-5" />
        <Con id="294" src="66" tgt="219" wght="3.0502174058703737" />
        <Con id="295" src="6" tgt="219" wght="3.6571295842153884" />
        <Con id="300" src="67" tgt="219" wght="1.5750234508992473" />
        <Con id="311" src="9" tgt="219" wght="2.497310417425461" />
        <Con id="312" src="73" tgt="219" wght="-1.470000359137126" />
        <Con id="313" src="42" tgt="219" wght="-1.4924301374934754" />
        <Con id="323" src="2" tgt="235" wght="1.366706044722072" />
        <Con id="351" src="61" tgt="76" wght="4.9831262683353339" />
        <Con id="384" src="63" tgt="235" wght="5" />
        <Con id="394" src="11" tgt="393" wght="0.65891520566785744" />
        <Con id="395" src="393" tgt="76" wght="4.2090702639698341" />
        <Con id="401" src="26" tgt="276" wght="0.88837106209027961" />
        <Con id="402" src="31" tgt="235" wght="-1.3507295732625835" />
        <Con id="440" src="11" tgt="235" wght="-0.50298845919770363" />
        <Con id="449" src="8" tgt="276" wght="4.365735264456724" />
        <Con id="454" src="29" tgt="219" wght="-4.8595564545102965" />
        <Con id="465" src="50" tgt="276" wght="0.61135019398892654" />
        <Con id="475" src="55" tgt="219" wght="2.817097300363983" />
        <Con id="481" src="8" tgt="219" wght="5" />
        <Con id="484" src="25" tgt="483" wght="0.8004290765167128" />
        <Con id="485" src="483" tgt="76" wght="4.9589609562143666" />
        <Con id="494" src="7" tgt="276" wght="-1.3444848359707369" />
      </Connections>
    </Network>
  </Networks>
</Root>