<?xml version="1.0" encoding="utf-8"?>
<Root>
  <ActivationFunctions>
    <Fn id="0" name="SteepenedSigmoid" prob="1" />
  </ActivationFunctions>
  <Networks>
    <Network id="373355" birthGen="929" fitness="0.99581589958158989">
      <Nodes>
        <Node type="bias" id="0" />
        <Node type="in" id="1" />
        <Node type="in" id="2" />
        <Node type="in" id="3" />
        <Node type="in" id="4" />
        <Node type="out" id="5" />
        <Node type="out" id="6" />
        <Node type="out" id="7" />
        <Node type="hid" id="112" />
        <Node type="hid" id="118" />
        <Node type="hid" id="125" />
        <Node type="hid" id="289" />
        <Node type="hid" id="839" />
        <Node type="hid" id="944" />
      </Nodes>
      <Connections>
        <Con id="11" src="1" tgt="5" wght="-1.6400013578803692" />
        <Con id="20" src="4" tgt="5" wght="4.2089814623931652" />
        <Con id="26" src="1" tgt="6" wght="-1.2451683640087696" />
        <Con id="27" src="2" tgt="6" wght="-1.2773348586587308" />
        <Con id="31" src="3" tgt="5" wght="0.88892136894831275" />
        <Con id="32" src="0" tgt="5" wght="-4.3235237964428253" />
        <Con id="33" src="3" tgt="6" wght="2.8784839168036491" />
        <Con id="39" src="0" tgt="6" wght="1.78117499042855" />
        <Con id="46" src="1" tgt="7" wght="4.6248793975352491" />
        <Con id="47" src="4" tgt="6" wght="-2.5943032963165313" />
        <Con id="61" src="2" tgt="7" wght="-2.9161263264463311" />
        <Con id="63" src="0" tgt="7" wght="-0.70695944116408438" />
        <Con id="64" src="4" tgt="7" wght="-4.1881664598052986" />
        <Con id="66" src="3" tgt="7" wght="-4.6786510396004788" />
        <Con id="113" src="4" tgt="112" wght="-3.9665269860467762" />
        <Con id="114" src="112" tgt="6" wght="2.1342938585321254" />
        <Con id="119" src="4" tgt="118" wght="4.323995269220358" />
        <Con id="120" src="118" tgt="5" wght="3.4986213534260346" />
        <Con id="126" src="1" tgt="125" wght="1.6918856333162209" />
        <Con id="127" src="125" tgt="7" wght="4.1325768035610668" />
        <Con id="206" src="112" tgt="5" wght="-2.4438943448560733" />
        <Con id="243" src="118" tgt="6" wght="-3.8126609546482926" />
        <Con id="244" src="118" tgt="7" wght="-3.89183595252116" />
        <Con id="290" src="3" tgt="289" wght="-0.47159711263273635" />
        <Con id="291" src="289" tgt="6" wght="4.92058503763832" />
        <Con id="314" src="2" tgt="112" wght="2.290658827282245" />
        <Con id="325" src="2" tgt="118" wght="3.6001799084841131" />
        <Con id="364" src="112" tgt="118" wght="0.79003055025480284" />
        <Con id="371" src="0" tgt="118" wght="-1.3418630321420468" />
        <Con id="500" src="118" tgt="125" wght="1.7333918361294982" />
        <Con id="610" src="112" tgt="125" wght="5" />
        <Con id="615" src="125" tgt="289" wght="2.3592611046630343" />
        <Con id="669" src="0" tgt="125" wght="2.706429454963863" />
        <Con id="720" src="3" tgt="125" wght="-2.96861278444735" />
        <Con id="840" src="2" tgt="839" wght="1.6806583887658388" />
        <Con id="841" src="839" tgt="125" wght="-0.16740589260339458" />
        <Con id="915" src="112" tgt="839" wght="-0.22569950785754039" />
        <Con id="945" src="112" tgt="944" wght="-4.0517437201687869" />
        <Con id="946" src="944" tgt="7" wght="-3.9164671991618127" />
        <Con id="966" src="118" tgt="839" wght="-1.7422427081723548" />
      </Connections>
    </Network>
  </Networks>
</Root>