<?xml version="1.0" encoding="utf-8"?>
<Root>
  <ActivationFunctions>
    <Fn id="0" name="PlainSigmoid" prob="1" />
  </ActivationFunctions>
  <Networks>
    <Network id="301343" birthGen="3739" fitness="0.79126845171612281">
      <Nodes>
        <Node type="bias" id="0" />
        <Node type="in" id="1" />
        <Node type="in" id="2" />
        <Node type="in" id="3" />
        <Node type="in" id="4" />
        <Node type="in" id="5" />
        <Node type="in" id="6" />
        <Node type="in" id="7" />
        <Node type="in" id="8" />
        <Node type="in" id="9" />
        <Node type="in" id="10" />
        <Node type="in" id="11" />
        <Node type="in" id="12" />
        <Node type="in" id="13" />
        <Node type="in" id="14" />
        <Node type="in" id="15" />
        <Node type="in" id="16" />
        <Node type="in" id="17" />
        <Node type="in" id="18" />
        <Node type="in" id="19" />
        <Node type="in" id="20" />
        <Node type="in" id="21" />
        <Node type="in" id="22" />
        <Node type="in" id="23" />
        <Node type="in" id="24" />
        <Node type="in" id="25" />
        <Node type="in" id="26" />
        <Node type="in" id="27" />
        <Node type="in" id="28" />
        <Node type="in" id="29" />
        <Node type="in" id="30" />
        <Node type="in" id="31" />
        <Node type="in" id="32" />
        <Node type="in" id="33" />
        <Node type="in" id="34" />
        <Node type="in" id="35" />
        <Node type="in" id="36" />
        <Node type="in" id="37" />
        <Node type="in" id="38" />
        <Node type="in" id="39" />
        <Node type="in" id="40" />
        <Node type="in" id="41" />
        <Node type="in" id="42" />
        <Node type="in" id="43" />
        <Node type="in" id="44" />
        <Node type="in" id="45" />
        <Node type="in" id="46" />
        <Node type="in" id="47" />
        <Node type="in" id="48" />
        <Node type="in" id="49" />
        <Node type="in" id="50" />
        <Node type="in" id="51" />
        <Node type="in" id="52" />
        <Node type="in" id="53" />
        <Node type="in" id="54" />
        <Node type="in" id="55" />
        <Node type="in" id="56" />
        <Node type="in" id="57" />
        <Node type="in" id="58" />
        <Node type="in" id="59" />
        <Node type="in" id="60" />
        <Node type="in" id="61" />
        <Node type="in" id="62" />
        <Node type="in" id="63" />
        <Node type="in" id="64" />
        <Node type="in" id="65" />
        <Node type="in" id="66" />
        <Node type="in" id="67" />
        <Node type="in" id="68" />
        <Node type="in" id="69" />
        <Node type="in" id="70" />
        <Node type="in" id="71" />
        <Node type="in" id="72" />
        <Node type="in" id="73" />
        <Node type="in" id="74" />
        <Node type="in" id="75" />
        <Node type="in" id="76" />
        <Node type="in" id="77" />
        <Node type="in" id="78" />
        <Node type="in" id="79" />
        <Node type="in" id="80" />
        <Node type="in" id="81" />
        <Node type="in" id="82" />
        <Node type="in" id="83" />
        <Node type="in" id="84" />
        <Node type="in" id="85" />
        <Node type="in" id="86" />
        <Node type="in" id="87" />
        <Node type="in" id="88" />
        <Node type="in" id="89" />
        <Node type="in" id="90" />
        <Node type="in" id="91" />
        <Node type="in" id="92" />
        <Node type="in" id="93" />
        <Node type="in" id="94" />
        <Node type="in" id="95" />
        <Node type="in" id="96" />
        <Node type="in" id="97" />
        <Node type="in" id="98" />
        <Node type="in" id="99" />
        <Node type="in" id="100" />
        <Node type="in" id="101" />
        <Node type="in" id="102" />
        <Node type="in" id="103" />
        <Node type="in" id="104" />
        <Node type="in" id="105" />
        <Node type="in" id="106" />
        <Node type="in" id="107" />
        <Node type="in" id="108" />
        <Node type="in" id="109" />
        <Node type="in" id="110" />
        <Node type="in" id="111" />
        <Node type="in" id="112" />
        <Node type="in" id="113" />
        <Node type="in" id="114" />
        <Node type="in" id="115" />
        <Node type="in" id="116" />
        <Node type="in" id="117" />
        <Node type="in" id="118" />
        <Node type="in" id="119" />
        <Node type="in" id="120" />
        <Node type="in" id="121" />
        <Node type="in" id="122" />
        <Node type="in" id="123" />
        <Node type="in" id="124" />
        <Node type="in" id="125" />
        <Node type="in" id="126" />
        <Node type="in" id="127" />
        <Node type="in" id="128" />
        <Node type="in" id="129" />
        <Node type="in" id="130" />
        <Node type="in" id="131" />
        <Node type="in" id="132" />
        <Node type="in" id="133" />
        <Node type="in" id="134" />
        <Node type="in" id="135" />
        <Node type="in" id="136" />
        <Node type="in" id="137" />
        <Node type="in" id="138" />
        <Node type="in" id="139" />
        <Node type="in" id="140" />
        <Node type="out" id="141" />
      </Nodes>
      <Connections>
        <Con id="146" src="4" tgt="141" wght="-0.68048350949515668" />
        <Con id="148" src="6" tgt="141" wght="-0.76862151657702615" />
        <Con id="159" src="17" tgt="141" wght="1.0012713622848948" />
        <Con id="162" src="20" tgt="141" wght="-0.83385518943684833" />
        <Con id="169" src="27" tgt="141" wght="2.2632666134399506" />
        <Con id="195" src="53" tgt="141" wght="-2.1300000958491445" />
        <Con id="196" src="54" tgt="141" wght="-1.1162773278428486" />
        <Con id="203" src="61" tgt="141" wght="-2.0966493276856908" />
        <Con id="211" src="69" tgt="141" wght="-0.8862821409883197" />
        <Con id="218" src="76" tgt="141" wght="0.10455108619479804" />
        <Con id="219" src="77" tgt="141" wght="0.92005922589359879" />
        <Con id="224" src="82" tgt="141" wght="-0.58016439751019355" />
        <Con id="230" src="88" tgt="141" wght="0.36344645769312828" />
        <Con id="231" src="89" tgt="141" wght="-0.01387214544079431" />
        <Con id="246" src="104" tgt="141" wght="-0.49533470651278144" />
        <Con id="251" src="109" tgt="141" wght="-0.10705788561695068" />
        <Con id="252" src="110" tgt="141" wght="0.34249626609488765" />
        <Con id="259" src="117" tgt="141" wght="-1.1289266895527632" />
        <Con id="276" src="134" tgt="141" wght="-0.37349356854372623" />
        <Con id="278" src="136" tgt="141" wght="5" />
        <Con id="282" src="140" tgt="141" wght="-0.23145619045637333" />
        <Con id="283" src="113" tgt="141" wght="1.1111049682198104" />
        <Con id="285" src="67" tgt="141" wght="-1.871954780974582" />
        <Con id="286" src="38" tgt="141" wght="-0.262869132732189" />
        <Con id="287" src="33" tgt="141" wght="0.49779866560085168" />
        <Con id="290" src="106" tgt="141" wght="-0.21039108745753765" />
        <Con id="291" src="23" tgt="141" wght="5" />
        <Con id="293" src="87" tgt="141" wght="-0.46871379017829895" />
        <Con id="295" src="94" tgt="141" wght="-1.9936380536336031" />
        <Con id="297" src="95" tgt="141" wght="3.1011957924853717" />
        <Con id="299" src="50" tgt="141" wght="2.2553080705772546" />
        <Con id="300" src="45" tgt="141" wght="-0.55874241207289355" />
        <Con id="301" src="66" tgt="141" wght="0.40217540435801513" />
        <Con id="303" src="65" tgt="141" wght="1.0727830678113892" />
        <Con id="305" src="64" tgt="141" wght="0.66463963880484866" />
        <Con id="306" src="121" tgt="141" wght="0.41388395047331411" />
        <Con id="307" src="3" tgt="141" wght="-1.5969847703985118" />
        <Con id="308" src="62" tgt="141" wght="-1.172994537195603" />
        <Con id="311" src="11" tgt="141" wght="-0.33929425746276931" />
        <Con id="313" src="43" tgt="141" wght="-0.479083121877592" />
        <Con id="314" src="114" tgt="141" wght="-2.2499667316604448" />
        <Con id="315" src="93" tgt="141" wght="-0.38792703360205139" />
        <Con id="318" src="70" tgt="141" wght="1.7614135536712132" />
        <Con id="321" src="102" tgt="141" wght="-0.35573644633426305" />
        <Con id="322" src="97" tgt="141" wght="0.7296062633395195" />
        <Con id="323" src="55" tgt="141" wght="-0.31289576133095853" />
        <Con id="324" src="12" tgt="141" wght="1.013119521321113" />
        <Con id="327" src="28" tgt="141" wght="-2.438168663126874" />
        <Con id="328" src="41" tgt="141" wght="-2.2330299705458225" />
        <Con id="330" src="31" tgt="141" wght="-1.9436950430130751" />
        <Con id="333" src="92" tgt="141" wght="-0.34898208774879441" />
        <Con id="335" src="68" tgt="141" wght="1.6010289665150688" />
        <Con id="336" src="26" tgt="141" wght="4.998816379286545" />
        <Con id="338" src="5" tgt="141" wght="-1.2973844158406367" />
        <Con id="339" src="7" tgt="141" wght="-1.6430175162760321" />
        <Con id="340" src="133" tgt="141" wght="0.4321137702941833" />
        <Con id="342" src="129" tgt="141" wght="-1.507537954447421" />
        <Con id="345" src="42" tgt="141" wght="-0.60031274323949879" />
        <Con id="346" src="124" tgt="141" wght="1.2164597464315046" />
        <Con id="347" src="30" tgt="141" wght="-2.0684010075815897" />
        <Con id="350" src="86" tgt="141" wght="-0.14426730507158569" />
        <Con id="352" src="22" tgt="141" wght="1.1738904646710306" />
        <Con id="353" src="101" tgt="141" wght="0.63168121077384964" />
        <Con id="354" src="132" tgt="141" wght="-0.41186910773127916" />
        <Con id="356" src="8" tgt="141" wght="0.28332808636390505" />
        <Con id="357" src="131" tgt="141" wght="1.0890229222689403" />
        <Con id="358" src="123" tgt="141" wght="-0.21429623136868226" />
        <Con id="359" src="127" tgt="141" wght="0.46521904996504776" />
        <Con id="360" src="19" tgt="141" wght="-0.095613323205951811" />
        <Con id="361" src="56" tgt="141" wght="1.2927254289388657" />
        <Con id="362" src="126" tgt="141" wght="-0.13580482171223354" />
        <Con id="363" src="80" tgt="141" wght="1.5348265531661609" />
        <Con id="364" src="63" tgt="141" wght="-0.54160040139630539" />
        <Con id="365" src="40" tgt="141" wght="-0.45445752330124378" />
        <Con id="366" src="51" tgt="141" wght="-1.4146351049240486" />
        <Con id="368" src="138" tgt="141" wght="1.4642728074087947" />
        <Con id="369" src="99" tgt="141" wght="2.4797230388482703" />
        <Con id="372" src="135" tgt="141" wght="-1.7076226611255318" />
        <Con id="374" src="34" tgt="141" wght="1.5163982718910132" />
        <Con id="376" src="98" tgt="141" wght="0.91090214600153052" />
        <Con id="377" src="119" tgt="141" wght="-0.6185373617336154" />
        <Con id="379" src="0" tgt="141" wght="-4.5200923605384586" />
        <Con id="380" src="2" tgt="141" wght="0.61741220860307078" />
        <Con id="382" src="130" tgt="141" wght="2.2890563108471542" />
        <Con id="383" src="85" tgt="141" wght="1.8847670544177055" />
        <Con id="384" src="39" tgt="141" wght="1.0993998364004984" />
        <Con id="385" src="74" tgt="141" wght="-0.16749938433103639" />
        <Con id="387" src="44" tgt="141" wght="0.82858730644049616" />
        <Con id="390" src="49" tgt="141" wght="-1.1086043751793344" />
        <Con id="392" src="35" tgt="141" wght="3.4968561262174949" />
        <Con id="394" src="18" tgt="141" wght="-1.2517634991377122" />
        <Con id="395" src="75" tgt="141" wght="-1.5966334465763705" />
        <Con id="396" src="60" tgt="141" wght="-0.13662647034140518" />
        <Con id="397" src="103" tgt="141" wght="-0.19279828414819919" />
        <Con id="398" src="81" tgt="141" wght="-0.92673980827479918" />
        <Con id="399" src="111" tgt="141" wght="0.41116080246865749" />
        <Con id="401" src="1" tgt="141" wght="0.21135701249445549" />
        <Con id="406" src="15" tgt="141" wght="0.10244241283093998" />
        <Con id="409" src="9" tgt="141" wght="-0.042266888932014746" />
        <Con id="411" src="29" tgt="141" wght="0.95178315624664156" />
        <Con id="412" src="122" tgt="141" wght="0.16568340025713316" />
        <Con id="414" src="24" tgt="141" wght="3.3646971944699167" />
        <Con id="415" src="105" tgt="141" wght="1.2248127432134288" />
        <Con id="418" src="52" tgt="141" wght="5" />
      </Connections>
    </Network>
  </Networks>
</Root>