<?xml version="1.0" encoding="utf-8"?>
<Root>
  <ActivationFunctions>
    <Fn id="0" name="PlainSigmoid" prob="1" />
  </ActivationFunctions>
  <Networks>
    <Network id="403733" birthGen="5002" fitness="0.77848667934874827">
      <Nodes>
        <Node type="bias" id="0" />
        <Node type="in" id="1" />
        <Node type="in" id="2" />
        <Node type="in" id="3" />
        <Node type="in" id="4" />
        <Node type="in" id="5" />
        <Node type="in" id="6" />
        <Node type="in" id="7" />
        <Node type="in" id="8" />
        <Node type="in" id="9" />
        <Node type="in" id="10" />
        <Node type="in" id="11" />
        <Node type="in" id="12" />
        <Node type="in" id="13" />
        <Node type="in" id="14" />
        <Node type="in" id="15" />
        <Node type="in" id="16" />
        <Node type="in" id="17" />
        <Node type="in" id="18" />
        <Node type="in" id="19" />
        <Node type="in" id="20" />
        <Node type="in" id="21" />
        <Node type="in" id="22" />
        <Node type="in" id="23" />
        <Node type="in" id="24" />
        <Node type="in" id="25" />
        <Node type="in" id="26" />
        <Node type="in" id="27" />
        <Node type="in" id="28" />
        <Node type="in" id="29" />
        <Node type="in" id="30" />
        <Node type="in" id="31" />
        <Node type="in" id="32" />
        <Node type="in" id="33" />
        <Node type="in" id="34" />
        <Node type="in" id="35" />
        <Node type="in" id="36" />
        <Node type="in" id="37" />
        <Node type="in" id="38" />
        <Node type="in" id="39" />
        <Node type="in" id="40" />
        <Node type="in" id="41" />
        <Node type="in" id="42" />
        <Node type="in" id="43" />
        <Node type="in" id="44" />
        <Node type="in" id="45" />
        <Node type="in" id="46" />
        <Node type="in" id="47" />
        <Node type="in" id="48" />
        <Node type="in" id="49" />
        <Node type="in" id="50" />
        <Node type="in" id="51" />
        <Node type="in" id="52" />
        <Node type="in" id="53" />
        <Node type="in" id="54" />
        <Node type="in" id="55" />
        <Node type="in" id="56" />
        <Node type="in" id="57" />
        <Node type="in" id="58" />
        <Node type="in" id="59" />
        <Node type="in" id="60" />
        <Node type="in" id="61" />
        <Node type="in" id="62" />
        <Node type="in" id="63" />
        <Node type="in" id="64" />
        <Node type="in" id="65" />
        <Node type="in" id="66" />
        <Node type="in" id="67" />
        <Node type="in" id="68" />
        <Node type="in" id="69" />
        <Node type="in" id="70" />
        <Node type="in" id="71" />
        <Node type="in" id="72" />
        <Node type="in" id="73" />
        <Node type="in" id="74" />
        <Node type="in" id="75" />
        <Node type="in" id="76" />
        <Node type="in" id="77" />
        <Node type="in" id="78" />
        <Node type="in" id="79" />
        <Node type="in" id="80" />
        <Node type="in" id="81" />
        <Node type="in" id="82" />
        <Node type="in" id="83" />
        <Node type="in" id="84" />
        <Node type="in" id="85" />
        <Node type="in" id="86" />
        <Node type="in" id="87" />
        <Node type="in" id="88" />
        <Node type="in" id="89" />
        <Node type="in" id="90" />
        <Node type="in" id="91" />
        <Node type="in" id="92" />
        <Node type="in" id="93" />
        <Node type="in" id="94" />
        <Node type="in" id="95" />
        <Node type="in" id="96" />
        <Node type="in" id="97" />
        <Node type="in" id="98" />
        <Node type="in" id="99" />
        <Node type="in" id="100" />
        <Node type="in" id="101" />
        <Node type="in" id="102" />
        <Node type="in" id="103" />
        <Node type="in" id="104" />
        <Node type="in" id="105" />
        <Node type="in" id="106" />
        <Node type="in" id="107" />
        <Node type="in" id="108" />
        <Node type="in" id="109" />
        <Node type="in" id="110" />
        <Node type="in" id="111" />
        <Node type="in" id="112" />
        <Node type="in" id="113" />
        <Node type="in" id="114" />
        <Node type="in" id="115" />
        <Node type="in" id="116" />
        <Node type="in" id="117" />
        <Node type="in" id="118" />
        <Node type="in" id="119" />
        <Node type="in" id="120" />
        <Node type="in" id="121" />
        <Node type="in" id="122" />
        <Node type="in" id="123" />
        <Node type="in" id="124" />
        <Node type="in" id="125" />
        <Node type="in" id="126" />
        <Node type="in" id="127" />
        <Node type="in" id="128" />
        <Node type="in" id="129" />
        <Node type="in" id="130" />
        <Node type="in" id="131" />
        <Node type="in" id="132" />
        <Node type="in" id="133" />
        <Node type="in" id="134" />
        <Node type="in" id="135" />
        <Node type="in" id="136" />
        <Node type="in" id="137" />
        <Node type="in" id="138" />
        <Node type="in" id="139" />
        <Node type="in" id="140" />
        <Node type="out" id="141" />
        <Node type="hid" id="336" />
        <Node type="hid" id="387" />
        <Node type="hid" id="397" />
        <Node type="hid" id="473" />
        <Node type="hid" id="510" />
        <Node type="hid" id="586" />
        <Node type="hid" id="605" />
        <Node type="hid" id="625" />
        <Node type="hid" id="630" />
        <Node type="hid" id="655" />
        <Node type="hid" id="1028" />
        <Node type="hid" id="1042" />
        <Node type="hid" id="1075" />
        <Node type="hid" id="1204" />
        <Node type="hid" id="1234" />
        <Node type="hid" id="1315" />
      </Nodes>
      <Connections>
        <Con id="145" src="3" tgt="141" wght="-1.3378629590531355" />
        <Con id="146" src="4" tgt="141" wght="-0.21169137080722766" />
        <Con id="148" src="6" tgt="141" wght="-0.536784310586689" />
        <Con id="153" src="11" tgt="141" wght="0.41641985314842506" />
        <Con id="157" src="15" tgt="141" wght="0.43204022650643692" />
        <Con id="158" src="16" tgt="141" wght="-0.21170206485895515" />
        <Con id="163" src="21" tgt="141" wght="-0.076411898436807457" />
        <Con id="165" src="23" tgt="141" wght="4.9856762727733086" />
        <Con id="166" src="24" tgt="141" wght="1.5162957739872525" />
        <Con id="170" src="28" tgt="141" wght="-1.153289373366051" />
        <Con id="173" src="31" tgt="141" wght="-0.94455426123864816" />
        <Con id="176" src="34" tgt="141" wght="0.92854653711891189" />
        <Con id="178" src="36" tgt="141" wght="-0.19636569318737035" />
        <Con id="180" src="38" tgt="141" wght="-0.31979660449078573" />
        <Con id="185" src="43" tgt="141" wght="-0.32317534194887942" />
        <Con id="187" src="45" tgt="141" wght="-0.671532655143483" />
        <Con id="189" src="47" tgt="141" wght="-0.12629077828724619" />
        <Con id="195" src="53" tgt="141" wght="-1.5505530342012723" />
        <Con id="196" src="54" tgt="141" wght="-1.6865375146483421" />
        <Con id="199" src="57" tgt="141" wght="-0.50716964581062418" />
        <Con id="200" src="58" tgt="141" wght="0.18466401619625994" />
        <Con id="203" src="61" tgt="141" wght="-0.76353508143626725" />
        <Con id="204" src="62" tgt="141" wght="-1.2674231552098658" />
        <Con id="210" src="68" tgt="141" wght="1.5017990300488755" />
        <Con id="216" src="74" tgt="141" wght="0.10806592045263479" />
        <Con id="217" src="75" tgt="141" wght="-1.2269681645557284" />
        <Con id="226" src="84" tgt="141" wght="-0.15728864505726445" />
        <Con id="228" src="86" tgt="141" wght="-0.52358655606750593" />
        <Con id="236" src="94" tgt="141" wght="-0.90735550814612687" />
        <Con id="242" src="100" tgt="141" wght="-0.060544940223989749" />
        <Con id="247" src="105" tgt="141" wght="-0.15997446317710262" />
        <Con id="250" src="108" tgt="141" wght="-0.40438998305839668" />
        <Con id="252" src="110" tgt="141" wght="0.25802443364627359" />
        <Con id="255" src="113" tgt="141" wght="0.70102587462913668" />
        <Con id="256" src="114" tgt="141" wght="-1.7417608136255387" />
        <Con id="259" src="117" tgt="141" wght="-0.722778510643893" />
        <Con id="264" src="122" tgt="141" wght="0.2030367054652949" />
        <Con id="266" src="124" tgt="141" wght="0.75457810844893247" />
        <Con id="275" src="133" tgt="141" wght="0.56559175854276189" />
        <Con id="276" src="134" tgt="141" wght="-0.63963594168673921" />
        <Con id="297" src="95" tgt="141" wght="1.0838781862520546" />
        <Con id="310" src="48" tgt="141" wght="0.12429169340511415" />
        <Con id="334" src="60" tgt="141" wght="0.37423473893074466" />
        <Con id="337" src="38" tgt="336" wght="-0.44222195097766426" />
        <Con id="338" src="336" tgt="141" wght="5" />
        <Con id="368" src="137" tgt="141" wght="-0.57201462493017929" />
        <Con id="384" src="97" tgt="141" wght="0.34306018871003635" />
        <Con id="388" src="58" tgt="387" wght="0.45284264942792413" />
        <Con id="389" src="387" tgt="141" wght="-5" />
        <Con id="398" src="31" tgt="397" wght="0.27283885471826008" />
        <Con id="399" src="397" tgt="141" wght="-5" />
        <Con id="401" src="83" tgt="141" wght="-0.28216079800993832" />
        <Con id="404" src="55" tgt="336" wght="-5" />
        <Con id="405" src="3" tgt="336" wght="3.5904966414683024" />
        <Con id="411" src="0" tgt="336" wght="-0.042280155574129841" />
        <Con id="421" src="26" tgt="141" wght="3.8490799417360684" />
        <Con id="422" src="336" tgt="387" wght="-3.3110382131577696" />
        <Con id="424" src="85" tgt="141" wght="0.46725727645608855" />
        <Con id="436" src="60" tgt="336" wght="-0.45568745065574123" />
        <Con id="438" src="113" tgt="387" wght="-0.13896581897274185" />
        <Con id="463" src="13" tgt="336" wght="-1.0945641306494236" />
        <Con id="470" src="131" tgt="387" wght="-5" />
        <Con id="474" src="123" tgt="473" wght="5" />
        <Con id="475" src="473" tgt="141" wght="3.79190324559572" />
        <Con id="485" src="7" tgt="397" wght="1.5771691136290684" />
        <Con id="500" src="90" tgt="387" wght="-2.2235384478585356" />
        <Con id="506" src="98" tgt="336" wght="2.0021581733639859" />
        <Con id="511" src="123" tgt="510" wght="-2.7369949261096842" />
        <Con id="512" src="510" tgt="141" wght="2.3785290257482909" />
        <Con id="536" src="123" tgt="387" wght="0.98834787258162882" />
        <Con id="540" src="52" tgt="397" wght="-4.1793024386167055" />
        <Con id="548" src="51" tgt="397" wght="4.4878957114693838" />
        <Con id="560" src="35" tgt="397" wght="-1.1928180926114953" />
        <Con id="565" src="64" tgt="336" wght="0.22283016749994067" />
        <Con id="581" src="129" tgt="336" wght="-5" />
        <Con id="582" src="77" tgt="387" wght="-0.0501908253737145" />
        <Con id="585" src="96" tgt="397" wght="0.0055744902782586848" />
        <Con id="587" src="95" tgt="586" wght="3.7525258981320793" />
        <Con id="588" src="586" tgt="141" wght="4.9978213489046972" />
        <Con id="600" src="137" tgt="336" wght="4.876169438954066" />
        <Con id="606" src="98" tgt="605" wght="3.0665744394822094" />
        <Con id="607" src="605" tgt="336" wght="2.5961083460019982" />
        <Con id="626" src="74" tgt="625" wght="-2.6513881856539943" />
        <Con id="627" src="625" tgt="141" wght="2.8264967860170449" />
        <Con id="631" src="58" tgt="630" wght="2.7692826423230104" />
        <Con id="632" src="630" tgt="141" wght="-0.42537255368775551" />
        <Con id="634" src="111" tgt="336" wght="-0.93388613503514617" />
        <Con id="636" src="23" tgt="510" wght="4.4560448775725474" />
        <Con id="644" src="41" tgt="586" wght="-4.4119855534633965" />
        <Con id="656" src="47" tgt="655" wght="-0.348511860581466" />
        <Con id="657" src="655" tgt="141" wght="-5" />
        <Con id="664" src="22" tgt="336" wght="1.1679153714512911" />
        <Con id="690" src="12" tgt="586" wght="1.6088064812748288" />
        <Con id="697" src="83" tgt="605" wght="-0.2487692363158831" />
        <Con id="700" src="23" tgt="336" wght="1.2634735609670613" />
        <Con id="709" src="132" tgt="387" wght="3.9372312142384449" />
        <Con id="743" src="81" tgt="336" wght="-1.6536401025950909" />
        <Con id="750" src="76" tgt="387" wght="-1.2830028421669231" />
        <Con id="752" src="85" tgt="397" wght="-4.55294902342059" />
        <Con id="787" src="117" tgt="510" wght="2.7293613052985615" />
        <Con id="796" src="67" tgt="387" wght="2.4129699618845186" />
        <Con id="803" src="41" tgt="397" wght="3.0135705135762691" />
        <Con id="811" src="95" tgt="625" wght="2.4536798816623713" />
        <Con id="818" src="4" tgt="605" wght="4.3654027534648776" />
        <Con id="833" src="135" tgt="397" wght="0.19045713746943005" />
        <Con id="835" src="397" tgt="387" wght="3.3439867586845455" />
        <Con id="860" src="80" tgt="336" wght="5" />
        <Con id="878" src="49" tgt="387" wght="0.43707263996657764" />
        <Con id="901" src="75" tgt="473" wght="3.6387860876070159" />
        <Con id="902" src="82" tgt="141" wght="-0.46123864115956092" />
        <Con id="904" src="42" tgt="586" wght="-2.3914425010695108" />
        <Con id="919" src="133" tgt="473" wght="-0.76870293002397294" />
        <Con id="987" src="98" tgt="510" wght="2.2481693837624768" />
        <Con id="1029" src="105" tgt="1028" wght="1.3151513888758917" />
        <Con id="1030" src="1028" tgt="141" wght="5" />
        <Con id="1037" src="49" tgt="397" wght="0.8922646957490844" />
        <Con id="1043" src="75" tgt="1042" wght="-2.5654233414200922" />
        <Con id="1044" src="1042" tgt="141" wght="3.9788626234194755" />
        <Con id="1061" src="99" tgt="336" wght="5" />
        <Con id="1070" src="91" tgt="397" wght="-4.9719797357028286" />
        <Con id="1076" src="80" tgt="1075" wght="4.96064133299444" />
        <Con id="1077" src="1075" tgt="336" wght="4.77582980332931" />
        <Con id="1089" src="510" tgt="1028" wght="-3.7321516121742038" />
        <Con id="1115" src="130" tgt="1028" wght="2.2713548485088495" />
        <Con id="1201" src="13" tgt="625" wght="3.0392004192420696" />
        <Con id="1205" src="48" tgt="1204" wght="-0.56507151981491688" />
        <Con id="1206" src="1204" tgt="141" wght="3.9225441212786092" />
        <Con id="1235" src="82" tgt="1234" wght="-0.89361777265448739" />
        <Con id="1236" src="1234" tgt="141" wght="2.0740339689396623" />
        <Con id="1261" src="84" tgt="1042" wght="-2.169203991540515" />
        <Con id="1272" src="69" tgt="655" wght="3.2040782257622658" />
        <Con id="1316" src="133" tgt="1315" wght="0.15958776744756439" />
        <Con id="1317" src="1315" tgt="141" wght="0.44989909692441454" />
        <Con id="1327" src="70" tgt="387" wght="-1.3681153100142776" />
        <Con id="1344" src="91" tgt="1028" wght="-2.9556061281063917" />
        <Con id="1349" src="0" tgt="397" wght="1.3803627506547476" />
        <Con id="1369" src="29" tgt="1042" wght="1.8805596592602924" />
        <Con id="1386" src="32" tgt="1234" wght="-1.8087576116359043" />
        <Con id="1456" src="82" tgt="1075" wght="3.1445458606025896" />
        <Con id="1485" src="20" tgt="625" wght="-4.5384698682729585" />
        <Con id="1546" src="36" tgt="605" wght="3.278900996178765" />
        <Con id="1655" src="138" tgt="655" wght="-2.4766781770108754" />
        <Con id="1661" src="30" tgt="397" wght="3.9038496602767556" />
        <Con id="1699" src="63" tgt="1204" wght="-4.0473364204105078" />
        <Con id="1781" src="27" tgt="1234" wght="4.0460780122523827" />
        <Con id="1926" src="7" tgt="1204" wght="-1.0877734968712394" />
        <Con id="1941" src="1" tgt="1204" wght="-0.4721906429505961" />
        <Con id="1973" src="106" tgt="1204" wght="-2.9740898490925405" />
        <Con id="1991" src="71" tgt="605" wght="-4.6438234348473113" />
        <Con id="2031" src="46" tgt="586" wght="0.26766857878486067" />
        <Con id="2114" src="655" tgt="625" wght="4.8285531317752026" />
        <Con id="2157" src="108" tgt="655" wght="4.7972938902496711" />
        <Con id="2167" src="1075" tgt="473" wght="1.7770875585642534" />
        <Con id="2282" src="128" tgt="630" wght="-2.8136423690437358" />
        <Con id="2291" src="81" tgt="625" wght="-4.822542208971023" />
        <Con id="2305" src="65" tgt="1028" wght="0.92554009415144634" />
        <Con id="2373" src="93" tgt="586" wght="-1.2670051537324079" />
        <Con id="2452" src="397" tgt="630" wght="1.0825038464183541" />
        <Con id="2470" src="30" tgt="586" wght="-3.0449621201687185" />
        <Con id="2681" src="1204" tgt="336" wght="-2.2837507026270032" />
        <Con id="2700" src="72" tgt="1075" wght="3.3829868026077747" />
      </Connections>
    </Network>
  </Networks>
</Root>