<?xml version="1.0" encoding="utf-8"?>
<Root>
  <ActivationFunctions>
    <Fn id="0" name="PlainSigmoid" prob="1" />
  </ActivationFunctions>
  <Networks>
    <Network id="425837" birthGen="5285" fitness="0.77549504602345676">
      <Nodes>
        <Node type="bias" id="0" />
        <Node type="in" id="1" />
        <Node type="in" id="2" />
        <Node type="in" id="3" />
        <Node type="in" id="4" />
        <Node type="in" id="5" />
        <Node type="in" id="6" />
        <Node type="in" id="7" />
        <Node type="in" id="8" />
        <Node type="in" id="9" />
        <Node type="in" id="10" />
        <Node type="in" id="11" />
        <Node type="in" id="12" />
        <Node type="in" id="13" />
        <Node type="in" id="14" />
        <Node type="in" id="15" />
        <Node type="in" id="16" />
        <Node type="in" id="17" />
        <Node type="in" id="18" />
        <Node type="in" id="19" />
        <Node type="in" id="20" />
        <Node type="in" id="21" />
        <Node type="in" id="22" />
        <Node type="in" id="23" />
        <Node type="in" id="24" />
        <Node type="in" id="25" />
        <Node type="in" id="26" />
        <Node type="in" id="27" />
        <Node type="in" id="28" />
        <Node type="in" id="29" />
        <Node type="in" id="30" />
        <Node type="in" id="31" />
        <Node type="in" id="32" />
        <Node type="in" id="33" />
        <Node type="in" id="34" />
        <Node type="in" id="35" />
        <Node type="in" id="36" />
        <Node type="in" id="37" />
        <Node type="in" id="38" />
        <Node type="in" id="39" />
        <Node type="in" id="40" />
        <Node type="in" id="41" />
        <Node type="in" id="42" />
        <Node type="in" id="43" />
        <Node type="in" id="44" />
        <Node type="in" id="45" />
        <Node type="in" id="46" />
        <Node type="in" id="47" />
        <Node type="in" id="48" />
        <Node type="in" id="49" />
        <Node type="in" id="50" />
        <Node type="in" id="51" />
        <Node type="in" id="52" />
        <Node type="in" id="53" />
        <Node type="in" id="54" />
        <Node type="in" id="55" />
        <Node type="in" id="56" />
        <Node type="in" id="57" />
        <Node type="in" id="58" />
        <Node type="in" id="59" />
        <Node type="in" id="60" />
        <Node type="in" id="61" />
        <Node type="in" id="62" />
        <Node type="in" id="63" />
        <Node type="in" id="64" />
        <Node type="in" id="65" />
        <Node type="in" id="66" />
        <Node type="in" id="67" />
        <Node type="in" id="68" />
        <Node type="in" id="69" />
        <Node type="in" id="70" />
        <Node type="in" id="71" />
        <Node type="in" id="72" />
        <Node type="in" id="73" />
        <Node type="in" id="74" />
        <Node type="in" id="75" />
        <Node type="in" id="76" />
        <Node type="in" id="77" />
        <Node type="in" id="78" />
        <Node type="in" id="79" />
        <Node type="in" id="80" />
        <Node type="in" id="81" />
        <Node type="in" id="82" />
        <Node type="in" id="83" />
        <Node type="in" id="84" />
        <Node type="in" id="85" />
        <Node type="in" id="86" />
        <Node type="in" id="87" />
        <Node type="in" id="88" />
        <Node type="in" id="89" />
        <Node type="in" id="90" />
        <Node type="in" id="91" />
        <Node type="in" id="92" />
        <Node type="in" id="93" />
        <Node type="in" id="94" />
        <Node type="in" id="95" />
        <Node type="in" id="96" />
        <Node type="in" id="97" />
        <Node type="in" id="98" />
        <Node type="in" id="99" />
        <Node type="in" id="100" />
        <Node type="in" id="101" />
        <Node type="in" id="102" />
        <Node type="in" id="103" />
        <Node type="in" id="104" />
        <Node type="in" id="105" />
        <Node type="in" id="106" />
        <Node type="in" id="107" />
        <Node type="in" id="108" />
        <Node type="in" id="109" />
        <Node type="in" id="110" />
        <Node type="in" id="111" />
        <Node type="in" id="112" />
        <Node type="in" id="113" />
        <Node type="in" id="114" />
        <Node type="in" id="115" />
        <Node type="in" id="116" />
        <Node type="in" id="117" />
        <Node type="in" id="118" />
        <Node type="in" id="119" />
        <Node type="in" id="120" />
        <Node type="in" id="121" />
        <Node type="in" id="122" />
        <Node type="in" id="123" />
        <Node type="in" id="124" />
        <Node type="in" id="125" />
        <Node type="in" id="126" />
        <Node type="in" id="127" />
        <Node type="in" id="128" />
        <Node type="in" id="129" />
        <Node type="in" id="130" />
        <Node type="in" id="131" />
        <Node type="in" id="132" />
        <Node type="in" id="133" />
        <Node type="in" id="134" />
        <Node type="in" id="135" />
        <Node type="in" id="136" />
        <Node type="in" id="137" />
        <Node type="in" id="138" />
        <Node type="in" id="139" />
        <Node type="in" id="140" />
        <Node type="out" id="141" />
        <Node type="hid" id="287" />
        <Node type="hid" id="379" />
        <Node type="hid" id="394" />
        <Node type="hid" id="549" />
        <Node type="hid" id="596" />
        <Node type="hid" id="638" />
        <Node type="hid" id="765" />
        <Node type="hid" id="837" />
        <Node type="hid" id="1025" />
        <Node type="hid" id="1408" />
        <Node type="hid" id="1425" />
        <Node type="hid" id="1429" />
        <Node type="hid" id="1600" />
        <Node type="hid" id="1963" />
      </Nodes>
      <Connections>
        <Con id="143" src="1" tgt="141" wght="-0.13831285150194042" />
        <Con id="144" src="2" tgt="141" wght="-0.15293972636998449" />
        <Con id="151" src="9" tgt="141" wght="0.36553430124996555" />
        <Con id="154" src="12" tgt="141" wght="0.86473414096028167" />
        <Con id="155" src="13" tgt="141" wght="-0.27783689804582068" />
        <Con id="158" src="16" tgt="141" wght="0.071132829743829229" />
        <Con id="160" src="18" tgt="141" wght="-0.83830430567349923" />
        <Con id="162" src="20" tgt="141" wght="0.074867404880418112" />
        <Con id="165" src="23" tgt="141" wght="4.3236456484473669" />
        <Con id="166" src="24" tgt="141" wght="2.0611757421698202" />
        <Con id="167" src="25" tgt="141" wght="0.69957710894976943" />
        <Con id="168" src="26" tgt="141" wght="3.8078602657209588" />
        <Con id="169" src="27" tgt="141" wght="-0.1706463107357776" />
        <Con id="170" src="28" tgt="141" wght="-0.98618055408677863" />
        <Con id="178" src="36" tgt="141" wght="-0.22126104006272776" />
        <Con id="180" src="38" tgt="141" wght="-0.68820103268129373" />
        <Con id="181" src="39" tgt="141" wght="1.0198959012792037" />
        <Con id="183" src="41" tgt="141" wght="-1.7593728364718182" />
        <Con id="186" src="44" tgt="141" wght="-0.18675633041557643" />
        <Con id="188" src="46" tgt="141" wght="-0.18073762959395212" />
        <Con id="190" src="48" tgt="141" wght="-0.36460042544148435" />
        <Con id="193" src="51" tgt="141" wght="-0.4527546278899035" />
        <Con id="195" src="53" tgt="141" wght="-1.5157936923976254" />
        <Con id="200" src="58" tgt="141" wght="0.65206315073358445" />
        <Con id="205" src="63" tgt="141" wght="-0.49571412544464027" />
        <Con id="209" src="67" tgt="141" wght="-1.4565683878156648" />
        <Con id="215" src="73" tgt="141" wght="-0.28991379779311688" />
        <Con id="218" src="76" tgt="141" wght="-0.026966395069651226" />
        <Con id="220" src="78" tgt="141" wght="-0.11758745330190698" />
        <Con id="221" src="79" tgt="141" wght="0.11730040540054562" />
        <Con id="226" src="84" tgt="141" wght="-0.42655581376965557" />
        <Con id="231" src="89" tgt="141" wght="-0.2823315407123631" />
        <Con id="233" src="91" tgt="141" wght="-0.0600553107033785" />
        <Con id="240" src="98" tgt="141" wght="0.76094566325987978" />
        <Con id="242" src="100" tgt="141" wght="-0.31956056311857223" />
        <Con id="244" src="102" tgt="141" wght="-0.37655023635530349" />
        <Con id="245" src="103" tgt="141" wght="-0.19101949754198025" />
        <Con id="247" src="105" tgt="141" wght="0.24651469935045955" />
        <Con id="248" src="106" tgt="141" wght="-0.1251091273385978" />
        <Con id="249" src="107" tgt="141" wght="-0.65346438395078243" />
        <Con id="250" src="108" tgt="141" wght="-0.406823610923301" />
        <Con id="256" src="114" tgt="141" wght="-0.96042861339596619" />
        <Con id="257" src="115" tgt="141" wght="-0.091336731435782137" />
        <Con id="261" src="119" tgt="141" wght="0.11456952789990062" />
        <Con id="265" src="123" tgt="141" wght="0.13075882003243844" />
        <Con id="266" src="124" tgt="141" wght="0.22297481470923239" />
        <Con id="267" src="125" tgt="141" wght="-0.70498459290846849" />
        <Con id="269" src="127" tgt="141" wght="-0.092277953057999823" />
        <Con id="274" src="132" tgt="141" wght="-0.66448583574812181" />
        <Con id="275" src="133" tgt="141" wght="0.23418667525847706" />
        <Con id="288" src="60" tgt="287" wght="-2.8219584085577045" />
        <Con id="289" src="287" tgt="141" wght="-5" />
        <Con id="290" src="129" tgt="141" wght="-1.1001339584712808" />
        <Con id="313" src="99" tgt="141" wght="1.6004292398523057" />
        <Con id="319" src="6" tgt="141" wght="-0.51783718493709163" />
        <Con id="320" src="80" tgt="141" wght="1.5368783784498066" />
        <Con id="331" src="3" tgt="141" wght="-0.56433876934651717" />
        <Con id="340" src="50" tgt="141" wght="1.5752811136301035" />
        <Con id="358" src="52" tgt="141" wght="-2.7272314068662129" />
        <Con id="363" src="49" tgt="141" wght="-0.038627825414056349" />
        <Con id="371" src="14" tgt="141" wght="0.10872530817325507" />
        <Con id="378" src="30" tgt="141" wght="-1.5566994637974259" />
        <Con id="380" src="2" tgt="379" wght="2.5034053771170783" />
        <Con id="381" src="379" tgt="141" wght="4.99146371148714" />
        <Con id="395" src="27" tgt="394" wght="4.838923802705235" />
        <Con id="396" src="394" tgt="141" wght="5" />
        <Con id="405" src="112" tgt="287" wght="-0.16273084751090833" />
        <Con id="412" src="54" tgt="287" wght="5" />
        <Con id="413" src="130" tgt="141" wght="1.5677565271844855" />
        <Con id="414" src="101" tgt="287" wght="4.249084503389895" />
        <Con id="417" src="91" tgt="287" wght="-1.9184851068646007" />
        <Con id="426" src="21" tgt="141" wght="0.15588432496146862" />
        <Con id="438" src="78" tgt="287" wght="-2.24401835422114" />
        <Con id="456" src="69" tgt="379" wght="-0.18379971188891134" />
        <Con id="459" src="113" tgt="287" wght="-0.41721505625124378" />
        <Con id="465" src="125" tgt="379" wght="2.6438473575421959" />
        <Con id="469" src="61" tgt="141" wght="-0.70585640177016606" />
        <Con id="471" src="90" tgt="379" wght="1.409008447052942" />
        <Con id="489" src="11" tgt="141" wght="-0.3425765997849623" />
        <Con id="503" src="71" tgt="287" wght="0.094422935202089886" />
        <Con id="506" src="72" tgt="379" wght="-0.614249367375985" />
        <Con id="515" src="17" tgt="287" wght="-1.8638996682815858" />
        <Con id="529" src="118" tgt="379" wght="0.19287165731664174" />
        <Con id="531" src="11" tgt="379" wght="2.7477113611931543" />
        <Con id="533" src="68" tgt="379" wght="3.6731241961516576" />
        <Con id="535" src="29" tgt="287" wght="0.55327874637286856" />
        <Con id="536" src="86" tgt="287" wght="3.5868370239829379" />
        <Con id="539" src="78" tgt="379" wght="-0.13526526927199961" />
        <Con id="550" src="1" tgt="549" wght="0.72684369172021723" />
        <Con id="551" src="549" tgt="141" wght="4.2954047318148332" />
        <Con id="552" src="42" tgt="287" wght="2.9399965070341261" />
        <Con id="561" src="20" tgt="379" wght="-3.9022552086217606" />
        <Con id="562" src="35" tgt="287" wght="2.8106896046771421" />
        <Con id="565" src="136" tgt="287" wght="-1.9659404016120041" />
        <Con id="567" src="25" tgt="394" wght="-1.4238901909479578" />
        <Con id="573" src="74" tgt="287" wght="1.6290665604174137" />
        <Con id="575" src="69" tgt="287" wght="5" />
        <Con id="576" src="137" tgt="287" wght="1.1888441202250697" />
        <Con id="583" src="34" tgt="287" wght="-5" />
        <Con id="584" src="128" tgt="287" wght="2.7209100656240639" />
        <Con id="585" src="115" tgt="394" wght="1.18635366151535" />
        <Con id="594" src="117" tgt="379" wght="-0.948492705912114" />
        <Con id="597" src="60" tgt="596" wght="-2.0423872510163474" />
        <Con id="598" src="596" tgt="287" wght="-4.8443548437374853" />
        <Con id="602" src="126" tgt="287" wght="3.7223661588608681" />
        <Con id="608" src="123" tgt="549" wght="-2.6208897998866174" />
        <Con id="613" src="70" tgt="287" wght="-2.3457099698668356" />
        <Con id="620" src="22" tgt="394" wght="-1.3551470085398591" />
        <Con id="626" src="72" tgt="287" wght="3.7300063712066929" />
        <Con id="628" src="96" tgt="394" wght="0.60012117315325741" />
        <Con id="634" src="85" tgt="394" wght="3.4638591761086435" />
        <Con id="637" src="120" tgt="379" wght="4.9985378790101764" />
        <Con id="639" src="78" tgt="638" wght="0.58880904182111393" />
        <Con id="640" src="638" tgt="141" wght="-4.9912704260869711" />
        <Con id="643" src="27" tgt="287" wght="-0.81631877137230335" />
        <Con id="650" src="38" tgt="394" wght="2.7989760760885893" />
        <Con id="673" src="82" tgt="379" wght="-4.9632347912646493" />
        <Con id="675" src="29" tgt="379" wght="1.1747994171158993" />
        <Con id="676" src="57" tgt="596" wght="-4.1163383389787356" />
        <Con id="691" src="75" tgt="287" wght="5" />
        <Con id="692" src="70" tgt="394" wght="3.9730301612410344" />
        <Con id="698" src="92" tgt="379" wght="-0.794514821393737" />
        <Con id="716" src="43" tgt="394" wght="-3.1630526159979824" />
        <Con id="732" src="50" tgt="287" wght="2.5578167577949928" />
        <Con id="743" src="105" tgt="287" wght="-0.15375495502721573" />
        <Con id="744" src="137" tgt="394" wght="-2.10116744849744" />
        <Con id="752" src="117" tgt="141" wght="-0.7500601314705837" />
        <Con id="766" src="127" tgt="765" wght="-0.52309968893687964" />
        <Con id="767" src="765" tgt="141" wght="4.107656819146027" />
        <Con id="771" src="30" tgt="287" wght="2.1148053648045146" />
        <Con id="773" src="93" tgt="379" wght="-0.030214086774483971" />
        <Con id="774" src="93" tgt="549" wght="-0.76990631053597458" />
        <Con id="789" src="124" tgt="379" wght="3.1970838681440736" />
        <Con id="794" src="113" tgt="549" wght="1.2076380980551809" />
        <Con id="816" src="123" tgt="287" wght="1.8409782577750975" />
        <Con id="817" src="62" tgt="394" wght="-5" />
        <Con id="823" src="94" tgt="287" wght="3.5992368397507821" />
        <Con id="838" src="29" tgt="837" wght="2.3320305186918575" />
        <Con id="839" src="837" tgt="379" wght="3.8905190168460941" />
        <Con id="844" src="121" tgt="596" wght="5" />
        <Con id="863" src="75" tgt="549" wght="-0.36726538783487639" />
        <Con id="869" src="40" tgt="287" wght="0.6297317282060676" />
        <Con id="870" src="131" tgt="379" wght="3.14406160378257" />
        <Con id="875" src="33" tgt="549" wght="1.9421944270855582" />
        <Con id="877" src="119" tgt="549" wght="-4.5801229979566394" />
        <Con id="889" src="94" tgt="379" wght="-1.9142918927499131" />
        <Con id="916" src="120" tgt="596" wght="-1.3156346138566732" />
        <Con id="921" src="596" tgt="549" wght="4.1121334537422269" />
        <Con id="951" src="75" tgt="394" wght="-0.49300584024563976" />
        <Con id="955" src="87" tgt="287" wght="1.25663039740175" />
        <Con id="959" src="39" tgt="596" wght="-1.7254247223627042" />
        <Con id="967" src="6" tgt="596" wght="0.6616053867675743" />
        <Con id="984" src="85" tgt="549" wght="4.9945025193710775" />
        <Con id="985" src="95" tgt="549" wght="2.3116170320024407" />
        <Con id="998" src="95" tgt="394" wght="4.457286437566875" />
        <Con id="1003" src="101" tgt="596" wght="2.6314253095760409" />
        <Con id="1008" src="72" tgt="638" wght="-0.71009032997186117" />
        <Con id="1015" src="74" tgt="596" wght="2.2552891014253169" />
        <Con id="1020" src="31" tgt="549" wght="-4.9897249921924418" />
        <Con id="1026" src="106" tgt="1025" wght="-3.0387579517128445" />
        <Con id="1027" src="1025" tgt="141" wght="4.4907138127891546" />
        <Con id="1040" src="76" tgt="287" wght="1.938690146443" />
        <Con id="1051" src="60" tgt="549" wght="2.2154465820775511" />
        <Con id="1052" src="119" tgt="837" wght="2.2489678516190041" />
        <Con id="1053" src="40" tgt="394" wght="-1.9083100218404041" />
        <Con id="1057" src="137" tgt="379" wght="-2.5792762429359564" />
        <Con id="1072" src="86" tgt="394" wght="-3.8122319164828933" />
        <Con id="1078" src="52" tgt="287" wght="-1.0686162803503061" />
        <Con id="1081" src="117" tgt="837" wght="1.0457049446243702" />
        <Con id="1082" src="59" tgt="638" wght="-0.62486178880884835" />
        <Con id="1085" src="40" tgt="837" wght="-1.896622750205712" />
        <Con id="1105" src="20" tgt="837" wght="-0.38283215115296254" />
        <Con id="1124" src="58" tgt="287" wght="4.0341913852148608" />
        <Con id="1136" src="80" tgt="596" wght="0.16793636531673972" />
        <Con id="1163" src="70" tgt="638" wght="1.0582626424452131" />
        <Con id="1171" src="97" tgt="379" wght="0.15294171931313721" />
        <Con id="1190" src="7" tgt="837" wght="-4.7548589853334979" />
        <Con id="1195" src="134" tgt="638" wght="3.0168203934045477" />
        <Con id="1212" src="55" tgt="837" wght="-1.7902235493949687" />
        <Con id="1233" src="114" tgt="638" wght="0.8789794422126993" />
        <Con id="1243" src="128" tgt="549" wght="0.82240800568635763" />
        <Con id="1247" src="131" tgt="549" wght="-1.1079907328107754" />
        <Con id="1251" src="86" tgt="596" wght="-2.5801669338846849" />
        <Con id="1252" src="70" tgt="596" wght="-1.6230881801001791" />
        <Con id="1257" src="126" tgt="837" wght="3.5593551193153776" />
        <Con id="1267" src="10" tgt="394" wght="0.67099710591253992" />
        <Con id="1274" src="77" tgt="765" wght="0.30590366599275931" />
        <Con id="1278" src="16" tgt="394" wght="-1.1348115713435631" />
        <Con id="1286" src="138" tgt="638" wght="-3.6863258104769119" />
        <Con id="1299" src="95" tgt="379" wght="0.90880357020055691" />
        <Con id="1307" src="104" tgt="596" wght="-3.3501036261509287" />
        <Con id="1341" src="110" tgt="287" wght="0.667086902087157" />
        <Con id="1351" src="65" tgt="394" wght="3.0150574014772182" />
        <Con id="1371" src="110" tgt="638" wght="-3.6864215341008388" />
        <Con id="1378" src="54" tgt="379" wght="-1.6583845721265389" />
        <Con id="1379" src="31" tgt="638" wght="4.9719348028186525" />
        <Con id="1409" src="20" tgt="1408" wght="0.074500104636158151" />
        <Con id="1410" src="1408" tgt="141" wght="1.0942187655982691" />
        <Con id="1426" src="16" tgt="1425" wght="0.14269619692088786" />
        <Con id="1427" src="1425" tgt="141" wght="4.8746159834561764" />
        <Con id="1430" src="28" tgt="1429" wght="-0.36417810123147926" />
        <Con id="1431" src="1429" tgt="141" wght="2.4042349664270235" />
        <Con id="1432" src="131" tgt="1425" wght="2.7382206380505556" />
        <Con id="1437" src="94" tgt="1425" wght="-4.30871008899949" />
        <Con id="1461" src="87" tgt="837" wght="-4.4419533164426994" />
        <Con id="1501" src="71" tgt="549" wght="-2.8027834530773688" />
        <Con id="1601" src="91" tgt="1600" wght="-3.3857276263169" />
        <Con id="1602" src="1600" tgt="141" wght="2.7930003739172085" />
        <Con id="1664" src="129" tgt="638" wght="-2.5911235822266114" />
        <Con id="1856" src="49" tgt="765" wght="-2.1537232607090835" />
        <Con id="1906" src="90" tgt="837" wght="3.3074159086998303" />
        <Con id="1933" src="68" tgt="1025" wght="1.8802382299829645" />
        <Con id="1964" src="44" tgt="1963" wght="3.8215109755921972" />
        <Con id="1965" src="1963" tgt="141" wght="3.7832668792139463" />
        <Con id="1999" src="35" tgt="1025" wght="3.4526715160936963" />
        <Con id="2007" src="93" tgt="638" wght="2.1185899759450639" />
        <Con id="2008" src="47" tgt="638" wght="5" />
        <Con id="2054" src="125" tgt="1408" wght="3.1888739124456493" />
        <Con id="2056" src="126" tgt="549" wght="0.41909689586164095" />
        <Con id="2078" src="131" tgt="1429" wght="-0.054580736712619232" />
        <Con id="2221" src="69" tgt="1429" wght="-0.78632247634232044" />
        <Con id="2316" src="47" tgt="1425" wght="4.7896519251082514" />
        <Con id="2371" src="45" tgt="1600" wght="-4.2492614411380236" />
      </Connections>
    </Network>
  </Networks>
</Root>