<?xml version="1.0" encoding="utf-8"?>
<Root>
  <ActivationFunctions>
    <Fn id="0" name="PlainSigmoid" prob="1" />
  </ActivationFunctions>
  <Networks>
    <Network id="755439" birthGen="9435" fitness="0.7747946375288588">
      <Nodes>
        <Node type="bias" id="0" />
        <Node type="in" id="1" />
        <Node type="in" id="2" />
        <Node type="in" id="3" />
        <Node type="in" id="4" />
        <Node type="in" id="5" />
        <Node type="in" id="6" />
        <Node type="in" id="7" />
        <Node type="in" id="8" />
        <Node type="in" id="9" />
        <Node type="in" id="10" />
        <Node type="in" id="11" />
        <Node type="in" id="12" />
        <Node type="in" id="13" />
        <Node type="in" id="14" />
        <Node type="in" id="15" />
        <Node type="in" id="16" />
        <Node type="in" id="17" />
        <Node type="in" id="18" />
        <Node type="in" id="19" />
        <Node type="in" id="20" />
        <Node type="in" id="21" />
        <Node type="in" id="22" />
        <Node type="in" id="23" />
        <Node type="in" id="24" />
        <Node type="in" id="25" />
        <Node type="in" id="26" />
        <Node type="in" id="27" />
        <Node type="in" id="28" />
        <Node type="in" id="29" />
        <Node type="in" id="30" />
        <Node type="in" id="31" />
        <Node type="in" id="32" />
        <Node type="in" id="33" />
        <Node type="in" id="34" />
        <Node type="in" id="35" />
        <Node type="in" id="36" />
        <Node type="in" id="37" />
        <Node type="in" id="38" />
        <Node type="in" id="39" />
        <Node type="in" id="40" />
        <Node type="in" id="41" />
        <Node type="in" id="42" />
        <Node type="in" id="43" />
        <Node type="in" id="44" />
        <Node type="in" id="45" />
        <Node type="in" id="46" />
        <Node type="in" id="47" />
        <Node type="in" id="48" />
        <Node type="in" id="49" />
        <Node type="in" id="50" />
        <Node type="in" id="51" />
        <Node type="in" id="52" />
        <Node type="in" id="53" />
        <Node type="in" id="54" />
        <Node type="in" id="55" />
        <Node type="in" id="56" />
        <Node type="in" id="57" />
        <Node type="in" id="58" />
        <Node type="in" id="59" />
        <Node type="in" id="60" />
        <Node type="in" id="61" />
        <Node type="in" id="62" />
        <Node type="in" id="63" />
        <Node type="in" id="64" />
        <Node type="in" id="65" />
        <Node type="in" id="66" />
        <Node type="in" id="67" />
        <Node type="in" id="68" />
        <Node type="in" id="69" />
        <Node type="in" id="70" />
        <Node type="in" id="71" />
        <Node type="in" id="72" />
        <Node type="in" id="73" />
        <Node type="in" id="74" />
        <Node type="in" id="75" />
        <Node type="in" id="76" />
        <Node type="in" id="77" />
        <Node type="in" id="78" />
        <Node type="in" id="79" />
        <Node type="in" id="80" />
        <Node type="in" id="81" />
        <Node type="in" id="82" />
        <Node type="in" id="83" />
        <Node type="in" id="84" />
        <Node type="in" id="85" />
        <Node type="in" id="86" />
        <Node type="in" id="87" />
        <Node type="in" id="88" />
        <Node type="in" id="89" />
        <Node type="in" id="90" />
        <Node type="in" id="91" />
        <Node type="in" id="92" />
        <Node type="in" id="93" />
        <Node type="in" id="94" />
        <Node type="in" id="95" />
        <Node type="in" id="96" />
        <Node type="in" id="97" />
        <Node type="in" id="98" />
        <Node type="in" id="99" />
        <Node type="in" id="100" />
        <Node type="in" id="101" />
        <Node type="in" id="102" />
        <Node type="in" id="103" />
        <Node type="in" id="104" />
        <Node type="in" id="105" />
        <Node type="in" id="106" />
        <Node type="in" id="107" />
        <Node type="in" id="108" />
        <Node type="in" id="109" />
        <Node type="in" id="110" />
        <Node type="in" id="111" />
        <Node type="in" id="112" />
        <Node type="in" id="113" />
        <Node type="in" id="114" />
        <Node type="in" id="115" />
        <Node type="in" id="116" />
        <Node type="in" id="117" />
        <Node type="in" id="118" />
        <Node type="in" id="119" />
        <Node type="in" id="120" />
        <Node type="in" id="121" />
        <Node type="in" id="122" />
        <Node type="in" id="123" />
        <Node type="in" id="124" />
        <Node type="in" id="125" />
        <Node type="in" id="126" />
        <Node type="in" id="127" />
        <Node type="in" id="128" />
        <Node type="in" id="129" />
        <Node type="in" id="130" />
        <Node type="in" id="131" />
        <Node type="in" id="132" />
        <Node type="in" id="133" />
        <Node type="in" id="134" />
        <Node type="in" id="135" />
        <Node type="in" id="136" />
        <Node type="in" id="137" />
        <Node type="in" id="138" />
        <Node type="in" id="139" />
        <Node type="in" id="140" />
        <Node type="out" id="141" />
        <Node type="hid" id="430" />
        <Node type="hid" id="497" />
        <Node type="hid" id="603" />
        <Node type="hid" id="640" />
        <Node type="hid" id="644" />
        <Node type="hid" id="655" />
        <Node type="hid" id="730" />
        <Node type="hid" id="854" />
        <Node type="hid" id="887" />
        <Node type="hid" id="1071" />
        <Node type="hid" id="2139" />
      </Nodes>
      <Connections>
        <Con id="164" src="22" tgt="141" wght="0.21267495868253214" />
        <Con id="165" src="23" tgt="141" wght="0.0042300805376139887" />
        <Con id="167" src="25" tgt="141" wght="0.949074901725588" />
        <Con id="168" src="26" tgt="141" wght="0.210550034457854" />
        <Con id="173" src="31" tgt="141" wght="-3.2848243510352231" />
        <Con id="174" src="32" tgt="141" wght="-0.47678400409397403" />
        <Con id="176" src="34" tgt="141" wght="3.7990702461094443" />
        <Con id="183" src="41" tgt="141" wght="-5" />
        <Con id="191" src="49" tgt="141" wght="-1.3278310477493891" />
        <Con id="197" src="55" tgt="141" wght="0.57803088257018576" />
        <Con id="198" src="56" tgt="141" wght="1.5285810210089685" />
        <Con id="206" src="64" tgt="141" wght="-0.044857221251678826" />
        <Con id="211" src="69" tgt="141" wght="-2.1310897196337817" />
        <Con id="216" src="74" tgt="141" wght="0.17072539145667864" />
        <Con id="218" src="76" tgt="141" wght="-0.17411671431242851" />
        <Con id="219" src="77" tgt="141" wght="1.3154836759638469" />
        <Con id="220" src="78" tgt="141" wght="0.49224487402509381" />
        <Con id="222" src="80" tgt="141" wght="4.7463600526502825" />
        <Con id="223" src="81" tgt="141" wght="-4.9975058629392617" />
        <Con id="229" src="87" tgt="141" wght="0.616533725425244" />
        <Con id="232" src="90" tgt="141" wght="1.176859366449" />
        <Con id="249" src="107" tgt="141" wght="-3.5461101648923767" />
        <Con id="252" src="110" tgt="141" wght="1.7459020839816866" />
        <Con id="254" src="112" tgt="141" wght="0.30310907850224728" />
        <Con id="264" src="122" tgt="141" wght="1.32920149088054" />
        <Con id="271" src="129" tgt="141" wght="-3.8833049889658544" />
        <Con id="280" src="138" tgt="141" wght="3.5286459906894363" />
        <Con id="283" src="114" tgt="141" wght="-1.8751420581877782" />
        <Con id="284" src="97" tgt="141" wght="1.446215229169765" />
        <Con id="294" src="119" tgt="141" wght="-0.96967918204821912" />
        <Con id="295" src="60" tgt="141" wght="3.30766956256828" />
        <Con id="296" src="96" tgt="141" wght="0.2106559048712453" />
        <Con id="302" src="47" tgt="141" wght="-0.00016410167167309891" />
        <Con id="303" src="105" tgt="141" wght="2.1657315194831863" />
        <Con id="310" src="85" tgt="141" wght="4.361139415150503" />
        <Con id="311" src="9" tgt="141" wght="0.12182244823899008" />
        <Con id="313" src="127" tgt="141" wght="-0.6799741581074763" />
        <Con id="322" src="72" tgt="141" wght="2.333138979437567" />
        <Con id="323" src="140" tgt="141" wght="0.083106610725897118" />
        <Con id="327" src="117" tgt="141" wght="-3.0365477083495693" />
        <Con id="329" src="134" tgt="141" wght="0.21291674529266449" />
        <Con id="345" src="30" tgt="141" wght="-3.0991829966439832" />
        <Con id="347" src="139" tgt="141" wght="-4.9542859149476515" />
        <Con id="348" src="51" tgt="141" wght="-2.5546299416529967" />
        <Con id="360" src="84" tgt="141" wght="0.1310234141985534" />
        <Con id="361" src="88" tgt="141" wght="-0.35861556866153405" />
        <Con id="363" src="42" tgt="141" wght="-1.9219566062388607" />
        <Con id="364" src="50" tgt="141" wght="4.2684169729839576" />
        <Con id="365" src="70" tgt="141" wght="4.293929803478532" />
        <Con id="373" src="94" tgt="141" wght="-5" />
        <Con id="375" src="120" tgt="141" wght="1.4158582809997111" />
        <Con id="381" src="93" tgt="141" wght="-1.7677925729593187" />
        <Con id="382" src="54" tgt="141" wght="-2.3649975295885803" />
        <Con id="383" src="125" tgt="141" wght="-0.5442415082012928" />
        <Con id="400" src="86" tgt="141" wght="-4.9969795731824007" />
        <Con id="403" src="121" tgt="141" wght="1.2335637270174864" />
        <Con id="407" src="68" tgt="141" wght="2.7458533961773823" />
        <Con id="408" src="65" tgt="141" wght="1.7608755634209283" />
        <Con id="409" src="98" tgt="141" wght="4.0872736430219438" />
        <Con id="415" src="29" tgt="141" wght="1.4915157042828064" />
        <Con id="416" src="130" tgt="141" wght="5" />
        <Con id="419" src="63" tgt="141" wght="-2.0267250087970319" />
        <Con id="421" src="59" tgt="141" wght="0.90811415310679977" />
        <Con id="423" src="83" tgt="141" wght="-1.0871616673933253" />
        <Con id="424" src="58" tgt="141" wght="0.26554253206035783" />
        <Con id="427" src="61" tgt="141" wght="-3.9198979936179748" />
        <Con id="429" src="38" tgt="141" wght="-2.7945302443375848" />
        <Con id="431" src="74" tgt="430" wght="-1.6726530223849319" />
        <Con id="432" src="430" tgt="141" wght="-0.99376357343849608" />
        <Con id="434" src="135" tgt="141" wght="0.23308748012079525" />
        <Con id="435" src="132" tgt="141" wght="-1.7088246857324636" />
        <Con id="442" src="100" tgt="141" wght="0.25552804468125784" />
        <Con id="448" src="67" tgt="141" wght="-2.4299705505827718" />
        <Con id="449" src="43" tgt="141" wght="-0.7616293835299297" />
        <Con id="453" src="95" tgt="141" wght="4.4981519482488022" />
        <Con id="454" src="118" tgt="141" wght="0.10332521424131891" />
        <Con id="459" src="39" tgt="141" wght="1.3711911552721936" />
        <Con id="466" src="137" tgt="430" wght="3.6870573896485728" />
        <Con id="471" src="16" tgt="141" wght="-0.00043720633378832108" />
        <Con id="477" src="99" tgt="141" wght="3.4247772433472292" />
        <Con id="481" src="3" tgt="141" wght="-1.409494428027368" />
        <Con id="498" src="127" tgt="497" wght="-0.42145500952950127" />
        <Con id="499" src="497" tgt="141" wght="-4.9829977849207658" />
        <Con id="501" src="75" tgt="141" wght="-2.4112741457682465" />
        <Con id="502" src="8" tgt="430" wght="-0.47622555387216964" />
        <Con id="516" src="45" tgt="141" wght="-1.744653158990827" />
        <Con id="517" src="110" tgt="430" wght="0.85696714464575052" />
        <Con id="518" src="108" tgt="141" wght="-2.1412621468821831" />
        <Con id="523" src="54" tgt="430" wght="5" />
        <Con id="524" src="71" tgt="430" wght="4.8481823467077483" />
        <Con id="531" src="62" tgt="141" wght="-4.11610703876256" />
        <Con id="532" src="124" tgt="141" wght="2.6582802624536441" />
        <Con id="535" src="123" tgt="430" wght="-4.9903103539434275" />
        <Con id="536" src="0" tgt="430" wght="-2.7551843991821263" />
        <Con id="554" src="126" tgt="430" wght="4.8328878478555612" />
        <Con id="564" src="72" tgt="430" wght="1.7565390312425646" />
        <Con id="572" src="91" tgt="430" wght="-4.3053057943491728" />
        <Con id="573" src="9" tgt="430" wght="-2.0713476156208857" />
        <Con id="575" src="56" tgt="430" wght="0.53241378567197284" />
        <Con id="579" src="63" tgt="430" wght="1.5779121831072478" />
        <Con id="580" src="31" tgt="430" wght="0.45603429425863817" />
        <Con id="588" src="87" tgt="430" wght="-1.7865180969700782" />
        <Con id="604" src="125" tgt="603" wght="-5" />
        <Con id="605" src="603" tgt="141" wght="-1.8594634673910424" />
        <Con id="606" src="119" tgt="430" wght="-3.086319478121168" />
        <Con id="610" src="130" tgt="430" wght="1.4548411821297795" />
        <Con id="614" src="79" tgt="497" wght="-1.565538339619615" />
        <Con id="615" src="19" tgt="430" wght="-1.2971125573927909" />
        <Con id="616" src="27" tgt="497" wght="-0.43830341067667772" />
        <Con id="621" src="119" tgt="497" wght="-2.5718803987780747" />
        <Con id="630" src="64" tgt="430" wght="1.12632215614526" />
        <Con id="638" src="29" tgt="430" wght="-0.72355192193153384" />
        <Con id="641" src="78" tgt="640" wght="-2.4068226786849829" />
        <Con id="642" src="640" tgt="141" wght="3.0170993753311821" />
        <Con id="643" src="114" tgt="497" wght="3.9872127041427472" />
        <Con id="645" src="127" tgt="644" wght="0.13426559049339887" />
        <Con id="646" src="644" tgt="497" wght="-1.8658907830654408" />
        <Con id="647" src="90" tgt="430" wght="-1.7986428042086664" />
        <Con id="656" src="61" tgt="655" wght="-4.9595064630735166" />
        <Con id="657" src="655" tgt="141" wght="-2.54814096747235" />
        <Con id="664" src="82" tgt="497" wght="3.8785064183750153" />
        <Con id="679" src="35" tgt="430" wght="0.3688080552827866" />
        <Con id="680" src="33" tgt="430" wght="-2.2214478983620021" />
        <Con id="684" src="114" tgt="430" wght="-5" />
        <Con id="694" src="46" tgt="430" wght="-1.6656526499473443" />
        <Con id="706" src="66" tgt="603" wght="-1.5813254797831178" />
        <Con id="718" src="85" tgt="430" wght="1.9415648913740524" />
        <Con id="724" src="68" tgt="640" wght="3.8628002795804668" />
        <Con id="726" src="65" tgt="430" wght="-5" />
        <Con id="731" src="134" tgt="730" wght="-4.9909620823064866" />
        <Con id="732" src="730" tgt="141" wght="5" />
        <Con id="733" src="127" tgt="430" wght="-4.9938493794759857" />
        <Con id="746" src="83" tgt="497" wght="-2.0227314643943819" />
        <Con id="757" src="16" tgt="430" wght="3.3230466354359067" />
        <Con id="760" src="24" tgt="430" wght="-3.3993078720437939" />
        <Con id="762" src="136" tgt="430" wght="-0.76083892523916885" />
        <Con id="764" src="106" tgt="640" wght="-1.8636035551626091" />
        <Con id="779" src="94" tgt="430" wght="1.174511534246852" />
        <Con id="781" src="12" tgt="430" wght="-5" />
        <Con id="789" src="4" tgt="430" wght="-0.69838431797416189" />
        <Con id="790" src="80" tgt="497" wght="-0.74733386100371069" />
        <Con id="816" src="70" tgt="497" wght="3.4858776518010921" />
        <Con id="833" src="112" tgt="430" wght="-2.6610166617743891" />
        <Con id="843" src="108" tgt="497" wght="3.634563858397589" />
        <Con id="855" src="76" tgt="854" wght="0.640399086474467" />
        <Con id="856" src="854" tgt="141" wght="4.8140677838286168" />
        <Con id="877" src="77" tgt="497" wght="-0.91434918045268732" />
        <Con id="879" src="137" tgt="497" wght="1.8751265264836361" />
        <Con id="880" src="78" tgt="430" wght="4.3340201674085943" />
        <Con id="885" src="30" tgt="497" wght="5" />
        <Con id="888" src="55" tgt="887" wght="-2.4809443914752172" />
        <Con id="889" src="887" tgt="141" wght="3.229864089061266" />
        <Con id="894" src="113" tgt="497" wght="-2.8411635707384448" />
        <Con id="913" src="39" tgt="497" wght="-2.4296889598031304" />
        <Con id="918" src="113" tgt="640" wght="2.3011384523189458" />
        <Con id="926" src="20" tgt="497" wght="3.2874337909433251" />
        <Con id="934" src="57" tgt="640" wght="-2.6980788330009542" />
        <Con id="936" src="73" tgt="640" wght="-5" />
        <Con id="938" src="107" tgt="730" wght="3.9370426597225885" />
        <Con id="939" src="27" tgt="430" wght="4.4252289118972472" />
        <Con id="967" src="33" tgt="640" wght="2.0745557100105811" />
        <Con id="978" src="14" tgt="430" wght="1.4261556302202594" />
        <Con id="984" src="111" tgt="497" wght="-2.7732480096260015" />
        <Con id="985" src="35" tgt="497" wght="-3.5539427201084233" />
        <Con id="987" src="25" tgt="497" wght="0.78728976090628089" />
        <Con id="1011" src="126" tgt="497" wght="1.8775102248597171" />
        <Con id="1027" src="53" tgt="497" wght="4.5852168361336831" />
        <Con id="1055" src="39" tgt="644" wght="-0.41239696914359342" />
        <Con id="1065" src="133" tgt="603" wght="2.5640246725060685" />
        <Con id="1068" src="72" tgt="497" wght="5" />
        <Con id="1070" src="133" tgt="497" wght="-3.5574068421886933" />
        <Con id="1072" src="120" tgt="1071" wght="4.98004241602735" />
        <Con id="1073" src="1071" tgt="141" wght="-3.1551136526542649" />
        <Con id="1103" src="5" tgt="730" wght="-1.804542026876427" />
        <Con id="1106" src="120" tgt="603" wght="-2.5847593745779376" />
        <Con id="1114" src="95" tgt="497" wght="-5" />
        <Con id="1152" src="48" tgt="640" wght="-4.98230092716364" />
        <Con id="1154" src="122" tgt="730" wght="0.91925258553335043" />
        <Con id="1164" src="44" tgt="730" wght="-2.8318909785069861" />
        <Con id="1193" src="34" tgt="497" wght="-1.5866164814388997" />
        <Con id="1210" src="19" tgt="854" wght="-2.031739124365437" />
        <Con id="1260" src="92" tgt="497" wght="3.7043809256311029" />
        <Con id="1271" src="36" tgt="854" wght="-1.8717892051032305" />
        <Con id="1278" src="113" tgt="854" wght="-1.8227018275130291" />
        <Con id="1280" src="84" tgt="640" wght="-3.3812174653964457" />
        <Con id="1310" src="55" tgt="430" wght="5" />
        <Con id="1327" src="60" tgt="640" wght="-1.3855003240468851" />
        <Con id="1363" src="86" tgt="655" wght="5" />
        <Con id="1383" src="129" tgt="640" wght="4.9395409502066485" />
        <Con id="1407" src="92" tgt="644" wght="-5" />
        <Con id="1451" src="103" tgt="854" wght="1.7584003722657571" />
        <Con id="1508" src="135" tgt="854" wght="-1.3554381704142879" />
        <Con id="1520" src="46" tgt="655" wght="2.0263598411043824" />
        <Con id="1524" src="102" tgt="644" wght="-5" />
        <Con id="1551" src="81" tgt="640" wght="-0.75791821195878051" />
        <Con id="1626" src="80" tgt="655" wght="2.0173223447135151" />
        <Con id="1741" src="137" tgt="887" wght="-4.8027523920623212" />
        <Con id="1744" src="887" tgt="603" wght="-4.3154148744925553" />
        <Con id="1786" src="46" tgt="730" wght="5" />
        <Con id="1864" src="138" tgt="644" wght="-1.8496165148958139" />
        <Con id="1904" src="72" tgt="644" wght="-4.2708162676582715" />
        <Con id="1939" src="105" tgt="730" wght="3.6578450949377785" />
        <Con id="1941" src="91" tgt="854" wght="-4.9287506287007394" />
        <Con id="2134" src="136" tgt="854" wght="-4.699805929366593" />
        <Con id="2140" src="0" tgt="2139" wght="4.1948254888363579" />
        <Con id="2141" src="2139" tgt="141" wght="5" />
        <Con id="2201" src="644" tgt="1071" wght="-2.5657951118051763" />
        <Con id="2216" src="136" tgt="887" wght="1.4108993037529303" />
        <Con id="2297" src="109" tgt="730" wght="5" />
        <Con id="2307" src="53" tgt="887" wght="-1.6239417504517473" />
        <Con id="2319" src="12" tgt="655" wght="-5" />
        <Con id="2402" src="81" tgt="1071" wght="4.707820831014736" />
      </Connections>
    </Network>
  </Networks>
</Root>