<?xml version="1.0" encoding="utf-8"?>
<Root>
  <ActivationFunctions>
    <Fn id="0" name="PlainSigmoid" prob="1" />
  </ActivationFunctions>
  <Networks>
    <Network id="1721087" birthGen="21479" fitness="0.77055154256917713">
      <Nodes>
        <Node type="bias" id="0" />
        <Node type="in" id="1" />
        <Node type="in" id="2" />
        <Node type="in" id="3" />
        <Node type="in" id="4" />
        <Node type="in" id="5" />
        <Node type="in" id="6" />
        <Node type="in" id="7" />
        <Node type="in" id="8" />
        <Node type="in" id="9" />
        <Node type="in" id="10" />
        <Node type="in" id="11" />
        <Node type="in" id="12" />
        <Node type="in" id="13" />
        <Node type="in" id="14" />
        <Node type="in" id="15" />
        <Node type="in" id="16" />
        <Node type="in" id="17" />
        <Node type="in" id="18" />
        <Node type="in" id="19" />
        <Node type="in" id="20" />
        <Node type="in" id="21" />
        <Node type="in" id="22" />
        <Node type="in" id="23" />
        <Node type="in" id="24" />
        <Node type="in" id="25" />
        <Node type="in" id="26" />
        <Node type="in" id="27" />
        <Node type="in" id="28" />
        <Node type="in" id="29" />
        <Node type="in" id="30" />
        <Node type="in" id="31" />
        <Node type="in" id="32" />
        <Node type="in" id="33" />
        <Node type="in" id="34" />
        <Node type="in" id="35" />
        <Node type="in" id="36" />
        <Node type="in" id="37" />
        <Node type="in" id="38" />
        <Node type="in" id="39" />
        <Node type="in" id="40" />
        <Node type="in" id="41" />
        <Node type="in" id="42" />
        <Node type="in" id="43" />
        <Node type="in" id="44" />
        <Node type="in" id="45" />
        <Node type="in" id="46" />
        <Node type="in" id="47" />
        <Node type="in" id="48" />
        <Node type="in" id="49" />
        <Node type="in" id="50" />
        <Node type="in" id="51" />
        <Node type="in" id="52" />
        <Node type="in" id="53" />
        <Node type="in" id="54" />
        <Node type="in" id="55" />
        <Node type="in" id="56" />
        <Node type="in" id="57" />
        <Node type="in" id="58" />
        <Node type="in" id="59" />
        <Node type="in" id="60" />
        <Node type="in" id="61" />
        <Node type="in" id="62" />
        <Node type="in" id="63" />
        <Node type="in" id="64" />
        <Node type="in" id="65" />
        <Node type="in" id="66" />
        <Node type="in" id="67" />
        <Node type="in" id="68" />
        <Node type="in" id="69" />
        <Node type="in" id="70" />
        <Node type="in" id="71" />
        <Node type="in" id="72" />
        <Node type="in" id="73" />
        <Node type="in" id="74" />
        <Node type="in" id="75" />
        <Node type="in" id="76" />
        <Node type="in" id="77" />
        <Node type="in" id="78" />
        <Node type="in" id="79" />
        <Node type="in" id="80" />
        <Node type="in" id="81" />
        <Node type="in" id="82" />
        <Node type="in" id="83" />
        <Node type="in" id="84" />
        <Node type="in" id="85" />
        <Node type="in" id="86" />
        <Node type="in" id="87" />
        <Node type="in" id="88" />
        <Node type="in" id="89" />
        <Node type="in" id="90" />
        <Node type="in" id="91" />
        <Node type="in" id="92" />
        <Node type="in" id="93" />
        <Node type="in" id="94" />
        <Node type="in" id="95" />
        <Node type="in" id="96" />
        <Node type="in" id="97" />
        <Node type="in" id="98" />
        <Node type="in" id="99" />
        <Node type="in" id="100" />
        <Node type="in" id="101" />
        <Node type="in" id="102" />
        <Node type="in" id="103" />
        <Node type="in" id="104" />
        <Node type="in" id="105" />
        <Node type="in" id="106" />
        <Node type="in" id="107" />
        <Node type="in" id="108" />
        <Node type="in" id="109" />
        <Node type="in" id="110" />
        <Node type="in" id="111" />
        <Node type="in" id="112" />
        <Node type="in" id="113" />
        <Node type="out" id="114" />
      </Nodes>
      <Connections>
        <Con id="118" src="3" tgt="114" wght="-0.5604292359277846" />
        <Con id="121" src="6" tgt="114" wght="-0.0011866668187332338" />
        <Con id="123" src="8" tgt="114" wght="-0.0029164203491302493" />
        <Con id="124" src="9" tgt="114" wght="0.013197835682030232" />
        <Con id="127" src="12" tgt="114" wght="0.26676996089660643" />
        <Con id="131" src="16" tgt="114" wght="0.002392366831317245" />
        <Con id="133" src="18" tgt="114" wght="-0.12010292767220432" />
        <Con id="134" src="19" tgt="114" wght="-0.20322957828271229" />
        <Con id="136" src="21" tgt="114" wght="-0.0017538546446495514" />
        <Con id="140" src="25" tgt="114" wght="-0.19950343612417365" />
        <Con id="141" src="26" tgt="114" wght="-0.0077595471123053719" />
        <Con id="142" src="27" tgt="114" wght="0.013389815417501949" />
        <Con id="143" src="28" tgt="114" wght="-0.17624311813542126" />
        <Con id="145" src="30" tgt="114" wght="0.061124156851847813" />
        <Con id="149" src="34" tgt="114" wght="-0.25132514030266473" />
        <Con id="150" src="35" tgt="114" wght="-1.7077013287475689" />
        <Con id="152" src="37" tgt="114" wght="-0.39450291750208605" />
        <Con id="153" src="38" tgt="114" wght="-1.1084484578163685" />
        <Con id="154" src="39" tgt="114" wght="-0.30427566284863322" />
        <Con id="155" src="40" tgt="114" wght="-0.43476186705793007" />
        <Con id="156" src="41" tgt="114" wght="0.31470511710279686" />
        <Con id="161" src="46" tgt="114" wght="-0.31072210216487317" />
        <Con id="166" src="51" tgt="114" wght="-1.2339525910217084" />
        <Con id="168" src="53" tgt="114" wght="-1.1257618865259884" />
        <Con id="170" src="55" tgt="114" wght="-1.3136263983865848" />
        <Con id="171" src="56" tgt="114" wght="0.057321948225822927" />
        <Con id="174" src="59" tgt="114" wght="-1.9722500559901786" />
        <Con id="176" src="61" tgt="114" wght="-1.8284363252770659" />
        <Con id="178" src="63" tgt="114" wght="-0.13343457211882923" />
        <Con id="179" src="64" tgt="114" wght="-0.8757022352105448" />
        <Con id="181" src="66" tgt="114" wght="-0.67450977712319737" />
        <Con id="182" src="67" tgt="114" wght="-0.47147769029362946" />
        <Con id="183" src="68" tgt="114" wght="-1.7815890370362319" />
        <Con id="187" src="72" tgt="114" wght="-0.18577110982777534" />
        <Con id="190" src="75" tgt="114" wght="-0.28118107733592668" />
        <Con id="192" src="77" tgt="114" wght="-0.25402152061852912" />
        <Con id="194" src="79" tgt="114" wght="-0.39122640180476775" />
        <Con id="198" src="83" tgt="114" wght="-0.79203949142040353" />
        <Con id="200" src="85" tgt="114" wght="-1.4613077234167688" />
        <Con id="201" src="86" tgt="114" wght="-0.33611393657186467" />
        <Con id="202" src="87" tgt="114" wght="-0.20669326836287272" />
        <Con id="204" src="89" tgt="114" wght="-0.5385528068108093" />
        <Con id="206" src="91" tgt="114" wght="-1.1096151671320631" />
        <Con id="217" src="102" tgt="114" wght="-0.48523577109223576" />
        <Con id="219" src="104" tgt="114" wght="0.053842849950615286" />
        <Con id="221" src="106" tgt="114" wght="-0.55859392555399179" />
        <Con id="225" src="110" tgt="114" wght="-1.26540272237811" />
        <Con id="226" src="111" tgt="114" wght="-1.2064764516573372" />
        <Con id="227" src="112" tgt="114" wght="-1.7275768246078032" />
        <Con id="228" src="113" tgt="114" wght="-0.84578901227624" />
        <Con id="229" src="49" tgt="114" wght="-0.60438324939323473" />
        <Con id="231" src="98" tgt="114" wght="-0.63824100655412552" />
        <Con id="232" src="101" tgt="114" wght="0.16691697399649769" />
        <Con id="235" src="96" tgt="114" wght="-1.8145641264740544" />
        <Con id="237" src="58" tgt="114" wght="-2.1028831660396752" />
        <Con id="238" src="92" tgt="114" wght="-1.7732227228704611" />
        <Con id="241" src="43" tgt="114" wght="-1.0573430848785232" />
        <Con id="243" src="48" tgt="114" wght="-1.7213907826881565" />
        <Con id="244" src="44" tgt="114" wght="-2.1109444822011119" />
        <Con id="246" src="70" tgt="114" wght="-0.20806696942875039" />
        <Con id="248" src="78" tgt="114" wght="-1.5413680382856598" />
        <Con id="249" src="93" tgt="114" wght="-1.2465009780314453" />
        <Con id="250" src="0" tgt="114" wght="-0.020943656686705579" />
        <Con id="251" src="107" tgt="114" wght="-1.8729522537286432" />
        <Con id="254" src="47" tgt="114" wght="-0.49770708929058516" />
        <Con id="255" src="36" tgt="114" wght="0.02888182931028084" />
        <Con id="256" src="103" tgt="114" wght="-0.99323878852467384" />
        <Con id="260" src="57" tgt="114" wght="-1.1670642761220298" />
        <Con id="261" src="31" tgt="114" wght="-2.1699129386481864" />
        <Con id="271" src="50" tgt="114" wght="-1.0172857449435877" />
        <Con id="273" src="42" tgt="114" wght="-0.48933445411504334" />
        <Con id="274" src="97" tgt="114" wght="-0.56082842908482078" />
        <Con id="279" src="108" tgt="114" wght="-0.48292406465743115" />
        <Con id="283" src="52" tgt="114" wght="-9.3316855862521017E-05" />
        <Con id="284" src="69" tgt="114" wght="-0.16842763378847075" />
        <Con id="285" src="71" tgt="114" wght="-0.97075487845443009" />
        <Con id="288" src="76" tgt="114" wght="-0.98887627148405777" />
        <Con id="289" src="74" tgt="114" wght="0.036240251519110783" />
        <Con id="290" src="4" tgt="114" wght="0.098880859466068741" />
        <Con id="291" src="105" tgt="114" wght="-0.04664568895860137" />
        <Con id="299" src="65" tgt="114" wght="-1.7487350234971997" />
        <Con id="302" src="94" tgt="114" wght="-2.0971826155054329" />
        <Con id="313" src="88" tgt="114" wght="-0.90544926272441351" />
        <Con id="314" src="81" tgt="114" wght="-0.95844307141299245" />
        <Con id="317" src="22" tgt="114" wght="0.086626149713993073" />
        <Con id="318" src="84" tgt="114" wght="-0.74168437926383768" />
        <Con id="320" src="32" tgt="114" wght="-0.41423771724282993" />
        <Con id="322" src="29" tgt="114" wght="-0.52587218761574672" />
        <Con id="327" src="11" tgt="114" wght="0.27104545830720372" />
        <Con id="330" src="99" tgt="114" wght="-0.96527541935635008" />
        <Con id="337" src="90" tgt="114" wght="-1.5017189355235465" />
        <Con id="338" src="54" tgt="114" wght="-2.1346968553831629" />
        <Con id="340" src="62" tgt="114" wght="-0.36974216710667845" />
        <Con id="349" src="33" tgt="114" wght="-2.1056682587296693" />
        <Con id="354" src="45" tgt="114" wght="-0.542509400406774" />
        <Con id="355" src="20" tgt="114" wght="0.12554528367408679" />
        <Con id="359" src="73" tgt="114" wght="-1.26611713523313" />
        <Con id="368" src="82" tgt="114" wght="0.39149372688938328" />
        <Con id="370" src="109" tgt="114" wght="-0.56899103738378232" />
        <Con id="383" src="80" tgt="114" wght="-0.10125803039625134" />
        <Con id="384" src="60" tgt="114" wght="-0.66055304703158857" />
        <Con id="392" src="100" tgt="114" wght="-0.31313436001182643" />
      </Connections>
    </Network>
  </Networks>
</Root>