<?xml version="1.0" encoding="utf-8"?>
<Root>
  <ActivationFunctions>
    <Fn id="0" name="PlainSigmoid" prob="1" />
  </ActivationFunctions>
  <Networks>
    <Network id="426249" birthGen="5267" fitness="0.77912753327846418">
      <Nodes>
        <Node type="bias" id="0" />
        <Node type="in" id="1" />
        <Node type="in" id="2" />
        <Node type="in" id="3" />
        <Node type="in" id="4" />
        <Node type="in" id="5" />
        <Node type="in" id="6" />
        <Node type="in" id="7" />
        <Node type="in" id="8" />
        <Node type="in" id="9" />
        <Node type="in" id="10" />
        <Node type="in" id="11" />
        <Node type="in" id="12" />
        <Node type="in" id="13" />
        <Node type="in" id="14" />
        <Node type="in" id="15" />
        <Node type="in" id="16" />
        <Node type="in" id="17" />
        <Node type="in" id="18" />
        <Node type="in" id="19" />
        <Node type="in" id="20" />
        <Node type="in" id="21" />
        <Node type="in" id="22" />
        <Node type="in" id="23" />
        <Node type="in" id="24" />
        <Node type="in" id="25" />
        <Node type="in" id="26" />
        <Node type="in" id="27" />
        <Node type="in" id="28" />
        <Node type="in" id="29" />
        <Node type="in" id="30" />
        <Node type="in" id="31" />
        <Node type="in" id="32" />
        <Node type="in" id="33" />
        <Node type="in" id="34" />
        <Node type="in" id="35" />
        <Node type="in" id="36" />
        <Node type="in" id="37" />
        <Node type="in" id="38" />
        <Node type="in" id="39" />
        <Node type="in" id="40" />
        <Node type="in" id="41" />
        <Node type="in" id="42" />
        <Node type="in" id="43" />
        <Node type="in" id="44" />
        <Node type="in" id="45" />
        <Node type="in" id="46" />
        <Node type="in" id="47" />
        <Node type="in" id="48" />
        <Node type="in" id="49" />
        <Node type="in" id="50" />
        <Node type="in" id="51" />
        <Node type="in" id="52" />
        <Node type="in" id="53" />
        <Node type="in" id="54" />
        <Node type="in" id="55" />
        <Node type="in" id="56" />
        <Node type="in" id="57" />
        <Node type="in" id="58" />
        <Node type="in" id="59" />
        <Node type="in" id="60" />
        <Node type="in" id="61" />
        <Node type="in" id="62" />
        <Node type="in" id="63" />
        <Node type="in" id="64" />
        <Node type="in" id="65" />
        <Node type="in" id="66" />
        <Node type="in" id="67" />
        <Node type="in" id="68" />
        <Node type="in" id="69" />
        <Node type="in" id="70" />
        <Node type="in" id="71" />
        <Node type="in" id="72" />
        <Node type="in" id="73" />
        <Node type="in" id="74" />
        <Node type="in" id="75" />
        <Node type="in" id="76" />
        <Node type="in" id="77" />
        <Node type="in" id="78" />
        <Node type="in" id="79" />
        <Node type="in" id="80" />
        <Node type="in" id="81" />
        <Node type="in" id="82" />
        <Node type="in" id="83" />
        <Node type="in" id="84" />
        <Node type="in" id="85" />
        <Node type="in" id="86" />
        <Node type="in" id="87" />
        <Node type="in" id="88" />
        <Node type="in" id="89" />
        <Node type="in" id="90" />
        <Node type="in" id="91" />
        <Node type="in" id="92" />
        <Node type="in" id="93" />
        <Node type="in" id="94" />
        <Node type="in" id="95" />
        <Node type="in" id="96" />
        <Node type="in" id="97" />
        <Node type="in" id="98" />
        <Node type="in" id="99" />
        <Node type="in" id="100" />
        <Node type="in" id="101" />
        <Node type="in" id="102" />
        <Node type="in" id="103" />
        <Node type="in" id="104" />
        <Node type="in" id="105" />
        <Node type="in" id="106" />
        <Node type="in" id="107" />
        <Node type="in" id="108" />
        <Node type="in" id="109" />
        <Node type="in" id="110" />
        <Node type="in" id="111" />
        <Node type="in" id="112" />
        <Node type="in" id="113" />
        <Node type="in" id="114" />
        <Node type="in" id="115" />
        <Node type="in" id="116" />
        <Node type="in" id="117" />
        <Node type="in" id="118" />
        <Node type="in" id="119" />
        <Node type="in" id="120" />
        <Node type="in" id="121" />
        <Node type="in" id="122" />
        <Node type="in" id="123" />
        <Node type="in" id="124" />
        <Node type="in" id="125" />
        <Node type="in" id="126" />
        <Node type="in" id="127" />
        <Node type="in" id="128" />
        <Node type="in" id="129" />
        <Node type="in" id="130" />
        <Node type="in" id="131" />
        <Node type="in" id="132" />
        <Node type="in" id="133" />
        <Node type="in" id="134" />
        <Node type="in" id="135" />
        <Node type="in" id="136" />
        <Node type="in" id="137" />
        <Node type="in" id="138" />
        <Node type="in" id="139" />
        <Node type="in" id="140" />
        <Node type="out" id="141" />
      </Nodes>
      <Connections>
        <Con id="152" src="10" tgt="141" wght="-0.082890379509087453" />
        <Con id="162" src="20" tgt="141" wght="-0.39406786630105933" />
        <Con id="165" src="23" tgt="141" wght="0.00014918093582736011" />
        <Con id="166" src="24" tgt="141" wght="0.00041747090624500653" />
        <Con id="177" src="35" tgt="141" wght="0.57538714640996724" />
        <Con id="179" src="37" tgt="141" wght="-0.092882730229171956" />
        <Con id="187" src="45" tgt="141" wght="-1.0478254605229538" />
        <Con id="190" src="48" tgt="141" wght="0.019329013058367314" />
        <Con id="192" src="50" tgt="141" wght="1.0979938336899784" />
        <Con id="199" src="57" tgt="141" wght="-0.45308846029692629" />
        <Con id="204" src="62" tgt="141" wght="-0.062111321564308965" />
        <Con id="205" src="63" tgt="141" wght="-0.41412409216653856" />
        <Con id="209" src="67" tgt="141" wght="-0.70040887850471623" />
        <Con id="212" src="70" tgt="141" wght="0.71439599252715258" />
        <Con id="219" src="77" tgt="141" wght="0.49065311590032196" />
        <Con id="225" src="83" tgt="141" wght="0.014721648084983788" />
        <Con id="230" src="88" tgt="141" wght="-0.12359492656723747" />
        <Con id="234" src="92" tgt="141" wght="-0.37385973687876123" />
        <Con id="248" src="106" tgt="141" wght="0.25830346923483077" />
        <Con id="250" src="108" tgt="141" wght="-0.1466032167126497" />
        <Con id="262" src="120" tgt="141" wght="0.10155574025429943" />
        <Con id="263" src="121" tgt="141" wght="0.14233568703084429" />
        <Con id="268" src="126" tgt="141" wght="-0.550191151827344" />
        <Con id="269" src="127" tgt="141" wght="0.010167539181379512" />
        <Con id="271" src="129" tgt="141" wght="-0.26444736675198116" />
        <Con id="272" src="130" tgt="141" wght="1.2418948615260459" />
        <Con id="279" src="137" tgt="141" wght="0.036386121687196488" />
        <Con id="283" src="100" tgt="141" wght="0.057880607632246193" />
        <Con id="285" src="26" tgt="141" wght="0.12886278854265512" />
        <Con id="286" src="44" tgt="141" wght="0.30870081020689177" />
        <Con id="289" src="84" tgt="141" wght="-0.15373412234244177" />
        <Con id="290" src="9" tgt="141" wght="0.11500078027499361" />
        <Con id="291" src="27" tgt="141" wght="0.046038202398330008" />
        <Con id="292" src="131" tgt="141" wght="0.45444163073274535" />
        <Con id="294" src="112" tgt="141" wght="0.055306583696542656" />
        <Con id="295" src="89" tgt="141" wght="-0.040105295437327729" />
        <Con id="296" src="47" tgt="141" wght="-0.089792709745115357" />
        <Con id="298" src="34" tgt="141" wght="0.780795132741332" />
        <Con id="299" src="41" tgt="141" wght="-1.4876056200180923" />
        <Con id="300" src="116" tgt="141" wght="0.12195890169658441" />
        <Con id="301" src="11" tgt="141" wght="0.15740826732970459" />
        <Con id="302" src="64" tgt="141" wght="-0.069548999670961481" />
        <Con id="303" src="82" tgt="141" wght="-0.0711127506122532" />
        <Con id="304" src="7" tgt="141" wght="-0.0063884656890701545" />
        <Con id="305" src="68" tgt="141" wght="0.85691054228729979" />
        <Con id="306" src="75" tgt="141" wght="-0.66520644431048159" />
        <Con id="307" src="78" tgt="141" wght="-0.03863183890887939" />
        <Con id="308" src="33" tgt="141" wght="0.35172100435246684" />
        <Con id="309" src="102" tgt="141" wght="-0.13692202377245058" />
        <Con id="310" src="39" tgt="141" wght="0.78904160480157048" />
        <Con id="312" src="113" tgt="141" wght="0.68790582930328592" />
        <Con id="313" src="40" tgt="141" wght="-0.527499977581604" />
        <Con id="314" src="117" tgt="141" wght="-0.42681301353392026" />
        <Con id="316" src="123" tgt="141" wght="-0.029827879629525843" />
        <Con id="317" src="22" tgt="141" wght="-0.10265636947262519" />
        <Con id="319" src="74" tgt="141" wght="-0.12863964796250549" />
        <Con id="320" src="58" tgt="141" wght="-0.25406733809936227" />
        <Con id="321" src="12" tgt="141" wght="0.18712677185185231" />
        <Con id="322" src="133" tgt="141" wght="-0.09498230974296526" />
        <Con id="323" src="90" tgt="141" wght="0.22226010751383254" />
        <Con id="324" src="72" tgt="141" wght="-0.15434678195083124" />
        <Con id="325" src="98" tgt="141" wght="0.56544434011721045" />
        <Con id="326" src="42" tgt="141" wght="-0.14930072623030519" />
        <Con id="329" src="60" tgt="141" wght="0.32878980345583575" />
        <Con id="330" src="79" tgt="141" wght="0.368827429322893" />
        <Con id="331" src="91" tgt="141" wght="0.056486968918026542" />
        <Con id="332" src="65" tgt="141" wght="0.42848813334346103" />
        <Con id="333" src="95" tgt="141" wght="1.8418743344608979" />
        <Con id="334" src="0" tgt="141" wght="0.037241431902828692" />
        <Con id="336" src="105" tgt="141" wght="0.26829358570409256" />
        <Con id="337" src="114" tgt="141" wght="-0.54039483027348711" />
        <Con id="339" src="107" tgt="141" wght="-0.29805717543260135" />
        <Con id="340" src="110" tgt="141" wght="-0.26750993952144264" />
        <Con id="341" src="87" tgt="141" wght="0.0056042958272932188" />
        <Con id="343" src="99" tgt="141" wght="1.1515169319688858" />
        <Con id="344" src="132" tgt="141" wght="-0.24627644118163394" />
        <Con id="345" src="111" tgt="141" wght="0.475509250536561" />
        <Con id="346" src="93" tgt="141" wght="-0.11058140556693197" />
        <Con id="348" src="54" tgt="141" wght="-0.66427513876542088" />
        <Con id="350" src="29" tgt="141" wght="0.31629758421331644" />
        <Con id="351" src="56" tgt="141" wght="0.10397481114738122" />
        <Con id="354" src="25" tgt="141" wght="1.1028122986449829" />
        <Con id="355" src="30" tgt="141" wght="-0.78286429889505615" />
        <Con id="356" src="71" tgt="141" wght="-0.018341872595414126" />
        <Con id="357" src="66" tgt="141" wght="-0.15515557436452" />
        <Con id="358" src="104" tgt="141" wght="-0.59501411278323091" />
        <Con id="360" src="81" tgt="141" wght="-0.73387173940529182" />
        <Con id="361" src="109" tgt="141" wght="-0.00033266594673051278" />
        <Con id="363" src="134" tgt="141" wght="-0.24493267272281474" />
        <Con id="364" src="136" tgt="141" wght="-0.27689765241047848" />
        <Con id="365" src="73" tgt="141" wght="-0.098975139856408184" />
        <Con id="366" src="61" tgt="141" wght="-0.650161689454652" />
        <Con id="367" src="5" tgt="141" wght="-0.1435886717665936" />
        <Con id="369" src="122" tgt="141" wght="-0.1569648000462478" />
        <Con id="370" src="28" tgt="141" wght="0.26523932006343137" />
        <Con id="371" src="96" tgt="141" wght="-0.0040157999027874685" />
        <Con id="373" src="97" tgt="141" wght="0.16139368371183602" />
        <Con id="374" src="49" tgt="141" wght="-0.20447130662630908" />
        <Con id="375" src="3" tgt="141" wght="-0.35503689659181187" />
        <Con id="377" src="17" tgt="141" wght="0.023491740271679797" />
        <Con id="380" src="125" tgt="141" wght="0.058368093454848169" />
        <Con id="383" src="38" tgt="141" wght="0.034409703915999366" />
        <Con id="384" src="53" tgt="141" wght="-1.2109003961086273" />
        <Con id="385" src="15" tgt="141" wght="0.010002715054100737" />
        <Con id="386" src="101" tgt="141" wght="0.71277052365632" />
        <Con id="387" src="36" tgt="141" wght="-0.10201296106082267" />
        <Con id="388" src="128" tgt="141" wght="-0.17173428057242068" />
        <Con id="389" src="43" tgt="141" wght="-0.12615503680972423" />
        <Con id="391" src="19" tgt="141" wght="-0.084363372515674981" />
        <Con id="393" src="51" tgt="141" wght="-0.22620194285616205" />
        <Con id="394" src="103" tgt="141" wght="-0.039699058180864208" />
        <Con id="395" src="119" tgt="141" wght="-0.77959979244216115" />
        <Con id="396" src="94" tgt="141" wght="-1.10535836150254" />
        <Con id="397" src="85" tgt="141" wght="1.0453306950514338" />
        <Con id="398" src="52" tgt="141" wght="0.21300080977102318" />
        <Con id="399" src="124" tgt="141" wght="1.0219392635024578" />
        <Con id="400" src="55" tgt="141" wght="-0.12924521964918981" />
        <Con id="401" src="69" tgt="141" wght="-0.41724563555478988" />
        <Con id="402" src="135" tgt="141" wght="0.54446286146468426" />
        <Con id="403" src="118" tgt="141" wght="0.099260714413712259" />
        <Con id="404" src="6" tgt="141" wght="-0.003099678529726705" />
        <Con id="406" src="32" tgt="141" wght="-0.18518257806724447" />
        <Con id="408" src="138" tgt="141" wght="0.53007023291843169" />
        <Con id="410" src="80" tgt="141" wght="1.1742466102377209" />
        <Con id="411" src="76" tgt="141" wght="0.16603659983780436" />
        <Con id="412" src="4" tgt="141" wght="-0.047417606284808733" />
        <Con id="414" src="31" tgt="141" wght="-0.77154228473611941" />
        <Con id="418" src="115" tgt="141" wght="-0.0642372836249598" />
        <Con id="419" src="46" tgt="141" wght="-0.12035045817035411" />
        <Con id="420" src="86" tgt="141" wght="-0.81432969777953679" />
      </Connections>
    </Network>
  </Networks>
</Root>