<?xml version="1.0" encoding="utf-8"?>
<Root>
  <ActivationFunctions>
    <Fn id="0" name="PlainSigmoid" prob="1" />
  </ActivationFunctions>
  <Networks>
    <Network id="855476" birthGen="10559" fitness="0.7923052037367273">
      <Nodes>
        <Node type="bias" id="0" />
        <Node type="in" id="1" />
        <Node type="in" id="2" />
        <Node type="in" id="3" />
        <Node type="in" id="4" />
        <Node type="in" id="5" />
        <Node type="in" id="6" />
        <Node type="in" id="7" />
        <Node type="in" id="8" />
        <Node type="in" id="9" />
        <Node type="in" id="10" />
        <Node type="in" id="11" />
        <Node type="in" id="12" />
        <Node type="in" id="13" />
        <Node type="in" id="14" />
        <Node type="in" id="15" />
        <Node type="in" id="16" />
        <Node type="in" id="17" />
        <Node type="in" id="18" />
        <Node type="in" id="19" />
        <Node type="in" id="20" />
        <Node type="in" id="21" />
        <Node type="in" id="22" />
        <Node type="in" id="23" />
        <Node type="in" id="24" />
        <Node type="in" id="25" />
        <Node type="in" id="26" />
        <Node type="in" id="27" />
        <Node type="in" id="28" />
        <Node type="in" id="29" />
        <Node type="in" id="30" />
        <Node type="in" id="31" />
        <Node type="in" id="32" />
        <Node type="in" id="33" />
        <Node type="in" id="34" />
        <Node type="in" id="35" />
        <Node type="in" id="36" />
        <Node type="in" id="37" />
        <Node type="in" id="38" />
        <Node type="in" id="39" />
        <Node type="in" id="40" />
        <Node type="in" id="41" />
        <Node type="in" id="42" />
        <Node type="in" id="43" />
        <Node type="in" id="44" />
        <Node type="in" id="45" />
        <Node type="in" id="46" />
        <Node type="in" id="47" />
        <Node type="in" id="48" />
        <Node type="in" id="49" />
        <Node type="in" id="50" />
        <Node type="in" id="51" />
        <Node type="in" id="52" />
        <Node type="in" id="53" />
        <Node type="in" id="54" />
        <Node type="in" id="55" />
        <Node type="in" id="56" />
        <Node type="in" id="57" />
        <Node type="in" id="58" />
        <Node type="in" id="59" />
        <Node type="in" id="60" />
        <Node type="in" id="61" />
        <Node type="in" id="62" />
        <Node type="in" id="63" />
        <Node type="in" id="64" />
        <Node type="in" id="65" />
        <Node type="in" id="66" />
        <Node type="in" id="67" />
        <Node type="in" id="68" />
        <Node type="in" id="69" />
        <Node type="in" id="70" />
        <Node type="in" id="71" />
        <Node type="in" id="72" />
        <Node type="in" id="73" />
        <Node type="in" id="74" />
        <Node type="in" id="75" />
        <Node type="in" id="76" />
        <Node type="in" id="77" />
        <Node type="in" id="78" />
        <Node type="in" id="79" />
        <Node type="in" id="80" />
        <Node type="in" id="81" />
        <Node type="in" id="82" />
        <Node type="in" id="83" />
        <Node type="in" id="84" />
        <Node type="in" id="85" />
        <Node type="in" id="86" />
        <Node type="in" id="87" />
        <Node type="in" id="88" />
        <Node type="in" id="89" />
        <Node type="in" id="90" />
        <Node type="in" id="91" />
        <Node type="in" id="92" />
        <Node type="in" id="93" />
        <Node type="in" id="94" />
        <Node type="in" id="95" />
        <Node type="in" id="96" />
        <Node type="in" id="97" />
        <Node type="in" id="98" />
        <Node type="in" id="99" />
        <Node type="in" id="100" />
        <Node type="in" id="101" />
        <Node type="in" id="102" />
        <Node type="in" id="103" />
        <Node type="in" id="104" />
        <Node type="in" id="105" />
        <Node type="in" id="106" />
        <Node type="in" id="107" />
        <Node type="in" id="108" />
        <Node type="in" id="109" />
        <Node type="in" id="110" />
        <Node type="in" id="111" />
        <Node type="in" id="112" />
        <Node type="in" id="113" />
        <Node type="in" id="114" />
        <Node type="in" id="115" />
        <Node type="in" id="116" />
        <Node type="in" id="117" />
        <Node type="in" id="118" />
        <Node type="in" id="119" />
        <Node type="in" id="120" />
        <Node type="in" id="121" />
        <Node type="in" id="122" />
        <Node type="in" id="123" />
        <Node type="in" id="124" />
        <Node type="in" id="125" />
        <Node type="in" id="126" />
        <Node type="in" id="127" />
        <Node type="in" id="128" />
        <Node type="in" id="129" />
        <Node type="in" id="130" />
        <Node type="in" id="131" />
        <Node type="in" id="132" />
        <Node type="in" id="133" />
        <Node type="in" id="134" />
        <Node type="in" id="135" />
        <Node type="in" id="136" />
        <Node type="in" id="137" />
        <Node type="in" id="138" />
        <Node type="in" id="139" />
        <Node type="in" id="140" />
        <Node type="out" id="141" />
      </Nodes>
      <Connections>
        <Con id="160" src="18" tgt="141" wght="-0.09936307190400244" />
        <Con id="162" src="20" tgt="141" wght="-0.19422112929270122" />
        <Con id="165" src="23" tgt="141" wght="0.0015064692266513681" />
        <Con id="195" src="53" tgt="141" wght="-0.48787579933947633" />
        <Con id="220" src="78" tgt="141" wght="0.013068217207737556" />
        <Con id="223" src="81" tgt="141" wght="-0.73815868655510652" />
        <Con id="235" src="93" tgt="141" wght="-0.479760274915046" />
        <Con id="244" src="102" tgt="141" wght="-0.19086608518428305" />
        <Con id="270" src="128" tgt="141" wght="-0.011876986854282658" />
        <Con id="283" src="46" tgt="141" wght="0.0727313814700763" />
        <Con id="284" src="32" tgt="141" wght="-0.22902105954789811" />
        <Con id="285" src="103" tgt="141" wght="0.015132577846494123" />
        <Con id="286" src="0" tgt="141" wght="-0.15663120974018249" />
        <Con id="289" src="117" tgt="141" wght="-0.45583291829844375" />
        <Con id="290" src="134" tgt="141" wght="-0.20393514730103013" />
        <Con id="291" src="72" tgt="141" wght="-0.022658774743693426" />
        <Con id="292" src="49" tgt="141" wght="-0.31028693843142469" />
        <Con id="293" src="35" tgt="141" wght="0.3286565854388519" />
        <Con id="294" src="114" tgt="141" wght="-0.54089995158307091" />
        <Con id="295" src="52" tgt="141" wght="-0.048345190691709568" />
        <Con id="296" src="44" tgt="141" wght="0.3399964302545142" />
        <Con id="297" src="121" tgt="141" wght="0.16864912940391502" />
        <Con id="298" src="37" tgt="141" wght="-0.024152196494677064" />
        <Con id="299" src="99" tgt="141" wght="0.63127324405367591" />
        <Con id="300" src="11" tgt="141" wght="0.043624817179566067" />
        <Con id="301" src="138" tgt="141" wght="0.65903421381018634" />
        <Con id="304" src="131" tgt="141" wght="0.30892055431835475" />
        <Con id="305" src="70" tgt="141" wght="0.59458998273939634" />
        <Con id="306" src="124" tgt="141" wght="0.69303377201534644" />
        <Con id="307" src="136" tgt="141" wght="0.012139532449584302" />
        <Con id="308" src="50" tgt="141" wght="0.70513308486869308" />
        <Con id="309" src="27" tgt="141" wght="0.02144847460663829" />
        <Con id="310" src="33" tgt="141" wght="0.25322839220466248" />
        <Con id="311" src="116" tgt="141" wght="-0.086267901759167168" />
        <Con id="312" src="61" tgt="141" wght="-0.32882121855389146" />
        <Con id="313" src="39" tgt="141" wght="0.50466290937769764" />
        <Con id="314" src="84" tgt="141" wght="-0.36915462698713891" />
        <Con id="316" src="83" tgt="141" wght="-0.032586734008031262" />
        <Con id="317" src="7" tgt="141" wght="-0.0092058470064324844" />
        <Con id="318" src="10" tgt="141" wght="0.010946991497247475" />
        <Con id="319" src="130" tgt="141" wght="0.964135208427728" />
        <Con id="320" src="120" tgt="141" wght="0.083427665075470073" />
        <Con id="321" src="123" tgt="141" wght="0.21246568986751263" />
        <Con id="322" src="80" tgt="141" wght="0.80319486602627332" />
        <Con id="323" src="51" tgt="141" wght="-0.49270354245708109" />
        <Con id="325" src="95" tgt="141" wght="0.94106934407061382" />
        <Con id="326" src="22" tgt="141" wght="0.022917825717236696" />
        <Con id="327" src="113" tgt="141" wght="0.3743889910455932" />
        <Con id="328" src="26" tgt="141" wght="0.025400593568346459" />
        <Con id="329" src="140" tgt="141" wght="0.1230004417532716" />
        <Con id="330" src="105" tgt="141" wght="0.27289045974612236" />
        <Con id="331" src="59" tgt="141" wght="0.20397241644933833" />
        <Con id="334" src="107" tgt="141" wght="-0.31968156303659234" />
        <Con id="335" src="41" tgt="141" wght="-0.82651865597908769" />
        <Con id="337" src="69" tgt="141" wght="-0.38423065001145934" />
        <Con id="338" src="98" tgt="141" wght="0.31598994282161907" />
        <Con id="341" src="75" tgt="141" wght="-0.58095026405263739" />
        <Con id="343" src="8" tgt="141" wght="0.0017815625271734026" />
        <Con id="344" src="66" tgt="141" wght="0.024852334596108725" />
        <Con id="345" src="62" tgt="141" wght="-0.67234221485865731" />
        <Con id="346" src="4" tgt="141" wght="0.035300576000266246" />
        <Con id="347" src="106" tgt="141" wght="-0.020145570832831985" />
        <Con id="348" src="40" tgt="141" wght="-0.18594154972689114" />
        <Con id="351" src="3" tgt="141" wght="-0.3613449088792689" />
        <Con id="352" src="43" tgt="141" wght="-0.18351205073868845" />
        <Con id="353" src="12" tgt="141" wght="0.2422197283760337" />
        <Con id="354" src="34" tgt="141" wght="0.6844810879258455" />
        <Con id="355" src="63" tgt="141" wght="-0.30189753434192507" />
        <Con id="356" src="28" tgt="141" wght="-0.18690976286962188" />
        <Con id="357" src="115" tgt="141" wght="0.017640113151769166" />
        <Con id="358" src="89" tgt="141" wght="-0.53754850143189459" />
        <Con id="360" src="126" tgt="141" wght="-0.35801443076760719" />
        <Con id="361" src="58" tgt="141" wght="0.1079126210459216" />
        <Con id="362" src="31" tgt="141" wght="-0.74564566936092858" />
        <Con id="363" src="60" tgt="141" wght="0.3409338300429115" />
        <Con id="364" src="97" tgt="141" wght="0.12030289665119498" />
        <Con id="365" src="119" tgt="141" wght="0.022449912855866838" />
        <Con id="366" src="9" tgt="141" wght="0.031419623610827029" />
        <Con id="367" src="88" tgt="141" wght="-0.12466619316773833" />
        <Con id="368" src="71" tgt="141" wght="-0.1370038199035277" />
        <Con id="369" src="17" tgt="141" wght="0.021277994593646442" />
        <Con id="370" src="100" tgt="141" wght="-0.092706870150353324" />
        <Con id="371" src="110" tgt="141" wght="-0.33454028636816679" />
        <Con id="372" src="101" tgt="141" wght="-0.64728399596286323" />
        <Con id="373" src="94" tgt="141" wght="-0.22884834945074978" />
        <Con id="374" src="118" tgt="141" wght="0.13239165935399172" />
        <Con id="375" src="65" tgt="141" wght="0.4013566199489681" />
        <Con id="376" src="139" tgt="141" wght="-0.036225905748611148" />
        <Con id="377" src="129" tgt="141" wght="-0.48391540396005778" />
        <Con id="378" src="109" tgt="141" wght="-0.31502763103524489" />
        <Con id="379" src="85" tgt="141" wght="0.72893632307323453" />
        <Con id="381" src="79" tgt="141" wght="0.22673008325516483" />
        <Con id="383" src="82" tgt="141" wght="0.0023407305473092466" />
        <Con id="384" src="125" tgt="141" wght="0.08142474191798485" />
        <Con id="385" src="91" tgt="141" wght="0.15141774149317347" />
        <Con id="386" src="90" tgt="141" wght="0.27240644732176267" />
        <Con id="388" src="73" tgt="141" wght="-0.094845872331825" />
        <Con id="389" src="5" tgt="141" wght="-0.090817368175002355" />
        <Con id="390" src="104" tgt="141" wght="-0.094322977055625284" />
        <Con id="391" src="86" tgt="141" wght="-0.53242465501413649" />
        <Con id="392" src="38" tgt="141" wght="-0.28285308410800547" />
        <Con id="393" src="68" tgt="141" wght="0.5435067944051809" />
        <Con id="394" src="67" tgt="141" wght="-0.52857301454703109" />
        <Con id="395" src="122" tgt="141" wght="0.20250890046524594" />
        <Con id="396" src="127" tgt="141" wght="-0.10867388771745035" />
        <Con id="397" src="19" tgt="141" wght="0.019647315335311558" />
        <Con id="398" src="76" tgt="141" wght="0.0969358568904503" />
        <Con id="399" src="135" tgt="141" wght="-0.26244846628460539" />
        <Con id="400" src="56" tgt="141" wght="0.22080829037824251" />
        <Con id="402" src="45" tgt="141" wght="-0.50999679198955084" />
        <Con id="403" src="132" tgt="141" wght="-0.38349252183974641" />
        <Con id="404" src="48" tgt="141" wght="-0.15968731786116191" />
        <Con id="405" src="15" tgt="141" wght="0.0037585780627346597" />
        <Con id="406" src="74" tgt="141" wght="-0.05381321659455067" />
        <Con id="409" src="92" tgt="141" wght="-0.40061628267906457" />
        <Con id="410" src="111" tgt="141" wght="-0.089832459364685063" />
        <Con id="411" src="108" tgt="141" wght="-0.31154258218816666" />
        <Con id="412" src="54" tgt="141" wght="-0.29635508750640316" />
        <Con id="413" src="29" tgt="141" wght="0.2154232795998236" />
        <Con id="414" src="25" tgt="141" wght="-0.18979406534884485" />
        <Con id="416" src="30" tgt="141" wght="-0.96112289261528849" />
        <Con id="418" src="42" tgt="141" wght="-0.13258251611670124" />
        <Con id="419" src="112" tgt="141" wght="0.21907782333740228" />
        <Con id="420" src="57" tgt="141" wght="-0.0628913507811094" />
        <Con id="421" src="55" tgt="141" wght="-0.12184350202123292" />
        <Con id="422" src="137" tgt="141" wght="0.013605669998377645" />
      </Connections>
    </Network>
  </Networks>
</Root>