<?xml version="1.0" encoding="utf-8"?>
<Root>
  <ActivationFunctions>
    <Fn id="0" name="PlainSigmoid" prob="1" />
  </ActivationFunctions>
  <Networks>
    <Network id="98011" birthGen="1223" fitness="0.75849793540603239">
      <Nodes>
        <Node type="bias" id="0" />
        <Node type="in" id="1" />
        <Node type="in" id="2" />
        <Node type="in" id="3" />
        <Node type="in" id="4" />
        <Node type="in" id="5" />
        <Node type="in" id="6" />
        <Node type="in" id="7" />
        <Node type="in" id="8" />
        <Node type="in" id="9" />
        <Node type="in" id="10" />
        <Node type="in" id="11" />
        <Node type="in" id="12" />
        <Node type="in" id="13" />
        <Node type="in" id="14" />
        <Node type="in" id="15" />
        <Node type="in" id="16" />
        <Node type="in" id="17" />
        <Node type="in" id="18" />
        <Node type="in" id="19" />
        <Node type="in" id="20" />
        <Node type="in" id="21" />
        <Node type="in" id="22" />
        <Node type="in" id="23" />
        <Node type="in" id="24" />
        <Node type="in" id="25" />
        <Node type="in" id="26" />
        <Node type="in" id="27" />
        <Node type="in" id="28" />
        <Node type="in" id="29" />
        <Node type="in" id="30" />
        <Node type="in" id="31" />
        <Node type="in" id="32" />
        <Node type="in" id="33" />
        <Node type="in" id="34" />
        <Node type="in" id="35" />
        <Node type="in" id="36" />
        <Node type="in" id="37" />
        <Node type="in" id="38" />
        <Node type="in" id="39" />
        <Node type="in" id="40" />
        <Node type="in" id="41" />
        <Node type="in" id="42" />
        <Node type="in" id="43" />
        <Node type="in" id="44" />
        <Node type="in" id="45" />
        <Node type="in" id="46" />
        <Node type="in" id="47" />
        <Node type="in" id="48" />
        <Node type="in" id="49" />
        <Node type="in" id="50" />
        <Node type="in" id="51" />
        <Node type="in" id="52" />
        <Node type="in" id="53" />
        <Node type="in" id="54" />
        <Node type="in" id="55" />
        <Node type="in" id="56" />
        <Node type="in" id="57" />
        <Node type="in" id="58" />
        <Node type="in" id="59" />
        <Node type="in" id="60" />
        <Node type="in" id="61" />
        <Node type="in" id="62" />
        <Node type="in" id="63" />
        <Node type="in" id="64" />
        <Node type="in" id="65" />
        <Node type="in" id="66" />
        <Node type="in" id="67" />
        <Node type="in" id="68" />
        <Node type="in" id="69" />
        <Node type="in" id="70" />
        <Node type="in" id="71" />
        <Node type="in" id="72" />
        <Node type="in" id="73" />
        <Node type="in" id="74" />
        <Node type="in" id="75" />
        <Node type="in" id="76" />
        <Node type="in" id="77" />
        <Node type="in" id="78" />
        <Node type="in" id="79" />
        <Node type="in" id="80" />
        <Node type="in" id="81" />
        <Node type="in" id="82" />
        <Node type="in" id="83" />
        <Node type="in" id="84" />
        <Node type="in" id="85" />
        <Node type="in" id="86" />
        <Node type="in" id="87" />
        <Node type="in" id="88" />
        <Node type="in" id="89" />
        <Node type="in" id="90" />
        <Node type="in" id="91" />
        <Node type="in" id="92" />
        <Node type="in" id="93" />
        <Node type="in" id="94" />
        <Node type="in" id="95" />
        <Node type="in" id="96" />
        <Node type="in" id="97" />
        <Node type="in" id="98" />
        <Node type="in" id="99" />
        <Node type="in" id="100" />
        <Node type="in" id="101" />
        <Node type="in" id="102" />
        <Node type="in" id="103" />
        <Node type="in" id="104" />
        <Node type="in" id="105" />
        <Node type="in" id="106" />
        <Node type="in" id="107" />
        <Node type="in" id="108" />
        <Node type="in" id="109" />
        <Node type="in" id="110" />
        <Node type="in" id="111" />
        <Node type="in" id="112" />
        <Node type="in" id="113" />
        <Node type="in" id="114" />
        <Node type="in" id="115" />
        <Node type="in" id="116" />
        <Node type="in" id="117" />
        <Node type="in" id="118" />
        <Node type="in" id="119" />
        <Node type="in" id="120" />
        <Node type="in" id="121" />
        <Node type="in" id="122" />
        <Node type="in" id="123" />
        <Node type="in" id="124" />
        <Node type="in" id="125" />
        <Node type="in" id="126" />
        <Node type="in" id="127" />
        <Node type="in" id="128" />
        <Node type="in" id="129" />
        <Node type="in" id="130" />
        <Node type="in" id="131" />
        <Node type="in" id="132" />
        <Node type="in" id="133" />
        <Node type="in" id="134" />
        <Node type="in" id="135" />
        <Node type="in" id="136" />
        <Node type="in" id="137" />
        <Node type="in" id="138" />
        <Node type="in" id="139" />
        <Node type="in" id="140" />
        <Node type="out" id="141" />
      </Nodes>
      <Connections>
        <Con id="146" src="4" tgt="141" wght="-0.10192838127291978" />
        <Con id="147" src="5" tgt="141" wght="-0.48679491587217355" />
        <Con id="155" src="13" tgt="141" wght="-0.003075810254187173" />
        <Con id="161" src="19" tgt="141" wght="0.014029997668341967" />
        <Con id="163" src="21" tgt="141" wght="0.0029532037358067382" />
        <Con id="168" src="26" tgt="141" wght="0.30506360837983532" />
        <Con id="177" src="35" tgt="141" wght="1.5091093079843894" />
        <Con id="190" src="48" tgt="141" wght="0.086439861887010874" />
        <Con id="209" src="67" tgt="141" wght="-1.9757026527243438" />
        <Con id="211" src="69" tgt="141" wght="-1.5701674070552056" />
        <Con id="214" src="72" tgt="141" wght="-0.2815980863407655" />
        <Con id="215" src="73" tgt="141" wght="-0.52299892726318487" />
        <Con id="222" src="80" tgt="141" wght="2.4823075143869522" />
        <Con id="225" src="83" tgt="141" wght="-1.0773244449893937" />
        <Con id="240" src="98" tgt="141" wght="1.9283630345261591" />
        <Con id="241" src="99" tgt="141" wght="2.4509794759395884" />
        <Con id="244" src="102" tgt="141" wght="-0.82428928539340551" />
        <Con id="246" src="104" tgt="141" wght="-1.0224687136389006" />
        <Con id="249" src="107" tgt="141" wght="-1.4573210532396614" />
        <Con id="254" src="112" tgt="141" wght="0.13444970732076714" />
        <Con id="264" src="122" tgt="141" wght="0.44662723326160558" />
        <Con id="272" src="130" tgt="141" wght="3.9152347190485264" />
        <Con id="276" src="134" tgt="141" wght="-0.44088133687591069" />
        <Con id="283" src="38" tgt="141" wght="-1.2526593984322039" />
        <Con id="284" src="137" tgt="141" wght="-0.39493546761005471" />
        <Con id="285" src="124" tgt="141" wght="1.7942494155561768" />
        <Con id="286" src="79" tgt="141" wght="0.69390083060930974" />
        <Con id="287" src="116" tgt="141" wght="0.65620524780957723" />
        <Con id="288" src="82" tgt="141" wght="-0.71318653000347842" />
        <Con id="289" src="78" tgt="141" wght="-0.0939922744870898" />
        <Con id="291" src="51" tgt="141" wght="-1.5935658613761192" />
        <Con id="292" src="93" tgt="141" wght="-0.99285664227867387" />
        <Con id="294" src="115" tgt="141" wght="0.29285135396212619" />
        <Con id="296" src="119" tgt="141" wght="-0.42746990434591536" />
        <Con id="297" src="84" tgt="141" wght="-0.679593547748792" />
        <Con id="298" src="40" tgt="141" wght="-0.7586154653105468" />
        <Con id="299" src="27" tgt="141" wght="0.083997229345664" />
        <Con id="301" src="36" tgt="141" wght="-0.33970804013510447" />
        <Con id="303" src="87" tgt="141" wght="0.27282709454250414" />
        <Con id="305" src="46" tgt="141" wght="0.067900583207351761" />
        <Con id="306" src="28" tgt="141" wght="-1.8624071265031641" />
        <Con id="307" src="135" tgt="141" wght="-0.040953927224995433" />
        <Con id="308" src="7" tgt="141" wght="-0.02226335030001525" />
        <Con id="310" src="74" tgt="141" wght="0.13814931877437089" />
        <Con id="311" src="131" tgt="141" wght="1.407762402720268" />
        <Con id="312" src="75" tgt="141" wght="-1.6899757750600364" />
        <Con id="313" src="121" tgt="141" wght="0.56134031662705819" />
        <Con id="314" src="81" tgt="141" wght="-3.1798414813666467" />
        <Con id="315" src="65" tgt="141" wght="1.6765774273874323" />
        <Con id="316" src="64" tgt="141" wght="0.0064175452291239665" />
        <Con id="318" src="10" tgt="141" wght="0.16231591728841363" />
        <Con id="319" src="66" tgt="141" wght="-0.39662569807274362" />
        <Con id="320" src="96" tgt="141" wght="0.34579843791846387" />
        <Con id="321" src="133" tgt="141" wght="0.94668770662071955" />
        <Con id="323" src="139" tgt="141" wght="0.011324928232816407" />
        <Con id="324" src="120" tgt="141" wght="0.18541705588434948" />
        <Con id="325" src="77" tgt="141" wght="0.8672073375401641" />
        <Con id="326" src="58" tgt="141" wght="0.37339321145848475" />
        <Con id="327" src="126" tgt="141" wght="-0.57873573497198294" />
        <Con id="328" src="43" tgt="141" wght="-0.711698959655565" />
        <Con id="330" src="3" tgt="141" wght="-1.0737903783236571" />
        <Con id="331" src="9" tgt="141" wght="0.0405483815224624" />
        <Con id="332" src="117" tgt="141" wght="-1.1092458581021039" />
        <Con id="333" src="70" tgt="141" wght="1.8393884276892738" />
        <Con id="335" src="22" tgt="141" wght="0.14586334178783106" />
        <Con id="336" src="37" tgt="141" wght="-0.058696281897135674" />
        <Con id="337" src="25" tgt="141" wght="-0.1487811531980566" />
        <Con id="339" src="95" tgt="141" wght="3.6952602372012318" />
        <Con id="340" src="39" tgt="141" wght="1.0948092693561717" />
        <Con id="341" src="56" tgt="141" wght="0.74968328839354359" />
        <Con id="343" src="42" tgt="141" wght="-0.593884333039769" />
        <Con id="345" src="44" tgt="141" wght="0.58172000553181014" />
        <Con id="346" src="61" tgt="141" wght="-2.0412270077877221" />
        <Con id="347" src="32" tgt="141" wght="-0.034100685445232808" />
        <Con id="348" src="136" tgt="141" wght="0.28224714189798827" />
        <Con id="349" src="123" tgt="141" wght="-0.39723574810533041" />
        <Con id="350" src="54" tgt="141" wght="-1.3439544392350933" />
        <Con id="351" src="12" tgt="141" wght="0.815237908537726" />
        <Con id="352" src="88" tgt="141" wght="-0.57488111313432455" />
        <Con id="353" src="59" tgt="141" wght="0.71800047727223393" />
        <Con id="355" src="49" tgt="141" wght="-1.2066985836141013" />
        <Con id="356" src="11" tgt="141" wght="0.35873358519892096" />
        <Con id="357" src="18" tgt="141" wght="-0.53336384388464608" />
        <Con id="358" src="127" tgt="141" wght="-0.71619946628483055" />
        <Con id="359" src="29" tgt="141" wght="0.19012743565510543" />
        <Con id="361" src="140" tgt="141" wght="-0.044324781683447285" />
        <Con id="362" src="45" tgt="141" wght="-1.6038742841286708" />
        <Con id="363" src="138" tgt="141" wght="1.4257390522117961" />
        <Con id="365" src="100" tgt="141" wght="-0.21436749562946084" />
        <Con id="366" src="114" tgt="141" wght="-1.3808014242887166" />
        <Con id="367" src="118" tgt="141" wght="0.84209783579146835" />
        <Con id="368" src="91" tgt="141" wght="-0.22024603628913392" />
        <Con id="369" src="60" tgt="141" wght="1.3321252727566331" />
        <Con id="370" src="113" tgt="141" wght="1.0312019272358839" />
        <Con id="371" src="76" tgt="141" wght="-0.0089442432946819778" />
        <Con id="372" src="103" tgt="141" wght="-0.058722369404912794" />
        <Con id="373" src="55" tgt="141" wght="-0.27901664875456933" />
        <Con id="377" src="106" tgt="141" wght="0.19064939168473782" />
        <Con id="378" src="129" tgt="141" wght="-1.8242579383341864" />
        <Con id="380" src="108" tgt="141" wght="-1.1493942833602657" />
        <Con id="382" src="63" tgt="141" wght="-0.98569725786732265" />
        <Con id="383" src="50" tgt="141" wght="2.4433643010557513" />
        <Con id="384" src="86" tgt="141" wght="-1.7675618568670006" />
        <Con id="385" src="92" tgt="141" wght="-0.81229624171251236" />
        <Con id="386" src="62" tgt="141" wght="-2.4497646156436423" />
        <Con id="387" src="109" tgt="141" wght="-0.50493208037616466" />
        <Con id="388" src="90" tgt="141" wght="1.5018844183670879" />
        <Con id="389" src="34" tgt="141" wght="1.8573488446600868" />
        <Con id="390" src="31" tgt="141" wght="-1.5659234409552749" />
        <Con id="391" src="20" tgt="141" wght="-1.1243264302917295" />
        <Con id="395" src="71" tgt="141" wght="-0.22025663955629615" />
        <Con id="398" src="68" tgt="141" wght="2.4667407846937963" />
        <Con id="399" src="132" tgt="141" wght="-1.170860574238026" />
        <Con id="400" src="105" tgt="141" wght="0.71169362458264018" />
        <Con id="401" src="125" tgt="141" wght="0.13587609264377953" />
        <Con id="403" src="94" tgt="141" wght="-1.5943280607461929" />
        <Con id="404" src="97" tgt="141" wght="1.1292476331296026" />
        <Con id="406" src="85" tgt="141" wght="3.0665541883991834" />
        <Con id="407" src="53" tgt="141" wght="-2.6450056846743095" />
        <Con id="408" src="110" tgt="141" wght="0.65376943799160925" />
        <Con id="409" src="47" tgt="141" wght="0.39620298636834594" />
        <Con id="410" src="30" tgt="141" wght="-3.3421347030393278" />
        <Con id="412" src="0" tgt="141" wght="-0.010332711876489542" />
        <Con id="413" src="33" tgt="141" wght="0.34869958692238945" />
        <Con id="414" src="57" tgt="141" wght="-0.63435416857845517" />
        <Con id="415" src="128" tgt="141" wght="0.58275632411227918" />
        <Con id="416" src="101" tgt="141" wght="0.67855240194267474" />
        <Con id="417" src="52" tgt="141" wght="-0.015364251388593174" />
        <Con id="418" src="41" tgt="141" wght="-3.2552244193831275" />
        <Con id="419" src="111" tgt="141" wght="0.33869500592396451" />
        <Con id="421" src="89" tgt="141" wght="-0.31680555194217952" />
        <Con id="422" src="17" tgt="141" wght="0.022281235019327019" />
      </Connections>
    </Network>
  </Networks>
</Root>